{"sizes":[135,32,16,1],"layers":[{"0":{},"1":{},"2":{},"3":{},"4":{},"5":{},"6":{},"7":{},"8":{},"9":{},"10":{},"11":{},"12":{},"13":{},"14":{},"15":{},"16":{},"17":{},"18":{},"19":{},"20":{},"21":{},"22":{},"23":{},"24":{},"25":{},"26":{},"27":{},"28":{},"29":{},"30":{},"31":{},"32":{},"33":{},"34":{},"35":{},"36":{},"37":{},"38":{},"39":{},"40":{},"41":{},"42":{},"43":{},"44":{},"45":{},"46":{},"47":{},"48":{},"49":{},"50":{},"51":{},"52":{},"53":{},"54":{},"55":{},"56":{},"57":{},"58":{},"59":{},"60":{},"61":{},"62":{},"63":{},"64":{},"65":{},"66":{},"67":{},"68":{},"69":{},"70":{},"71":{},"72":{},"73":{},"74":{},"75":{},"76":{},"77":{},"78":{},"79":{},"80":{},"81":{},"82":{},"83":{},"84":{},"85":{},"86":{},"87":{},"88":{},"89":{},"90":{},"91":{},"92":{},"93":{},"94":{},"95":{},"96":{},"97":{},"98":{},"99":{},"100":{},"101":{},"102":{},"103":{},"104":{},"105":{},"106":{},"107":{},"108":{},"109":{},"110":{},"111":{},"112":{},"113":{},"114":{},"115":{},"116":{},"117":{},"118":{},"119":{},"120":{},"121":{},"122":{},"123":{},"124":{},"125":{},"126":{},"127":{},"128":{},"129":{},"130":{},"131":{},"132":{},"133":{},"134":{}},{"0":{"bias":-3.118018865585327,"weights":{"0":1.6735528707504272,"1":-0.8618620038032532,"2":-1.1814721822738647,"3":-5.077451705932617,"4":1.1624118089675903,"5":3.4618165493011475,"6":-1.4375927448272705,"7":1.2858858108520508,"8":-1.7669703960418701,"9":-4.539111614227295,"10":3.2921342849731445,"11":-3.4118924140930176,"12":-0.43527960777282715,"13":0.6277481913566589,"14":-0.9010291695594788,"15":-0.573103129863739,"16":2.9519121646881104,"17":-0.43148505687713623,"18":-3.5980656147003174,"19":-2.257131814956665,"20":1.8575555086135864,"21":0.09380315989255905,"22":3.6819889545440674,"23":0.2222384810447693,"24":1.4615232944488525,"25":-0.11049181967973709,"26":1.8477880954742432,"27":-0.8372876048088074,"28":-1.9067221879959106,"29":-3.1589434146881104,"30":-1.065115213394165,"31":0.5811149477958679,"32":-3.106645107269287,"33":-0.11609546840190887,"34":-1.4606441259384155,"35":-2.445183515548706,"36":0.9469344019889832,"37":-2.5170199871063232,"38":0.2910584807395935,"39":-1.2309635877609253,"40":-3.9781949520111084,"41":3.007383346557617,"42":1.7266565561294556,"43":0.6461252570152283,"44":2.423126459121704,"45":3.141481399536133,"46":-4.059111595153809,"47":4.085229873657227,"48":3.435441732406616,"49":4.983002185821533,"50":2.3327181339263916,"51":-2.524868965148926,"52":1.1866379976272583,"53":-3.5398666858673096,"54":-0.5741329193115234,"55":4.482364654541016,"56":-0.15904968976974487,"57":-3.609142780303955,"58":-2.1598825454711914,"59":-0.6789145469665527,"60":-0.003946185111999512,"61":-2.023559331893921,"62":2.9489479064941406,"63":0.32626664638519287,"64":2.227621555328369,"65":1.8227877616882324,"66":-3.501415491104126,"67":-0.5725058913230896,"68":-2.6188836097717285,"69":0.4322480261325836,"70":0.7652764916419983,"71":0.4000338017940521,"72":4.667332649230957,"73":-3.4740869998931885,"74":-1.6283215284347534,"75":-2.2605509757995605,"76":1.1918038129806519,"77":0.7988551259040833,"78":0.4961512088775635,"79":-1.2299410104751587,"80":0.41549617052078247,"81":-6.912006855010986,"82":1.4887654781341553,"83":1.2080053091049194,"84":-2.810337781906128,"85":-2.5788426399230957,"86":4.366787910461426,"87":1.3471671342849731,"88":0.4246276021003723,"89":-2.391629219055176,"90":1.8781532049179077,"91":0.4444122314453125,"92":0.5053368210792542,"93":0.9707428216934204,"94":1.9130109548568726,"95":1.4650089740753174,"96":1.8502490520477295,"97":0.16034655272960663,"98":-3.857794761657715,"99":0.00853015948086977,"100":-0.7855433225631714,"101":-2.1471073627471924,"102":2.828144073486328,"103":0.8427607417106628,"104":0.2625071704387665,"105":-1.0601664781570435,"106":-1.7983812093734741,"107":-0.11378128081560135,"108":-5.754375457763672,"109":1.8084933757781982,"110":2.1478772163391113,"111":-4.113875389099121,"112":-2.2539234161376953,"113":1.4314544200897217,"114":-1.1091675758361816,"115":1.2999258041381836,"116":-3.2571802139282227,"117":0.1842331439256668,"118":3.374744176864624,"119":-3.213420867919922,"120":-3.2824509143829346,"121":-3.3626797199249268,"122":2.752333402633667,"123":1.3364325761795044,"124":0.1643172651529312,"125":2.412095785140991,"126":3.882931709289551,"127":0.14538215100765228,"128":-0.022397270426154137,"129":0.2095339447259903,"130":0.5430734753608704,"131":2.748231887817383,"132":-3.335465669631958,"133":2.041663408279419,"134":0.06627268344163895}},"1":{"bias":-5.943005561828613,"weights":{"0":-1.3347312211990356,"1":0.18258719146251678,"2":-2.407865285873413,"3":3.70209002494812,"4":-2.549452781677246,"5":-0.5882174968719482,"6":-1.562627911567688,"7":-1.3676553964614868,"8":-1.486035943031311,"9":-2.967594623565674,"10":-1.4439067840576172,"11":1.7151583433151245,"12":0.6080005168914795,"13":0.08545536547899246,"14":-3.798370838165283,"15":-0.6698076725006104,"16":0.4133720099925995,"17":3.558603525161743,"18":2.1735963821411133,"19":1.0844149589538574,"20":-2.2638728618621826,"21":0.14886243641376495,"22":-2.2765486240386963,"23":0.033175278455019,"24":-1.3951821327209473,"25":2.3325397968292236,"26":4.084870338439941,"27":2.335315465927124,"28":-0.7783817052841187,"29":-0.632479727268219,"30":-0.767548143863678,"31":-0.9236482381820679,"32":-1.0903706550598145,"33":1.255741000175476,"34":-1.3600614070892334,"35":-0.6229523420333862,"36":-2.0893852710723877,"37":-0.42197269201278687,"38":0.7014740705490112,"39":1.5085926055908203,"40":-0.11682655662298203,"41":2.3843791484832764,"42":-0.40696367621421814,"43":0.2783907353878021,"44":-1.2080024480819702,"45":-1.1851716041564941,"46":0.16247548162937164,"47":-1.4402191638946533,"48":-1.1856993436813354,"49":-1.04794442653656,"50":-0.10011834651231766,"51":-1.2916151285171509,"52":1.6626067161560059,"53":1.0595237016677856,"54":-0.9262524247169495,"55":-2.1953673362731934,"56":0.3967614471912384,"57":2.749861478805542,"58":-1.9366079568862915,"59":-0.04476025328040123,"60":-1.2897576093673706,"61":-0.820972204208374,"62":-0.5421550869941711,"63":1.0985970497131348,"64":-1.7849243879318237,"65":-1.855599045753479,"66":1.713454008102417,"67":1.6467869281768799,"68":1.829572081565857,"69":-0.3734896779060364,"70":1.3758680820465088,"71":2.7552056312561035,"72":-1.0337114334106445,"73":-0.46001002192497253,"74":-0.970314621925354,"75":1.79656982421875,"76":-0.6300157904624939,"77":-0.385285884141922,"78":-2.6578595638275146,"79":-1.809453010559082,"80":-2.8870277404785156,"81":-0.6497691869735718,"82":-0.9174334406852722,"83":-1.0743721723556519,"84":-1.3420040607452393,"85":1.8557727336883545,"86":-1.183793067932129,"87":-1.106271743774414,"88":0.22038708627223969,"89":0.35371047258377075,"90":-1.6153370141983032,"91":-1.0581387281417847,"92":0.2562510669231415,"93":3.0944721698760986,"94":-4.065302848815918,"95":0.920144259929657,"96":-0.5506911277770996,"97":0.11671065539121628,"98":2.4388110637664795,"99":-1.1082721948623657,"100":-1.2878711223602295,"101":1.971752643585205,"102":0.24691149592399597,"103":-0.39698877930641174,"104":0.14981192350387573,"105":-0.452273428440094,"106":-1.1484088897705078,"107":-0.08580152690410614,"108":0.42699119448661804,"109":-1.2186483144760132,"110":-0.61858731508255,"111":1.9753772020339966,"112":2.3001599311828613,"113":-0.6806018948554993,"114":-0.5690402984619141,"115":0.9764584898948669,"116":-1.2041419744491577,"117":0.14330318570137024,"118":-0.9039565920829773,"119":-0.016069283708930016,"120":-2.1014695167541504,"121":-1.326098918914795,"122":-0.04197181016206741,"123":-0.10533703118562698,"124":-0.3722756505012512,"125":0.6835224032402039,"126":0.37772369384765625,"127":-2.2073826789855957,"128":-0.6773561239242554,"129":-0.373686283826828,"130":-0.3411500155925751,"131":0.13842324912548065,"132":-1.7468210458755493,"133":0.7694724798202515,"134":0.1332111656665802}},"2":{"bias":-5.653697490692139,"weights":{"0":-1.2552392482757568,"1":3.3039472103118896,"2":0.6489360332489014,"3":3.7509758472442627,"4":-3.517906427383423,"5":-1.5308663845062256,"6":2.933016061782837,"7":-2.1206953525543213,"8":-0.06760995835065842,"9":-3.1436378955841064,"10":-1.4884952306747437,"11":0.9688947200775146,"12":0.42733609676361084,"13":-1.2396186590194702,"14":5.799642562866211,"15":0.8524975776672363,"16":-0.8053740859031677,"17":-2.1304469108581543,"18":-5.765958786010742,"19":-1.0974785089492798,"20":-2.027731418609619,"21":1.0165796279907227,"22":1.8633291721343994,"23":0.052174732089042664,"24":0.2952074408531189,"25":-2.6540350914001465,"26":0.4179992079734802,"27":-0.5473314523696899,"28":5.611949920654297,"29":-4.696331977844238,"30":4.882157802581787,"31":-0.6701182723045349,"32":-1.7314856052398682,"33":4.36736536026001,"34":-0.7442489862442017,"35":1.7747650146484375,"36":-1.7470057010650635,"37":-1.825492024421692,"38":0.36154600977897644,"39":3.292405366897583,"40":-1.1806837320327759,"41":-1.0402017831802368,"42":-1.8175125122070312,"43":-0.8516414761543274,"44":-2.258989095687866,"45":-6.531853675842285,"46":-0.1542365550994873,"47":-0.8066839575767517,"48":2.191016912460327,"49":0.08326486498117447,"50":-0.051614657044410706,"51":-0.23968838155269623,"52":-3.793252468109131,"53":0.8799117207527161,"54":-4.820166110992432,"55":-1.0138543844223022,"56":-1.9778763055801392,"57":4.109620094299316,"58":-0.9239597320556641,"59":-0.033556025475263596,"60":-1.8690818548202515,"61":-1.8598566055297852,"62":0.3963775932788849,"63":2.6632931232452393,"64":-1.799583077430725,"65":-2.4273335933685303,"66":-0.6543749570846558,"67":0.5471035838127136,"68":2.9936435222625732,"69":0.6995019912719727,"70":0.13621440529823303,"71":-2.7939536571502686,"72":-6.049890995025635,"73":1.6845731735229492,"74":3.977375030517578,"75":-2.235811948776245,"76":1.708403468132019,"77":1.431317687034607,"78":0.33791348338127136,"79":0.49280422925949097,"80":0.6554639935493469,"81":-3.2929744720458984,"82":0.32610729336738586,"83":-1.4310435056686401,"84":1.1978702545166016,"85":4.436664581298828,"86":0.7333212494850159,"87":-0.8518369793891907,"88":-1.9650222063064575,"89":4.676464080810547,"90":-0.9258840084075928,"91":-3.5361664295196533,"92":-5.414767265319824,"93":-2.0214295387268066,"94":0.3714890480041504,"95":2.7848691940307617,"96":0.9638833999633789,"97":-0.18200455605983734,"98":3.9609854221343994,"99":-3.139162302017212,"100":-5.806700229644775,"101":1.6862472295761108,"102":-0.980401873588562,"103":0.2525216042995453,"104":0.42398372292518616,"105":1.7908992767333984,"106":-0.00018907974299509078,"107":-0.007041013799607754,"108":-6.316328048706055,"109":-1.959714651107788,"110":2.0146572589874268,"111":-2.4955062866210938,"112":-3.4267349243164062,"113":-0.9462287425994873,"114":0.706505537033081,"115":-3.6361746788024902,"116":0.8936082720756531,"117":0.19173744320869446,"118":2.1567327976226807,"119":-0.41706210374832153,"120":0.44318729639053345,"121":1.0070172548294067,"122":3.1462717056274414,"123":1.0948622226715088,"124":0.06797442585229874,"125":2.2265400886535645,"126":-3.824904441833496,"127":-2.53861141204834,"128":6.13918924331665,"129":0.07700757682323456,"130":0.947701632976532,"131":-0.6167618632316589,"132":0.9165300130844116,"133":-2.2598564624786377,"134":-0.1517915427684784}},"3":{"bias":-6.180539608001709,"weights":{"0":4.353765487670898,"1":2.6266682147979736,"2":-2.858597993850708,"3":-3.3746397495269775,"4":-1.3162707090377808,"5":1.2677360773086548,"6":0.10825943201780319,"7":-0.2218140959739685,"8":0.9154569506645203,"9":-1.5256781578063965,"10":-1.7780011892318726,"11":-4.961291313171387,"12":-1.775148868560791,"13":2.1497538089752197,"14":-1.9457755088806152,"15":1.7117670774459839,"16":-0.13111065328121185,"17":-1.4391316175460815,"18":1.9360783100128174,"19":0.8334784507751465,"20":-1.3769029378890991,"21":-2.2511191368103027,"22":0.7269044518470764,"23":-0.06542078405618668,"24":3.9865286350250244,"25":-2.140444755554199,"26":-0.21195831894874573,"27":4.145206928253174,"28":-2.578012228012085,"29":0.4331454634666443,"30":-4.6731414794921875,"31":1.6800180673599243,"32":1.5396183729171753,"33":0.19460080564022064,"34":0.14924933016300201,"35":0.48784396052360535,"36":-0.4233439862728119,"37":-1.2230820655822754,"38":-3.049555540084839,"39":0.8052602410316467,"40":0.6028346419334412,"41":-1.064089059829712,"42":0.21389155089855194,"43":-0.8202557563781738,"44":1.7676596641540527,"45":1.6498603820800781,"46":0.45364248752593994,"47":-4.853181838989258,"48":-3.089383125305176,"49":0.014207316562533379,"50":-0.9719801545143127,"51":-0.5262401700019836,"52":1.6821167469024658,"53":0.2556751072406769,"54":0.6950663328170776,"55":-3.3485054969787598,"56":0.17681537568569183,"57":1.0057576894760132,"58":0.1576223075389862,"59":3.5777158737182617,"60":-3.809357166290283,"61":0.7020677328109741,"62":2.5267696380615234,"63":-0.8956096768379211,"64":0.49697771668434143,"65":0.22263453900814056,"66":4.471917152404785,"67":-0.242521733045578,"68":-4.521658420562744,"69":-2.207592725753784,"70":-0.7093591094017029,"71":-0.43317505717277527,"72":0.19618217647075653,"73":-1.325332522392273,"74":-2.6090497970581055,"75":-0.8786634802818298,"76":0.4993937015533447,"77":0.4194008708000183,"78":0.33615872263908386,"79":-1.0486754179000854,"80":-0.3889685869216919,"81":1.9451777935028076,"82":-3.470203399658203,"83":-0.6207998394966125,"84":-5.5408806800842285,"85":-1.652290940284729,"86":-1.3002046346664429,"87":-2.1683390140533447,"88":2.87919545173645,"89":1.7155851125717163,"90":1.0975449085235596,"91":-1.5181812047958374,"92":-0.6900671124458313,"93":1.4520881175994873,"94":2.4082694053649902,"95":-0.6294664144515991,"96":-0.9798764586448669,"97":-0.020655274391174316,"98":-2.2848398685455322,"99":1.9124724864959717,"100":-3.988215923309326,"101":-0.31305715441703796,"102":1.947023868560791,"103":-0.38831761479377747,"104":0.5065464377403259,"105":0.6760007739067078,"106":0.6617338061332703,"107":0.03205495700240135,"108":-1.388686180114746,"109":0.3586864173412323,"110":-0.6505589485168457,"111":0.25101789832115173,"112":0.4126596748828888,"113":-0.3713763356208801,"114":1.816954493522644,"115":0.6553668975830078,"116":0.1791766881942749,"117":0.013626322150230408,"118":-0.3059811592102051,"119":-1.4843732118606567,"120":-1.1351238489151,"121":-1.6478891372680664,"122":-2.004689931869507,"123":-0.45104432106018066,"124":-0.4159587025642395,"125":-0.33316439390182495,"126":-5.7330827713012695,"127":1.4726786613464355,"128":1.5091215372085571,"129":-0.04735200107097626,"130":-0.19418562948703766,"131":-0.4461980164051056,"132":0.7322099804878235,"133":1.2931344509124756,"134":0.0757410004734993}},"4":{"bias":-1.521779179573059,"weights":{"0":2.274003505706787,"1":-0.2728765606880188,"2":-0.29101723432540894,"3":-0.5975343585014343,"4":0.8780111074447632,"5":0.6262754797935486,"6":-0.6396983861923218,"7":-1.3417303562164307,"8":-3.2580888271331787,"9":0.414099782705307,"10":-1.0701020956039429,"11":1.02888023853302,"12":0.8238233327865601,"13":-3.173307418823242,"14":-2.1890859603881836,"15":0.6653759479522705,"16":-0.9009036421775818,"17":0.8623112440109253,"18":1.7675480842590332,"19":0.19883954524993896,"20":0.1023654118180275,"21":0.5735310912132263,"22":1.8440780639648438,"23":1.7520194053649902,"24":-2.061453342437744,"25":1.6454994678497314,"26":-0.5211330652236938,"27":-0.38613006472587585,"28":-0.4597746431827545,"29":0.48671984672546387,"30":2.3411099910736084,"31":0.30343952775001526,"32":3.185617446899414,"33":-1.2625439167022705,"34":0.7861121892929077,"35":-0.1808726042509079,"36":-0.5963465571403503,"37":0.5530649423599243,"38":0.8489972352981567,"39":-4.382016658782959,"40":-0.504448413848877,"41":-5.840489387512207,"42":4.805867671966553,"43":-0.06454761326313019,"44":1.0104188919067383,"45":-1.8637454509735107,"46":0.22338426113128662,"47":-1.1131843328475952,"48":-0.5911667943000793,"49":-0.1399323046207428,"50":1.5863198041915894,"51":-2.2859537601470947,"52":0.3270456790924072,"53":1.8705836534500122,"54":0.9204061627388,"55":4.572109222412109,"56":-0.46052655577659607,"57":5.51029109954834,"58":0.3692879378795624,"59":3.0834972858428955,"60":-4.7150092124938965,"61":-1.968688726425171,"62":-4.093810558319092,"63":0.9208124279975891,"64":-1.8576234579086304,"65":-2.725468397140503,"66":1.8865729570388794,"67":-11.350391387939453,"68":4.497894763946533,"69":2.4953231811523438,"70":3.5472471714019775,"71":-1.0452033281326294,"72":-0.17532844841480255,"73":1.606935739517212,"74":-3.899163007736206,"75":3.568739175796509,"76":2.311455726623535,"77":1.1416629552841187,"78":-2.6957809925079346,"79":-2.1835479736328125,"80":-0.5598737001419067,"81":7.749527931213379,"82":-0.6998932957649231,"83":-1.310511589050293,"84":-1.8625987768173218,"85":-5.030513763427734,"86":-0.9374861121177673,"87":0.8763583898544312,"88":-2.4195375442504883,"89":-2.895843029022217,"90":-2.340367555618286,"91":-0.7254760265350342,"92":-4.222667694091797,"93":4.2459397315979,"94":-1.7922182083129883,"95":4.238041400909424,"96":2.6285314559936523,"97":0.08761659264564514,"98":-3.9684247970581055,"99":2.677082061767578,"100":-5.289936542510986,"101":1.8859517574310303,"102":5.750465393066406,"103":1.9089329242706299,"104":0.30891433358192444,"105":-2.554694175720215,"106":2.1667282581329346,"107":0.1816166639328003,"108":-4.655344486236572,"109":0.6308462619781494,"110":1.8747977018356323,"111":1.1055476665496826,"112":-0.6976675987243652,"113":1.8551841974258423,"114":0.14129024744033813,"115":-4.158996105194092,"116":-4.091176509857178,"117":-0.005650668404996395,"118":0.042640190571546555,"119":-5.343689918518066,"120":2.1067047119140625,"121":1.9161254167556763,"122":3.332719087600708,"123":0.9277893900871277,"124":0.8223934173583984,"125":2.017399787902832,"126":0.5860778093338013,"127":2.7235894203186035,"128":1.3705283403396606,"129":0.5847664475440979,"130":0.8475820422172546,"131":-0.674598753452301,"132":-2.9339802265167236,"133":-1.754984974861145,"134":0.02924254909157753}},"5":{"bias":-2.4291772842407227,"weights":{"0":1.282020926475525,"1":-0.4369140863418579,"2":1.171793818473816,"3":-0.9008591771125793,"4":1.4119551181793213,"5":-0.9489020109176636,"6":-0.4964059591293335,"7":-0.5413845181465149,"8":-2.198901653289795,"9":-2.037036418914795,"10":0.2472994029521942,"11":-1.2072806358337402,"12":-2.056330680847168,"13":0.9277850389480591,"14":-0.8824285864830017,"15":-0.3318442106246948,"16":-1.1875115633010864,"17":1.9291571378707886,"18":1.5216764211654663,"19":0.4500356912612915,"20":-1.0364385843276978,"21":1.3452980518341064,"22":-0.94600909948349,"23":0.05313688889145851,"24":-0.7479243278503418,"25":-1.1819864511489868,"26":3.5638582706451416,"27":-0.3489193916320801,"28":1.403372883796692,"29":1.6984243392944336,"30":-0.15621323883533478,"31":-0.8729690313339233,"32":-0.5515491366386414,"33":-0.5622879266738892,"34":0.915587306022644,"35":-0.40550535917282104,"36":-0.6802322864532471,"37":0.5999428033828735,"38":-1.6172685623168945,"39":-3.3512306213378906,"40":0.8091410398483276,"41":1.8574830293655396,"42":0.13624241948127747,"43":0.685174286365509,"44":1.2718509435653687,"45":0.33269715309143066,"46":-3.5222361087799072,"47":-0.05241530016064644,"48":3.4771485328674316,"49":-0.0025047280360013247,"50":0.81403648853302,"51":-0.9973391890525818,"52":-0.37482747435569763,"53":-2.9512972831726074,"54":-0.20138032734394073,"55":0.1412861943244934,"56":-2.3428006172180176,"57":-0.6301369667053223,"58":1.1900707483291626,"59":-0.5178465843200684,"60":2.888380527496338,"61":-0.2366868108510971,"62":1.2823437452316284,"63":0.9755603075027466,"64":0.06305387616157532,"65":-2.0927011966705322,"66":-1.4741506576538086,"67":-3.615255355834961,"68":2.6820530891418457,"69":0.30878913402557373,"70":-0.09012051671743393,"71":1.3037008047103882,"72":-1.232619047164917,"73":0.1890335977077484,"74":0.5550656914710999,"75":-0.8468587398529053,"76":1.13126540184021,"77":0.07591317594051361,"78":-1.0423704385757446,"79":-0.0367908701300621,"80":-0.6144874691963196,"81":-0.007389894220978022,"82":-2.8559789657592773,"83":0.24202674627304077,"84":1.2628445625305176,"85":-0.03540407493710518,"86":0.4050527811050415,"87":-0.24109990894794464,"88":-0.6650494337081909,"89":0.010036651045084,"90":1.0148934125900269,"91":1.4706642627716064,"92":-0.1345299631357193,"93":-1.298431634902954,"94":-3.069448709487915,"95":1.5558819770812988,"96":0.26443928480148315,"97":-0.030217455700039864,"98":-0.6844782829284668,"99":-0.7351304888725281,"100":0.8079365491867065,"101":1.5816400051116943,"102":-0.6673118472099304,"103":0.09548254311084747,"104":0.06817410886287689,"105":0.183426171541214,"106":-0.5922020077705383,"107":-0.06097385287284851,"108":-1.9623630046844482,"109":0.4586654007434845,"110":0.7269607782363892,"111":-1.0476099252700806,"112":-0.3924599885940552,"113":0.9247190952301025,"114":-0.08442115783691406,"115":0.7704550623893738,"116":-1.6156986951828003,"117":0.06301737576723099,"118":0.13347014784812927,"119":1.2720073461532593,"120":-2.41538405418396,"121":-0.6267149448394775,"122":0.26119691133499146,"123":-0.08262220025062561,"124":0.20774108171463013,"125":1.3690601587295532,"126":1.6552784442901611,"127":-1.5652343034744263,"128":0.4316728115081787,"129":-0.05771932005882263,"130":-0.050149574875831604,"131":-0.0014309186954051256,"132":1.0175482034683228,"133":-2.46357798576355,"134":0.05191634222865105}},"6":{"bias":-3.489020347595215,"weights":{"0":-1.7719299793243408,"1":-0.05222754925489426,"2":-0.20693303644657135,"3":-0.4418344795703888,"4":-2.0264134407043457,"5":0.032188933342695236,"6":0.5310667753219604,"7":0.12982586026191711,"8":2.2494921684265137,"9":-1.4805351495742798,"10":-0.865073561668396,"11":0.7742070555686951,"12":-2.790358543395996,"13":1.0664470195770264,"14":0.4673648476600647,"15":-0.7425953149795532,"16":1.552802324295044,"17":-1.4341591596603394,"18":-1.048842430114746,"19":-0.5095860362052917,"20":1.1086727380752563,"21":3.3277103900909424,"22":0.32967907190322876,"23":-0.5775684714317322,"24":-0.07810744643211365,"25":0.8450462222099304,"26":-2.124178171157837,"27":-2.4972267150878906,"28":-1.00773286819458,"29":-2.714973211288452,"30":-0.4493020474910736,"31":-0.3686133623123169,"32":-0.13832888007164001,"33":1.6623271703720093,"34":-1.7096688747406006,"35":2.5333378314971924,"36":-1.2599601745605469,"37":2.1172356605529785,"38":-2.287172794342041,"39":-3.0909526348114014,"40":-0.09340274333953857,"41":-1.7423343658447266,"42":-0.5081034302711487,"43":0.3271887004375458,"44":1.3731235265731812,"45":-2.331474781036377,"46":0.2544723451137543,"47":0.5058216452598572,"48":4.728298187255859,"49":-0.3974025845527649,"50":-0.1035633534193039,"51":0.6383599638938904,"52":0.9423751831054688,"53":2.225663900375366,"54":0.3843109607696533,"55":0.764388382434845,"56":1.4814062118530273,"57":-1.5567933320999146,"58":1.1370270252227783,"59":-0.6635481119155884,"60":0.7812814116477966,"61":0.5194724202156067,"62":1.0144094228744507,"63":-0.5549235343933105,"64":0.18834979832172394,"65":-1.4543461799621582,"66":0.3246007263660431,"67":-2.42358660697937,"68":0.7173212766647339,"69":0.21806810796260834,"70":0.11315879225730896,"71":-2.6357805728912354,"72":-2.36785888671875,"73":-1.5658988952636719,"74":2.681304931640625,"75":-0.33002427220344543,"76":-0.20952776074409485,"77":-0.22891183197498322,"78":-0.48849543929100037,"79":-0.7290439009666443,"80":1.1499874591827393,"81":2.337400197982788,"82":-0.45473209023475647,"83":-0.7611679434776306,"84":-0.3759889006614685,"85":-3.2298567295074463,"86":-0.6330966949462891,"87":1.4929250478744507,"88":0.2286285161972046,"89":0.5665701031684875,"90":0.003368767211213708,"91":0.7341382503509521,"92":-0.4434072971343994,"93":2.664226770401001,"94":1.1110273599624634,"95":-0.7308197021484375,"96":-0.2499973177909851,"97":-0.15959881246089935,"98":-1.3691024780273438,"99":-3.207526683807373,"100":-4.489026069641113,"101":0.4431746006011963,"102":2.206272840499878,"103":-0.2690941393375397,"104":-0.27055367827415466,"105":2.181502103805542,"106":-1.2936866283416748,"107":0.05498524382710457,"108":-2.3610939979553223,"109":1.8368198871612549,"110":-0.5725686550140381,"111":1.4897527694702148,"112":2.266268253326416,"113":-0.2748534381389618,"114":-0.25339818000793457,"115":0.7141953110694885,"116":-1.7361894845962524,"117":-0.16426019370555878,"118":-0.46964383125305176,"119":-0.47819167375564575,"120":1.691785216331482,"121":0.4516620337963104,"122":-0.23022004961967468,"123":-0.14198757708072662,"124":-0.26858341693878174,"125":-1.1528971195220947,"126":-2.024946928024292,"127":0.6996583938598633,"128":-0.9651870131492615,"129":-0.09768832474946976,"130":-0.143600195646286,"131":-0.30825361609458923,"132":-2.1178417205810547,"133":0.173007532954216,"134":0.11970526725053787}},"7":{"bias":-1.3515044450759888,"weights":{"0":-0.5368221998214722,"1":1.2165228128433228,"2":1.5428409576416016,"3":1.2431621551513672,"4":1.1576943397521973,"5":4.323384761810303,"6":-1.10663640499115,"7":-1.9796785116195679,"8":-1.592699408531189,"9":-1.7632839679718018,"10":-0.207424595952034,"11":-0.6768395304679871,"12":-0.14869268238544464,"13":-3.812243938446045,"14":-2.594174861907959,"15":0.09057390689849854,"16":-0.6756564974784851,"17":0.5966790318489075,"18":0.7644018530845642,"19":2.074261426925659,"20":-3.1258535385131836,"21":2.206326484680176,"22":6.4145002365112305,"23":-0.7314773797988892,"24":-2.0022189617156982,"25":-3.324188709259033,"26":0.7641783356666565,"27":-0.23059169948101044,"28":0.4134044647216797,"29":2.2771496772766113,"30":-0.8264007568359375,"31":-1.5225856304168701,"32":0.5669042468070984,"33":-3.172482490539551,"34":0.16048024594783783,"35":-1.060571312904358,"36":1.7264620065689087,"37":1.5575125217437744,"38":3.6600027084350586,"39":-8.451956748962402,"40":-1.6932326555252075,"41":0.9615761637687683,"42":1.6599605083465576,"43":0.33058467507362366,"44":5.152258396148682,"45":2.559748411178589,"46":-5.375354766845703,"47":1.6723957061767578,"48":-4.106192588806152,"49":-0.16703899204730988,"50":0.7825788855552673,"51":-1.7224750518798828,"52":2.3904531002044678,"53":1.522124171257019,"54":-2.9140472412109375,"55":1.2073230743408203,"56":-0.6159448623657227,"57":4.647103309631348,"58":-2.961467981338501,"59":-0.5948455333709717,"60":2.8192617893218994,"61":-1.4605000019073486,"62":-5.345467567443848,"63":2.7155072689056396,"64":1.1085954904556274,"65":-0.23618647456169128,"66":-4.517314434051514,"67":4.312985897064209,"68":0.5861436724662781,"69":2.329359531402588,"70":4.357614040374756,"71":4.803104400634766,"72":0.9931122660636902,"73":-3.5594468116760254,"74":-6.188440322875977,"75":0.05530497431755066,"76":0.056556981056928635,"77":1.5976179838180542,"78":-2.6040074825286865,"79":-0.8763384819030762,"80":-1.6431070566177368,"81":-5.8968939781188965,"82":-1.1038919687271118,"83":-0.006022283341735601,"84":1.0897800922393799,"85":-2.8025388717651367,"86":1.5492547750473022,"87":-2.6641647815704346,"88":-2.9817099571228027,"89":-0.07505504786968231,"90":-0.359943151473999,"91":4.605486869812012,"92":-2.6585962772369385,"93":-1.2123675346374512,"94":-3.8305163383483887,"95":2.9251022338867188,"96":3.795999765396118,"97":0.12001394480466843,"98":7.782773017883301,"99":-0.021985653787851334,"100":-0.20784787833690643,"101":-6.026148796081543,"102":3.394749402999878,"103":1.604322075843811,"104":0.9867894649505615,"105":-0.08111422508955002,"106":0.12914544343948364,"107":-0.04449984058737755,"108":-8.71342658996582,"109":0.5438684821128845,"110":2.589914321899414,"111":1.1138019561767578,"112":2.7674689292907715,"113":-2.2477729320526123,"114":3.099400758743286,"115":-3.5603203773498535,"116":2.391134262084961,"117":0.1264469474554062,"118":2.0655131340026855,"119":-1.6364285945892334,"120":0.3376257121562958,"121":-0.04982514679431915,"122":3.868655204772949,"123":2.618593454360962,"124":0.5475839376449585,"125":-2.931196928024292,"126":-5.247909069061279,"127":-5.722024917602539,"128":6.58070182800293,"129":-0.16325220465660095,"130":0.9439054727554321,"131":2.7290868759155273,"132":2.167860507965088,"133":-4.259796142578125,"134":-0.018429342657327652}},"8":{"bias":-6.820761680603027,"weights":{"0":-2.1190898418426514,"1":2.1896541118621826,"2":2.773627758026123,"3":-5.934304237365723,"4":0.0016451365081593394,"5":0.11947306990623474,"6":-6.49995231628418,"7":1.909090518951416,"8":-1.3572297096252441,"9":-0.37569621205329895,"10":3.2687904834747314,"11":0.9225601553916931,"12":-1.173322081565857,"13":-0.4026786983013153,"14":-0.732300877571106,"15":-0.16854657232761383,"16":0.3249870836734772,"17":2.0811946392059326,"18":-0.8506321907043457,"19":1.790152907371521,"20":2.400613784790039,"21":0.6467385292053223,"22":-4.195110321044922,"23":0.8164313435554504,"24":0.007907405495643616,"25":-2.201150894165039,"26":0.32064369320869446,"27":-3.0145325660705566,"28":-2.2814548015594482,"29":-1.5380663871765137,"30":-0.07632572948932648,"31":1.3510688543319702,"32":-1.1167552471160889,"33":-0.19051982462406158,"34":2.3057518005371094,"35":0.7570077180862427,"36":-1.1480653285980225,"37":-3.5693373680114746,"38":1.0654457807540894,"39":2.3399319648742676,"40":-2.184661388397217,"41":5.188521862030029,"42":-1.238594889640808,"43":-0.2587886154651642,"44":-2.346818447113037,"45":-1.9770580530166626,"46":-2.927731990814209,"47":4.794304370880127,"48":-1.0829561948776245,"49":2.733598470687866,"50":-0.8893382549285889,"51":1.0661792755126953,"52":-2.602043867111206,"53":-0.5748822093009949,"54":-1.8252230882644653,"55":-2.6332263946533203,"56":4.339998245239258,"57":-1.5213106870651245,"58":2.5836238861083984,"59":-0.6477173566818237,"60":-3.9695966243743896,"61":-1.759987711906433,"62":1.3894494771957397,"63":-0.6815395951271057,"64":-0.9731517434120178,"65":4.865882873535156,"66":0.20011287927627563,"67":-2.579224109649658,"68":-5.553793907165527,"69":-1.5252724885940552,"70":-0.49277999997138977,"71":3.093143939971924,"72":-0.8955361843109131,"73":-0.13434404134750366,"74":3.793071985244751,"75":-2.6363089084625244,"76":-0.5542771816253662,"77":-0.14642664790153503,"78":-0.7204878330230713,"79":1.2467252016067505,"80":-0.10067235678434372,"81":-4.01189661026001,"82":-2.091740369796753,"83":0.09070472419261932,"84":2.5136396884918213,"85":2.1087586879730225,"86":-0.7145577669143677,"87":-4.713738441467285,"88":-0.8419395685195923,"89":3.2195518016815186,"90":2.5139076709747314,"91":0.27130481600761414,"92":0.40346625447273254,"93":-5.653234958648682,"94":3.3106493949890137,"95":-0.43177565932273865,"96":0.038454361259937286,"97":0.12270161509513855,"98":-1.236314296722412,"99":-0.769220232963562,"100":-1.9606207609176636,"101":-4.203156471252441,"102":0.9373975992202759,"103":-1.534647822380066,"104":0.9346778392791748,"105":5.598963260650635,"106":-1.130964756011963,"107":-0.1460472196340561,"108":9.46522331237793,"109":-0.8840089440345764,"110":-1.2889001369476318,"111":0.40974703431129456,"112":1.335988163948059,"113":-1.3121131658554077,"114":0.9923042058944702,"115":-0.24096855521202087,"116":-0.5135089159011841,"117":-0.16141299903392792,"118":-0.7519055008888245,"119":-2.817934274673462,"120":2.683861017227173,"121":2.8274013996124268,"122":-2.237563133239746,"123":-3.102011203765869,"124":-0.26523539423942566,"125":-0.4952148497104645,"126":-3.0529046058654785,"127":1.883010745048523,"128":-3.3396451473236084,"129":-0.3785102069377899,"130":-0.6778457164764404,"131":-1.2097322940826416,"132":-0.5303365588188171,"133":-3.9362869262695312,"134":0.11456995457410812}},"9":{"bias":-3.1618707180023193,"weights":{"0":-5.909233093261719,"1":-1.8304774761199951,"2":1.7807055711746216,"3":-0.7755128741264343,"4":3.386556625366211,"5":3.5658509731292725,"6":-2.4456887245178223,"7":1.941424012184143,"8":1.2228187322616577,"9":2.09086012840271,"10":-6.091269493103027,"11":-2.2511043548583984,"12":0.4587599039077759,"13":2.3773021697998047,"14":-1.793106198310852,"15":4.540570259094238,"16":-2.671147108078003,"17":-4.187114238739014,"18":-0.013692914508283138,"19":1.659643292427063,"20":0.7927322387695312,"21":-3.7595746517181396,"22":-0.85697340965271,"23":0.5976448059082031,"24":2.3716604709625244,"25":-0.7019766569137573,"26":2.7654333114624023,"27":3.0987515449523926,"28":-5.225606918334961,"29":-2.0294032096862793,"30":0.41352173686027527,"31":-0.23204202950000763,"32":-1.553876519203186,"33":-0.04233670234680176,"34":0.1411999613046646,"35":-2.4327547550201416,"36":1.7996721267700195,"37":-1.725707769393921,"38":-1.6499379873275757,"39":-3.225102663040161,"40":-0.7076604962348938,"41":2.4873392581939697,"42":1.2292706966400146,"43":0.43662405014038086,"44":-1.7349414825439453,"45":1.2234523296356201,"46":-2.7547683715820312,"47":1.9079351425170898,"48":3.4641923904418945,"49":4.289689540863037,"50":-0.1489652544260025,"51":0.528728187084198,"52":-0.25401535630226135,"53":-2.455962896347046,"54":-3.2487270832061768,"55":0.472770094871521,"56":0.9844962954521179,"57":0.9238420128822327,"58":0.21696700155735016,"59":0.31822463870048523,"60":-1.0149043798446655,"61":0.24358172714710236,"62":-2.000007152557373,"63":0.7598181366920471,"64":-1.09375,"65":-2.212576150894165,"66":-1.226558804512024,"67":-3.4858813285827637,"68":0.38601958751678467,"69":0.8020029067993164,"70":1.3628838062286377,"71":1.2481422424316406,"72":-1.8709529638290405,"73":4.97796630859375,"74":-1.1568593978881836,"75":0.9839323163032532,"76":0.38031241297721863,"77":0.15787173807621002,"78":-1.6462385654449463,"79":0.9590740203857422,"80":0.33267202973365784,"81":-3.5261759757995605,"82":1.1951618194580078,"83":-1.4778884649276733,"84":5.1090569496154785,"85":-2.8258190155029297,"86":-2.6468522548675537,"87":-0.25885751843452454,"88":-0.7975727319717407,"89":-2.119659900665283,"90":-0.6816845536231995,"91":3.0720949172973633,"92":2.9696433544158936,"93":-2.6389012336730957,"94":-1.1972038745880127,"95":2.464404821395874,"96":1.5942949056625366,"97":0.1280672401189804,"98":4.371691703796387,"99":-1.94760000705719,"100":4.793328762054443,"101":-2.467397689819336,"102":-0.9168176651000977,"103":0.6149208545684814,"104":-0.0925740972161293,"105":-4.917944431304932,"106":-2.360333204269409,"107":0.14273367822170258,"108":-5.23270845413208,"109":0.6095673441886902,"110":0.9031835794448853,"111":1.8318151235580444,"112":-3.7855844497680664,"113":2.05812406539917,"114":0.7813321352005005,"115":-2.7865750789642334,"116":-2.920870304107666,"117":-0.1196262538433075,"118":1.556936264038086,"119":-0.664226770401001,"120":-1.0058079957962036,"121":-1.2047654390335083,"122":2.6041784286499023,"123":0.6783385872840881,"124":1.2452486753463745,"125":0.9001823663711548,"126":1.098302960395813,"127":1.2781444787979126,"128":-0.778532087802887,"129":0.4169233441352844,"130":0.13946078717708588,"131":0.19936247169971466,"132":-2.5033411979675293,"133":0.42331644892692566,"134":-0.061268400400877}},"10":{"bias":-5.46406888961792,"weights":{"0":0.16241881251335144,"1":0.4573979377746582,"2":-0.9453660845756531,"3":-0.8227167129516602,"4":-1.1886669397354126,"5":-2.6981866359710693,"6":2.034966230392456,"7":-1.4431788921356201,"8":2.8509838581085205,"9":-1.835836410522461,"10":1.3539882898330688,"11":-1.8091692924499512,"12":2.0307533740997314,"13":-1.0625498294830322,"14":0.29819026589393616,"15":-1.1036523580551147,"16":-0.45594245195388794,"17":-0.8134931325912476,"18":1.2648751735687256,"19":-2.6514363288879395,"20":1.6973276138305664,"21":-2.5843346118927,"22":1.0476837158203125,"23":-0.24225033819675446,"24":1.6815276145935059,"25":-0.5112332105636597,"26":-0.4932123124599457,"27":0.9579892754554749,"28":-0.9262011051177979,"29":-3.2114267349243164,"30":-0.45658376812934875,"31":1.3091703653335571,"32":1.9247713088989258,"33":-2.385845184326172,"34":-1.7444630861282349,"35":-5.194576740264893,"36":0.2952558696269989,"37":-3.0236001014709473,"38":0.23274457454681396,"39":4.048232078552246,"40":1.7591708898544312,"41":-1.7182061672210693,"42":-3.1443233489990234,"43":-0.2403833121061325,"44":5.111201763153076,"45":4.497405529022217,"46":-2.9195353984832764,"47":-4.016150951385498,"48":3.4232358932495117,"49":-0.06571384519338608,"50":-0.34114524722099304,"51":-1.241909146308899,"52":2.9014439582824707,"53":-2.628297805786133,"54":-3.9701087474823,"55":1.9788044691085815,"56":2.8485498428344727,"57":-1.2270609140396118,"58":0.5236460566520691,"59":-1.2683985233306885,"60":1.5081828832626343,"61":-2.4736244678497314,"62":2.7528281211853027,"63":0.050692737102508545,"64":-0.0946560800075531,"65":-5.164559364318848,"66":1.9450478553771973,"67":-2.0412864685058594,"68":2.560654878616333,"69":-0.36986374855041504,"70":-0.32654884457588196,"71":-4.2800493240356445,"72":1.5353366136550903,"73":-3.380927324295044,"74":2.253743886947632,"75":-0.6234663724899292,"76":0.20859451591968536,"77":-0.07814480364322662,"78":1.354854702949524,"79":0.7075972557067871,"80":-0.6334596276283264,"81":-0.8703946471214294,"82":-3.48176646232605,"83":6.058080673217773,"84":5.0947065353393555,"85":-1.2679287195205688,"86":-1.7473291158676147,"87":-0.6847378611564636,"88":-2.848417043685913,"89":-2.345308542251587,"90":-1.072139859199524,"91":-3.7397232055664062,"92":0.8943397998809814,"93":-0.15713514387607574,"94":-0.16100940108299255,"95":-2.3069872856140137,"96":-1.0248708724975586,"97":-0.07365726679563522,"98":3.5998306274414062,"99":0.8698698878288269,"100":1.0722668170928955,"101":-0.13299451768398285,"102":-0.8313746452331543,"103":-0.1989881694316864,"104":-0.14056052267551422,"105":-1.6305280923843384,"106":0.7656421661376953,"107":-0.14357921481132507,"108":3.7769758701324463,"109":0.06502524763345718,"110":-0.9641343355178833,"111":-2.142958164215088,"112":-2.5673668384552,"113":0.41692715883255005,"114":-0.5027817487716675,"115":2.757608652114868,"116":1.209904670715332,"117":0.15238872170448303,"118":-1.3508096933364868,"119":-0.8765694499015808,"120":1.222183346748352,"121":2.482837200164795,"122":-1.9130779504776,"123":-0.17372672259807587,"124":-0.4421181082725525,"125":-1.7682747840881348,"126":-2.3581719398498535,"127":-1.1169482469558716,"128":-1.3898581266403198,"129":0.10272953659296036,"130":-0.1534014791250229,"131":-0.3127174973487854,"132":1.595018744468689,"133":-1.2728168964385986,"134":0.13730236887931824}},"11":{"bias":-3.603057384490967,"weights":{"0":-1.3898829221725464,"1":-1.0985093116760254,"2":2.7676756381988525,"3":0.7199038863182068,"4":2.5117998123168945,"5":-1.2254612445831299,"6":0.2818041741847992,"7":0.5278750061988831,"8":2.0342512130737305,"9":-0.5062673687934875,"10":-2.6433582305908203,"11":0.48301342129707336,"12":-1.3954498767852783,"13":-0.8349847197532654,"14":-0.26748543977737427,"15":0.13311602175235748,"16":0.8122726082801819,"17":1.1343954801559448,"18":1.640807867050171,"19":0.3808908760547638,"20":3.0134947299957275,"21":-2.3677427768707275,"22":-2.1384007930755615,"23":-0.02828119695186615,"24":-3.7254104614257812,"25":-1.110999345779419,"26":-2.18157696723938,"27":-0.20773041248321533,"28":-1.7629075050354004,"29":-1.0898587703704834,"30":0.8202745318412781,"31":-2.8930001258850098,"32":-0.03475607559084892,"33":0.4777185022830963,"34":-0.0048421467654407024,"35":-1.4782284498214722,"36":-1.2601425647735596,"37":0.10041753202676773,"38":4.291075706481934,"39":1.9169304370880127,"40":2.641024112701416,"41":-2.4787135124206543,"42":-0.21509696543216705,"43":-0.39090222120285034,"44":-1.3795660734176636,"45":2.4491989612579346,"46":0.7298081517219543,"47":0.6491237878799438,"48":3.0796453952789307,"49":-0.9382919669151306,"50":-0.37503373622894287,"51":-3.520508050918579,"52":-1.3248498439788818,"53":-1.4580148458480835,"54":0.2872698903083801,"55":-1.1852929592132568,"56":-0.4218139350414276,"57":0.10213024169206619,"58":-0.9434890151023865,"59":-0.6871152520179749,"60":-2.576209306716919,"61":0.3642489016056061,"62":1.861567735671997,"63":-0.23240093886852264,"64":-0.13145712018013,"65":2.5356533527374268,"66":3.6862194538116455,"67":-3.507995843887329,"68":1.5414761304855347,"69":-0.4877738952636719,"70":0.5636991858482361,"71":-5.371702194213867,"72":1.6667194366455078,"73":-0.16729030013084412,"74":-0.579517662525177,"75":-0.893643856048584,"76":-0.2539825737476349,"77":-0.25416508316993713,"78":2.7886297702789307,"79":-0.35276493430137634,"80":-1.1251912117004395,"81":-0.18032217025756836,"82":-1.4986659288406372,"83":4.2452616691589355,"84":1.538556456565857,"85":-3.5124359130859375,"86":-2.1407408714294434,"87":-2.3493101596832275,"88":-0.9002388715744019,"89":1.103286862373352,"90":-0.4028918743133545,"91":-0.8847661018371582,"92":3.7936675548553467,"93":0.1414141058921814,"94":-0.03687237575650215,"95":-2.419856071472168,"96":-1.179410696029663,"97":0.13350488245487213,"98":-0.08652222901582718,"99":1.9521750211715698,"100":0.027678722515702248,"101":-2.0911130905151367,"102":-2.2096729278564453,"103":-0.08364369720220566,"104":0.5098203420639038,"105":1.3782923221588135,"106":0.3245779275894165,"107":0.11824683099985123,"108":0.8463665843009949,"109":-0.8093283772468567,"110":-0.743467390537262,"111":0.03841415420174599,"112":3.912428140640259,"113":-0.1667424440383911,"114":-0.4596189260482788,"115":-0.7300208806991577,"116":1.455350637435913,"117":-0.10234560817480087,"118":-0.49970513582229614,"119":-0.22622306644916534,"120":-0.647416889667511,"121":0.6039513945579529,"122":-0.9930673837661743,"123":-0.5403461456298828,"124":-0.4735375642776489,"125":-0.014407032169401646,"126":-2.455043315887451,"127":-1.2144899368286133,"128":-0.6504042744636536,"129":-0.32948437333106995,"130":-0.24660877883434296,"131":-0.25180718302726746,"132":1.1382697820663452,"133":-1.1479973793029785,"134":0.15253275632858276}},"12":{"bias":-3.9791674613952637,"weights":{"0":-2.274444818496704,"1":-0.28367528319358826,"2":0.6528184413909912,"3":1.4694105386734009,"4":0.796210527420044,"5":-1.8502217531204224,"6":-1.7761480808258057,"7":-2.2946295738220215,"8":-3.0061333179473877,"9":4.114243507385254,"10":2.2329835891723633,"11":0.9804830551147461,"12":-0.014987938106060028,"13":-0.47663548588752747,"14":-2.199705123901367,"15":-0.6936336755752563,"16":0.1252773255109787,"17":2.368238925933838,"18":-3.9167678356170654,"19":2.6549153327941895,"20":-1.334463357925415,"21":-2.4103894233703613,"22":-1.3018566370010376,"23":-0.1128450334072113,"24":-0.7007631063461304,"25":-0.9634997844696045,"26":5.891351222991943,"27":0.8936779499053955,"28":0.15635806322097778,"29":-0.3735553026199341,"30":-1.6965080499649048,"31":-0.45736461877822876,"32":-0.5872709155082703,"33":0.808222770690918,"34":-1.2209731340408325,"35":-2.34537410736084,"36":0.08372475206851959,"37":-0.13828158378601074,"38":0.8763486742973328,"39":-0.026853136718273163,"40":-1.3903405666351318,"41":-1.239254355430603,"42":1.0301086902618408,"43":0.47448575496673584,"44":-0.3075591027736664,"45":1.3794054985046387,"46":-1.9690192937850952,"47":-1.6113059520721436,"48":-2.3580732345581055,"49":2.9072775840759277,"50":0.2559003233909607,"51":-0.7672486305236816,"52":1.3122990131378174,"53":2.4432177543640137,"54":-3.8031930923461914,"55":3.2186994552612305,"56":-2.961883306503296,"57":1.7260699272155762,"58":-1.5118340253829956,"59":0.17091837525367737,"60":-0.4165630340576172,"61":-0.46686241030693054,"62":-1.7208731174468994,"63":0.19907549023628235,"64":-0.8912951350212097,"65":1.239883542060852,"66":1.552949070930481,"67":0.7187285423278809,"68":0.28465163707733154,"69":0.6831135749816895,"70":-1.6662566661834717,"71":1.6072214841842651,"72":-0.022090893238782883,"73":-0.7404496669769287,"74":-0.3023539185523987,"75":-0.2931853234767914,"76":-0.5166926980018616,"77":-0.30371376872062683,"78":-1.2121714353561401,"79":1.364050030708313,"80":0.06497664749622345,"81":-3.3136086463928223,"82":-2.2602181434631348,"83":-3.428476333618164,"84":-0.14735205471515656,"85":-1.5190763473510742,"86":2.048903703689575,"87":3.116548538208008,"88":1.7443923950195312,"89":0.8509570360183716,"90":-1.3599539995193481,"91":-2.78348970413208,"92":-2.258478879928589,"93":1.326100468635559,"94":-0.36729055643081665,"95":2.018831253051758,"96":0.46368473768234253,"97":-0.11711318045854568,"98":-0.32301250100135803,"99":1.3825345039367676,"100":1.5170637369155884,"101":1.6684200763702393,"102":-1.5420416593551636,"103":-0.4009719789028168,"104":-1.1442610025405884,"105":0.16499066352844238,"106":0.7078624963760376,"107":-0.012196682393550873,"108":1.332336187362671,"109":-0.5062615275382996,"110":-0.7273098826408386,"111":1.2747516632080078,"112":-3.373007297515869,"113":-1.7606322765350342,"114":0.040647953748703,"115":0.4024725556373596,"116":-0.6807537078857422,"117":0.10349645465612411,"118":-2.0190932750701904,"119":-0.8987711071968079,"120":-0.7871342897415161,"121":0.07856042683124542,"122":-1.063685417175293,"123":-0.06768835335969925,"124":-0.1442239135503769,"125":-0.002441211836412549,"126":3.0625977516174316,"127":-0.5560704469680786,"128":0.38812345266342163,"129":-0.004838638938963413,"130":-0.09719031304121017,"131":-0.6649555563926697,"132":-0.28261369466781616,"133":2.826504945755005,"134":0.17017389833927155}},"13":{"bias":-4.871918201446533,"weights":{"0":1.9927507638931274,"1":-0.5677042603492737,"2":5.150075912475586,"3":-2.357144594192505,"4":-4.0508646965026855,"5":-0.02312636747956276,"6":0.6961283683776855,"7":-0.8426622748374939,"8":-1.014593482017517,"9":2.3699817657470703,"10":-0.6444383263587952,"11":0.9200018644332886,"12":-1.8768423795700073,"13":-2.401549816131592,"14":-4.473646640777588,"15":0.0012104337802156806,"16":0.1430056393146515,"17":-4.076545715332031,"18":1.9635025262832642,"19":0.7732061147689819,"20":3.1148550510406494,"21":1.8305714130401611,"22":0.2647932171821594,"23":-0.4622347950935364,"24":-2.5603513717651367,"25":-4.021062850952148,"26":4.226902008056641,"27":0.4025573134422302,"28":-0.8775584697723389,"29":0.6244057416915894,"30":-8.222105026245117,"31":0.24341614544391632,"32":0.5722626447677612,"33":1.5486433506011963,"34":-4.2024431228637695,"35":-1.3991156816482544,"36":4.281554222106934,"37":-2.6066393852233887,"38":0.04164355993270874,"39":3.27432918548584,"40":-1.212593913078308,"41":0.7232022285461426,"42":0.8359102606773376,"43":0.5306690335273743,"44":0.8786205053329468,"45":-3.5545902252197266,"46":-0.6214796304702759,"47":-1.0803732872009277,"48":2.9280755519866943,"49":1.23358154296875,"50":0.053686607629060745,"51":-3.4593734741210938,"52":-1.3981889486312866,"53":4.687803268432617,"54":3.7659919261932373,"55":-0.5761792659759521,"56":1.2761306762695312,"57":-0.5423634648323059,"58":-1.9786933660507202,"59":2.6420133113861084,"60":-3.581834077835083,"61":2.7805614471435547,"62":-1.5268669128417969,"63":0.14853572845458984,"64":1.626254677772522,"65":1.7034339904785156,"66":0.390898734331131,"67":-4.66337251663208,"68":-3.2618045806884766,"69":-0.6841898560523987,"70":-0.6199455261230469,"71":1.2599098682403564,"72":0.9929839372634888,"73":-2.67659854888916,"74":-1.3507970571517944,"75":-1.8665261268615723,"76":-0.3137543797492981,"77":0.034372612833976746,"78":-1.5725289583206177,"79":0.46665844321250916,"80":1.3911221027374268,"81":-3.064347743988037,"82":3.5813231468200684,"83":2.4333767890930176,"84":3.1922378540039062,"85":0.5595927834510803,"86":1.7026447057724,"87":0.7182396650314331,"88":-2.1392006874084473,"89":2.4543559551239014,"90":1.4524768590927124,"91":0.8044862747192383,"92":-6.696559429168701,"93":-5.622328758239746,"94":-4.4442219734191895,"95":2.262692451477051,"96":0.3404099941253662,"97":-0.05706394463777542,"98":-4.528434753417969,"99":-0.7593005895614624,"100":2.932410478591919,"101":4.451691627502441,"102":-2.2520968914031982,"103":0.2437199503183365,"104":-1.4160387516021729,"105":0.04690071567893028,"106":-0.7389636039733887,"107":0.1603611260652542,"108":0.2858027219772339,"109":0.8469194769859314,"110":-0.5631450414657593,"111":-1.236344337463379,"112":-0.6400472521781921,"113":0.9237610697746277,"114":0.296341210603714,"115":-1.9951969385147095,"116":0.7234790325164795,"117":-0.022624842822551727,"118":-0.972943127155304,"119":-0.8591039776802063,"120":-1.9281070232391357,"121":-1.7939451932907104,"122":-0.5314023494720459,"123":0.4738048315048218,"124":-0.07266364991664886,"125":-0.6064888834953308,"126":1.649644374847412,"127":-2.2827656269073486,"128":1.133659839630127,"129":0.08544352650642395,"130":0.29661065340042114,"131":-0.42463961243629456,"132":0.6425684094429016,"133":2.199892282485962,"134":-0.10558339953422546}},"14":{"bias":-3.6170380115509033,"weights":{"0":-5.318481922149658,"1":-1.4510154724121094,"2":0.8876838088035583,"3":1.7890994548797607,"4":-0.9142326712608337,"5":1.4820197820663452,"6":-0.13725444674491882,"7":-1.1701124906539917,"8":-4.636000156402588,"9":-2.643073081970215,"10":0.08041910827159882,"11":2.2135987281799316,"12":-0.8481329679489136,"13":-0.7852993607521057,"14":4.489856243133545,"15":-1.8267236948013306,"16":-1.4809895753860474,"17":3.8254013061523438,"18":-2.947460174560547,"19":-1.7706825733184814,"20":2.2842721939086914,"21":-1.5543794631958008,"22":5.400967597961426,"23":0.28861668705940247,"24":-0.3224210739135742,"25":-0.8310648202896118,"26":1.3802807331085205,"27":-2.621227741241455,"28":3.555776357650757,"29":0.373402863740921,"30":2.294210433959961,"31":-1.9791663885116577,"32":-1.8423609733581543,"33":0.7875664830207825,"34":3.440626382827759,"35":-0.8549513816833496,"36":-0.8524354100227356,"37":1.8193637132644653,"38":-2.4521963596343994,"39":-2.750685930252075,"40":2.415921926498413,"41":-0.8215053081512451,"42":-0.29073259234428406,"43":-0.3202725648880005,"44":-2.5465526580810547,"45":-2.536449670791626,"46":3.384199380874634,"47":1.2580887079238892,"48":-0.5820573568344116,"49":2.3521430492401123,"50":-1.0216573476791382,"51":-2.214689016342163,"52":-2.0989201068878174,"53":0.013422729447484016,"54":-0.7707270383834839,"55":-0.4117504954338074,"56":3.713731288909912,"57":-0.23289154469966888,"58":0.7924787998199463,"59":-1.1341639757156372,"60":3.3634769916534424,"61":0.7217347621917725,"62":-1.1321384906768799,"63":0.9264626502990723,"64":1.9764747619628906,"65":-3.3911478519439697,"66":-3.7809510231018066,"67":-0.7080317139625549,"68":-0.7411161065101624,"69":0.7461611032485962,"70":0.7650434374809265,"71":-1.715476393699646,"72":-0.6927909255027771,"73":-2.5039076805114746,"74":-1.0150316953659058,"75":-0.9186898469924927,"76":0.48814857006073,"77":0.9368140697479248,"78":-0.13232280313968658,"79":1.7302899360656738,"80":-0.16451823711395264,"81":-0.46616435050964355,"82":-1.0617005825042725,"83":1.2689850330352783,"84":2.569204807281494,"85":-2.106025218963623,"86":1.1398446559906006,"87":3.073857069015503,"88":0.16536365449428558,"89":-3.8569681644439697,"90":1.09138023853302,"91":-2.500840663909912,"92":1.021763801574707,"93":-1.6103436946868896,"94":0.6389735341072083,"95":0.030756257474422455,"96":1.0025012493133545,"97":0.08133020251989365,"98":0.150738924741745,"99":0.6327853798866272,"100":-4.337472438812256,"101":-0.8294785618782043,"102":0.6011736392974854,"103":0.22815166413784027,"104":0.12708963453769684,"105":-0.5203492641448975,"106":-0.6037725806236267,"107":-0.06191353499889374,"108":-4.418264865875244,"109":0.008931347168982029,"110":1.0510337352752686,"111":-2.7246062755584717,"112":0.31074872612953186,"113":0.01576194167137146,"114":1.7333077192306519,"115":0.46305257081985474,"116":-1.0507020950317383,"117":-0.1126394271850586,"118":-0.7537322044372559,"119":0.5172908306121826,"120":0.07985885441303253,"121":1.101333498954773,"122":-0.08715413510799408,"123":-0.014677577652037144,"124":0.5808188319206238,"125":2.919825553894043,"126":-4.404941558837891,"127":2.4683830738067627,"128":-1.6825892925262451,"129":0.17681457102298737,"130":0.36839234828948975,"131":-0.048247382044792175,"132":-1.3385396003723145,"133":0.7444803714752197,"134":-0.19359846413135529}},"15":{"bias":-5.594513893127441,"weights":{"0":1.1754250526428223,"1":-1.4147192239761353,"2":-0.1585518717765808,"3":0.2180325835943222,"4":3.5481388568878174,"5":-0.8778625130653381,"6":-1.1651502847671509,"7":1.6760492324829102,"8":0.4211246967315674,"9":-1.4869036674499512,"10":-2.410951852798462,"11":-0.7621784210205078,"12":-2.4513916969299316,"13":0.7575647830963135,"14":-0.4334489405155182,"15":-0.47564882040023804,"16":1.5646260976791382,"17":1.087627649307251,"18":-1.30316960811615,"19":-1.0071126222610474,"20":1.0609019994735718,"21":-0.38232696056365967,"22":1.0542899370193481,"23":-0.23910647630691528,"24":-1.2160561084747314,"25":-0.1496819257736206,"26":-3.091156005859375,"27":-2.1363484859466553,"28":0.9376051425933838,"29":1.177964687347412,"30":3.1981754302978516,"31":1.6211336851119995,"32":-2.5345499515533447,"33":0.028647832572460175,"34":0.11321596801280975,"35":1.6576926708221436,"36":-1.61264967918396,"37":1.5146417617797852,"38":0.44381919503211975,"39":-2.598662853240967,"40":3.1436262130737305,"41":-3.201036214828491,"42":-1.269997477531433,"43":0.8989216089248657,"44":-0.5406954884529114,"45":2.986616849899292,"46":-4.618585109710693,"47":0.2559475898742676,"48":-3.1568803787231445,"49":-0.3553532660007477,"50":-0.24902954697608948,"51":-1.3661932945251465,"52":-0.621410608291626,"53":-0.384920597076416,"54":-1.8594783544540405,"55":0.967632532119751,"56":3.6238272190093994,"57":-1.404004693031311,"58":1.1560142040252686,"59":-3.5344762802124023,"60":0.8825822472572327,"61":-3.0133566856384277,"62":0.791928768157959,"63":1.23722243309021,"64":-0.10422497987747192,"65":1.5605922937393188,"66":3.2353522777557373,"67":-1.8952703475952148,"68":1.1657127141952515,"69":-0.017124755308032036,"70":0.16989052295684814,"71":-2.461719512939453,"72":0.6533232927322388,"73":-3.2009119987487793,"74":-0.026972517371177673,"75":-1.845778226852417,"76":-0.3997481167316437,"77":-0.48135942220687866,"78":0.39319077134132385,"79":-2.4732112884521484,"80":-0.11145951598882675,"81":0.873999834060669,"82":-1.9025628566741943,"83":-0.2122282236814499,"84":1.075804591178894,"85":3.109889268875122,"86":-2.2694318294525146,"87":-0.025306323543190956,"88":-2.2941768169403076,"89":-0.9527418613433838,"90":-0.1810135692358017,"91":-1.4303334951400757,"92":2.120361566543579,"93":0.5483471155166626,"94":0.15539507567882538,"95":-1.834244728088379,"96":-0.07671775668859482,"97":0.18840588629245758,"98":1.966440200805664,"99":1.4717447757720947,"100":-0.8969272971153259,"101":-2.0971267223358154,"102":-1.147377610206604,"103":-0.03885762393474579,"104":-0.16723768413066864,"105":-2.546412467956543,"106":0.6031073927879333,"107":0.17799104750156403,"108":-1.6880824565887451,"109":-1.1081421375274658,"110":0.2771320044994354,"111":-2.342583417892456,"112":-2.1371026039123535,"113":-0.5339891314506531,"114":-0.18884894251823425,"115":-0.9094516634941101,"116":1.7065684795379639,"117":0.021181026473641396,"118":1.9789292812347412,"119":0.026836514472961426,"120":1.245805263519287,"121":2.015101671218872,"122":-1.2516167163848877,"123":-0.9645708799362183,"124":-0.22120553255081177,"125":2.103060245513916,"126":4.228124141693115,"127":-3.586432933807373,"128":-3.3331832885742188,"129":-0.7388025522232056,"130":-0.023521846160292625,"131":-0.5197241306304932,"132":1.318710207939148,"133":-1.2949446439743042,"134":-0.03175675868988037}},"16":{"bias":-3.686880111694336,"weights":{"0":2.1070773601531982,"1":0.567532479763031,"2":-1.2795780897140503,"3":1.4409734010696411,"4":-0.05366861820220947,"5":-1.7524222135543823,"6":-2.2616872787475586,"7":-2.777059316635132,"8":0.023512450978159904,"9":1.460911512374878,"10":-2.3658082485198975,"11":4.3006367683410645,"12":-4.4557881355285645,"13":0.43251633644104004,"14":2.6742541790008545,"15":1.8976483345031738,"16":-0.23921674489974976,"17":0.3548666536808014,"18":0.6582282781600952,"19":-2.4830830097198486,"20":-1.2760686874389648,"21":1.668195366859436,"22":5.084808826446533,"23":-0.5755112767219543,"24":-2.9663076400756836,"25":-0.8021270036697388,"26":-3.530144214630127,"27":-0.003405600553378463,"28":0.004897968377918005,"29":2.642731189727783,"30":2.96653151512146,"31":0.3588379919528961,"32":1.7466343641281128,"33":1.4731196165084839,"34":-0.8109416365623474,"35":-3.076162815093994,"36":-0.6608037948608398,"37":1.083976149559021,"38":5.101609230041504,"39":0.6654598116874695,"40":3.6903109550476074,"41":-7.240394115447998,"42":0.7962846159934998,"43":-0.8762866854667664,"44":-0.6957884430885315,"45":-1.1166765689849854,"46":-1.1197417974472046,"47":-4.894549369812012,"48":-0.8515045046806335,"49":-0.566296398639679,"50":1.7946441173553467,"51":-2.3560597896575928,"52":-1.142865777015686,"53":-1.6138701438903809,"54":-3.146188497543335,"55":-1.4356145858764648,"56":1.007140874862671,"57":-6.090773582458496,"58":-3.5758228302001953,"59":-2.0104453563690186,"60":-1.9904959201812744,"61":0.006359810475260019,"62":-0.6839823126792908,"63":1.5307327508926392,"64":4.523714542388916,"65":1.640825629234314,"66":2.8073813915252686,"67":-6.09464168548584,"68":-3.584801435470581,"69":0.3806522488594055,"70":0.11090512573719025,"71":2.8665316104888916,"72":6.5669636726379395,"73":-1.731431484222412,"74":-0.4154350757598877,"75":-0.5303252339363098,"76":0.5137487649917603,"77":1.574303150177002,"78":-0.6681313514709473,"79":4.579870223999023,"80":0.04725072532892227,"81":-3.844836950302124,"82":4.161489486694336,"83":-1.109169840812683,"84":1.296974539756775,"85":0.5916197896003723,"86":0.5154723525047302,"87":-2.800954580307007,"88":-0.5442878603935242,"89":-3.0813472270965576,"90":-0.9582874178886414,"91":-4.3684210777282715,"92":3.3904471397399902,"93":3.0928025245666504,"94":2.725243330001831,"95":0.08745547384023666,"96":2.039311408996582,"97":-0.032346539199352264,"98":1.2213330268859863,"99":-3.0441250801086426,"100":0.8751521706581116,"101":-3.8827097415924072,"102":3.144289255142212,"103":0.8314606547355652,"104":-0.06419321894645691,"105":-1.3554906845092773,"106":-3.5724782943725586,"107":0.026156991720199585,"108":-2.939850330352783,"109":2.00938081741333,"110":0.28935423493385315,"111":-1.3036305904388428,"112":-1.009954571723938,"113":1.25674569606781,"114":-1.1496644020080566,"115":0.3672259449958801,"116":-0.930800199508667,"117":0.14102712273597717,"118":-0.49627256393432617,"119":2.720651149749756,"120":-3.1222476959228516,"121":-2.063936233520508,"122":2.097991466522217,"123":0.6263396143913269,"124":0.02559252269566059,"125":-1.5452029705047607,"126":0.32480567693710327,"127":-1.2215203046798706,"128":-2.138593912124634,"129":1.9894076585769653,"130":0.6087929606437683,"131":0.8929814696311951,"132":-0.2850615382194519,"133":0.9266409277915955,"134":-0.11914250254631042}},"17":{"bias":-0.9287197589874268,"weights":{"0":-2.073593854904175,"1":1.340964674949646,"2":-1.7825703620910645,"3":-0.4578768312931061,"4":1.428708553314209,"5":2.206688165664673,"6":2.555072546005249,"7":1.3064460754394531,"8":-1.4578285217285156,"9":0.9957584142684937,"10":2.385204553604126,"11":-1.4022935628890991,"12":-1.626332402229309,"13":-3.246458053588867,"14":0.9597200751304626,"15":0.5568875074386597,"16":2.8337485790252686,"17":0.024557078257203102,"18":-3.0766124725341797,"19":2.035742998123169,"20":2.0631532669067383,"21":1.6507242918014526,"22":-7.208079814910889,"23":0.9754322171211243,"24":-0.5810174942016602,"25":-0.7929781675338745,"26":-0.560005247592926,"27":2.4496467113494873,"28":2.658454418182373,"29":2.9068005084991455,"30":-3.4083569049835205,"31":2.8627090454101562,"32":-0.5936952829360962,"33":0.49231958389282227,"34":-2.501601219177246,"35":0.41298770904541016,"36":-1.885970115661621,"37":-0.770740270614624,"38":-6.370268821716309,"39":6.314846038818359,"40":3.0632190704345703,"41":1.1297951936721802,"42":-0.915985107421875,"43":0.7680345177650452,"44":-1.9863494634628296,"45":-2.985567808151245,"46":-0.44648274779319763,"47":-2.9469962120056152,"48":1.4959661960601807,"49":0.1946362406015396,"50":0.045222725719213486,"51":1.498031497001648,"52":-2.8930349349975586,"53":1.0581525564193726,"54":-4.437351703643799,"55":-0.04440620541572571,"56":3.9762022495269775,"57":2.4960012435913086,"58":-8.26735782623291,"59":0.11353342235088348,"60":-3.1755359172821045,"61":-0.8298940658569336,"62":-4.7096757888793945,"63":0.02227848581969738,"64":2.5302932262420654,"65":-2.1565909385681152,"66":1.1599901914596558,"67":1.2945899963378906,"68":5.515475273132324,"69":2.274163007736206,"70":2.785771369934082,"71":-1.036643147468567,"72":5.958069324493408,"73":-10.577733993530273,"74":2.159970998764038,"75":0.2023310661315918,"76":0.9489700794219971,"77":2.110476493835449,"78":-4.940134048461914,"79":3.675889253616333,"80":1.970711350440979,"81":-0.08857835084199905,"82":-0.0723964273929596,"83":-1.5436235666275024,"84":2.779369592666626,"85":-3.8306689262390137,"86":-2.1592602729797363,"87":-1.7725646495819092,"88":1.360461711883545,"89":-3.6792800426483154,"90":0.34438759088516235,"91":-0.1987229883670807,"92":-4.153034210205078,"93":3.6384782791137695,"94":5.2377519607543945,"95":2.171607255935669,"96":2.63553786277771,"97":0.1387123167514801,"98":-0.36633434891700745,"99":-3.1358261108398438,"100":8.60415267944336,"101":-6.186466217041016,"102":3.5540528297424316,"103":1.2145395278930664,"104":0.871330201625824,"105":-3.3260891437530518,"106":-2.5416781902313232,"107":-0.0866396427154541,"108":-5.4079508781433105,"109":-0.7858996987342834,"110":-0.308415025472641,"111":3.14558482170105,"112":-1.7746326923370361,"113":-3.9956741333007812,"114":-0.04404016211628914,"115":-3.998100519180298,"116":-1.9343208074569702,"117":0.18669746816158295,"118":-1.1613191366195679,"119":-0.46526211500167847,"120":2.9127259254455566,"121":3.4731976985931396,"122":4.3431077003479,"123":1.4403589963912964,"124":0.6609901785850525,"125":-3.6671159267425537,"126":3.316798686981201,"127":-3.373274803161621,"128":3.5084691047668457,"129":0.19542714953422546,"130":0.47202712297439575,"131":0.9532001614570618,"132":-2.2508978843688965,"133":3.8322932720184326,"134":-0.183567076921463}},"18":{"bias":-2.0075578689575195,"weights":{"0":-0.7967721819877625,"1":0.292436420917511,"2":1.050400733947754,"3":-3.4504315853118896,"4":-0.968643069267273,"5":0.740047037601471,"6":1.2056647539138794,"7":-1.739025592803955,"8":-1.196046233177185,"9":0.43957042694091797,"10":0.7346076965332031,"11":2.7838284969329834,"12":-4.1936116218566895,"13":-6.021769046783447,"14":1.895530104637146,"15":1.3451305627822876,"16":0.036776598542928696,"17":0.8734673261642456,"18":1.4467352628707886,"19":2.836555004119873,"20":-2.768090009689331,"21":1.802847981452942,"22":4.836973190307617,"23":0.37607255578041077,"24":-1.9112473726272583,"25":-1.0408705472946167,"26":-0.504477858543396,"27":3.806044101715088,"28":-1.6400017738342285,"29":2.3389670848846436,"30":-5.841891288757324,"31":1.5300421714782715,"32":-2.3017115592956543,"33":2.140187978744507,"34":-1.6829829216003418,"35":-2.057697296142578,"36":-2.4358608722686768,"37":1.380784034729004,"38":-4.346457481384277,"39":0.09927061945199966,"40":-3.6136527061462402,"41":2.653290271759033,"42":-1.3174983263015747,"43":-0.7335106134414673,"44":-0.5798471570014954,"45":-2.2468554973602295,"46":5.1997456550598145,"47":0.10575049370527267,"48":4.031657695770264,"49":2.734823226928711,"50":0.7081462740898132,"51":-0.9212018251419067,"52":-1.2779909372329712,"53":1.3118013143539429,"54":2.214900016784668,"55":-3.1039516925811768,"56":-1.3278638124465942,"57":-1.9542999267578125,"58":0.07825467735528946,"59":2.2212603092193604,"60":-2.249858856201172,"61":1.3970221281051636,"62":0.39615240693092346,"63":1.0413031578063965,"64":-0.947358250617981,"65":-4.862324237823486,"66":-1.167393445968628,"67":-4.494006156921387,"68":-0.7229660153388977,"69":3.4497952461242676,"70":3.149665117263794,"71":0.34794846177101135,"72":-1.7035716772079468,"73":-4.5553998947143555,"74":4.0165696144104,"75":5.206533908843994,"76":-0.7625274062156677,"77":0.5635967254638672,"78":-0.437482088804245,"79":0.9788799285888672,"80":1.2053139209747314,"81":-4.132787704467773,"82":-2.288942813873291,"83":-0.270203560590744,"84":2.2123467922210693,"85":-3.6243178844451904,"86":4.486695766448975,"87":1.4147039651870728,"88":1.023728370666504,"89":-3.193527936935425,"90":3.8768725395202637,"91":5.8615875244140625,"92":-2.5501787662506104,"93":-0.44075021147727966,"94":-4.896935939788818,"95":0.9665774703025818,"96":0.470027893781662,"97":0.00721519161015749,"98":-3.2436957359313965,"99":1.6521931886672974,"100":-6.702230930328369,"101":5.335299968719482,"102":-0.9362958669662476,"103":2.936840772628784,"104":2.003627300262451,"105":-2.4717624187469482,"106":1.2039427757263184,"107":-0.05829427018761635,"108":-6.303492069244385,"109":-0.8227106928825378,"110":1.1707932949066162,"111":4.611039161682129,"112":-0.27128902077674866,"113":-0.010705189779400826,"114":-0.3753281831741333,"115":2.9599270820617676,"116":-2.7565455436706543,"117":-0.011653638444840908,"118":2.1852128505706787,"119":3.0257911682128906,"120":-1.217577576637268,"121":-4.842126369476318,"122":2.1352503299713135,"123":0.33750686049461365,"124":0.5129388570785522,"125":3.12774658203125,"126":-3.8693923950195312,"127":2.0803799629211426,"128":0.7969911694526672,"129":0.22299407422542572,"130":0.43516433238983154,"131":0.15565699338912964,"132":-2.508249282836914,"133":-3.0183894634246826,"134":0.16112489998340607}},"19":{"bias":-0.23212988674640656,"weights":{"0":1.375258445739746,"1":1.1385023593902588,"2":-3.0374255180358887,"3":3.320761203765869,"4":1.360428810119629,"5":-0.413898229598999,"6":-1.548119306564331,"7":-1.1503629684448242,"8":-0.5321789979934692,"9":-0.33939382433891296,"10":-2.878173589706421,"11":-0.49734511971473694,"12":0.2211492359638214,"13":-0.8806918859481812,"14":-1.592356562614441,"15":-0.929042637348175,"16":-1.623971939086914,"17":1.2916399240493774,"18":-1.8540680408477783,"19":3.7445294857025146,"20":-0.7220475673675537,"21":4.2306599617004395,"22":1.8374921083450317,"23":-0.4850122034549713,"24":-1.023355484008789,"25":-0.5885035395622253,"26":0.6741877794265747,"27":-1.314992904663086,"28":5.347595691680908,"29":-0.38038283586502075,"30":-1.0809112787246704,"31":3.5535998344421387,"32":0.2389630377292633,"33":2.6788077354431152,"34":1.7698036432266235,"35":0.9091684818267822,"36":-0.07676121592521667,"37":-1.1512086391448975,"38":-0.971592366695404,"39":-7.372927188873291,"40":1.3128029108047485,"41":1.0050369501113892,"42":-0.6856235265731812,"43":-1.5159978866577148,"44":1.770463228225708,"45":-0.2520591914653778,"46":0.8980804681777954,"47":-2.1291701793670654,"48":-3.421269416809082,"49":-0.028149599209427834,"50":-0.07466703653335571,"51":1.1480554342269897,"52":-0.6654669046401978,"53":1.1387748718261719,"54":-5.566564083099365,"55":7.626459121704102,"56":-5.0122971534729,"57":0.021487785503268242,"58":-1.184380292892456,"59":-4.415480136871338,"60":2.0557572841644287,"61":-0.8204773664474487,"62":-1.7346351146697998,"63":2.01857328414917,"64":-0.07231995463371277,"65":-0.2389354109764099,"66":5.104020595550537,"67":0.999050498008728,"68":3.2550671100616455,"69":0.04447763413190842,"70":0.6394385099411011,"71":7.112173557281494,"72":-1.1559151411056519,"73":1.8050100803375244,"74":-2.540802001953125,"75":-0.877661406993866,"76":-2.819732189178467,"77":-0.4608879089355469,"78":-0.31237679719924927,"79":-2.264601469039917,"80":-1.2401403188705444,"81":-2.8538687229156494,"82":-5.412492752075195,"83":-1.435255765914917,"84":1.4247177839279175,"85":2.8626739978790283,"86":-2.5825068950653076,"87":3.778451681137085,"88":-2.9084620475769043,"89":2.952185869216919,"90":-0.525033175945282,"91":-0.03601353242993355,"92":1.7018542289733887,"93":-3.546614646911621,"94":3.7423620223999023,"95":-1.8272720575332642,"96":-3.4725899696350098,"97":-0.0839688777923584,"98":3.421976089477539,"99":0.3653222918510437,"100":0.6414470672607422,"101":-2.2425272464752197,"102":4.392861843109131,"103":-3.2971079349517822,"104":1.0967655181884766,"105":3.326054334640503,"106":0.3254714012145996,"107":-0.1850316822528839,"108":3.657498836517334,"109":-1.5692336559295654,"110":-0.9096360206604004,"111":1.0081722736358643,"112":6.5424017906188965,"113":-3.8207473754882812,"114":-1.1323925256729126,"115":3.531486749649048,"116":6.5584893226623535,"117":-0.014726357534527779,"118":0.3035566806793213,"119":-5.184236526489258,"120":-3.819711208343506,"121":-1.8905361890792847,"122":-5.804470539093018,"123":-4.121257781982422,"124":-0.947288453578949,"125":9.113348007202148,"126":-1.051528811454773,"127":0.7900761961936951,"128":1.6831172704696655,"129":-1.1985383033752441,"130":-1.1473852396011353,"131":-3.1499574184417725,"132":5.346566677093506,"133":-3.11844801902771,"134":0.036837998777627945}},"20":{"bias":-2.8379757404327393,"weights":{"0":0.7870294451713562,"1":3.420628309249878,"2":-1.156404972076416,"3":-0.9196790456771851,"4":0.09993099421262741,"5":-0.33290553092956543,"6":1.8728721141815186,"7":0.2550100088119507,"8":1.15531325340271,"9":3.546264410018921,"10":-0.3327411115169525,"11":0.35198482871055603,"12":-1.9046986103057861,"13":-0.8273336291313171,"14":-0.6201820373535156,"15":0.18320713937282562,"16":1.0572947263717651,"17":-4.1066107749938965,"18":-3.9576938152313232,"19":3.640402317047119,"20":1.5068037509918213,"21":-1.1931506395339966,"22":-0.27421101927757263,"23":0.08423138409852982,"24":2.1326358318328857,"25":-2.2998292446136475,"26":-4.464482307434082,"27":-2.5090157985687256,"28":-0.6888040900230408,"29":-0.6916305422782898,"30":0.12605014443397522,"31":-1.1413041353225708,"32":0.10450194776058197,"33":-0.4303818941116333,"34":-0.27884653210639954,"35":0.7677032351493835,"36":-1.7377393245697021,"37":1.9321441650390625,"38":-2.890625476837158,"39":0.6595280766487122,"40":-3.279282569885254,"41":0.3407863676548004,"42":0.2689209282398224,"43":0.9022546410560608,"44":-2.741467237472534,"45":4.456700325012207,"46":1.319632887840271,"47":3.215836524963379,"48":-1.5219329595565796,"49":-0.35999900102615356,"50":-0.044805437326431274,"51":-0.05536689609289169,"52":0.1036083772778511,"53":-0.03325460106134415,"54":0.6775550246238708,"55":2.181992769241333,"56":-0.6610590815544128,"57":-1.4585850238800049,"58":1.2994788885116577,"59":-0.283902645111084,"60":-1.1930012702941895,"61":1.1922882795333862,"62":-2.675464153289795,"63":-0.00875980406999588,"64":-1.0287954807281494,"65":1.4605634212493896,"66":2.172415256500244,"67":0.2454816699028015,"68":-1.428873062133789,"69":0.28979355096817017,"70":-0.5490225553512573,"71":2.332840919494629,"72":-1.330494999885559,"73":-0.32206714153289795,"74":-0.09503718465566635,"75":-0.9079350233078003,"76":0.4982742369174957,"77":0.47771918773651123,"78":-2.057527542114258,"79":-2.0433435440063477,"80":0.012813217006623745,"81":1.9399783611297607,"82":-0.8303418159484863,"83":1.4483031034469604,"84":-2.6374149322509766,"85":-3.362046241760254,"86":-0.38603267073631287,"87":0.6240875124931335,"88":-2.1778218746185303,"89":-3.7037315368652344,"90":0.43257907032966614,"91":1.2257049083709717,"92":1.4289366006851196,"93":-1.4739421606063843,"94":0.8028907775878906,"95":4.689678192138672,"96":2.9003069400787354,"97":-0.18879778683185577,"98":0.09020860493183136,"99":-3.1418986320495605,"100":-1.0306556224822998,"101":-0.5939847230911255,"102":1.3326495885849,"103":1.1904147863388062,"104":-0.5378727912902832,"105":-2.8643569946289062,"106":0.40234166383743286,"107":-0.13293854892253876,"108":0.5921534299850464,"109":-0.8764944076538086,"110":0.05596601590514183,"111":-1.6324377059936523,"112":-3.3563458919525146,"113":0.012579767033457756,"114":0.7926087975502014,"115":-3.6028144359588623,"116":-2.249206304550171,"117":-0.10015983879566193,"118":-0.12150853127241135,"119":3.6859171390533447,"120":-0.8039689660072327,"121":0.34785279631614685,"122":-0.21466998755931854,"123":1.016021490097046,"124":0.6061598062515259,"125":-2.0325064659118652,"126":3.4555842876434326,"127":1.165221095085144,"128":2.1402814388275146,"129":0.6630959510803223,"130":0.38508880138397217,"131":0.6283639669418335,"132":-4.253284931182861,"133":0.5183156132698059,"134":-0.05287923663854599}},"21":{"bias":-2.5778746604919434,"weights":{"0":-4.107578754425049,"1":-1.264112949371338,"2":4.903721332550049,"3":-2.8545901775360107,"4":0.5107289552688599,"5":-2.4505372047424316,"6":-0.8346108198165894,"7":-0.5655548572540283,"8":-4.066169738769531,"9":0.8744049072265625,"10":3.63101863861084,"11":-1.0619882345199585,"12":1.132019281387329,"13":0.121392622590065,"14":-2.3864996433258057,"15":-1.595268726348877,"16":2.6949026584625244,"17":-1.3282558917999268,"18":3.485408067703247,"19":5.397935390472412,"20":-1.2124733924865723,"21":-0.9852161407470703,"22":-0.4877155125141144,"23":-0.21308255195617676,"24":-3.3289196491241455,"25":1.783139944076538,"26":0.5035421252250671,"27":-1.717360019683838,"28":1.6182889938354492,"29":1.162609338760376,"30":-2.097181797027588,"31":-1.4660450220108032,"32":-2.084702253341675,"33":2.270228624343872,"34":0.6604605913162231,"35":-3.159020185470581,"36":0.8190153241157532,"37":3.360332727432251,"38":0.3610824942588806,"39":-0.4229200780391693,"40":-1.6225816011428833,"41":-1.1566925048828125,"42":-1.2886717319488525,"43":0.7164807915687561,"44":-1.901816964149475,"45":1.3682217597961426,"46":3.1392366886138916,"47":2.8943495750427246,"48":-1.74608314037323,"49":-0.8092012405395508,"50":-0.7946920394897461,"51":-0.1687062382698059,"52":-0.0774991363286972,"53":-0.6014187335968018,"54":-0.7426645159721375,"55":0.19867534935474396,"56":0.1284887194633484,"57":-0.7696731686592102,"58":-3.7455086708068848,"59":-0.8045135736465454,"60":-0.2029288113117218,"61":2.1449882984161377,"62":-5.186604022979736,"63":-0.18358081579208374,"64":0.763511598110199,"65":-5.970849514007568,"66":2.1908040046691895,"67":-3.4474546909332275,"68":1.7726956605911255,"69":-0.15009444952011108,"70":-1.2424366474151611,"71":3.386265516281128,"72":4.617927074432373,"73":3.310486078262329,"74":1.1295857429504395,"75":-1.6185065507888794,"76":0.021029172465205193,"77":-0.7514635324478149,"78":-0.7075546979904175,"79":2.4700417518615723,"80":0.607791543006897,"81":-5.178802490234375,"82":-1.6740026473999023,"83":-0.4185005724430084,"84":2.2717766761779785,"85":-2.4793896675109863,"86":-0.28357553482055664,"87":-2.1698458194732666,"88":-2.691361427307129,"89":-1.4644417762756348,"90":-1.5554256439208984,"91":2.792192220687866,"92":0.5697079300880432,"93":1.267085313796997,"94":-3.201815128326416,"95":5.7314982414245605,"96":2.194896697998047,"97":-0.11752016842365265,"98":-0.22950479388237,"99":0.8522334098815918,"100":2.518784523010254,"101":2.1739697456359863,"102":0.11395709961652756,"103":-0.9604097604751587,"104":-1.8251982927322388,"105":-0.06671897321939468,"106":1.5162914991378784,"107":-0.08357497304677963,"108":-4.276907444000244,"109":0.0668635442852974,"110":-0.7677584290504456,"111":0.9584647417068481,"112":-1.106577754020691,"113":0.9971764087677002,"114":-0.7469258308410645,"115":-2.3754260540008545,"116":2.307839870452881,"117":-0.10743021965026855,"118":-1.2414568662643433,"119":0.3052401542663574,"120":0.07489381730556488,"121":-0.25101611018180847,"122":-1.907310962677002,"123":-0.058605220168828964,"124":-0.5078713893890381,"125":-3.134777069091797,"126":1.0345501899719238,"127":0.899243175983429,"128":2.053173542022705,"129":0.03115655481815338,"130":-0.5179742574691772,"131":1.7184621095657349,"132":2.138918399810791,"133":1.5030343532562256,"134":-0.14720119535923004}},"22":{"bias":-4.1001105308532715,"weights":{"0":-7.29317045211792,"1":2.2654106616973877,"2":-3.8071181774139404,"3":0.6150640845298767,"4":0.717454731464386,"5":-0.83579021692276,"6":-0.08310414850711823,"7":1.458161473274231,"8":-1.196148157119751,"9":1.6025599241256714,"10":-0.5573378205299377,"11":-1.2559360265731812,"12":1.058058500289917,"13":0.0693458765745163,"14":-1.9442754983901978,"15":-0.07139407843351364,"16":0.7604133486747742,"17":3.214432954788208,"18":4.45207405090332,"19":4.255955696105957,"20":0.029035592451691628,"21":0.31622514128685,"22":-1.54439115524292,"23":-0.35959047079086304,"24":-3.734619617462158,"25":2.1245110034942627,"26":-4.59682035446167,"27":-6.75849723815918,"28":2.973421096801758,"29":2.252535343170166,"30":2.9682180881500244,"31":-0.6825052499771118,"32":-2.7803657054901123,"33":-0.18599186837673187,"34":-0.3196244537830353,"35":-3.5987391471862793,"36":-0.48234090209007263,"37":4.716439247131348,"38":-3.7464380264282227,"39":3.6902518272399902,"40":-0.047642193734645844,"41":-2.622011423110962,"42":-1.2767322063446045,"43":0.5039141178131104,"44":0.38048961758613586,"45":2.864823579788208,"46":4.04628849029541,"47":-4.858836650848389,"48":-0.24064816534519196,"49":-0.750853955745697,"50":1.0989315509796143,"51":-1.7522214651107788,"52":3.10695743560791,"53":-3.444978713989258,"54":-2.81490421295166,"55":-5.966005325317383,"56":-0.4301852285861969,"57":-3.767210006713867,"58":2.672128438949585,"59":-4.7064337730407715,"60":-1.6064674854278564,"61":-1.0455293655395508,"62":3.799299478530884,"63":1.3980711698532104,"64":-1.287124752998352,"65":0.2355702668428421,"66":4.265453815460205,"67":0.727315366268158,"68":3.3525540828704834,"69":0.10389616340398788,"70":0.06484309583902359,"71":-0.12571819126605988,"72":-4.002931594848633,"73":-3.3779282569885254,"74":-0.09626296162605286,"75":1.8720868825912476,"76":1.526590347290039,"77":1.4523626565933228,"78":3.113246202468872,"79":-0.12333876639604568,"80":0.19716082513332367,"81":-1.7541102170944214,"82":-1.703858733177185,"83":0.42941537499427795,"84":0.721400260925293,"85":4.143363952636719,"86":-0.7432981133460999,"87":1.7169846296310425,"88":-1.6007870435714722,"89":2.8951947689056396,"90":1.2049622535705566,"91":-2.8876001834869385,"92":-3.9517219066619873,"93":5.295416355133057,"94":1.7597142457962036,"95":-1.9581842422485352,"96":-0.2242940217256546,"97":0.058451924473047256,"98":-6.4332475662231445,"99":-4.037785530090332,"100":-0.8709717988967896,"101":0.03232832998037338,"102":2.359802484512329,"103":0.4779486358165741,"104":-0.0967327132821083,"105":3.258465051651001,"106":-1.8937315940856934,"107":-0.15753230452537537,"108":-2.611518144607544,"109":1.753988265991211,"110":0.9393631219863892,"111":-2.001760721206665,"112":-8.437992095947266,"113":-3.158785820007324,"114":-0.5543497204780579,"115":-0.3263772130012512,"116":0.8669869899749756,"117":0.15308386087417603,"118":0.4044259786605835,"119":1.109384298324585,"120":-3.5083534717559814,"121":-3.9035096168518066,"122":2.5066802501678467,"123":2.77667498588562,"124":0.060460880398750305,"125":2.6012680530548096,"126":2.119673728942871,"127":1.5309693813323975,"128":1.063951849937439,"129":0.47266659140586853,"130":0.779003381729126,"131":0.5548080801963806,"132":1.0818235874176025,"133":-0.5760385990142822,"134":0.081220343708992}},"23":{"bias":-2.1809449195861816,"weights":{"0":-0.23646222054958344,"1":0.9601898193359375,"2":1.3976588249206543,"3":-0.4635889232158661,"4":-4.640650749206543,"5":0.5666567087173462,"6":0.40494003891944885,"7":0.3330439031124115,"8":-3.54986834526062,"9":2.8801093101501465,"10":0.30357950925827026,"11":-0.7959781289100647,"12":-1.856387734413147,"13":-0.8839290738105774,"14":-1.993359923362732,"15":-0.0526326447725296,"16":-1.0346651077270508,"17":2.9107649326324463,"18":-0.8202806115150452,"19":1.5660700798034668,"20":2.4661319255828857,"21":-1.2541306018829346,"22":-1.5375374555587769,"23":1.1588131189346313,"24":0.9548061490058899,"25":-1.6117349863052368,"26":2.379269599914551,"27":-0.017712216824293137,"28":0.7825321555137634,"29":0.05158647522330284,"30":-1.0003809928894043,"31":0.9397799968719482,"32":1.1989589929580688,"33":-0.18000636994838715,"34":0.7040289640426636,"35":0.456959068775177,"36":-3.6120822429656982,"37":-1.9017926454544067,"38":2.5288336277008057,"39":-4.4915385246276855,"40":2.4299445152282715,"41":2.2229578495025635,"42":-1.6119704246520996,"43":0.0444464348256588,"44":0.37661951780319214,"45":-1.9212815761566162,"46":0.021166983991861343,"47":0.39494702219963074,"48":-1.079210877418518,"49":-1.157997488975525,"50":-0.13020196557044983,"51":1.5798900127410889,"52":0.4016727805137634,"53":0.2809637784957886,"54":-1.1150437593460083,"55":2.3892245292663574,"56":-2.232146739959717,"57":-3.020404577255249,"58":-2.3684706687927246,"59":0.7826087474822998,"60":0.6714274287223816,"61":1.96321702003479,"62":-1.2814496755599976,"63":-0.573650062084198,"64":3.0228991508483887,"65":-0.45934590697288513,"66":-3.4729442596435547,"67":-3.9395487308502197,"68":2.2160534858703613,"69":0.30764710903167725,"70":1.1639776229858398,"71":0.4670006334781647,"72":2.646857738494873,"73":-2.1775121688842773,"74":3.1343774795532227,"75":-0.8374782204627991,"76":0.8251516819000244,"77":0.6202086806297302,"78":-0.6750249266624451,"79":-1.3733166456222534,"80":0.4464628994464874,"81":-1.3161834478378296,"82":0.33789610862731934,"83":1.2285813093185425,"84":-0.286363810300827,"85":0.07737717777490616,"86":-2.8626129627227783,"87":0.930637538433075,"88":-1.1672745943069458,"89":-3.485327959060669,"90":1.2494020462036133,"91":1.8485612869262695,"92":-1.030229091644287,"93":-3.257753610610962,"94":0.9480624198913574,"95":0.07796698063611984,"96":0.6167707443237305,"97":-0.09340178966522217,"98":2.2829530239105225,"99":0.8575599193572998,"100":0.6193102598190308,"101":-0.9439513087272644,"102":-2.0688140392303467,"103":1.0130656957626343,"104":1.075710415840149,"105":-0.17625828087329865,"106":1.1838924884796143,"107":0.09093458205461502,"108":2.573075294494629,"109":-0.6995313167572021,"110":1.5141360759735107,"111":-0.33555418252944946,"112":0.375242680311203,"113":0.902641236782074,"114":-0.19362662732601166,"115":-1.3697304725646973,"116":0.8609472513198853,"117":0.18806852400302887,"118":-0.7928795218467712,"119":0.9468327164649963,"120":-2.083648443222046,"121":-3.0308215618133545,"122":0.4221305549144745,"123":0.07540291547775269,"124":0.5404090881347656,"125":-2.6908442974090576,"126":0.010957920923829079,"127":-3.262953996658325,"128":3.138551712036133,"129":0.11923712491989136,"130":0.04222610592842102,"131":0.4388628900051117,"132":0.10469204932451248,"133":-0.4943051338195801,"134":-0.1758144348859787}},"24":{"bias":-4.704850673675537,"weights":{"0":-0.13114605844020844,"1":-4.538765907287598,"2":-2.347241163253784,"3":-2.2901203632354736,"4":0.35237568616867065,"5":-1.502568244934082,"6":3.0593819618225098,"7":-0.7312419414520264,"8":1.2670748233795166,"9":0.48485440015792847,"10":0.3632672131061554,"11":2.303104877471924,"12":0.2569751441478729,"13":-1.7514846324920654,"14":-1.7191568613052368,"15":-1.0876820087432861,"16":0.6211966872215271,"17":2.8017592430114746,"18":-0.3501032292842865,"19":1.1734654903411865,"20":0.3704764246940613,"21":-3.1677844524383545,"22":0.6235403418540955,"23":-0.22762534022331238,"24":1.5741993188858032,"25":0.7187090516090393,"26":-0.9237659573554993,"27":0.06857544183731079,"28":-3.745859384536743,"29":-3.5777242183685303,"30":4.426752090454102,"31":-5.402889728546143,"32":-2.1586780548095703,"33":1.5628153085708618,"34":-1.007487416267395,"35":0.2796161472797394,"36":-2.4016926288604736,"37":-0.18115469813346863,"38":2.461956739425659,"39":0.09119778126478195,"40":-2.8742053508758545,"41":-3.219815254211426,"42":-1.8359854221343994,"43":0.2075900435447693,"44":4.824162483215332,"45":-2.754042148590088,"46":4.971095561981201,"47":1.0491160154342651,"48":1.3084958791732788,"49":-1.1627039909362793,"50":-1.2698181867599487,"51":5.6135430335998535,"52":1.0727956295013428,"53":-1.2627041339874268,"54":3.114553689956665,"55":2.999411106109619,"56":-1.9535659551620483,"57":4.887167453765869,"58":-3.831486463546753,"59":-4.2351226806640625,"60":-0.29327505826950073,"61":-0.4210926294326782,"62":-0.40365907549858093,"63":-1.8612819910049438,"64":1.5127644538879395,"65":-1.6135449409484863,"66":-2.3672068119049072,"67":-3.48877215385437,"68":2.005352020263672,"69":-0.17873793840408325,"70":-0.547355055809021,"71":-0.5478491187095642,"72":5.7081990242004395,"73":-0.9733342528343201,"74":-2.0570905208587646,"75":-2.6463043689727783,"76":-1.9480805397033691,"77":-0.9937984347343445,"78":0.5367223620414734,"79":4.957115173339844,"80":-0.2065657526254654,"81":3.441053867340088,"82":1.9400125741958618,"83":1.1851441860198975,"84":-0.0759078860282898,"85":-2.2306771278381348,"86":-3.458425998687744,"87":0.6358847618103027,"88":-0.6070485711097717,"89":-1.3116909265518188,"90":-2.573575973510742,"91":1.1172152757644653,"92":-4.7488322257995605,"93":1.8372572660446167,"94":-7.6944684982299805,"95":0.9115378260612488,"96":0.5292653441429138,"97":-0.06376498937606812,"98":-1.8126245737075806,"99":4.134402751922607,"100":5.841073989868164,"101":-0.6821535229682922,"102":-2.3338582515716553,"103":-1.4058085680007935,"104":-0.8585887551307678,"105":1.263129711151123,"106":2.1970834732055664,"107":0.034562405198812485,"108":-1.8508843183517456,"109":-1.072891116142273,"110":-1.835595726966858,"111":3.55171275138855,"112":1.2951897382736206,"113":-1.5142853260040283,"114":0.8548603653907776,"115":-2.70328426361084,"116":-1.7491939067840576,"117":-0.11584827303886414,"118":-1.1807836294174194,"119":2.6361565589904785,"120":-3.031996488571167,"121":-3.6645689010620117,"122":-1.674686074256897,"123":0.004439702257514,"124":-0.5803009867668152,"125":3.1726717948913574,"126":2.8298213481903076,"127":5.497340679168701,"128":-3.238335132598877,"129":-0.34852334856987,"130":-0.6088549494743347,"131":-0.3874450922012329,"132":0.04534851014614105,"133":0.21649087965488434,"134":0.17103268206119537}},"25":{"bias":-5.910916328430176,"weights":{"0":3.101750135421753,"1":0.3643430471420288,"2":-3.11480975151062,"3":0.5173430442810059,"4":0.8704373240470886,"5":3.497260570526123,"6":-0.8831764459609985,"7":0.7592243552207947,"8":2.5318520069122314,"9":-3.451561212539673,"10":0.3553315997123718,"11":-0.6450469493865967,"12":0.5823935866355896,"13":-2.7348222732543945,"14":-0.8352136611938477,"15":0.14850452542304993,"16":0.1353224515914917,"17":1.0821207761764526,"18":-2.904426097869873,"19":-0.1707964837551117,"20":-1.7490324974060059,"21":-1.6376707553863525,"22":-1.9486547708511353,"23":-0.4327845275402069,"24":1.3336563110351562,"25":-2.029707908630371,"26":0.8541442155838013,"27":1.2071748971939087,"28":-2.1155829429626465,"29":-1.2663227319717407,"30":-1.403520107269287,"31":-3.624223470687866,"32":-0.39252910017967224,"33":0.3042766749858856,"34":3.3109383583068848,"35":3.9523634910583496,"36":-1.4091601371765137,"37":-0.9321056008338928,"38":-3.0596847534179688,"39":-0.12768851220607758,"40":-0.9439055919647217,"41":-3.270794630050659,"42":-0.5653806328773499,"43":-0.6241341233253479,"44":-0.8188230991363525,"45":1.5950204133987427,"46":2.3410747051239014,"47":-1.3403948545455933,"48":3.1872401237487793,"49":0.46297118067741394,"50":-0.20717157423496246,"51":0.16725362837314606,"52":0.15500518679618835,"53":-1.3298090696334839,"54":0.6520462036132812,"55":-2.5365946292877197,"56":1.6280964612960815,"57":0.40629279613494873,"58":-0.5129979252815247,"59":-0.9692951440811157,"60":4.369767189025879,"61":-2.651245355606079,"62":-1.7889800071716309,"63":-0.027273496612906456,"64":-2.287707567214966,"65":-1.1982029676437378,"66":-0.9836629629135132,"67":4.087475776672363,"68":-3.9252119064331055,"69":-1.5911118984222412,"70":-0.8309890627861023,"71":1.8934085369110107,"72":3.3801662921905518,"73":-0.9160535931587219,"74":-2.9370620250701904,"75":-1.502661108970642,"76":-0.4817497432231903,"77":-0.14904525876045227,"78":0.5819209814071655,"79":1.352160930633545,"80":0.447504460811615,"81":0.7561208605766296,"82":1.5505826473236084,"83":0.7926490306854248,"84":-0.4807872176170349,"85":-0.7312885522842407,"86":-0.4037589430809021,"87":2.893347978591919,"88":4.81172513961792,"89":0.2583736777305603,"90":0.4850858151912689,"91":-3.363567352294922,"92":-3.3084099292755127,"93":-1.6729363203048706,"94":-1.0940407514572144,"95":-2.627554178237915,"96":-0.8955928087234497,"97":-0.19547529518604279,"98":-1.2393759489059448,"99":-0.07987258583307266,"100":-1.8242751359939575,"101":-2.3182461261749268,"102":0.46358418464660645,"103":-1.0027954578399658,"104":0.6577557325363159,"105":1.4079229831695557,"106":0.42450666427612305,"107":-0.031222498044371605,"108":0.5688861608505249,"109":0.30687421560287476,"110":0.7497760653495789,"111":-2.035165786743164,"112":0.6115334033966064,"113":1.8294917345046997,"114":-0.6805346012115479,"115":4.517693996429443,"116":-1.9102450609207153,"117":-0.032772261649370193,"118":0.7425397634506226,"119":-3.7288432121276855,"120":2.6368703842163086,"121":1.605897068977356,"122":-0.04274006187915802,"123":-0.6725249886512756,"124":-0.028873801231384277,"125":-4.592151165008545,"126":0.6796975135803223,"127":-2.6423747539520264,"128":-2.7262237071990967,"129":-0.48753058910369873,"130":-0.35370591282844543,"131":-0.3316723704338074,"132":-1.508911371231079,"133":0.7129526734352112,"134":0.14081040024757385}},"26":{"bias":-6.903456687927246,"weights":{"0":0.8694445490837097,"1":0.2123977690935135,"2":0.18306206166744232,"3":-0.3930163085460663,"4":3.409705400466919,"5":2.245288848876953,"6":-1.486717939376831,"7":-3.2107760906219482,"8":-5.132325649261475,"9":-0.8459588885307312,"10":1.475813627243042,"11":5.613332748413086,"12":-2.3091931343078613,"13":-1.1647825241088867,"14":6.62514066696167,"15":-0.07289447635412216,"16":-1.1055326461791992,"17":-4.41461706161499,"18":-0.44478827714920044,"19":0.9909352660179138,"20":-0.27838751673698425,"21":-2.8719966411590576,"22":-1.884260654449463,"23":-0.8467444777488708,"24":-2.91349458694458,"25":-0.42742839455604553,"26":1.3139219284057617,"27":3.002140522003174,"28":-1.3893465995788574,"29":2.503276824951172,"30":-2.314756393432617,"31":0.46734368801116943,"32":-0.7852264642715454,"33":-3.3226280212402344,"34":-2.165238857269287,"35":2.5298399925231934,"36":-3.510472297668457,"37":-3.625307083129883,"38":5.718628883361816,"39":-0.3102991580963135,"40":2.495511054992676,"41":1.235448956489563,"42":0.9397512078285217,"43":0.09505753219127655,"44":-1.316028356552124,"45":-2.7413980960845947,"46":-1.4158655405044556,"47":2.9415087699890137,"48":1.503127932548523,"49":-0.4940892457962036,"50":-0.7570502758026123,"51":0.08135515451431274,"52":-3.5723073482513428,"53":-2.95375394821167,"54":3.5099117755889893,"55":-1.1335605382919312,"56":3.558276653289795,"57":-0.5016740560531616,"58":-2.1002089977264404,"59":0.7019602060317993,"60":-2.550723075866699,"61":1.4144210815429688,"62":-0.595312774181366,"63":0.37183621525764465,"64":-0.2134036272764206,"65":0.835820198059082,"66":-0.8047446012496948,"67":0.6602275967597961,"68":-0.21325087547302246,"69":-2.708035469055176,"70":0.5597441792488098,"71":0.6285526156425476,"72":-1.2279249429702759,"73":-5.24776554107666,"74":-0.3132999837398529,"75":2.9146888256073,"76":-0.07983680069446564,"77":-0.5435319542884827,"78":-2.0704994201660156,"79":-0.39897918701171875,"80":-1.315414309501648,"81":0.6687753796577454,"82":-1.3641225099563599,"83":1.7426668405532837,"84":2.9045891761779785,"85":-0.23902608454227448,"86":0.3721427619457245,"87":-2.4264426231384277,"88":0.21314510703086853,"89":-1.0259627103805542,"90":-0.6791781187057495,"91":1.9078840017318726,"92":2.4640934467315674,"93":2.9921164512634277,"94":2.3497657775878906,"95":-1.1897239685058594,"96":-4.52004861831665,"97":-0.10579917579889297,"98":-1.2416259050369263,"99":-2.1791772842407227,"100":3.481389284133911,"101":-3.365729570388794,"102":-3.172302722930908,"103":-1.766065001487732,"104":-0.029810544103384018,"105":-0.3749751150608063,"106":-1.616815447807312,"107":0.16973529756069183,"108":6.652776718139648,"109":-1.676293134689331,"110":-1.084466814994812,"111":-6.649919509887695,"112":1.4919767379760742,"113":1.3031402826309204,"114":1.0703963041305542,"115":2.9213595390319824,"116":0.6061882972717285,"117":-0.17265917360782623,"118":-0.9831264615058899,"119":-4.648900508880615,"120":-0.545405924320221,"121":-1.2777248620986938,"122":-1.5206218957901,"123":-1.0012625455856323,"124":-0.1821892261505127,"125":2.8721680641174316,"126":-2.4310779571533203,"127":-2.812790870666504,"128":3.165825366973877,"129":-0.5230379700660706,"130":-0.09510964155197144,"131":-0.9346380233764648,"132":0.6612033843994141,"133":-1.9274709224700928,"134":0.07186267524957657}},"27":{"bias":-1.700740933418274,"weights":{"0":5.7486748695373535,"1":2.0296075344085693,"2":-3.003972053527832,"3":2.8329734802246094,"4":1.3208987712860107,"5":-4.180330276489258,"6":-4.7530131340026855,"7":-0.7168541550636292,"8":-1.3599926233291626,"9":-0.8687283992767334,"10":3.447941541671753,"11":-4.343716144561768,"12":6.706653594970703,"13":4.79354190826416,"14":2.4699652194976807,"15":0.02758517861366272,"16":1.2127948999404907,"17":1.7205026149749756,"18":-6.719992160797119,"19":-1.9259282350540161,"20":-1.818854808807373,"21":-0.29758384823799133,"22":-2.1700003147125244,"23":0.08643209934234619,"24":-3.2250595092773438,"25":2.0204153060913086,"26":-0.6631629467010498,"27":-3.530569076538086,"28":-2.5227179527282715,"29":0.8101056218147278,"30":-6.292736530303955,"31":-4.551031589508057,"32":3.1861798763275146,"33":-3.2461719512939453,"34":0.5169356465339661,"35":-2.9167914390563965,"36":1.4181686639785767,"37":3.327089786529541,"38":0.5102881789207458,"39":0.039235979318618774,"40":0.9474260807037354,"41":2.244853973388672,"42":1.823116660118103,"43":1.6548913717269897,"44":2.6636359691619873,"45":5.519801616668701,"46":-3.754746437072754,"47":0.7203429341316223,"48":0.6707213521003723,"49":-1.0235693454742432,"50":-0.6300255060195923,"51":-0.9157249331474304,"52":3.907125949859619,"53":-2.7545418739318848,"54":-0.15228305757045746,"55":1.2341573238372803,"56":3.037177801132202,"57":-1.5004127025604248,"58":-3.1969406604766846,"59":-2.715855598449707,"60":3.2857370376586914,"61":-2.325993537902832,"62":-3.039334297180176,"63":1.8248473405838013,"64":0.0975167378783226,"65":-5.124983787536621,"66":4.164333343505859,"67":4.757170677185059,"68":-1.260097861289978,"69":0.9503191113471985,"70":-0.9039621353149414,"71":-4.17746639251709,"72":-1.3112037181854248,"73":2.609564781188965,"74":-1.8314076662063599,"75":1.5242574214935303,"76":2.5711262226104736,"77":0.015853404998779297,"78":-3.431299924850464,"79":-0.0897003784775734,"80":2.4986252784729004,"81":-1.6715083122253418,"82":2.29954195022583,"83":2.921224594116211,"84":3.0758113861083984,"85":0.08467373996973038,"86":-2.2909131050109863,"87":-1.5873311758041382,"88":2.2636852264404297,"89":2.2648932933807373,"90":3.037855863571167,"91":0.8351784944534302,"92":-2.550092935562134,"93":-5.585582256317139,"94":-4.463392734527588,"95":2.028470993041992,"96":-0.3609548807144165,"97":0.002354297786951065,"98":-2.819978713989258,"99":0.41439005732536316,"100":-1.584289789199829,"101":-1.764527440071106,"102":-1.3307461738586426,"103":1.2675179243087769,"104":2.0003108978271484,"105":1.5450040102005005,"106":-0.9869309663772583,"107":-0.05903138220310211,"108":0.417911171913147,"109":-1.9229633808135986,"110":2.578508138656616,"111":0.7430977821350098,"112":-2.6488780975341797,"113":1.3694188594818115,"114":0.16334587335586548,"115":0.8587104678153992,"116":-1.2507444620132446,"117":0.18344053626060486,"118":4.895485877990723,"119":1.3470045328140259,"120":1.0692256689071655,"121":0.6130645871162415,"122":2.4609644412994385,"123":0.9915670156478882,"124":0.9945111870765686,"125":-4.510507106781006,"126":-3.07300066947937,"127":-5.308078289031982,"128":-0.8751952052116394,"129":0.016196763142943382,"130":0.7148516178131104,"131":0.8197845816612244,"132":-1.0106592178344727,"133":-1.5794068574905396,"134":0.045719314366579056}},"28":{"bias":-3.8043012619018555,"weights":{"0":-2.5701968669891357,"1":-0.6729034781455994,"2":2.9761264324188232,"3":-0.08609860390424728,"4":-1.6881403923034668,"5":-1.0097556114196777,"6":-0.8253007531166077,"7":-1.013899564743042,"8":-0.9459534883499146,"9":-1.1863017082214355,"10":2.203981876373291,"11":-1.0320565700531006,"12":-0.18306471407413483,"13":-0.412105917930603,"14":2.700307846069336,"15":-0.3003596067428589,"16":0.8133405447006226,"17":-0.7361035346984863,"18":1.1970323324203491,"19":-1.9682806730270386,"20":1.9161618947982788,"21":-3.930208683013916,"22":-1.7033753395080566,"23":0.048710279166698456,"24":-0.2604932188987732,"25":1.3583472967147827,"26":2.804868459701538,"27":0.349010705947876,"28":2.111389398574829,"29":-2.5801477432250977,"30":-0.42785176634788513,"31":-0.051777224987745285,"32":0.132679745554924,"33":0.22968417406082153,"34":2.3311190605163574,"35":1.5603961944580078,"36":-2.002110004425049,"37":-2.821138858795166,"38":-2.5786349773406982,"39":-3.8629634380340576,"40":-2.1412816047668457,"41":2.652834177017212,"42":1.8158355951309204,"43":-0.6549326181411743,"44":-0.1573512852191925,"45":0.14011803269386292,"46":-1.6137341260910034,"47":1.0287901163101196,"48":-0.22229287028312683,"49":0.5093895792961121,"50":-0.046023424714803696,"51":1.8689814805984497,"52":-0.7892037034034729,"53":0.9733275771141052,"54":-3.5257866382598877,"55":-4.8757171630859375,"56":-0.6790748834609985,"57":-3.6574583053588867,"58":-3.789292812347412,"59":0.11833428591489792,"60":3.390108823776245,"61":1.169519305229187,"62":2.1801013946533203,"63":1.4870939254760742,"64":0.5273435711860657,"65":-1.3337165117263794,"66":-2.213547468185425,"67":-2.0087435245513916,"68":2.3572347164154053,"69":0.33041176199913025,"70":0.2337612360715866,"71":0.048470184206962585,"72":1.213236689567566,"73":-1.7322583198547363,"74":1.9600707292556763,"75":3.1532015800476074,"76":0.25587835907936096,"77":-0.3683984875679016,"78":0.3543197810649872,"79":0.3740614950656891,"80":0.17827381193637848,"81":0.8757302761077881,"82":-3.4069340229034424,"83":0.42798927426338196,"84":-0.33430296182632446,"85":-1.8204636573791504,"86":-2.3172335624694824,"87":0.10954929888248444,"88":0.7410505414009094,"89":2.295246124267578,"90":0.29299983382225037,"91":-1.1654832363128662,"92":0.9824865460395813,"93":-0.7067638635635376,"94":2.936974048614502,"95":1.3156516551971436,"96":1.2616702318191528,"97":0.027484187856316566,"98":-2.556302070617676,"99":-1.0611233711242676,"100":-3.7738935947418213,"101":1.4961762428283691,"102":-1.766045331954956,"103":-0.027448834851384163,"104":-0.1975216567516327,"105":1.9343006610870361,"106":0.07130688428878784,"107":-0.10116834193468094,"108":-0.01632700301706791,"109":-1.3060212135314941,"110":0.33909493684768677,"111":-0.9130373597145081,"112":-7.707338333129883,"113":0.892275869846344,"114":0.5693216323852539,"115":0.38513731956481934,"116":-0.15011285245418549,"117":0.06122204661369324,"118":0.6116956472396851,"119":3.0336880683898926,"120":2.312936544418335,"121":1.142667293548584,"122":0.46448978781700134,"123":0.7450512647628784,"124":-0.036712463945150375,"125":-2.5399768352508545,"126":-1.214982509613037,"127":-2.7399914264678955,"128":-0.6398604512214661,"129":-0.15377317368984222,"130":0.28147125244140625,"131":1.1490825414657593,"132":-0.6313191652297974,"133":1.7508701086044312,"134":0.12799836695194244}},"29":{"bias":-4.576358795166016,"weights":{"0":-2.613823413848877,"1":0.5830621719360352,"2":-1.0884522199630737,"3":-0.371503084897995,"4":0.5850974321365356,"5":-1.527005672454834,"6":-1.3606057167053223,"7":-0.09685467183589935,"8":1.1433249711990356,"9":0.09450315684080124,"10":1.9311728477478027,"11":3.191863775253296,"12":-2.368053436279297,"13":-1.0592315196990967,"14":-1.8176906108856201,"15":0.05533462017774582,"16":0.32970964908599854,"17":1.2144155502319336,"18":0.5068516731262207,"19":-1.0485965013504028,"20":0.12311714887619019,"21":-2.2356278896331787,"22":-1.9918849468231201,"23":-0.17726343870162964,"24":1.0275813341140747,"25":1.3241158723831177,"26":0.035588812083005905,"27":-5.3224287033081055,"28":1.2439745664596558,"29":-0.8064611554145813,"30":-1.9089828729629517,"31":-5.182506084442139,"32":0.2598446309566498,"33":1.3521432876586914,"34":-0.0012156330049037933,"35":1.1989564895629883,"36":5.2715935707092285,"37":-1.3953349590301514,"38":1.94167959690094,"39":-3.787384271621704,"40":-1.0868085622787476,"41":3.651906967163086,"42":-0.46103474497795105,"43":-0.04413992911577225,"44":0.5507116317749023,"45":-2.194761037826538,"46":-1.5919208526611328,