{"sizes":[135,16,1],"layers":[{"0":{},"1":{},"2":{},"3":{},"4":{},"5":{},"6":{},"7":{},"8":{},"9":{},"10":{},"11":{},"12":{},"13":{},"14":{},"15":{},"16":{},"17":{},"18":{},"19":{},"20":{},"21":{},"22":{},"23":{},"24":{},"25":{},"26":{},"27":{},"28":{},"29":{},"30":{},"31":{},"32":{},"33":{},"34":{},"35":{},"36":{},"37":{},"38":{},"39":{},"40":{},"41":{},"42":{},"43":{},"44":{},"45":{},"46":{},"47":{},"48":{},"49":{},"50":{},"51":{},"52":{},"53":{},"54":{},"55":{},"56":{},"57":{},"58":{},"59":{},"60":{},"61":{},"62":{},"63":{},"64":{},"65":{},"66":{},"67":{},"68":{},"69":{},"70":{},"71":{},"72":{},"73":{},"74":{},"75":{},"76":{},"77":{},"78":{},"79":{},"80":{},"81":{},"82":{},"83":{},"84":{},"85":{},"86":{},"87":{},"88":{},"89":{},"90":{},"91":{},"92":{},"93":{},"94":{},"95":{},"96":{},"97":{},"98":{},"99":{},"100":{},"101":{},"102":{},"103":{},"104":{},"105":{},"106":{},"107":{},"108":{},"109":{},"110":{},"111":{},"112":{},"113":{},"114":{},"115":{},"116":{},"117":{},"118":{},"119":{},"120":{},"121":{},"122":{},"123":{},"124":{},"125":{},"126":{},"127":{},"128":{},"129":{},"130":{},"131":{},"132":{},"133":{},"134":{}},{"0":{"bias":-2.8697562217712402,"weights":{"0":2.037057638168335,"1":-0.5913145542144775,"2":1.0795201063156128,"3":-1.8961505889892578,"4":-0.025272144004702568,"5":2.2661495208740234,"6":1.1931062936782837,"7":-1.6911637783050537,"8":-0.028926406055688858,"9":0.638222336769104,"10":0.5249424576759338,"11":-0.19677510857582092,"12":-1.9215130805969238,"13":-2.5043399333953857,"14":0.29752737283706665,"15":2.2085866928100586,"16":-0.14871756732463837,"17":-1.9215155839920044,"18":-1.5671831369400024,"19":0.24985270202159882,"20":-0.4205080270767212,"21":-0.2199968695640564,"22":-0.7791192531585693,"23":0.7978048920631409,"24":0.42814967036247253,"25":-1.4439692497253418,"26":-0.4276813566684723,"27":4.344191074371338,"28":-2.811438798904419,"29":-0.832545280456543,"30":-1.2289369106292725,"31":2.1219840049743652,"32":2.8760461807250977,"33":-3.728717088699341,"34":1.1886087656021118,"35":-2.535080909729004,"36":2.825456142425537,"37":-1.8253284692764282,"38":1.3599807024002075,"39":-0.28436002135276794,"40":-2.1612963676452637,"41":1.8381084203720093,"42":0.5983890295028687,"43":0.32647302746772766,"44":-0.3903051018714905,"45":-0.3869435787200928,"46":-3.2679378986358643,"47":1.9718961715698242,"48":-2.5537428855895996,"49":1.5100305080413818,"50":0.8225926160812378,"51":-2.749359369277954,"52":0.8734135627746582,"53":-0.6457409858703613,"54":2.1851117610931396,"55":-0.5074713230133057,"56":3.466681957244873,"57":-2.719111919403076,"58":0.07725387066602707,"59":3.2417547702789307,"60":-2.307321310043335,"61":1.9240540266036987,"62":-3.243675708770752,"63":0.38621005415916443,"64":-0.9727427959442139,"65":1.051275610923767,"66":-2.304802894592285,"67":0.8108955025672913,"68":-2.403998374938965,"69":0.4219913184642792,"70":1.592918872833252,"71":-0.5159831643104553,"72":-1.846494436264038,"73":-2.5796427726745605,"74":-1.1558409929275513,"75":1.8078117370605469,"76":0.10462290793657303,"77":0.2754874527454376,"78":-1.8666455745697021,"79":2.813098192214966,"80":0.1450301557779312,"81":0.324785441160202,"82":2.6584815979003906,"83":1.7022736072540283,"84":2.5205657482147217,"85":-5.1208815574646,"86":0.9776932597160339,"87":-0.7829320430755615,"88":-2.555600881576538,"89":-3.824155569076538,"90":0.827808678150177,"91":2.344297409057617,"92":-2.084291934967041,"93":2.2464728355407715,"94":-4.203437805175781,"95":0.351335346698761,"96":1.1855454444885254,"97":0.08494337648153305,"98":2.0064945220947266,"99":1.2077691555023193,"100":1.9755964279174805,"101":-5.591403961181641,"102":1.5876882076263428,"103":1.0264594554901123,"104":0.8073723912239075,"105":-4.020482540130615,"106":1.294275164604187,"107":-0.08361198008060455,"108":-4.344722270965576,"109":-2.5098817348480225,"110":0.984626293182373,"111":1.047108769416809,"112":-0.9098455905914307,"113":-0.08184468001127243,"114":1.1913015842437744,"115":-3.1441330909729004,"116":-2.199456214904785,"117":0.03006233461201191,"118":1.0835647583007812,"119":3.257124185562134,"120":2.181447982788086,"121":2.0093698501586914,"122":0.9726070165634155,"123":0.3099345862865448,"124":1.0519849061965942,"125":-2.915614128112793,"126":-0.650831401348114,"127":-0.8242016434669495,"128":-0.2660502791404724,"129":0.00710445549339056,"130":0.016777563840150833,"131":1.9973163604736328,"132":-2.9848222732543945,"133":1.743009328842163,"134":-0.0071081421338021755}},"1":{"bias":-5.113666534423828,"weights":{"0":-3.30869197845459,"1":-0.20531588792800903,"2":1.2844582796096802,"3":-1.513976812362671,"4":-5.633998870849609,"5":-0.6606696248054504,"6":4.245168209075928,"7":-1.0311427116394043,"8":0.09678297489881516,"9":-1.3705651760101318,"10":1.584066390991211,"11":1.7856839895248413,"12":1.0480992794036865,"13":-1.0793633460998535,"14":-1.2455412149429321,"15":-0.5665048360824585,"16":-0.07408639043569565,"17":0.8389856219291687,"18":0.3867076635360718,"19":2.50138258934021,"20":-1.0691953897476196,"21":-0.6843301057815552,"22":0.143474280834198,"23":-0.12001063674688339,"24":1.694844365119934,"25":-0.4049096405506134,"26":-2.118931531906128,"27":0.6512097120285034,"28":-1.6135454177856445,"29":-3.3195595741271973,"30":-0.7201435565948486,"31":-3.4019086360931396,"32":-2.8037054538726807,"33":1.3003677129745483,"34":1.156590461730957,"35":-3.476942300796509,"36":1.3963673114776611,"37":0.815278947353363,"38":0.6420976519584656,"39":-0.7371235489845276,"40":2.0669453144073486,"41":0.30478301644325256,"42":-1.5735375881195068,"43":1.6086854934692383,"44":3.2427468299865723,"45":-0.9606572985649109,"46":-1.7472392320632935,"47":1.7497097253799438,"48":-1.0729674100875854,"49":-0.11384586244821548,"50":-0.22129464149475098,"51":-0.6330808401107788,"52":-0.34689727425575256,"53":2.7503929138183594,"54":-0.397937148809433,"55":-0.4272887706756592,"56":-1.1298149824142456,"57":0.9095578789710999,"58":-3.5557069778442383,"59":-1.2392336130142212,"60":0.7221760153770447,"61":0.06655469536781311,"62":-1.915245532989502,"63":-1.0858663320541382,"64":-0.37139657139778137,"65":-1.3204761743545532,"66":0.5344682335853577,"67":-1.6432846784591675,"68":2.445570945739746,"69":-0.37807077169418335,"70":-0.7084563374519348,"71":1.4159126281738281,"72":1.5761667490005493,"73":0.4495198428630829,"74":-1.2924935817718506,"75":0.17148907482624054,"76":-0.9112052321434021,"77":-0.45596763491630554,"78":-1.225829839706421,"79":2.5164875984191895,"80":1.5351217985153198,"81":0.9528897404670715,"82":-1.7147477865219116,"83":-0.9024453163146973,"84":-0.3483053147792816,"85":1.2756407260894775,"86":-1.003746747970581,"87":-1.1895740032196045,"88":0.1503293514251709,"89":1.0154751539230347,"90":-0.5112438797950745,"91":0.6331377029418945,"92":-2.334791421890259,"93":2.542924404144287,"94":-5.329257011413574,"95":1.934928059577942,"96":-1.3171398639678955,"97":-0.17706096172332764,"98":1.0928455591201782,"99":-1.951993465423584,"100":0.6017303466796875,"101":-0.0324094183743,"102":-0.13014304637908936,"103":0.1482047587633133,"104":0.07396917790174484,"105":1.2029350996017456,"106":-1.267224907875061,"107":0.17771023511886597,"108":-0.7868953943252563,"109":0.9092870950698853,"110":-0.7133530974388123,"111":0.430046409368515,"112":1.1351085901260376,"113":-0.3856370747089386,"114":-0.1424112766981125,"115":0.018755078315734863,"116":-0.33762288093566895,"117":0.026680901646614075,"118":-1.1322017908096313,"119":-1.8419076204299927,"120":0.08511698246002197,"121":0.04528364911675453,"122":-1.0151323080062866,"123":-0.9227311015129089,"124":-0.5081764459609985,"125":-2.4441757202148438,"126":-0.14274640381336212,"127":4.559965133666992,"128":-1.6057000160217285,"129":-0.08760856091976166,"130":-0.2416936159133911,"131":-0.2883324921131134,"132":0.597524106502533,"133":-0.4056934416294098,"134":-0.03514537215232849}},"2":{"bias":-3.475407838821411,"weights":{"0":-0.6397963166236877,"1":1.029931664466858,"2":-1.628856897354126,"3":-1.8357110023498535,"4":0.3126552700996399,"5":0.8042457699775696,"6":1.7478595972061157,"7":1.0552239418029785,"8":-1.9563333988189697,"9":1.8524329662322998,"10":2.608227252960205,"11":0.10477530211210251,"12":-3.1524078845977783,"13":-0.3152654767036438,"14":-1.4858688116073608,"15":-0.013381604105234146,"16":1.3529632091522217,"17":-2.0343267917633057,"18":-1.4434195756912231,"19":-0.8602014183998108,"20":0.8702114820480347,"21":3.6635172367095947,"22":-0.4764576554298401,"23":-0.2218141406774521,"24":-1.4317585229873657,"25":-0.15991827845573425,"26":-1.8122320175170898,"27":0.3496968448162079,"28":-1.7693333625793457,"29":-0.10513491183519363,"30":-1.4836862087249756,"31":-0.7464241981506348,"32":1.3786349296569824,"33":-1.1765918731689453,"34":-0.7429123520851135,"35":0.00923850852996111,"36":0.26851141452789307,"37":-0.8275618553161621,"38":-1.509716510772705,"39":0.15575970709323883,"40":1.872039794921875,"41":-0.3065294027328491,"42":0.04696517437696457,"43":-1.389966607093811,"44":-2.2381205558776855,"45":2.782564640045166,"46":0.16192671656608582,"47":0.31089577078819275,"48":-0.10171832889318466,"49":-0.3020309507846832,"50":1.943581461906433,"51":0.28251656889915466,"52":1.0291305780410767,"53":-1.8078413009643555,"54":-0.5474086403846741,"55":-3.6248056888580322,"56":2.086864709854126,"57":-1.68108069896698,"58":-0.4614027440547943,"59":-0.3434731662273407,"60":-4.279726505279541,"61":0.5697124600410461,"62":1.3600568771362305,"63":-0.04228993132710457,"64":2.2420525550842285,"65":4.15718936920166,"66":0.879194438457489,"67":-0.11232959479093552,"68":-2.4551429748535156,"69":-0.14709970355033875,"70":0.21691779792308807,"71":-0.4710600972175598,"72":1.1808429956436157,"73":-4.685143947601318,"74":3.444014310836792,"75":-1.6696743965148926,"76":1.0374544858932495,"77":0.6192010641098022,"78":-1.1020686626434326,"79":0.24158552289009094,"80":-0.03515714406967163,"81":1.438382625579834,"82":2.5796523094177246,"83":-2.568629026412964,"84":0.9348535537719727,"85":-1.0751070976257324,"86":-2.6743204593658447,"87":-0.02906557358801365,"88":0.6677892804145813,"89":-3.1640937328338623,"90":2.4294590950012207,"91":-2.626293897628784,"92":0.014663588255643845,"93":3.0103209018707275,"94":1.1800097227096558,"95":0.9196417331695557,"96":3.3848876953125,"97":-0.1476711630821228,"98":-2.297175884246826,"99":-1.6129913330078125,"100":0.9870827198028564,"101":-3.5785374641418457,"102":0.8276013135910034,"103":0.6724565029144287,"104":-0.03908945247530937,"105":-1.9057921171188354,"106":-0.8011007308959961,"107":0.09067115932703018,"108":-4.104654788970947,"109":2.088284730911255,"110":-0.5744945406913757,"111":-0.37416872382164,"112":-2.7466745376586914,"113":0.6524153351783752,"114":-0.5843592286109924,"115":-3.482416868209839,"116":-2.0907747745513916,"117":-0.002502717077732086,"118":-0.910502016544342,"119":5.177510738372803,"120":-0.9369809627532959,"121":-1.7943943738937378,"122":2.401334762573242,"123":1.7963988780975342,"124":0.17997586727142334,"125":-2.3106000423431396,"126":2.9149489402770996,"127":-1.6643574237823486,"128":0.25888538360595703,"129":1.5022684335708618,"130":0.3575597405433655,"131":2.6929454803466797,"132":-1.9936660528182983,"133":-0.25136199593544006,"134":0.08804101496934891}},"3":{"bias":-1.247313141822815,"weights":{"0":-0.5685486793518066,"1":3.207864761352539,"2":1.8587701320648193,"3":1.0643880367279053,"4":-2.0083043575286865,"5":0.6648236513137817,"6":0.33127325773239136,"7":-0.7521853446960449,"8":-1.4581904411315918,"9":-0.39547714591026306,"10":-3.6852784156799316,"11":-0.8047307729721069,"12":-0.3505362570285797,"13":0.2573469579219818,"14":2.1293928623199463,"15":2.602316379547119,"16":-0.3795287311077118,"17":-1.625133991241455,"18":0.8897085189819336,"19":-0.8448143601417542,"20":0.48678526282310486,"21":-1.4319287538528442,"22":-1.2193584442138672,"23":1.1155356168746948,"24":-0.9076391458511353,"25":0.6847518682479858,"26":-0.9635407328605652,"27":-0.15958036482334137,"28":2.6962838172912598,"29":1.358801007270813,"30":0.9436283111572266,"31":-1.2345936298370361,"32":0.2165345847606659,"33":-0.40279442071914673,"34":0.2155781239271164,"35":-0.8232755661010742,"36":-0.08693629503250122,"37":-0.183623269200325,"38":-2.9215586185455322,"39":-2.1627798080444336,"40":1.2508676052093506,"41":0.23972153663635254,"42":3.382298231124878,"43":0.8855858445167542,"44":-0.3763449788093567,"45":-0.9582375288009644,"46":-0.06444751471281052,"47":1.1927424669265747,"48":-1.0304826498031616,"49":0.7404136657714844,"50":-0.07308708131313324,"51":0.033445559442043304,"52":-2.929041862487793,"53":-0.7699076533317566,"54":-1.4698944091796875,"55":2.4436659812927246,"56":0.4078420400619507,"57":0.3890640139579773,"58":-2.130979061126709,"59":0.5428899526596069,"60":2.7025771141052246,"61":-1.7929630279541016,"62":-5.438342571258545,"63":-0.06982709467411041,"64":0.44790172576904297,"65":-1.8670414686203003,"66":-4.493511199951172,"67":0.22197479009628296,"68":2.7767138481140137,"69":-0.07549037784337997,"70":0.13968047499656677,"71":-2.3548333644866943,"72":1.073955774307251,"73":-0.09060470759868622,"74":4.3077006340026855,"75":2.5846734046936035,"76":2.296285629272461,"77":0.8777915239334106,"78":-4.103487491607666,"79":1.1615824699401855,"80":-0.16684986650943756,"81":2.187966823577881,"82":1.7258200645446777,"83":-1.5529990196228027,"84":1.3222920894622803,"85":-2.346895933151245,"86":-0.1975298672914505,"87":1.7814449071884155,"88":-0.4628176689147949,"89":-0.2197890281677246,"90":0.008778875693678856,"91":0.6111876368522644,"92":-2.141174077987671,"93":-3.4436771869659424,"94":0.3311710059642792,"95":1.180291771888733,"96":-0.02427053451538086,"97":0.11409015208482742,"98":4.467507362365723,"99":-1.9058780670166016,"100":-1.6171547174453735,"101":-1.5038528442382812,"102":0.5726068615913391,"103":0.6888580918312073,"104":0.03810612112283707,"105":-0.21642586588859558,"106":-1.473745346069336,"107":0.11174750328063965,"108":-10.584588050842285,"109":-0.42480480670928955,"110":0.35127270221710205,"111":-2.80771541595459,"112":-2.4334774017333984,"113":0.34753522276878357,"114":2.4715933799743652,"115":-1.5353741645812988,"116":-2.0063319206237793,"117":-0.13833431899547577,"118":0.24074210226535797,"119":-0.38439667224884033,"120":4.3532185554504395,"121":3.8352725505828857,"122":6.3665876388549805,"123":0.953643262386322,"124":0.7974067330360413,"125":-2.3280718326568604,"126":0.2730715572834015,"127":-0.03398682177066803,"128":1.012033224105835,"129":0.13764575123786926,"130":0.4040054976940155,"131":0.5266615152359009,"132":-2.077613115310669,"133":0.3774748742580414,"134":-0.09240559488534927}},"4":{"bias":-6.58117151260376,"weights":{"0":-2.001535415649414,"1":0.19039559364318848,"2":1.589113473892212,"3":1.5274858474731445,"4":0.6213037371635437,"5":0.9948395490646362,"6":0.6312480568885803,"7":-1.0444265604019165,"8":0.6400420665740967,"9":-2.128967046737671,"10":-0.17942790687084198,"11":-2.246332883834839,"12":-0.2724996507167816,"13":-1.5517834424972534,"14":-0.7022634744644165,"15":1.2937414646148682,"16":-0.03955419361591339,"17":-1.3246450424194336,"18":-0.4644252061843872,"19":-1.896270513534546,"20":-0.20438510179519653,"21":-0.47809678316116333,"22":0.15044789016246796,"23":0.07912751287221909,"24":0.6669272780418396,"25":2.215728521347046,"26":-2.3301596641540527,"27":0.5311400294303894,"28":-0.43537771701812744,"29":0.12427546828985214,"30":0.14769156277179718,"31":-1.7293967008590698,"32":0.8953415155410767,"33":0.06672828644514084,"34":-1.385456919670105,"35":-2.407651901245117,"36":-1.1848013401031494,"37":-1.3024779558181763,"38":3.489086627960205,"39":-0.9858604073524475,"40":-1.396228313446045,"41":0.4396180808544159,"42":1.5465278625488281,"43":-0.9015132784843445,"44":0.8572273850440979,"45":-0.010793852619826794,"46":-4.081417560577393,"47":-1.8521442413330078,"48":-1.8458380699157715,"49":2.80680251121521,"50":-0.21860221028327942,"51":0.5946334600448608,"52":1.0541526079177856,"53":-0.1326766312122345,"54":2.944990396499634,"55":-0.8721254467964172,"56":0.4946410357952118,"57":1.125732183456421,"58":1.0545727014541626,"59":0.8760408163070679,"60":-1.5313568115234375,"61":0.20610375702381134,"62":-0.3558078110218048,"63":-0.32402414083480835,"64":0.8881729245185852,"65":1.4619170427322388,"66":-3.046266794204712,"67":-1.4870896339416504,"68":0.9161659479141235,"69":-0.6626846790313721,"70":-0.40413469076156616,"71":-0.25402241945266724,"72":-0.24317848682403564,"73":-4.766777992248535,"74":-1.7551783323287964,"75":0.0027024876326322556,"76":-0.8463106155395508,"77":0.17614035308361053,"78":-0.7090755701065063,"79":-0.4696269631385803,"80":-0.4400944411754608,"81":3.6662936210632324,"82":-3.503591775894165,"83":-2.7906460762023926,"84":2.805795907974243,"85":1.4199494123458862,"86":-3.0701897144317627,"87":1.7008131742477417,"88":-0.34599626064300537,"89":-1.3946336507797241,"90":0.1403294801712036,"91":-1.1100364923477173,"92":0.39635294675827026,"93":-0.7977381944656372,"94":3.069021224975586,"95":-1.9835810661315918,"96":-1.2510689496994019,"97":-0.17234978079795837,"98":2.879840850830078,"99":-0.6205152869224548,"100":-2.3433845043182373,"101":-4.486213207244873,"102":0.3264254927635193,"103":-0.7593764662742615,"104":0.1535569429397583,"105":0.059409625828266144,"106":0.19982267916202545,"107":-0.1709412783384323,"108":5.251502513885498,"109":-0.4243856966495514,"110":-1.012831687927246,"111":-2.0839591026306152,"112":1.1315624713897705,"113":-0.913785994052887,"114":-0.2659236192703247,"115":4.734017848968506,"116":0.6568717360496521,"117":-0.03227518871426582,"118":-1.011067509651184,"119":-2.585846424102783,"120":-3.3217933177948,"121":-3.2645206451416016,"122":-1.5099109411239624,"123":-0.17246653139591217,"124":-0.2873579263687134,"125":3.4472687244415283,"126":0.6196072697639465,"127":-2.3395164012908936,"128":-1.6678087711334229,"129":-0.0811539888381958,"130":-0.15862056612968445,"131":-0.547757089138031,"132":0.07150718569755554,"133":-1.5712391138076782,"134":-0.045062653720378876}},"5":{"bias":-2.3848073482513428,"weights":{"0":-0.2754250764846802,"1":0.13253153860569,"2":0.08586612343788147,"3":-0.28255054354667664,"4":-0.15150944888591766,"5":0.02583627589046955,"6":-0.08150079101324081,"7":-0.09966880083084106,"8":-0.2386496663093567,"9":-0.22617556154727936,"10":-0.1906624436378479,"11":-0.31572210788726807,"12":0.05809997022151947,"13":0.008339829742908478,"14":-0.025564562529325485,"15":-0.09885847568511963,"16":-0.08521886169910431,"17":-0.08302021771669388,"18":-0.16731062531471252,"19":-0.2666659355163574,"20":-0.19560939073562622,"21":-0.14566104114055634,"22":0.12627099454402924,"23":-0.03289378434419632,"24":0.058888573199510574,"25":0.031238555908203125,"26":-0.33762437105178833,"27":-0.273227334022522,"28":-0.2353927344083786,"29":0.13763365149497986,"30":-0.3064153492450714,"31":-0.08080191165208817,"32":-0.0840960368514061,"33":0.05676776170730591,"34":-0.1957383006811142,"35":-0.23709996044635773,"36":-0.10462119430303574,"37":-0.04463982209563255,"38":-0.22063535451889038,"39":-0.13073836266994476,"40":-0.022531602531671524,"41":-0.10576654225587845,"42":-0.15050147473812103,"43":0.0017819068161770701,"44":-0.26493164896965027,"45":-0.011414100416004658,"46":-0.021198946982622147,"47":-0.2087513655424118,"48":-0.12105880677700043,"49":0.004006180912256241,"50":-0.2037079632282257,"51":-0.01675247959792614,"52":-0.061276257038116455,"53":0.11617393791675568,"54":-0.29377731680870056,"55":-0.1730124056339264,"56":0.015470648184418678,"57":0.06439466774463654,"58":-0.014863908290863037,"59":-0.1252719908952713,"60":-0.13425873219966888,"61":-0.1169705018401146,"62":-0.22772623598575592,"63":-0.15238560736179352,"64":-0.12779198586940765,"65":-0.12963809072971344,"66":-0.24841803312301636,"67":-0.29424381256103516,"68":-0.033756569027900696,"69":0.14379234611988068,"70":0.13034045696258545,"71":-0.008035860024392605,"72":0.08900502324104309,"73":-0.048891421407461166,"74":-0.07025420665740967,"75":-0.13066045939922333,"76":0.026012307032942772,"77":0.17510490119457245,"78":0.09759125858545303,"79":-0.01480408851057291,"80":0.058242231607437134,"81":-0.20045597851276398,"82":-0.1219138503074646,"83":-0.16642799973487854,"84":-0.1687270849943161,"85":-0.5332379937171936,"86":-0.09717117995023727,"87":0.021086663007736206,"88":0.03333309665322304,"89":-0.4504932761192322,"90":-0.09681129455566406,"91":-0.05276020988821983,"92":-0.06937967240810394,"93":0.02395361289381981,"94":-0.3496277928352356,"95":0.053102243691682816,"96":0.023638486862182617,"97":0.10234992951154709,"98":-0.017600424587726593,"99":-0.17357225716114044,"100":-0.04542123153805733,"101":0.016550511121749878,"102":-0.029780013486742973,"103":0.09755852073431015,"104":-0.1798081398010254,"105":0.1429845541715622,"106":-0.0782800018787384,"107":-0.07258816063404083,"108":0.07205656915903091,"109":-0.09065010398626328,"110":0.005055307410657406,"111":-0.05315627157688141,"112":-0.4063677489757538,"113":0.09962432086467743,"114":0.03939969092607498,"115":0.02960420399904251,"116":-0.5396960973739624,"117":-0.09427695721387863,"118":0.09376480430364609,"119":0.01034741010516882,"120":-0.15558092296123505,"121":-0.2140623927116394,"122":-0.09360893070697784,"123":-0.12011308968067169,"124":-0.1724657267332077,"125":-0.38938212394714355,"126":-0.06093098223209381,"127":0.09891802817583084,"128":-0.12503670156002045,"129":0.06333275139331818,"130":-0.19519378244876862,"131":0.0931939035654068,"132":-0.018208367750048637,"133":-0.1549404114484787,"134":0.15729990601539612}},"6":{"bias":-6.327098369598389,"weights":{"0":2.6188578605651855,"1":-1.0493075847625732,"2":1.275681734085083,"3":-0.3827848434448242,"4":0.32808583974838257,"5":-1.3925014734268188,"6":1.2025783061981201,"7":-1.5276061296463013,"8":0.2365008145570755,"9":-1.0620228052139282,"10":-0.1623150259256363,"11":1.3781996965408325,"12":2.6123807430267334,"13":1.5869412422180176,"14":-1.1823134422302246,"15":0.9114906787872314,"16":-0.9966235756874084,"17":-2.7664709091186523,"18":1.0453604459762573,"19":-0.7326962351799011,"20":-0.7362851500511169,"21":-3.0543642044067383,"22":-3.065030574798584,"23":-0.4515148401260376,"24":-1.0974304676055908,"25":-0.020903855562210083,"26":0.657131016254425,"27":2.9507832527160645,"28":1.0744550228118896,"29":0.32429251074790955,"30":-1.2606961727142334,"31":1.4197938442230225,"32":1.0103340148925781,"33":-0.9845689535140991,"34":-1.8083868026733398,"35":0.22535908222198486,"36":-0.8706108927726746,"37":1.6247622966766357,"38":-0.08452162891626358,"39":-3.6311280727386475,"40":0.707055926322937,"41":0.6073806285858154,"42":0.6018638014793396,"43":-0.1548314392566681,"44":1.9390836954116821,"45":-0.32481276988983154,"46":-0.11949929594993591,"47":-1.6433697938919067,"48":-2.475722551345825,"49":-4.377181053161621,"50":-0.4458799362182617,"51":-0.6658004522323608,"52":0.24143840372562408,"53":-1.703300952911377,"54":0.9241788387298584,"55":-0.286628395318985,"56":0.5894892811775208,"57":-2.8932642936706543,"58":0.0809272900223732,"59":-1.3926866054534912,"60":-2.2457144260406494,"61":-1.3887724876403809,"62":-0.8801173567771912,"63":0.6213827729225159,"64":-0.009101346135139465,"65":0.880897045135498,"66":0.770776629447937,"67":4.01445198059082,"68":2.831753969192505,"69":-0.7794345021247864,"70":-1.2620117664337158,"71":-6.105515003204346,"72":-2.8850507736206055,"73":-2.003247022628784,"74":2.7990543842315674,"75":0.7742140889167786,"76":0.9037065505981445,"77":-0.34943971037864685,"78":1.2084587812423706,"79":-1.482484221458435,"80":-0.1153980940580368,"81":0.6212537288665771,"82":0.23443840444087982,"83":1.489687204360962,"84":0.326530396938324,"85":-5.142459392547607,"86":-1.1883963346481323,"87":-1.3787813186645508,"88":-2.347961664199829,"89":-1.2602767944335938,"90":-1.8586814403533936,"91":-3.0138566493988037,"92":3.795358180999756,"93":1.0326861143112183,"94":3.535391330718994,"95":1.6924128532409668,"96":1.121479868888855,"97":-0.10185504704713821,"98":1.3318613767623901,"99":-1.7637802362442017,"100":2.321542263031006,"101":-0.7923615574836731,"102":-0.08526458591222763,"103":-0.9262244701385498,"104":-1.1562209129333496,"105":-2.600101947784424,"106":-0.86994469165802,"107":0.12189935892820358,"108":-0.040710266679525375,"109":0.8682273626327515,"110":-0.4483684003353119,"111":-1.8319556713104248,"112":2.4803881645202637,"113":-1.7874915599822998,"114":-1.4138187170028687,"115":1.1918171644210815,"116":2.7549664974212646,"117":-0.10249713063240051,"118":-0.35715362429618835,"119":-1.229000210762024,"120":-3.3037514686584473,"121":-0.8612913489341736,"122":-2.2418177127838135,"123":-0.1097283884882927,"124":-0.8091104626655579,"125":1.3431057929992676,"126":-3.1764843463897705,"127":-0.6976123452186584,"128":1.7957768440246582,"129":-0.5607825517654419,"130":-0.08575659245252609,"131":-0.46955400705337524,"132":3.2429065704345703,"133":-1.5943223237991333,"134":0.06714726984500885}},"7":{"bias":0.4612464904785156,"weights":{"0":-0.5305202007293701,"1":-0.8615841269493103,"2":1.3683528900146484,"3":-0.8175803422927856,"4":-0.4302899241447449,"5":0.5632917881011963,"6":1.8735380172729492,"7":0.2981564998626709,"8":-0.7564047574996948,"9":1.2627191543579102,"10":2.399723529815674,"11":0.4020214080810547,"12":1.1459579467773438,"13":-4.285785675048828,"14":2.0244827270507812,"15":0.17934095859527588,"16":1.8365094661712646,"17":0.7162835001945496,"18":0.2851492762565613,"19":0.631918728351593,"20":-2.223555564880371,"21":-2.4422147274017334,"22":-1.9372857809066772,"23":-0.012087320908904076,"24":0.567933976650238,"25":0.6605733633041382,"26":-1.8953276872634888,"27":-0.008764239028096199,"28":0.7545045018196106,"29":0.673332929611206,"30":-0.3397904932498932,"31":-1.7778531312942505,"32":-1.4812825918197632,"33":-1.6993225812911987,"34":-0.015524312853813171,"35":0.7939214110374451,"36":1.8035451173782349,"37":0.8060716390609741,"38":-1.417937994003296,"39":2.331897020339966,"40":-3.3659629821777344,"41":6.151680946350098,"42":-0.6439108848571777,"43":-1.8067641258239746,"44":-2.685882568359375,"45":-0.8560632467269897,"46":1.7206120491027832,"47":0.09093890339136124,"48":2.8946452140808105,"49":-0.8125988245010376,"50":0.8184889554977417,"51":1.386246919631958,"52":-0.6109064817428589,"53":-3.0506505966186523,"54":0.09992644190788269,"55":-3.207367181777954,"56":-1.115461826324463,"57":1.3258954286575317,"58":-0.7282364964485168,"59":3.269573450088501,"60":-0.8997780084609985,"61":0.09461528807878494,"62":3.4117255210876465,"63":1.722557544708252,"64":-0.3154902458190918,"65":-5.551651954650879,"66":0.10524891316890717,"67":-0.8078022599220276,"68":-0.5796447396278381,"69":1.3701012134552002,"70":2.2541403770446777,"71":-4.027523994445801,"72":-1.206264853477478,"73":-0.0813097357749939,"74":-0.2767978310585022,"75":2.8843061923980713,"76":1.897372841835022,"77":0.4464924931526184,"78":2.539555788040161,"79":-1.814594030380249,"80":-0.12606604397296906,"81":-4.518691062927246,"82":-0.664567232131958,"83":-1.146295428276062,"84":0.7609897255897522,"85":-2.3301782608032227,"86":3.660778284072876,"87":1.5608705282211304,"88":2.767800807952881,"89":-2.2952287197113037,"90":1.9116847515106201,"91":-0.44195327162742615,"92":-2.928354024887085,"93":1.6689094305038452,"94":-0.8410939574241638,"95":3.981278896331787,"96":3.1579749584198,"97":-0.17054900527000427,"98":-3.5333008766174316,"99":-1.31653892993927,"100":-3.4638543128967285,"101":2.553555727005005,"102":2.843435287475586,"103":2.42228364944458,"104":-0.4558126628398895,"105":-1.962349534034729,"106":-1.4748934507369995,"107":0.043529171496629715,"108":-2.2820396423339844,"109":0.053699832409620285,"110":3.292351722717285,"111":2.281820774078369,"112":-4.007230281829834,"113":-0.02336045540869236,"114":-1.8455259799957275,"115":1.2198209762573242,"116":-4.516877174377441,"117":0.06951647996902466,"118":2.6235451698303223,"119":1.0940146446228027,"120":0.6712778210639954,"121":0.22097711265087128,"122":3.6724276542663574,"123":0.35105425119400024,"124":2.550156831741333,"125":0.901866614818573,"126":-0.6103642582893372,"127":-0.8720943927764893,"128":-0.7164757251739502,"129":0.3187403678894043,"130":0.29670003056526184,"131":-0.1560838669538498,"132":-4.44425630569458,"133":0.17749027907848358,"134":-0.18270409107208252}},"8":{"bias":-2.5465266704559326,"weights":{"0":-0.0017574981320649385,"1":0.9437617659568787,"2":-1.8154370784759521,"3":1.4470175504684448,"4":-2.1788442134857178,"5":-0.1027044877409935,"6":-0.7701308727264404,"7":0.0322549045085907,"8":0.7357078194618225,"9":-1.339704990386963,"10":2.0560290813446045,"11":1.7994391918182373,"12":0.03256916627287865,"13":1.0530023574829102,"14":-0.16602270305156708,"15":-0.536412239074707,"16":-0.20121346414089203,"17":0.23540657758712769,"18":0.2630116045475006,"19":-1.8676952123641968,"20":0.509264349937439,"21":-0.6712902784347534,"22":-0.8329655528068542,"23":0.027164682745933533,"24":-0.17518757283687592,"25":0.12326067686080933,"26":-2.292335271835327,"27":-0.9336735606193542,"28":0.5584527254104614,"29":-0.9989109635353088,"30":1.2769699096679688,"31":-0.1439683884382248,"32":-0.7641162276268005,"33":-1.2690175771713257,"34":1.1552817821502686,"35":-0.4913143813610077,"36":-0.6150642037391663,"37":2.307366132736206,"38":2.139932870864868,"39":-1.2464466094970703,"40":0.597858190536499,"41":-2.865854501724243,"42":-0.20208190381526947,"43":-0.5467426776885986,"44":-0.053960029035806656,"45":-2.321897029876709,"46":2.8210411071777344,"47":-1.5122144222259521,"48":-0.6078783869743347,"49":0.5172713398933411,"50":0.191173255443573,"51":-0.5229292511940002,"52":-0.043033286929130554,"53":-0.5170682668685913,"54":-0.013359708711504936,"55":-1.4363453388214111,"56":-0.15544016659259796,"57":-2.574404001235962,"58":1.3680874109268188,"59":0.0626983568072319,"60":0.3636624813079834,"61":-0.03216399997472763,"62":-1.5897964239120483,"63":0.11809229105710983,"64":0.8412594795227051,"65":0.23259615898132324,"66":1.6808948516845703,"67":-0.00681754807010293,"68":-0.6039237976074219,"69":0.10266433656215668,"70":-0.007392123341560364,"71":-1.161632776260376,"72":1.8054927587509155,"73":-1.2057945728302002,"74":-1.72689688205719,"75":-0.28939810395240784,"76":0.2089928239583969,"77":0.5713104009628296,"78":-0.06741660833358765,"79":1.3477011919021606,"80":-0.05431582033634186,"81":-2.2420437335968018,"82":0.2884733974933624,"83":-0.32206031680107117,"84":0.7742063403129578,"85":-0.11897797882556915,"86":-0.3908270299434662,"87":-0.5297926664352417,"88":-0.20732606947422028,"89":-1.720811367034912,"90":-0.9473482966423035,"91":0.22700421512126923,"92":0.9033012986183167,"93":2.244990587234497,"94":0.8905016183853149,"95":1.43631112575531,"96":0.5891835689544678,"97":0.026483461260795593,"98":-0.11824657022953033,"99":0.06364032626152039,"100":-3.711228132247925,"101":-2.236673593521118,"102":0.19338257610797882,"103":0.3174304962158203,"104":0.24033896625041962,"105":-0.24299253523349762,"106":1.4541895389556885,"107":0.0864439383149147,"108":-1.329684853553772,"109":0.2698613107204437,"110":0.4195472002029419,"111":-1.4741647243499756,"112":-1.8817644119262695,"113":1.6143593788146973,"114":0.7403546571731567,"115":-1.3746258020401,"116":-2.615048408508301,"117":-0.043143730610609055,"118":-0.5066574811935425,"119":2.235766887664795,"120":-0.7009574770927429,"121":-1.8408286571502686,"122":0.8316434621810913,"123":0.1966552734375,"124":0.16874928772449493,"125":-0.05467764288187027,"126":-0.3896810710430145,"127":1.6650928258895874,"128":1.2354772090911865,"129":0.3758644461631775,"130":0.08662618696689606,"131":0.013121604919433594,"132":-1.6939705610275269,"133":0.42248407006263733,"134":0.0491904616355896}},"9":{"bias":-2.570908784866333,"weights":{"0":-0.8617247939109802,"1":0.9452611804008484,"2":0.02974247746169567,"3":0.8821996450424194,"4":0.5285742878913879,"5":0.8331682085990906,"6":-0.5414182543754578,"7":-0.09565294533967972,"8":-1.1879620552062988,"9":-1.0707199573516846,"10":0.07376855611801147,"11":0.5960783958435059,"12":-0.3299348056316376,"13":-0.9020645618438721,"14":-3.095409393310547,"15":-0.1297132670879364,"16":0.02609850838780403,"17":0.5143458843231201,"18":0.6531605124473572,"19":1.829613208770752,"20":-1.82723867893219,"21":0.07597720623016357,"22":1.2957204580307007,"23":0.21490785479545593,"24":-0.6543697118759155,"25":0.1896955966949463,"26":-0.9571070671081543,"27":-0.6293138861656189,"28":-0.4313943684101105,"29":0.5002440810203552,"30":-1.8148436546325684,"31":1.336472511291504,"32":1.17038094997406,"33":-1.8139234781265259,"34":0.5325779914855957,"35":-1.6582976579666138,"36":0.3179302215576172,"37":0.5443782806396484,"38":0.21363301575183868,"39":-1.6211813688278198,"40":0.2954859733581543,"41":0.6808494925498962,"42":1.039793610572815,"43":-0.48058515787124634,"44":1.8857518434524536,"45":3.0263864994049072,"46":-0.7066470980644226,"47":-3.777930974960327,"48":-1.3334369659423828,"49":1.1005315780639648,"50":0.1338321715593338,"51":-2.7565736770629883,"52":1.6591194868087769,"53":-1.0651262998580933,"54":1.5034074783325195,"55":1.0644034147262573,"56":0.8216446042060852,"57":0.21127580106258392,"58":-1.069564938545227,"59":-1.0620758533477783,"60":-0.2166302651166916,"61":0.9365087747573853,"62":-3.6713454723358154,"63":0.9691609740257263,"64":-0.15427462756633759,"65":-0.8590423464775085,"66":-0.192069873213768,"67":-1.7570019960403442,"68":1.404048204421997,"69":0.9590383172035217,"70":0.38922226428985596,"71":-1.1496872901916504,"72":0.913347065448761,"73":-1.0723857879638672,"74":-2.825216770172119,"75":-0.8208215236663818,"76":0.7881011962890625,"77":0.7180300951004028,"78":-0.23807890713214874,"79":1.4872636795043945,"80":0.23522897064685822,"81":-0.69358229637146,"82":-1.5761438608169556,"83":-0.43970802426338196,"84":-0.45400407910346985,"85":-0.9953401684761047,"86":-0.6775563359260559,"87":1.9951239824295044,"88":1.2779401540756226,"89":-3.2505719661712646,"90":0.7534635663032532,"91":1.4992619752883911,"92":0.42975643277168274,"93":2.7417986392974854,"94":-0.8855912089347839,"95":-0.8450785875320435,"96":-0.7377750873565674,"97":-0.10387464612722397,"98":-2.1732614040374756,"99":1.5401619672775269,"100":-2.7968790531158447,"101":0.6407075524330139,"102":1.4208043813705444,"103":0.8529784083366394,"104":0.06406771391630173,"105":-2.636026382446289,"106":1.901620864868164,"107":-0.012100530788302422,"108":-3.949842691421509,"109":-0.5900810956954956,"110":0.03416180610656738,"111":1.7699666023254395,"112":0.4613039791584015,"113":1.2255210876464844,"114":0.5975109934806824,"115":-0.6201422214508057,"116":-2.436278820037842,"117":-0.190342977643013,"118":-0.6790902614593506,"119":-0.6954380869865417,"120":-0.5890756845474243,"121":0.6326242089271545,"122":1.2068536281585693,"123":0.12970545887947083,"124":0.8237048387527466,"125":1.7972748279571533,"126":0.7987567186355591,"127":0.7776652574539185,"128":-0.35676273703575134,"129":0.3028428852558136,"130":0.08358114212751389,"131":0.20308132469654083,"132":-2.6503727436065674,"133":-1.2339900732040405,"134":-0.1318259984254837}},"10":{"bias":-6.384881496429443,"weights":{"0":1.364651083946228,"1":-1.0480133295059204,"2":-0.6401675343513489,"3":0.21334539353847504,"4":1.2203996181488037,"5":0.7605835795402527,"6":-1.4476375579833984,"7":-1.4747004508972168,"8":0.4310133457183838,"9":0.32729148864746094,"10":1.5998553037643433,"11":2.9690566062927246,"12":-1.2938289642333984,"13":-0.2666499614715576,"14":-0.4635428786277771,"15":-1.6024726629257202,"16":-0.5460877418518066,"17":0.6952636241912842,"18":-0.5143523216247559,"19":-1.617348313331604,"20":-3.505018711090088,"21":3.541961908340454,"22":-4.094132423400879,"23":0.22696806490421295,"24":0.38818562030792236,"25":-0.2919532358646393,"26":-1.426767110824585,"27":0.789652407169342,"28":-2.715203285217285,"29":-1.9470243453979492,"30":-0.9201791882514954,"31":1.5521718263626099,"32":0.46042174100875854,"33":-2.7862815856933594,"34":-0.7079682350158691,"35":3.844797372817993,"36":-1.2629554271697998,"37":-1.633705735206604,"38":-2.96907901763916,"39":0.7118934988975525,"40":-0.48628005385398865,"41":1.359198808670044,"42":0.36511602997779846,"43":0.38773247599601746,"44":-2.148228645324707,"45":-1.272087812423706,"46":2.970073699951172,"47":-0.20428508520126343,"48":-1.5805996656417847,"49":-0.6460835337638855,"50":0.5737422108650208,"51":4.216788291931152,"52":-1.331117868423462,"53":-1.6410244703292847,"54":1.5536019802093506,"55":-4.311890125274658,"56":0.46899768710136414,"57":1.7868754863739014,"58":-2.3804867267608643,"59":1.9303628206253052,"60":-1.8381963968276978,"61":1.7964105606079102,"62":1.0763428211212158,"63":-1.041900873184204,"64":-0.7068162560462952,"65":3.3818225860595703,"66":-5.53098726272583,"67":2.2067935466766357,"68":-1.1290295124053955,"69":-1.0769176483154297,"70":-1.4420619010925293,"71":1.408445119857788,"72":2.284714698791504,"73":-2.4136815071105957,"74":-1.2050344944000244,"75":-0.44735077023506165,"76":-1.003260850906372,"77":-0.5979861617088318,"78":-1.141596794128418,"79":2.592061996459961,"80":-0.08163933455944061,"81":1.729611873626709,"82":-0.38120824098587036,"83":-1.0930248498916626,"84":3.8729746341705322,"85":0.6210175156593323,"86":-1.3765745162963867,"87":-0.028299648314714432,"88":-1.958896279335022,"89":0.9291954636573792,"90":0.23151972889900208,"91":-0.6759057641029358,"92":1.1280919313430786,"93":-1.9282991886138916,"94":0.13319575786590576,"95":-3.385164499282837,"96":-1.1642917394638062,"97":-0.0875081866979599,"98":0.8607059717178345,"99":-1.0462093353271484,"100":-2.872256278991699,"101":-1.0620269775390625,"102":0.2951129376888275,"103":-0.8527635931968689,"104":-0.010228978469967842,"105":1.8204662799835205,"106":-0.6684018969535828,"107":-0.0032559046521782875,"108":2.8784048557281494,"109":-0.32421252131462097,"110":-0.5705899596214294,"111":-1.828359842300415,"112":0.14413489401340485,"113":-0.18811672925949097,"114":-1.3785587549209595,"115":3.0451698303222656,"116":-1.606835126876831,"117":0.09724300354719162,"118":-1.040910243988037,"119":0.4878891706466675,"120":-0.5628968477249146,"121":-1.4058637619018555,"122":-3.0174312591552734,"123":-1.1826545000076294,"124":-0.5176470875740051,"125":3.0247344970703125,"126":0.6564434766769409,"127":2.8038463592529297,"128":-4.168454647064209,"129":-0.740690290927887,"130":-0.49416616559028625,"131":-0.31185972690582275,"132":-1.4543355703353882,"133":0.6104077696800232,"134":0.04921446368098259}},"11":{"bias":-6.132106781005859,"weights":{"0":-0.7281455993652344,"1":2.109525442123413,"2":-1.9846768379211426,"3":0.429151713848114,"4":-0.5119589567184448,"5":-2.484102249145508,"6":1.6368365287780762,"7":0.9983475804328918,"8":0.30892446637153625,"9":1.1506115198135376,"10":0.9081306457519531,"11":-0.3796151280403137,"12":-1.2495399713516235,"13":-1.0583082437515259,"14":0.38519734144210815,"15":0.7322850227355957,"16":-1.6015011072158813,"17":0.8329123854637146,"18":-1.7330375909805298,"19":2.5562806129455566,"20":0.035167332738637924,"21":0.5861682295799255,"22":-5.610694408416748,"23":0.5856278538703918,"24":2.083590030670166,"25":-1.7295122146606445,"26":-2.563009262084961,"27":1.100436806678772,"28":-3.845656633377075,"29":-2.8602511882781982,"30":-1.5760343074798584,"31":1.335723638534546,"32":2.5087170600891113,"33":-2.6860880851745605,"34":3.4729597568511963,"35":0.7404811978340149,"36":-0.010102239437401295,"37":-1.9819222688674927,"38":1.6429260969161987,"39":-1.236671805381775,"40":-1.5251128673553467,"41":2.6160731315612793,"42":-0.8569642305374146,"43":-0.811662495136261,"44":-0.23297348618507385,"45":-0.49760255217552185,"46":-3.0477335453033447,"47":2.4337284564971924,"48":-3.1168510913848877,"49":-1.8693417310714722,"50":-0.23073716461658478,"51":1.286051630973816,"52":-0.7030742764472961,"53":3.0042195320129395,"54":0.5265787243843079,"55":-0.6762151122093201,"56":-1.2817823886871338,"57":0.5001907348632812,"58":4.180541038513184,"59":0.3121267855167389,"60":-1.3035480976104736,"61":1.3341820240020752,"62":3.3252015113830566,"63":-1.1293855905532837,"64":-1.081475853919983,"65":2.8101181983947754,"66":1.6020140647888184,"67":-5.494519233703613,"68":-5.319652080535889,"69":-1.40086030960083,"70":-0.30461764335632324,"71":-3.9541845321655273,"72":-4.258700847625732,"73":3.2978382110595703,"74":1.3833454847335815,"75":-0.802690327167511,"76":0.6199068427085876,"77":-0.06442044675350189,"78":3.4655954837799072,"79":-1.4923995733261108,"80":-1.1397901773452759,"81":-5.191404819488525,"82":-0.47464677691459656,"83":1.1676015853881836,"84":2.337924003601074,"85":0.9652831554412842,"86":-2.5005946159362793,"87":-0.8767507076263428,"88":3.8355624675750732,"89":-0.005161932669579983,"90":0.06058160960674286,"91":0.11019577831029892,"92":1.3152867555618286,"93":1.7963718175888062,"94":2.9481465816497803,"95":-0.012018689885735512,"96":-2.2460274696350098,"97":0.01734613999724388,"98":-5.418496131896973,"99":0.5626702904701233,"100":2.415524482727051,"101":-5.097629547119141,"102":-2.872213125228882,"103":-0.1623217910528183,"104":-0.7782809734344482,"105":1.0666409730911255,"106":0.9565817713737488,"107":0.14431148767471313,"108":2.6976585388183594,"109":-0.10693728923797607,"110":-0.8994754552841187,"111":0.41392454504966736,"112":2.346418857574463,"113":-1.6001670360565186,"114":0.38348090648651123,"115":0.754995584487915,"116":0.08177894353866577,"117":-0.10776903480291367,"118":-0.003160875290632248,"119":-0.8122736811637878,"120":-0.08950380235910416,"121":0.7028548717498779,"122":-2.387509822845459,"123":-0.769913375377655,"124":-0.07690315693616867,"125":-1.7137948274612427,"126":-2.572577953338623,"127":0.20991545915603638,"128":-2.0064871311187744,"129":-0.11469060927629471,"130":-0.23987019062042236,"131":-0.06763430684804916,"132":0.36016738414764404,"133":-1.3628365993499756,"134":0.13909189403057098}},"12":{"bias":-2.909762144088745,"weights":{"0":-0.6034016609191895,"1":1.648914098739624,"2":0.3274889290332794,"3":2.513157367706299,"4":-0.8181343674659729,"5":-1.0055809020996094,"6":0.6066989898681641,"7":-1.5637462139129639,"8":-0.9950920343399048,"9":-2.220688581466675,"10":-1.7464181184768677,"11":-3.1189911365509033,"12":0.7408627271652222,"13":0.020624399185180664,"14":-2.0771400928497314,"15":0.006203317549079657,"16":0.06882647424936295,"17":-0.8026443719863892,"18":0.4591577649116516,"19":3.6493911743164062,"20":-3.2989373207092285,"21":2.0187950134277344,"22":4.807882308959961,"23":-0.6403506994247437,"24":1.1564772129058838,"25":-0.727428674697876,"26":-1.2266916036605835,"27":-3.247300148010254,"28":1.606015682220459,"29":0.392227441072464,"30":1.617567539215088,"31":-1.5236742496490479,"32":-0.8951064348220825,"33":2.2122302055358887,"34":1.5273103713989258,"35":-0.8063613176345825,"36":-0.9587993025779724,"37":-0.9222202897071838,"38":1.715491771697998,"39":-1.6843255758285522,"40":-0.33184194564819336,"41":-0.6103659272193909,"42":-1.6450014114379883,"43":0.22596107423305511,"44":4.179779529571533,"45":1.178682565689087,"46":-3.3887417316436768,"47":0.18506889045238495,"48":0.06605996936559677,"49":-0.3847878575325012,"50":-0.8255034685134888,"51":-0.606842041015625,"52":0.7744594812393188,"53":-1.48671555519104,"54":-4.037655353546143,"55":1.1974655389785767,"56":-0.595089316368103,"57":2.3375186920166016,"58":-2.3360044956207275,"59":-0.8072887063026428,"60":1.0721442699432373,"61":-0.2562824785709381,"62":-2.14266300201416,"63":0.30907323956489563,"64":0.6972603797912598,"65":3.5242526531219482,"66":0.7798015475273132,"67":3.940352201461792,"68":-1.6182198524475098,"69":0.8665845394134521,"70":0.48316454887390137,"71":1.777967929840088,"72":-2.89096736907959,"73":0.6958129405975342,"74":-4.177159309387207,"75":0.583932101726532,"76":-0.5231743454933167,"77":-0.12645189464092255,"78":-2.999253034591675,"79":-2.1832644939422607,"80":2.1279494762420654,"81":-6.200767993927002,"82":-0.39007052779197693,"83":-0.7824665307998657,"84":1.8315176963806152,"85":-1.1993801593780518,"86":0.5010921359062195,"87":-0.4220583438873291,"88":-1.5163917541503906,"89":-0.5540342926979065,"90":-0.7946445941925049,"91":1.5607717037200928,"92":-2.3903768062591553,"93":-0.784397304058075,"94":1.4688231945037842,"95":3.6948869228363037,"96":1.4427739381790161,"97":-0.13229204714298248,"98":1.233823537826538,"99":-2.0414273738861084,"100":0.3872986435890198,"101":-1.8863757848739624,"102":2.6075069904327393,"103":0.896084725856781,"104":1.3541945219039917,"105":0.14515194296836853,"106":-2.906748056411743,"107":0.004715401213616133,"108":-6.165922164916992,"109":0.5978279709815979,"110":2.7253847122192383,"111":-3.5223915576934814,"112":1.1201192140579224,"113":-1.1381303071975708,"114":0.4040045142173767,"115":1.270036220550537,"116":1.8470429182052612,"117":-0.1542748510837555,"118":4.081447601318359,"119":1.0283020734786987,"120":-3.3575849533081055,"121":-3.688215732574463,"122":4.400099754333496,"123":1.6110601425170898,"124":0.2970382869243622,"125":0.8839812874794006,"126":-3.7007088661193848,"127":-4.8329176902771,"128":3.7006757259368896,"129":-0.10023767501115799,"130":0.8240145444869995,"131":1.2902308702468872,"132":2.0715560913085938,"133":-4.79394006729126,"134":-0.014693441800773144}},"13":{"bias":-3.3906333446502686,"weights":{"0":1.5565115213394165,"1":0.47002923488616943,"2":-3.1724820137023926,"3":-1.9408364295959473,"4":1.3456305265426636,"5":0.5258984565734863,"6":-0.1395731121301651,"7":0.8891397714614868,"8":1.199789047241211,"9":1.0948116779327393,"10":-5.596616268157959,"11":-0.11093868315219879,"12":-3.148563861846924,"13":-0.9782894849777222,"14":1.3714836835861206,"15":1.4008841514587402,"16":0.37363603711128235,"17":0.12331945449113846,"18":-1.782103180885315,"19":0.29298800230026245,"20":-0.6477060914039612,"21":4.376729965209961,"22":1.7740024328231812,"23":0.6211808919906616,"24":0.006691851187497377,"25":-3.8058221340179443,"26":0.2716664671897888,"27":1.3880079984664917,"28":2.68638014793396,"29":0.37495049834251404,"30":2.0619585514068604,"31":0.19724060595035553,"32":1.9247798919677734,"33":-1.323860764503479,"34":0.37185320258140564,"35":-3.1786134243011475,"36":-1.1081231832504272,"37":-2.0709550380706787,"38":-1.8952078819274902,"39":3.0285472869873047,"40":2.3821353912353516,"41":-0.7666033506393433,"42":1.7406535148620605,"43":0.18182554841041565,"44":-1.3048027753829956,"45":-3.371962547302246,"46":-0.33048832416534424,"47":-0.5579955577850342,"48":-4.647270202636719,"49":-0.2344636470079422,"50":0.19201399385929108,"51":-2.3072426319122314,"52":0.7499567866325378,"53":1.2750757932662964,"54":-3.286227226257324,"55":1.376989483833313,"56":-2.618983030319214,"57":0.6205728650093079,"58":-3.394589900970459,"59":-2.5008182525634766,"60":0.7560617923736572,"61":-1.2417340278625488,"62":-2.5773251056671143,"63":3.3833084106445312,"64":0.6846909523010254,"65":-1.4053783416748047,"66":-2.110643148422241,"67":-5.07511043548584,"68":3.6088130474090576,"69":0.3718840181827545,"70":2.3533992767333984,"71":3.484492778778076,"72":-0.5335138440132141,"73":1.7648910284042358,"74":-1.1908609867095947,"75":2.9074547290802,"76":0.4057496190071106,"77":0.679147481918335,"78":-0.8488078117370605,"79":0.5237557291984558,"80":0.8061991930007935,"81":-2.956704616546631,"82":0.406684935092926,"83":0.5090142488479614,"84":-1.398633360862732,"85":0.5604873299598694,"86":-2.019833564758301,"87":0.06510349363088608,"88":-0.3964177072048187,"89":0.01320574339479208,"90":1.3243176937103271,"91":-1.7099374532699585,"92":-1.5024758577346802,"93":0.1358286291360855,"94":4.411465644836426,"95":1.0543291568756104,"96":-1.4708209037780762,"97":-0.07694904506206512,"98":0.055896565318107605,"99":-0.349890798330307,"100":-1.0631439685821533,"101":0.1040295884013176,"102":0.6912768483161926,"103":0.2871723771095276,"104":0.09314636141061783,"105":0.48601824045181274,"106":-1.0455000400543213,"107":0.12373767048120499,"108":-1.2339130640029907,"109":0.0022722540888935328,"110":1.793900966644287,"111":-0.7426337599754333,"112":-0.6477409601211548,"113":1.3199338912963867,"114":-0.9508582949638367,"115":-0.2896880507469177,"116":0.5020161867141724,"117":0.01001889817416668,"118":1.1685651540756226,"119":-0.5672213435173035,"120":-2.959420680999756,"121":-3.336668014526367,"122":-0.1952197104692459,"123":0.3494715690612793,"124":0.862679660320282,"125":1.2424108982086182,"126":-0.03625856339931488,"127":0.18831324577331543,"128":0.28747445344924927,"129":0.16079699993133545,"130":0.3614068925380707,"131":-0.8031935691833496,"132":-0.1542941778898239,"133":-0.7663806676864624,"134":-0.14303666353225708}},"14":{"bias":-3.9169654846191406,"weights":{"0":0.5680838823318481,"1":0.4981893301010132,"2":0.5251325368881226,"3":-2.2492527961730957,"4":0.5371462106704712,"5":1.0501866340637207,"6":-3.2178704738616943,"7":0.8972991108894348,"8":-0.705512285232544,"9":-1.1315910816192627,"10":1.6401844024658203,"11":-3.511965274810791,"12":1.17806875705719,"13":1.4640653133392334,"14":-1.0184024572372437,"15":-0.12856899201869965,"16":-0.12830083072185516,"17":-3.4350476264953613,"18":-0.34957656264305115,"19":-0.21746136248111725,"20":-0.30354976654052734,"21":4.591353416442871,"22":-0.5433089733123779,"23":0.12889672815799713,"24":-0.862616777420044,"25":-0.3118688762187958,"26":0.34992069005966187,"27":-1.8132784366607666,"28":-1.2225725650787354,"29":-0.9706375002861023,"30":1.3879209756851196,"31":0.48925212025642395,"32":-3.1760005950927734,"33":-0.03189695626497269,"34":1.6123653650283813,"35":0.09244408458471298,"36":-0.7693323493003845,"37":-1.6177035570144653,"38":-1.5208160877227783,"39":5.3658671379089355,"40":1.7650233507156372,"41":-0.6504198312759399,"42":1.6633219718933105,"43":-1.8010072708129883,"44":-1.8924983739852905,"45":1.6213958263397217,"46":2.1652801036834717,"47":0.9108481407165527,"48":-1.3102208375930786,"49":-0.9481313824653625,"50":-0.4567146599292755,"51":0.5318752527236938,"52":0.9160353541374207,"53":-4.494126319885254,"54":-1.1819331645965576,"55":-0.66117924451828,"56":-0.33910876512527466,"57":-3.3370161056518555,"58":-2.568369150161743,"59":3.777069568634033,"60":1.3559110164642334,"61":0.47133669257164,"62":-0.36152184009552,"63":0.0026779870968312025,"64":-2.419032573699951,"65":3.048886299133301,"66":0.720558226108551,"67":-4.714020729064941,"68":-1.3098433017730713,"69":-1.0321695804595947,"70":-1.5846405029296875,"71":3.482776641845703,"72":0.4899693429470062,"73":-0.6989734768867493,"74":0.8799733519554138,"75":1.415549874305725,"76":-0.1513238549232483,"77":-0.7465495467185974,"78":-0.22452817857265472,"79":0.9900500774383545,"80":0.1995307058095932,"81":-1.9442176818847656,"82":-0.32273924350738525,"83":2.070512294769287,"84":-2.8010246753692627,"85":-0.17993535101413727,"86":0.4620759189128876,"87":-1.3835914134979248,"88":-1.3818315267562866,"89":0.3510771691799164,"90":-1.5029666423797607,"91":0.3892442584037781,"92":-2.263983726501465,"93":1.481131672859192,"94":-0.010809811763465405,"95":-2.199826240539551,"96":-2.5579566955566406,"97":0.09983018785715103,"98":-0.11720015853643417,"99":4.745902061462402,"100":-2.255805492401123,"101":-0.266480416059494,"102":0.6681102514266968,"103":-1.2569241523742676,"104":-0.7702152132987976,"105":2.1635935306549072,"106":3.870579719543457,"107":-0.10770921409130096,"108":1.6716045141220093,"109":-0.9101776480674744,"110":-1.8174041509628296,"111":0.000995704554952681,"112":3.0453712940216064,"113":-2.013023853302002,"114":-1.3382068872451782,"115":-1.112152099609375,"116":1.7166386842727661,"117":-0.11970820277929306,"118":-1.7732093334197998,"119":-2.2613394260406494,"120":2.841651201248169,"121":2.3620057106018066,"122":-0.20158641040325165,"123":-1.5447347164154053,"124":-1.4600186347961426,"125":-2.000962257385254,"126":-1.265343189239502,"127":-0.5571752190589905,"128":-0.4956451952457428,"129":-0.40611743927001953,"130":-0.6859833002090454,"131":-1.0741420984268188,"132":2.36240291595459,"133":1.5447548627853394,"134":-0.18750032782554626}},"15":{"bias":-4.275971412658691,"weights":{"0":1.3816441297531128,"1":1.6758437156677246,"2":1.9750089645385742,"3":-1.7422555685043335,"4":-0.8219231367111206,"5":1.3952937126159668,"6":-1.0683107376098633,"7":-0.7673102617263794,"8":1.550592303276062,"9":-1.4136828184127808,"10":-2.957526683807373,"11":0.01809319294989109,"12":-0.5519896149635315,"13":-1.8050808906555176,"14":-0.8764585852622986,"15":0.28020623326301575,"16":-0.0012726528802886605,"17":-1.6026358604431152,"18":1.0722568035125732,"19":-0.051952339708805084,"20":-0.5212494730949402,"21":-2.129608154296875,"22":1.3143912553787231,"23":-0.25373098254203796,"24":1.5774908065795898,"25":1.4765894412994385,"26":-1.8933441638946533,"27":1.4261901378631592,"28":1.3793052434921265,"29":0.6257116198539734,"30":0.9810150861740112,"31":0.9234568476676941,"32":2.973853349685669,"33":0.3170599639415741,"34":-1.8542815446853638,"35":-0.5592747926712036,"36":-3.148392915725708,"37":-1.5950405597686768,"38":-4.483481407165527,"39":3.121110677719116,"40":1.9924330711364746,"41":-1.6480190753936768,"42":0.32101625204086304,"43":0.7311105728149414,"44":0.24528132379055023,"45":-0.4281929135322571,"46":0.3172781765460968,"47":-3.7909913063049316,"48":2.8330748081207275,"49":-0.8641735911369324,"50":-0.005952917970716953,"51":-2.043250560760498,"52":0.3294827342033386,"53":-2.6970157623291016,"54":-4.7732038497924805,"55":3.7702369689941406,"56":1.010095238685608,"57":0.790921688079834,"58":1.1207526922225952,"59":-1.1985383033752441,"60":3.195601463317871,"61":-1.0913727283477783,"62":1.1906111240386963,"63":-0.06489980220794678,"64":-0.0925476998090744,"65":-2.1567018032073975,"66":-0.6735759973526001,"67":2.4455785751342773,"68":0.3003162145614624,"69":-0.9679630398750305,"70":0.12112849205732346,"71":-1.2604717016220093,"72":-1.2765119075775146,"73":-0.2845229208469391,"74":-2.356600284576416,"75":-1.4277366399765015,"76":-0.0575789213180542,"77":-0.06592006981372833,"78":1.2467929124832153,"79":-1.8671612739562988,"80":-0.5776183009147644,"81":0.4815770089626312,"82":-1.9574843645095825,"83":0.3494148254394531,"84":-2.4189000129699707,"85":-0.03752849996089935,"86":0.9109987020492554,"87":3.4745492935180664,"88":0.5235410332679749,"89":-0.288685142993927,"90":2.1036159992218018,"91":0.146651029586792,"92":1.6652213335037231,"93":-3.6576735973358154,"94":0.9993466138839722,"95":-3.568380117416382,"96":-0.9589411616325378,"97":-0.009187696501612663,"98":-0.07018046826124191,"99":0.9335225820541382,"100":-1.7618417739868164,"101":-1.3933480978012085,"102":-0.7397283911705017,"103":0.05252940580248833,"104":0.2591572701931,"105":1.0370923280715942,"106":-0.3921372890472412,"107":-0.13052494823932648,"108":6.057097434997559,"109":-0.13326846063137054,"110":-1.0909314155578613,"111":-2.58943247795105,"112":-0.057555295526981354,"113":3.159090757369995,"114":-0.33913323283195496,"115":1.132921576499939,"116":-1.5308406352996826,"117":0.06240065023303032,"118":-0.26307517290115356,"119":1.3192106485366821,"120":0.8060132265090942,"121":0.5035590529441833,"122":-0.09345372021198273,"123":-0.3758728802204132,"124":-1.0712963342666626,"125":-2.2510924339294434,"126":-1.3588687181472778,"127":-2.7169876098632812,"128":-0.8945360779762268,"129":-0.21323826909065247,"130":-0.1524551510810852,"131":-0.5232905149459839,"132":-0.9304782748222351,"133":-0.9099618792533875,"134":-0.1356232613325119}}},{"gender":{"bias":0.1465969681739807,"weights":{"0":5.211459159851074,"1":-6.235461235046387,"2":4.978917121887207,"3":4.600578784942627,"4":-3.56412935256958,"5":-0.08597388863563538,"6":-3.8019063472747803,"7":3.6469898223876953,"8":4.069615364074707,"9":3.7690629959106445,"10":-3.158017873764038,"11":-4.187933921813965,"12":3.632295608520508,"13":3.8567464351654053,"14":-3.556788206100464,"15":-4.641017436981201}}}],"outputLookup":true,"inputLookup":false,"activation":"sigmoid","trainOpts":{"iterations":40,"errorThresh":0.005,"log":true,"logPeriod":10,"learningRate":0.3,"momentum":0.1,"callbackPeriod":10,"beta1":0.9,"beta2":0.999,"epsilon":1e-8}}