{"sizes":[135,32,16,1],"layers":[{"0":{},"1":{},"2":{},"3":{},"4":{},"5":{},"6":{},"7":{},"8":{},"9":{},"10":{},"11":{},"12":{},"13":{},"14":{},"15":{},"16":{},"17":{},"18":{},"19":{},"20":{},"21":{},"22":{},"23":{},"24":{},"25":{},"26":{},"27":{},"28":{},"29":{},"30":{},"31":{},"32":{},"33":{},"34":{},"35":{},"36":{},"37":{},"38":{},"39":{},"40":{},"41":{},"42":{},"43":{},"44":{},"45":{},"46":{},"47":{},"48":{},"49":{},"50":{},"51":{},"52":{},"53":{},"54":{},"55":{},"56":{},"57":{},"58":{},"59":{},"60":{},"61":{},"62":{},"63":{},"64":{},"65":{},"66":{},"67":{},"68":{},"69":{},"70":{},"71":{},"72":{},"73":{},"74":{},"75":{},"76":{},"77":{},"78":{},"79":{},"80":{},"81":{},"82":{},"83":{},"84":{},"85":{},"86":{},"87":{},"88":{},"89":{},"90":{},"91":{},"92":{},"93":{},"94":{},"95":{},"96":{},"97":{},"98":{},"99":{},"100":{},"101":{},"102":{},"103":{},"104":{},"105":{},"106":{},"107":{},"108":{},"109":{},"110":{},"111":{},"112":{},"113":{},"114":{},"115":{},"116":{},"117":{},"118":{},"119":{},"120":{},"121":{},"122":{},"123":{},"124":{},"125":{},"126":{},"127":{},"128":{},"129":{},"130":{},"131":{},"132":{},"133":{},"134":{}},{"0":{"bias":0.18694882094860077,"weights":{"0":2.659151315689087,"1":-2.4736251831054688,"2":1.1473027467727661,"3":-0.3001478612422943,"4":1.4295973777770996,"5":-1.5587433576583862,"6":2.581789255142212,"7":1.9410890340805054,"8":-2.799210786819458,"9":1.3788378238677979,"10":0.6417242288589478,"11":4.325729846954346,"12":-1.4303414821624756,"13":-5.3063836097717285,"14":1.2201499938964844,"15":0.502210795879364,"16":0.8941382765769958,"17":-1.2695204019546509,"18":-0.5171001553535461,"19":2.5170116424560547,"20":-0.0943087711930275,"21":0.5668084621429443,"22":-3.0049397945404053,"23":0.032845355570316315,"24":-1.3930621147155762,"25":1.3508625030517578,"26":-3.4349515438079834,"27":5.342137813568115,"28":-0.3711276948451996,"29":0.28695234656333923,"30":0.1681012511253357,"31":4.674710273742676,"32":1.0378750562667847,"33":-2.536921262741089,"34":1.246362328529358,"35":-5.23452615737915,"36":-0.726320207118988,"37":-1.7728829383850098,"38":-0.33138659596443176,"39":1.2791274785995483,"40":2.843928575515747,"41":1.2934849262237549,"42":-0.3728751242160797,"43":-0.24322734773159027,"44":-2.9889776706695557,"45":-0.042925816029310226,"46":-1.2138981819152832,"47":-1.1326932907104492,"48":2.950124740600586,"49":-2.8275392055511475,"50":-1.2555221319198608,"51":-0.8236213326454163,"52":0.7199738621711731,"53":-0.0172230564057827,"54":1.4233266115188599,"55":-1.3919100761413574,"56":1.8985029458999634,"57":-1.7969470024108887,"58":-0.6317192912101746,"59":0.48971277475357056,"60":-0.33013418316841125,"61":-0.35585877299308777,"62":0.238315150141716,"63":0.376400887966156,"64":-0.4178865849971771,"65":0.6422816514968872,"66":-0.046551771461963654,"67":-2.2208101749420166,"68":1.3573298454284668,"69":-0.5407496690750122,"70":-1.7812929153442383,"71":2.896003246307373,"72":1.8738433122634888,"73":-2.8172123432159424,"74":0.03955208882689476,"75":-0.6788349151611328,"76":-0.9498910307884216,"77":-0.4854864180088043,"78":1.5077098608016968,"79":1.6797173023223877,"80":-0.6013780832290649,"81":-2.000300884246826,"82":3.427966833114624,"83":0.5580577850341797,"84":3.0951647758483887,"85":-1.9328384399414062,"86":-0.7498248815536499,"87":-0.1936880499124527,"88":0.10170375555753708,"89":-0.4376458525657654,"90":0.011987104080617428,"91":-1.600777268409729,"92":1.9272866249084473,"93":1.179707646369934,"94":0.4331153929233551,"95":-2.3880932331085205,"96":-0.5371713638305664,"97":-0.18313094973564148,"98":0.696154773235321,"99":-0.48088663816452026,"100":-0.7412775158882141,"101":0.2105613350868225,"102":1.18378484249115,"103":-1.0248072147369385,"104":-0.05596277117729187,"105":0.5668942332267761,"106":-1.544939637184143,"107":-0.10863763093948364,"108":1.2112460136413574,"109":-1.8021106719970703,"110":-1.7586398124694824,"111":2.9212534427642822,"112":2.6248202323913574,"113":-0.8900048136711121,"114":-2.1173365116119385,"115":2.4680886268615723,"116":1.8238000869750977,"117":-0.18490250408649445,"118":-1.0886646509170532,"119":-1.9199450016021729,"120":1.881148338317871,"121":2.757699489593506,"122":-1.8806952238082886,"123":-1.111526608467102,"124":-0.9730963706970215,"125":4.255548477172852,"126":-3.6948068141937256,"127":2.3932392597198486,"128":-0.43969589471817017,"129":-0.23983456194400787,"130":-0.633996844291687,"131":-0.7651566863059998,"132":1.3269535303115845,"133":-3.7494895458221436,"134":-0.02782972902059555}},"1":{"bias":-1.763359546661377,"weights":{"0":0.6096992492675781,"1":-0.223579540848732,"2":-0.7625684142112732,"3":-0.7798547148704529,"4":0.8254653215408325,"5":-0.014913300052285194,"6":-0.13854672014713287,"7":0.17738421261310577,"8":0.6965672969818115,"9":0.3385530412197113,"10":-0.11058085411787033,"11":-0.43340328335762024,"12":-0.654205322265625,"13":-0.27562880516052246,"14":0.14566506445407867,"15":-0.18565161526203156,"16":-0.01601354405283928,"17":-0.9723038673400879,"18":0.17245061695575714,"19":-0.3813343048095703,"20":-0.04430146515369415,"21":-0.06320549547672272,"22":-0.5146723985671997,"23":-0.1756492406129837,"24":-0.5539199709892273,"25":-0.29292207956314087,"26":0.9143465757369995,"27":0.24022632837295532,"28":0.006395792588591576,"29":0.8343403339385986,"30":0.039264798164367676,"31":-0.8377861976623535,"32":-0.10757100582122803,"33":0.13048255443572998,"34":-0.16361017525196075,"35":-0.2747701406478882,"36":0.1155155599117279,"37":0.1249503567814827,"38":1.2566341161727905,"39":-0.34544774889945984,"40":0.012471367605030537,"41":-0.26279252767562866,"42":-0.27233320474624634,"43":-0.13015304505825043,"44":-0.4213942289352417,"45":-0.02263198234140873,"46":-0.9495889544487,"47":0.14923657476902008,"48":-0.40609031915664673,"49":-0.13908584415912628,"50":0.1242586299777031,"51":-0.4627326726913452,"52":0.6380465030670166,"53":-0.2918310761451721,"54":0.5712907314300537,"55":-0.6701371669769287,"56":0.23226438462734222,"57":-0.6377695798873901,"58":0.8726488947868347,"59":-0.33509472012519836,"60":-0.4872692823410034,"61":0.6421990990638733,"62":0.437394380569458,"63":-0.1393512636423111,"64":-0.20058174431324005,"65":0.7492495179176331,"66":-0.07878317683935165,"67":-0.46031299233436584,"68":0.15436989068984985,"69":-0.2576613426208496,"70":0.27828603982925415,"71":-1.2833224534988403,"72":-0.4428703486919403,"73":-1.0109539031982422,"74":0.7158323526382446,"75":-0.36951789259910583,"76":-0.041814204305410385,"77":-0.09798905998468399,"78":-0.49201729893684387,"79":0.2865711748600006,"80":-0.003648454323410988,"81":0.3260192275047302,"82":-0.960297703742981,"83":0.2653546631336212,"84":-0.02444542944431305,"85":0.1841241866350174,"86":0.10548044741153717,"87":-0.2529428005218506,"88":0.10878566652536392,"89":-0.9807049036026001,"90":0.15986917912960052,"91":0.4521719515323639,"92":0.569283127784729,"93":0.601676344871521,"94":0.048667848110198975,"95":-0.5972776412963867,"96":-0.8369395136833191,"97":0.14005328714847565,"98":0.2680811583995819,"99":0.22533395886421204,"100":-0.8271021246910095,"101":-0.10226728767156601,"102":-0.26932600140571594,"103":0.1480952799320221,"104":0.019554028287529945,"105":0.06997627764940262,"106":-0.2820112705230713,"107":-0.02920783869922161,"108":0.23534396290779114,"109":-0.4108143746852875,"110":0.20183801651000977,"111":-0.22163832187652588,"112":1.1937150955200195,"113":-0.009302156046032906,"114":-0.25251805782318115,"115":0.1855742186307907,"116":-1.956160545349121,"117":0.19944903254508972,"118":0.24010558426380157,"119":0.4782067537307739,"120":-0.36869093775749207,"121":0.27914223074913025,"122":-0.24618840217590332,"123":0.03944309055805206,"124":-0.09445415437221527,"125":0.3800355792045593,"126":-0.6701571941375732,"127":0.15379127860069275,"128":0.21241968870162964,"129":-0.03125651553273201,"130":-0.1680862456560135,"131":-0.2457246333360672,"132":-0.09669916331768036,"133":-0.31095314025878906,"134":-0.14610576629638672}},"2":{"bias":-1.123758316040039,"weights":{"0":-1.0905674695968628,"1":-0.5996655225753784,"2":1.5820235013961792,"3":-1.634495735168457,"4":0.726521372795105,"5":-1.9945182800292969,"6":1.2064303159713745,"7":-0.9545094966888428,"8":-1.2217433452606201,"9":1.6598174571990967,"10":0.24555546045303345,"11":-1.8933454751968384,"12":0.5215165019035339,"13":-0.16017229855060577,"14":-1.758178949356079,"15":-0.11537749320268631,"16":-0.3108412027359009,"17":-0.09772827476263046,"18":1.5704638957977295,"19":0.7000078558921814,"20":0.12804187834262848,"21":-0.10569343715906143,"22":1.82127046585083,"23":-0.29747116565704346,"24":-2.3415870666503906,"25":0.660797119140625,"26":2.4467051029205322,"27":0.6115660667419434,"28":-0.7083801031112671,"29":0.3160700798034668,"30":-1.5006344318389893,"31":-1.098997950553894,"32":-0.9399990439414978,"33":3.075870990753174,"34":0.23115932941436768,"35":-1.2312546968460083,"36":0.3283237814903259,"37":0.9916594624519348,"38":-0.5761740207672119,"39":-1.3974065780639648,"40":-1.1289695501327515,"41":1.9489319324493408,"42":0.6377993226051331,"43":0.4550587832927704,"44":-3.299546003341675,"45":0.9984769821166992,"46":-0.8931109309196472,"47":0.054466601461172104,"48":-1.7801545858383179,"49":1.6813052892684937,"50":0.27766144275665283,"51":-1.4863311052322388,"52":2.1236472129821777,"53":2.03812837600708,"54":-0.6654967665672302,"55":2.677854061126709,"56":0.5611667633056641,"57":0.2024146467447281,"58":-0.1806694120168686,"59":0.794742226600647,"60":0.6279432773590088,"61":-0.6438184976577759,"62":-4.104410171508789,"63":0.7615550756454468,"64":1.0494482517242432,"65":-3.0273001194000244,"66":-1.1280733346939087,"67":-0.628209114074707,"68":1.8255990743637085,"69":0.5441662669181824,"70":0.23471733927726746,"71":-0.9662295579910278,"72":0.23847627639770508,"73":3.046184778213501,"74":-1.0288417339324951,"75":-1.2001447677612305,"76":0.15414899587631226,"77":-0.19245672225952148,"78":-0.9954914450645447,"79":0.6903970241546631,"80":-0.48868364095687866,"81":-2.527411937713623,"82":-0.12078062444925308,"83":0.3322540819644928,"84":2.4306273460388184,"85":-1.5483165979385376,"86":-0.9613933563232422,"87":1.1277713775634766,"88":-1.2903761863708496,"89":0.027833011001348495,"90":-0.6097744107246399,"91":1.8201490640640259,"92":-4.7688889503479,"93":3.8730461597442627,"94":0.9370558261871338,"95":2.57883358001709,"96":2.3142940998077393,"97":0.053877171128988266,"98":-1.5160982608795166,"99":0.14174769818782806,"100":-2.1506905555725098,"101":2.0124824047088623,"102":-2.039080858230591,"103":-0.2333628535270691,"104":-1.2766377925872803,"105":1.1344945430755615,"106":0.2528182566165924,"107":-0.15325921773910522,"108":-1.6486124992370605,"109":0.9451625347137451,"110":-0.3124230206012726,"111":1.2434145212173462,"112":0.0009183829533867538,"113":0.19340142607688904,"114":0.4094770550727844,"115":-0.8182705044746399,"116":1.7798622846603394,"117":0.06207389757037163,"118":-0.16470904648303986,"119":1.3956308364868164,"120":-2.310675621032715,"121":-2.9953606128692627,"122":0.706169068813324,"123":0.2281772792339325,"124":-0.15631842613220215,"125":-2.4680159091949463,"126":-0.1382952183485031,"127":0.7229198217391968,"128":0.3743782341480255,"129":-0.6286264061927795,"130":-0.22785432636737823,"131":-0.1372624933719635,"132":1.2117398977279663,"133":1.7532895803451538,"134":0.19342850148677826}},"3":{"bias":-2.18094801902771,"weights":{"0":-0.19426776468753815,"1":-1.1589924097061157,"2":-0.11956417560577393,"3":0.6727498769760132,"4":-0.7450504302978516,"5":0.02087397500872612,"6":0.37948065996170044,"7":-0.636057436466217,"8":-0.7195969223976135,"9":1.0398627519607544,"10":0.8752992749214172,"11":-0.25988563895225525,"12":1.8876229524612427,"13":-2.150395154953003,"14":-1.3414956331253052,"15":-0.00435285409912467,"16":-0.3070749342441559,"17":-2.059340000152588,"18":0.6958085298538208,"19":-0.0958358496427536,"20":-0.028074057772755623,"21":0.3582344353199005,"22":1.1600546836853027,"23":-0.2011362910270691,"24":0.32852059602737427,"25":-0.9252225160598755,"26":0.9254392385482788,"27":-1.204698085784912,"28":0.11343474686145782,"29":-0.14535751938819885,"30":-0.49598363041877747,"31":1.5962340831756592,"32":-0.2938518226146698,"33":-0.988878607749939,"34":-1.125225305557251,"35":0.4205740988254547,"36":-0.08181828260421753,"37":-1.3658151626586914,"38":-0.14126987755298615,"39":0.8832184672355652,"40":0.07258187234401703,"41":0.10433846712112427,"42":0.3940231204032898,"43":0.06490278989076614,"44":1.5914831161499023,"45":0.5703907608985901,"46":-2.348909616470337,"47":-0.20199254155158997,"48":-0.7204480767250061,"49":0.8586713075637817,"50":0.1765071004629135,"51":0.03692303225398064,"52":0.9367079138755798,"53":-0.39279040694236755,"54":-1.0748746395111084,"55":3.01882004737854,"56":0.8596829175949097,"57":-1.0268617868423462,"58":1.4546890258789062,"59":0.05014607682824135,"60":0.09229859709739685,"61":-0.5342121124267578,"62":-1.7069358825683594,"63":0.37482622265815735,"64":0.8504106998443604,"65":-2.1804747581481934,"66":0.5038638710975647,"67":-0.7760733366012573,"68":-0.31934991478919983,"69":-0.04936452955007553,"70":-0.8853528499603271,"71":-1.0578880310058594,"72":0.2015814632177353,"73":-2.0692427158355713,"74":1.4619747400283813,"75":-0.22619293630123138,"76":0.3631638288497925,"77":-0.11735831946134567,"78":-0.8014103770256042,"79":0.2488577961921692,"80":0.09155433624982834,"81":-1.2723822593688965,"82":0.5409055948257446,"83":-0.41259363293647766,"84":1.5236331224441528,"85":-0.8562102317810059,"86":-0.8010067939758301,"87":-0.14044955372810364,"88":-2.5910236835479736,"89":-1.9465943574905396,"90":0.0606975331902504,"91":1.2146973609924316,"92":-3.1126761436462402,"93":-1.6488022804260254,"94":-0.4448043704032898,"95":3.0045416355133057,"96":1.7197493314743042,"97":-0.03478609398007393,"98":-1.0026400089263916,"99":0.008570663630962372,"100":0.3855817914009094,"101":1.5339148044586182,"102":-0.3674957752227783,"103":0.07107984274625778,"104":-0.1359023153781891,"105":0.8783991932868958,"106":0.4694023132324219,"107":-0.05797279253602028,"108":-0.8577548265457153,"109":-0.1704268753528595,"110":-0.16956089437007904,"111":1.3292185068130493,"112":-0.6675745248794556,"113":-0.17957326769828796,"114":0.3165954649448395,"115":-0.6371082067489624,"116":1.2489073276519775,"117":-0.07180174440145493,"118":0.07255362719297409,"119":1.4126455783843994,"120":-1.0615853071212769,"121":-1.5513278245925903,"122":0.022022005170583725,"123":0.08421935141086578,"124":0.1271330714225769,"125":-0.8933690190315247,"126":-2.445209264755249,"127":-1.5114752054214478,"128":-0.35405924916267395,"129":-0.16927580535411835,"130":0.021671107038855553,"131":0.2779896557331085,"132":1.8107287883758545,"133":0.36049121618270874,"134":0.006828601006418467}},"4":{"bias":-2.3840816020965576,"weights":{"0":-1.1449600458145142,"1":-0.8109390139579773,"2":-0.0037991919089108706,"3":-1.0755577087402344,"4":-0.03348229452967644,"5":0.08050287514925003,"6":-0.6614450812339783,"7":0.8043187260627747,"8":-1.0115193128585815,"9":-0.6476781964302063,"10":-0.39320144057273865,"11":-1.8343641757965088,"12":-0.137984961271286,"13":2.500728130340576,"14":0.46510615944862366,"15":0.0626821517944336,"16":-0.2890784740447998,"17":1.7469512224197388,"18":-1.1839112043380737,"19":-0.037180718034505844,"20":-0.803980827331543,"21":0.33004000782966614,"22":0.6215964555740356,"23":-0.2952721416950226,"24":-0.1861250251531601,"25":0.9581025838851929,"26":0.45731809735298157,"27":0.16059376299381256,"28":-1.100039005279541,"29":2.0645995140075684,"30":1.8309051990509033,"31":0.3229302763938904,"32":-0.7239573001861572,"33":-0.05476286634802818,"34":0.1907312273979187,"35":-1.3613137006759644,"36":-0.12852826714515686,"37":2.4374547004699707,"38":-2.826493740081787,"39":-0.461479514837265,"40":-0.36221015453338623,"41":-1.2739404439926147,"42":0.567643404006958,"43":0.3019336462020874,"44":-3.0777316093444824,"45":1.1238231658935547,"46":-1.76145339012146,"47":0.058047324419021606,"48":-0.3468736708164215,"49":1.6086994409561157,"50":-0.09021838754415512,"51":-1.408962368965149,"52":0.5156801342964172,"53":0.21073274314403534,"54":-0.7392265796661377,"55":0.39836737513542175,"56":0.02117161639034748,"57":0.9000647664070129,"58":1.5436755418777466,"59":-1.4678890705108643,"60":0.11885599046945572,"61":-0.9541021585464478,"62":0.5430907607078552,"63":0.5120214223861694,"64":-0.03895667567849159,"65":-1.9586843252182007,"66":0.05005113407969475,"67":0.355132132768631,"68":-3.042419195175171,"69":0.7587489485740662,"70":0.05258018895983696,"71":-0.8498227596282959,"72":-0.38275057077407837,"73":2.515854597091675,"74":1.1786304712295532,"75":1.0258023738861084,"76":-0.10099940001964569,"77":-0.06103936955332756,"78":-0.769437849521637,"79":-0.5258067846298218,"80":-0.25249093770980835,"81":-0.8867579102516174,"82":-0.9653440117835999,"83":0.44961634278297424,"84":-1.0236519575119019,"85":1.5049947500228882,"86":-0.33160021901130676,"87":0.7444727420806885,"88":0.11879733204841614,"89":-0.11518962681293488,"90":-0.6871140003204346,"91":0.24835793673992157,"92":-1.0628159046173096,"93":-0.11949235945940018,"94":-0.6757566928863525,"95":0.3534556031227112,"96":-0.4428154230117798,"97":-0.012517638504505157,"98":-0.6137846112251282,"99":0.8949862718582153,"100":0.5157188177108765,"101":2.2070236206054688,"102":-1.301902174949646,"103":-0.10925360023975372,"104":-0.7100866436958313,"105":-0.7710878849029541,"106":0.4753296971321106,"107":0.16439852118492126,"108":-0.03445442020893097,"109":-0.2386571615934372,"110":-0.25391486287117004,"111":-0.28930118680000305,"112":-0.19325225055217743,"113":-0.32473382353782654,"114":-0.08279195427894592,"115":0.0941644236445427,"116":0.8564308285713196,"117":-0.1261107325553894,"118":-0.15261989831924438,"119":0.32524752616882324,"120":-1.1421064138412476,"121":-1.398988127708435,"122":0.17611320316791534,"123":0.055472057312726974,"124":-0.1552666574716568,"125":-1.3610432147979736,"126":1.7894052267074585,"127":-0.9433910250663757,"128":-0.9719880223274231,"129":-0.0631837248802185,"130":-0.20333708822727203,"131":0.1833777278661728,"132":-0.08891766518354416,"133":1.4037209749221802,"134":-0.04026631638407707}},"5":{"bias":-1.9640460014343262,"weights":{"0":1.6908235549926758,"1":2.1770009994506836,"2":0.6756237745285034,"3":1.196711778640747,"4":-1.0014392137527466,"5":-3.3246009349823,"6":-0.538138747215271,"7":0.2741485834121704,"8":-0.25750526785850525,"9":2.4912455081939697,"10":2.16272234916687,"11":-2.9025015830993652,"12":1.879673719406128,"13":0.08286765217781067,"14":0.7425771355628967,"15":0.03830632567405701,"16":0.14040927588939667,"17":0.7970616817474365,"18":-0.38553109765052795,"19":1.1393156051635742,"20":-2.386333465576172,"21":-1.9574466943740845,"22":-3.2434909343719482,"23":-0.10230770707130432,"24":-1.5107378959655762,"25":0.10588113963603973,"26":-0.24242982268333435,"27":-1.7461782693862915,"28":-3.1937577724456787,"29":0.7360914945602417,"30":-1.0871367454528809,"31":-1.5956804752349854,"32":3.916689157485962,"33":-1.4528495073318481,"34":0.5162795782089233,"35":-2.497439384460449,"36":2.975924491882324,"37":3.087999105453491,"38":-1.082822322845459,"39":-0.30920475721359253,"40":0.03381868079304695,"41":0.342244952917099,"42":-0.7570884823799133,"43":1.9094877243041992,"44":2.567427635192871,"45":0.26318538188934326,"46":-3.6065750122070312,"47":-1.0873467922210693,"48":0.08645627647638321,"49":-1.8353315591812134,"50":-0.5171347856521606,"51":-0.9239150881767273,"52":0.813653290271759,"53":1.919960856437683,"54":0.28272736072540283,"55":-1.282041072845459,"56":1.9926459789276123,"57":2.706897020339966,"58":-3.834343433380127,"59":-0.9150934815406799,"60":1.205257773399353,"61":-0.9085496068000793,"62":-6.628127098083496,"63":1.5226763486862183,"64":2.732761859893799,"65":-2.4233574867248535,"66":-4.082989692687988,"67":5.806952476501465,"68":-2.1322546005249023,"69":0.5684880614280701,"70":1.0147819519042969,"71":-1.4424339532852173,"72":-0.800155520439148,"73":1.7112799882888794,"74":-0.763755202293396,"75":3.165980815887451,"76":1.0338389873504639,"77":0.3528681993484497,"78":-2.599522113800049,"79":0.36341944336891174,"80":0.5669161081314087,"81":-2.2973215579986572,"82":1.4796371459960938,"83":0.39699915051460266,"84":4.705584526062012,"85":-0.18430787324905396,"86":0.8253384828567505,"87":0.20662248134613037,"88":-2.2670562267303467,"89":1.4183663129806519,"90":0.7107167840003967,"91":1.6873387098312378,"92":-4.099079132080078,"93":-2.959590196609497,"94":-2.260680913925171,"95":1.9230902194976807,"96":-0.17490331828594208,"97":-0.07041063159704208,"98":-2.5054333209991455,"99":-2.264918327331543,"100":1.8281399011611938,"101":1.5931941270828247,"102":-0.9955796003341675,"103":0.3040310740470886,"104":0.863723874092102,"105":1.243024230003357,"106":-1.2342751026153564,"107":0.05520402640104294,"108":0.30698826909065247,"109":-1.1954736709594727,"110":1.5115299224853516,"111":2.1116368770599365,"112":-2.045897960662842,"113":-1.6279152631759644,"114":0.4178358316421509,"115":-3.374138355255127,"116":0.7697356939315796,"117":-0.12369605153799057,"118":3.2860982418060303,"119":-0.5873630046844482,"120":3.244657278060913,"121":2.2965614795684814,"122":1.7480418682098389,"123":0.7557069659233093,"124":0.5688216090202332,"125":-2.526540517807007,"126":-2.159567356109619,"127":-4.627954959869385,"128":1.625882625579834,"129":-0.47011446952819824,"130":0.5684692859649658,"131":-0.08573129028081894,"132":0.8446329832077026,"133":-3.552689790725708,"134":0.05960334837436676}},"6":{"bias":-1.9347418546676636,"weights":{"0":1.0963398218154907,"1":-0.6068889498710632,"2":-3.2099740505218506,"3":-0.5357063412666321,"4":0.06470908969640732,"5":-0.8071202039718628,"6":-0.8378078937530518,"7":1.0961114168167114,"8":0.6392098665237427,"9":-1.6058346033096313,"10":-1.7829540967941284,"11":-0.03821024298667908,"12":-1.4023382663726807,"13":-1.1628447771072388,"14":-0.30506014823913574,"15":0.3404386639595032,"16":0.6799524426460266,"17":2.4854354858398438,"18":0.29712700843811035,"19":1.2510067224502563,"20":-1.9459502696990967,"21":3.0482470989227295,"22":0.30836933851242065,"23":0.4351233243942261,"24":1.2468159198760986,"25":-3.344233512878418,"26":1.6944935321807861,"27":0.21986544132232666,"28":0.03351298347115517,"29":1.2527031898498535,"30":-0.1836342215538025,"31":1.9297019243240356,"32":-1.8244845867156982,"33":-0.6973854303359985,"34":0.24395908415317535,"35":-2.896010160446167,"36":-0.6760299801826477,"37":-0.9109141230583191,"38":-4.7718186378479,"39":3.652320146560669,"40":1.0533826351165771,"41":3.2166693210601807,"42":-1.1636697053909302,"43":0.37498554587364197,"44":-3.1716105937957764,"45":0.15147382020950317,"46":-2.308922052383423,"47":-1.0432896614074707,"48":4.2943196296691895,"49":3.5839786529541016,"50":0.6641057729721069,"51":-2.8872358798980713,"52":0.26043468713760376,"53":0.37038809061050415,"54":-1.9018830060958862,"55":1.8451611995697021,"56":0.23083898425102234,"57":1.060397744178772,"58":-5.937347888946533,"59":-1.540515661239624,"60":1.9558045864105225,"61":-1.1988685131072998,"62":-0.3380070626735687,"63":0.6776779294013977,"64":1.8666508197784424,"65":-2.8068201541900635,"66":0.3990430235862732,"67":-3.173290729522705,"68":3.692974090576172,"69":0.41407087445259094,"70":2.68361234664917,"71":2.6372854709625244,"72":1.1885145902633667,"73":-2.7109944820404053,"74":-1.7449736595153809,"75":-0.5439492464065552,"76":-0.292005717754364,"77":0.1899140626192093,"78":-0.26125577092170715,"79":1.997715950012207,"80":-0.06296411156654358,"81":-3.7294821739196777,"82":-0.9057061672210693,"83":-0.5902067422866821,"84":0.019063197076320648,"85":-2.5264201164245605,"86":-0.5682404637336731,"87":0.46263211965560913,"88":-0.45523202419281006,"89":-1.801086187362671,"90":2.2024850845336914,"91":-1.0441795587539673,"92":1.5116534233093262,"93":-0.11791190505027771,"94":4.411294937133789,"95":0.3982388377189636,"96":0.02558068558573723,"97":0.07729917764663696,"98":-2.998817205429077,"99":-0.31612086296081543,"100":1.2517486810684204,"101":0.9660962820053101,"102":-1.9508684873580933,"103":0.9889044165611267,"104":0.6966529488563538,"105":1.4247105121612549,"106":0.07027395814657211,"107":0.18113325536251068,"108":-3.2418465614318848,"109":0.2967691421508789,"110":1.8195610046386719,"111":0.9851463437080383,"112":-0.3948431611061096,"113":0.8625717759132385,"114":0.7718938589096069,"115":0.19631846249103546,"116":-1.1636278629302979,"117":-0.17062197625637054,"118":1.4188063144683838,"119":-0.23588308691978455,"120":-3.3493552207946777,"121":-2.7411890029907227,"122":1.586835503578186,"123":0.5380580425262451,"124":1.1108450889587402,"125":4.300937175750732,"126":-1.1311241388320923,"127":-0.6255797147750854,"128":-2.421053409576416,"129":0.1876332014799118,"130":0.4797671437263489,"131":0.008951722644269466,"132":-1.400553584098816,"133":0.9301692843437195,"134":0.033009033650159836}},"7":{"bias":-3.5450196266174316,"weights":{"0":-2.160165786743164,"1":1.0348116159439087,"2":-1.1984646320343018,"3":-0.23432591557502747,"4":0.06371022760868073,"5":-1.9998862743377686,"6":-0.1713477075099945,"7":0.08365084230899811,"8":-0.6684907674789429,"9":-1.744948387145996,"10":-1.050999641418457,"11":-1.291548252105713,"12":2.8889546394348145,"13":0.022264230996370316,"14":-0.2602083683013916,"15":0.6971030831336975,"16":-0.23153844475746155,"17":-1.0319042205810547,"18":0.27088263630867004,"19":4.086390495300293,"20":0.6306049823760986,"21":0.5282458662986755,"22":-2.9488165378570557,"23":-0.3099821209907532,"24":-0.2440851628780365,"25":0.8980406522750854,"26":1.0466736555099487,"27":-0.6319841742515564,"28":0.15788303315639496,"29":-0.5530949831008911,"30":-0.497834175825119,"31":-0.6137179732322693,"32":0.26207873225212097,"33":-1.0990610122680664,"34":-0.14871343970298767,"35":1.3701900243759155,"36":-1.6487510204315186,"37":0.9990777373313904,"38":0.5639505386352539,"39":1.7807725667953491,"40":-0.2886502146720886,"41":-0.548925518989563,"42":1.1787452697753906,"43":-0.4168051779270172,"44":-1.004181981086731,"45":-1.446317195892334,"46":-2.1558189392089844,"47":1.6066197156906128,"48":-1.533233404159546,"49":-1.1591012477874756,"50":-0.3432311713695526,"51":2.5214171409606934,"52":-0.38480278849601746,"53":0.36243194341659546,"54":-3.2812728881835938,"55":0.2564428448677063,"56":0.48301494121551514,"57":-0.9425846934318542,"58":2.773758888244629,"59":2.232708692550659,"60":-1.1503509283065796,"61":0.8881951570510864,"62":0.42019492387771606,"63":-0.40132585167884827,"64":-0.49432048201560974,"65":-1.133878469467163,"66":0.7991658449172974,"67":-2.780045747756958,"68":-2.5755059719085693,"69":-0.8511120080947876,"70":0.1274065226316452,"71":-0.425827294588089,"72":-0.6316789984703064,"73":-0.5025700926780701,"74":1.5053728818893433,"75":1.012953281402588,"76":0.48718059062957764,"77":0.04182815924286842,"78":-0.27415716648101807,"79":-0.6848721504211426,"80":0.6911736726760864,"81":-3.0778415203094482,"82":-2.10288667678833,"83":1.87943696975708,"84":1.0262037515640259,"85":1.5235403776168823,"86":-0.4777091443538666,"87":-0.2592161297798157,"88":0.05284012109041214,"89":0.20035713911056519,"90":0.9108451008796692,"91":0.4431711435317993,"92":-1.9546760320663452,"93":-3.8062477111816406,"94":1.6566389799118042,"95":-1.0936123132705688,"96":-2.1700551509857178,"97":0.16947518289089203,"98":3.845580577850342,"99":2.8154633045196533,"100":-0.2984676957130432,"101":-2.3023314476013184,"102":-2.0874392986297607,"103":-0.20687098801136017,"104":0.018353721126914024,"105":-0.17363126575946808,"106":2.108551263809204,"107":0.06662609428167343,"108":5.170080184936523,"109":0.5367094874382019,"110":-0.3662484884262085,"111":1.0049809217453003,"112":2.82283616065979,"113":-0.39284583926200867,"114":0.866371214389801,"115":0.22736269235610962,"116":-0.8874391913414001,"117":-0.0884685143828392,"118":-0.5715072751045227,"119":-1.3401403427124023,"120":0.3763146698474884,"121":-0.6149871349334717,"122":-0.9020434021949768,"123":-0.38823390007019043,"124":-0.3908408582210541,"125":-0.01585903763771057,"126":-2.5193774700164795,"127":-2.165699005126953,"128":-1.6437231302261353,"129":-0.05732278153300285,"130":-0.11377361416816711,"131":-0.12496446818113327,"132":-0.6683214902877808,"133":-1.6445626020431519,"134":0.1483757644891739}},"8":{"bias":2.2666327953338623,"weights":{"0":4.65262508392334,"1":-1.6654900312423706,"2":1.2072504758834839,"3":1.3605854511260986,"4":2.5300538539886475,"5":-0.41319093108177185,"6":-1.864341139793396,"7":-2.9309511184692383,"8":0.4309457838535309,"9":-2.0387351512908936,"10":0.2531754970550537,"11":0.31235426664352417,"12":0.06813274323940277,"13":0.833736002445221,"14":-0.8660824298858643,"15":-0.3921958804130554,"16":1.6379516124725342,"17":-1.2484627962112427,"18":2.9518914222717285,"19":-0.38746941089630127,"20":-1.1301319599151611,"21":0.8283404111862183,"22":-3.7334954738616943,"23":-0.5576409101486206,"24":-0.5961692333221436,"25":0.3211074769496918,"26":3.1070921421051025,"27":1.4910922050476074,"28":-2.1683297157287598,"29":1.642519235610962,"30":-4.073448657989502,"31":-0.17354744672775269,"32":2.4115774631500244,"33":-0.07560223340988159,"34":-1.2740029096603394,"35":0.24951902031898499,"36":2.4331886768341064,"37":-0.05824887752532959,"38":4.491466045379639,"39":-3.1530227661132812,"40":-3.78289532661438,"41":0.8066507577896118,"42":0.5339757800102234,"43":-0.8380769491195679,"44":3.8303890228271484,"45":0.0722874253988266,"46":-4.348331451416016,"47":2.375492811203003,"48":-1.8217648267745972,"49":1.33766508102417,"50":-0.29465150833129883,"51":0.5795082449913025,"52":0.5451035499572754,"53":1.2427586317062378,"54":1.3896979093551636,"55":1.3264774084091187,"56":-0.9768211245536804,"57":0.40379059314727783,"58":-3.1086697578430176,"59":2.94687557220459,"60":2.165621042251587,"61":1.4212814569473267,"62":1.2577941417694092,"63":-0.3552906811237335,"64":-0.28269457817077637,"65":1.6319180727005005,"66":-2.9679462909698486,"67":1.8223284482955933,"68":0.872989296913147,"69":-0.2636848986148834,"70":-0.18043315410614014,"71":2.377505302429199,"72":0.2322474718093872,"73":-3.502934455871582,"74":-4.3563361167907715,"75":1.2251919507980347,"76":0.30596452951431274,"77":-1.5481009483337402,"78":2.5616800785064697,"79":-2.3309457302093506,"80":0.007707362528890371,"81":-1.5750521421432495,"82":-1.6789391040802002,"83":1.6461869478225708,"84":-0.8602998852729797,"85":-0.7545151114463806,"86":2.9649994373321533,"87":0.43646302819252014,"88":2.2493648529052734,"89":1.4306375980377197,"90":-0.39557594060897827,"91":1.7273283004760742,"92":1.253769874572754,"93":-1.914666771888733,"94":-4.0985107421875,"95":-2.813095808029175,"96":-1.3123494386672974,"97":-0.17449866235256195,"98":-2.8138139247894287,"99":3.391139507293701,"100":3.8793509006500244,"101":1.053858995437622,"102":-0.8558524250984192,"103":-0.5802437663078308,"104":-0.23210859298706055,"105":0.6237580180168152,"106":2.050924062728882,"107":-0.023998918011784554,"108":5.157076835632324,"109":0.1617036759853363,"110":-1.689895510673523,"111":2.913609266281128,"112":3.5051052570343018,"113":1.0479780435562134,"114":0.22650648653507233,"115":1.2076923847198486,"116":2.2333731651306152,"117":0.031489159911870956,"118":-0.19259072840213776,"119":-5.031844139099121,"120":4.194193363189697,"121":4.389827251434326,"122":-2.1422383785247803,"123":-2.067406415939331,"124":-0.8487545251846313,"125":-0.5421367287635803,"126":-3.429973840713501,"127":-2.957012176513672,"128":-1.6986422538757324,"129":-1.0796877145767212,"130":-0.4303933084011078,"131":-0.5944960713386536,"132":2.439720392227173,"133":-3.264413356781006,"134":-0.15122096240520477}},"9":{"bias":-2.443328380584717,"weights":{"0":1.5863406658172607,"1":-2.1979031562805176,"2":-1.0333493947982788,"3":-0.7384293079376221,"4":3.048748016357422,"5":0.04230383783578873,"6":-0.509840726852417,"7":-1.1662505865097046,"8":0.7186446189880371,"9":3.765613079071045,"10":-0.2526912987232208,"11":1.9305260181427002,"12":-0.9803744554519653,"13":0.8260645866394043,"14":-1.053942084312439,"15":-0.2597288489341736,"16":0.3140885531902313,"17":0.4387022852897644,"18":-3.0521047115325928,"19":2.145128011703491,"20":-0.3373725414276123,"21":-2.0052876472473145,"22":0.3073054254055023,"23":0.033093951642513275,"24":-1.0622986555099487,"25":-1.433210849761963,"26":-1.8485077619552612,"27":-1.8068801164627075,"28":-0.20563454926013947,"29":-1.66670823097229,"30":1.224841594696045,"31":0.10148163884878159,"32":0.7832366228103638,"33":-0.5831549763679504,"34":-0.3912174105644226,"35":-1.8408732414245605,"36":2.9086244106292725,"37":2.258466958999634,"38":3.5413341522216797,"39":-1.9478416442871094,"40":-0.5355473756790161,"41":-2.3765742778778076,"42":0.450199693441391,"43":-0.017932143062353134,"44":0.36076879501342773,"45":3.586125373840332,"46":-2.048637866973877,"47":-4.0318732261657715,"48":-1.1321865320205688,"49":-1.1384981870651245,"50":1.6110625267028809,"51":-1.353198528289795,"52":1.1681559085845947,"53":-0.6093617677688599,"54":-0.912455141544342,"55":3.6719970703125,"56":0.9308273196220398,"57":-4.154343128204346,"58":-0.26577338576316833,"59":-2.465742349624634,"60":0.05828259140253067,"61":-0.05078541114926338,"62":-1.6573255062103271,"63":0.19381947815418243,"64":1.1576189994812012,"65":0.17142976820468903,"66":0.47256746888160706,"67":-0.04335935413837433,"68":-1.4737730026245117,"69":0.7715628743171692,"70":0.5128239393234253,"71":0.8367481827735901,"72":0.6009553074836731,"73":3.542623996734619,"74":-4.752100467681885,"75":-1.4474600553512573,"76":0.7095469832420349,"77":0.32511451840400696,"78":-1.5644609928131104,"79":1.3106526136398315,"80":-0.0164220929145813,"81":-2.6949334144592285,"82":2.2921910285949707,"83":1.8907102346420288,"84":-1.9819800853729248,"85":-1.9735583066940308,"86":1.2145570516586304,"87":0.7631204128265381,"88":-0.19811296463012695,"89":-3.2172698974609375,"90":-1.8969762325286865,"91":-1.9315797090530396,"92":2.144333600997925,"93":3.8535287380218506,"94":-3.636143922805786,"95":3.3141467571258545,"96":1.0193419456481934,"97":-0.16156236827373505,"98":-2.4895808696746826,"99":1.474153757095337,"100":-3.7229738235473633,"101":1.1829863786697388,"102":1.7705854177474976,"103":0.6902385354042053,"104":0.8259907960891724,"105":-3.5932507514953613,"106":2.2360470294952393,"107":0.1534876972436905,"108":-1.1376192569732666,"109":1.7212367057800293,"110":0.7770680785179138,"111":1.0008217096328735,"112":-1.7790237665176392,"113":-1.9176288843154907,"114":-0.04401326924562454,"115":1.718837857246399,"116":-2.614245891571045,"117":0.17884601652622223,"118":1.009606122970581,"119":-2.675262451171875,"120":-0.726019561290741,"121":-0.9888564944267273,"122":1.261144995689392,"123":0.3799377381801605,"124":0.38995108008384705,"125":2.425327777862549,"126":0.4845510721206665,"127":-0.1888512670993805,"128":-0.9432849884033203,"129":0.26890042424201965,"130":0.3653898239135742,"131":0.3047628104686737,"132":-2.3429617881774902,"133":-0.7338061332702637,"134":-0.16688299179077148}},"10":{"bias":-4.3507490158081055,"weights":{"0":1.4293601512908936,"1":-2.1843295097351074,"2":-1.3132210969924927,"3":-1.5889652967453003,"4":-0.34129631519317627,"5":0.335091233253479,"6":0.2713390290737152,"7":0.4957006573677063,"8":3.9780325889587402,"9":-1.4760267734527588,"10":-0.7311424016952515,"11":0.061630647629499435,"12":1.163267731666565,"13":-2.787827491760254,"14":0.0023086925502866507,"15":-1.1503055095672607,"16":-0.178476020693779,"17":1.2195441722869873,"18":-0.7959868311882019,"19":-3.010416030883789,"20":-0.8161855936050415,"21":-1.1842819452285767,"22":0.9879416823387146,"23":-0.4087151288986206,"24":2.208620548248291,"25":0.08908528834581375,"26":0.7637456059455872,"27":-0.6128540635108948,"28":-1.3063329458236694,"29":-2.459846019744873,"30":3.1787991523742676,"31":-1.7495285272598267,"32":1.2565478086471558,"33":-0.5045543909072876,"34":-0.9382081627845764,"35":3.10996675491333,"36":-0.4820782244205475,"37":0.2522786259651184,"38":-0.13698597252368927,"39":1.3798894882202148,"40":0.2646175026893616,"41":-3.155517578125,"42":-0.6532434225082397,"43":-0.1709679663181305,"44":0.5687078833580017,"45":-0.9642376899719238,"46":-2.4520537853240967,"47":-2.4264438152313232,"48":2.501429796218872,"49":0.4827795624732971,"50":-0.25307726860046387,"51":-0.017539139837026596,"52":0.8494968414306641,"53":0.4839498996734619,"54":-0.9465146064758301,"55":3.028639316558838,"56":0.45507386326789856,"57":0.9745115041732788,"58":1.0887813568115234,"59":-2.1403884887695312,"60":1.7601218223571777,"61":-2.459723472595215,"62":-1.5591384172439575,"63":-0.5635278820991516,"64":-0.5811009407043457,"65":-1.2746522426605225,"66":-0.44771134853363037,"67":2.0159060955047607,"68":1.1148037910461426,"69":0.5116196274757385,"70":-1.0539793968200684,"71":-0.83281010389328,"72":0.15016363561153412,"73":-0.5703400373458862,"74":-1.776579737663269,"75":-0.2415073662996292,"76":-1.3936249017715454,"77":-0.3533206582069397,"78":-0.08431033045053482,"79":0.7753740549087524,"80":0.04523339495062828,"81":3.227476119995117,"82":1.5071336030960083,"83":-1.1061862707138062,"84":0.7037287354469299,"85":-0.3480599820613861,"86":-1.2616078853607178,"87":2.204667329788208,"88":2.697601795196533,"89":-1.5581504106521606,"90":-0.5768253803253174,"91":-1.9259798526763916,"92":-1.5007706880569458,"93":-0.9130154848098755,"94":-0.6613571047782898,"95":-0.4903007745742798,"96":-0.10654612630605698,"97":-0.08891786634922028,"98":-0.015521736815571785,"99":-0.8714556694030762,"100":0.0658404752612114,"101":-0.9532340168952942,"102":-0.6578705906867981,"103":0.0012032788945361972,"104":-0.4324919879436493,"105":-0.7778475880622864,"106":-1.2692443132400513,"107":0.14093884825706482,"108":-1.2019394636154175,"109":-0.1828315109014511,"110":0.5126566886901855,"111":-0.5098625421524048,"112":1.0989962816238403,"113":-0.24877430498600006,"114":0.4173063039779663,"115":2.2777180671691895,"116":-1.7225748300552368,"117":-0.07402291893959045,"118":-0.0155384736135602,"119":1.7377151250839233,"120":-1.6379754543304443,"121":-1.9393768310546875,"122":-0.359356164932251,"123":-0.23720064759254456,"124":-0.2669907212257385,"125":-0.7716698050498962,"126":0.8291317820549011,"127":1.08171546459198,"128":-2.2743756771087646,"129":-0.2283622771501541,"130":-0.3823525309562683,"131":-0.3210630416870117,"132":-1.2377338409423828,"133":0.5341827869415283,"134":-0.18394294381141663}},"11":{"bias":-1.4136766195297241,"weights":{"0":-0.220952570438385,"1":-2.813974618911743,"2":0.07356790453195572,"3":-0.7269834876060486,"4":-4.056413650512695,"5":1.214760422706604,"6":-1.5970383882522583,"7":0.10850787907838821,"8":-0.1946871429681778,"9":2.048311948776245,"10":-2.0085785388946533,"11":-0.642113208770752,"12":-0.45691120624542236,"13":-1.0145741701126099,"14":1.7595258951187134,"15":1.7007076740264893,"16":-0.5898675322532654,"17":0.9118453860282898,"18":-1.1556360721588135,"19":-1.5595626831054688,"20":0.20052462816238403,"21":1.4687511920928955,"22":3.704871416091919,"23":0.39277520775794983,"24":0.6476922631263733,"25":0.198579341173172,"26":1.1604726314544678,"27":4.506696701049805,"28":-0.9313698410987854,"29":1.4650037288665771,"30":0.7059123516082764,"31":-1.1241405010223389,"32":1.4392375946044922,"33":1.2102251052856445,"34":-2.0917716026306152,"35":-0.07801610231399536,"36":-0.1281851977109909,"37":-0.3568612337112427,"38":-0.1085590124130249,"39":-6.038811206817627,"40":-5.16811990737915,"41":-0.4315703213214874,"42":-0.32573243975639343,"43":0.5046381950378418,"44":-2.0244853496551514,"45":-2.3534932136535645,"46":2.523711919784546,"47":-0.3145170211791992,"48":2.5196175575256348,"49":0.8983760476112366,"50":0.3641575872898102,"51":2.7088212966918945,"52":1.024824619293213,"53":-0.6136477589607239,"54":3.224722146987915,"55":-4.3110857009887695,"56":3.60261869430542,"57":-1.3293964862823486,"58":2.3595499992370605,"59":2.1890926361083984,"60":-2.59855580329895,"61":0.856499969959259,"62":-0.711705207824707,"63":-0.02161874994635582,"64":-0.7032979726791382,"65":-1.0644667148590088,"66":-2.8657479286193848,"67":-2.5899100303649902,"68":-2.4746408462524414,"69":2.2319815158843994,"70":0.14934110641479492,"71":-0.17986172437667847,"72":-0.4817439913749695,"73":1.7532936334609985,"74":-0.09232092648744583,"75":1.1929770708084106,"76":0.04283113777637482,"77":0.7753350734710693,"78":-1.5104775428771973,"79":0.2357216328382492,"80":0.18505223095417023,"81":-1.650022029876709,"82":1.9828579425811768,"83":-0.39641162753105164,"84":2.081104278564453,"85":-2.2420873641967773,"86":3.0178210735321045,"87":-2.39457106590271,"88":1.3696964979171753,"89":-3.4645304679870605,"90":-1.224894404411316,"91":1.8894976377487183,"92":0.7671396136283875,"93":0.38126882910728455,"94":-4.705434799194336,"95":1.4389437437057495,"96":2.6252799034118652,"97":0.1384933441877365,"98":1.605729341506958,"99":-0.853205144405365,"100":0.2800428867340088,"101":-0.117115817964077,"102":-0.13740645349025726,"103":1.2513158321380615,"104":1.0085523128509521,"105":-4.294076442718506,"106":-0.5854470133781433,"107":-0.06562164425849915,"108":-4.618109226226807,"109":0.38287627696990967,"110":0.25723645091056824,"111":2.6558713912963867,"112":-0.32787635922431946,"113":2.2922160625457764,"114":0.6933395862579346,"115":-2.5824546813964844,"116":-1.772016167640686,"117":-0.051018793135881424,"118":1.4882537126541138,"119":2.2127137184143066,"120":1.190754771232605,"121":0.25886914134025574,"122":2.109060049057007,"123":0.5063771605491638,"124":1.2703871726989746,"125":-1.5654059648513794,"126":-0.6237741112709045,"127":-1.6491386890411377,"128":-1.55972158908844,"129":0.23840004205703735,"130":0.45260271430015564,"131":0.3351781666278839,"132":-2.274965763092041,"133":-1.0366166830062866,"134":-0.15768243372440338}},"12":{"bias":-3.857774257659912,"weights":{"0":1.6902157068252563,"1":-1.4594106674194336,"2":1.4794360399246216,"3":-2.481102228164673,"4":-0.6083365678787231,"5":0.7998942732810974,"6":-1.072800874710083,"7":-0.5196395516395569,"8":-0.5802172422409058,"9":3.5112998485565186,"10":-1.3934719562530518,"11":-2.662339687347412,"12":-1.2715773582458496,"13":1.1111674308776855,"14":1.717451810836792,"15":-1.631257176399231,"16":-0.13919520378112793,"17":-1.318216323852539,"18":-3.3658885955810547,"19":-1.4138144254684448,"20":1.6534870862960815,"21":-1.505887746810913,"22":0.9482157230377197,"23":0.22991235554218292,"24":0.7740773558616638,"25":-2.0818371772766113,"26":5.179299831390381,"27":0.07277882844209671,"28":-1.6337124109268188,"29":-2.2345614433288574,"30":-2.5667214393615723,"31":-1.0314263105392456,"32":-0.5562825202941895,"33":1.7768784761428833,"34":1.7189338207244873,"35":1.3526268005371094,"36":0.9851711988449097,"37":-3.5754401683807373,"38":0.4232066869735718,"39":-2.566545009613037,"40":-0.38701313734054565,"41":3.1595613956451416,"42":-0.4205617904663086,"43":0.49575677514076233,"44":0.2272137701511383,"45":-3.0429093837738037,"46":-2.901810884475708,"47":5.5406036376953125,"48":-0.8058157563209534,"49":0.1208367794752121,"50":-0.11386752873659134,"51":1.4841716289520264,"52":-1.1737617254257202,"53":0.8722143173217773,"54":-2.5645081996917725,"55":1.7596451044082642,"56":1.4491267204284668,"57":-0.91750168800354,"58":-2.9199717044830322,"59":0.6461487412452698,"60":1.8323726654052734,"61":0.7275531888008118,"62":1.912354826927185,"63":1.6879801750183105,"64":0.8458540439605713,"65":0.7302232980728149,"66":-1.3645408153533936,"67":-0.9483968615531921,"68":0.0955490842461586,"69":-0.03697119653224945,"70":-1.185465693473816,"71":-0.5086716413497925,"72":-2.0479369163513184,"73":0.8015256524085999,"74":-1.0444978475570679,"75":-0.7011873722076416,"76":0.6111813187599182,"77":0.386870414018631,"78":-1.9048835039138794,"79":-1.1421586275100708,"80":-0.37609440088272095,"81":0.028728261590003967,"82":1.699937343597412,"83":-2.5168049335479736,"84":-0.9627256393432617,"85":-1.9992554187774658,"86":-0.152090385556221,"87":2.6385886669158936,"88":0.9417734146118164,"89":-0.055523116141557693,"90":1.2679232358932495,"91":2.1723997592926025,"92":-2.784881114959717,"93":-3.340482711791992,"94":1.3238242864608765,"95":-0.5597004890441895,"96":-0.9551136493682861,"97":0.022884344682097435,"98":1.003089427947998,"99":-2.0149073600769043,"100":1.2988739013671875,"101":0.15553081035614014,"102":0.45815837383270264,"103":0.8682059645652771,"104":0.2561085820198059,"105":-1.151674747467041,"106":-1.5880002975463867,"107":-0.03255554661154747,"108":-0.564507246017456,"109":-0.5274496674537659,"110":0.316174179315567,"111":-2.9645934104919434,"112":-0.6500677466392517,"113":1.0553704500198364,"114":0.11372730880975723,"115":0.21469198167324066,"116":-0.38398486375808716,"117":0.0023406336549669504,"118":0.1558949202299118,"119":1.0775830745697021,"120":0.05409366264939308,"121":-1.011159062385559,"122":1.4880021810531616,"123":1.3747895956039429,"124":0.2962895631790161,"125":-1.151148796081543,"126":0.2488345056772232,"127":-3.9654130935668945,"128":1.4110453128814697,"129":-0.003425685688853264,"130":0.22323252260684967,"131":-0.46648168563842773,"132":-1.1539450883865356,"133":0.3617175817489624,"134":-0.19537891447544098}},"13":{"bias":-5.324713706970215,"weights":{"0":2.8024039268493652,"1":-0.08869977295398712,"2":-3.248638391494751,"3":-2.7342536449432373,"4":-3.648637056350708,"5":0.30527856945991516,"6":-0.7050187587738037,"7":-2.256173849105835,"8":0.06453514099121094,"9":1.4231706857681274,"10":-3.2147886753082275,"11":1.750024676322937,"12":3.0504989624023438,"13":3.7910549640655518,"14":-1.9277764558792114,"15":0.7553325891494751,"16":-0.8662453889846802,"17":2.6284985542297363,"18":0.9272865653038025,"19":-1.9710735082626343,"20":-2.344710111618042,"21":0.6261297464370728,"22":-3.752194404602051,"23":-0.16874061524868011,"24":1.1002265214920044,"25":-1.017269492149353,"26":2.989192008972168,"27":1.0511850118637085,"28":0.8483810424804688,"29":-0.8851980566978455,"30":-0.983311653137207,"31":1.3848577737808228,"32":2.4599783420562744,"33":0.7648618221282959,"34":0.5925125479698181,"35":2.400658130645752,"36":-1.3332526683807373,"37":-1.206841230392456,"38":-3.2460498809814453,"39":0.7285684943199158,"40":0.3990458548069,"41":0.5190526843070984,"42":-0.3871447443962097,"43":-0.7911027073860168,"44":-1.489706039428711,"45":0.468115895986557,"46":-0.39238929748535156,"47":-1.6282156705856323,"48":-4.489825248718262,"49":-2.542839527130127,"50":-0.11325276643037796,"51":2.3875558376312256,"52":-1.066910982131958,"53":0.9315180778503418,"54":1.42055082321167,"55":-0.48210567235946655,"56":0.243294820189476,"57":2.110194683074951,"58":-0.45229217410087585,"59":0.4657762348651886,"60":-2.8623692989349365,"61":-1.3285844326019287,"62":1.8320153951644897,"63":-1.0965181589126587,"64":-0.8895400762557983,"65":1.5352439880371094,"66":-0.5788546204566956,"67":1.0705386400222778,"68":-1.5967215299606323,"69":-0.7981398701667786,"70":-1.3770639896392822,"71":-0.6905744075775146,"72":1.110669493675232,"73":0.030107174068689346,"74":-0.3940134048461914,"75":-1.932668924331665,"76":-0.8702179193496704,"77":-0.5485409498214722,"78":-0.5381867289543152,"79":0.41456088423728943,"80":-0.5023632645606995,"81":2.6036696434020996,"82":0.005182925146073103,"83":0.031732555478811264,"84":0.5869168043136597,"85":-2.3653218746185303,"86":-0.42242589592933655,"87":-2.5303540229797363,"88":-2.6505913734436035,"89":2.781132459640503,"90":-0.7733789682388306,"91":-0.06374840438365936,"92":1.9762048721313477,"93":-1.763571858406067,"94":3.375272750854492,"95":-1.5158482789993286,"96":-1.5221196413040161,"97":0.09619222581386566,"98":-1.8183292150497437,"99":-0.9501712918281555,"100":-3.9315121173858643,"101":-0.37377139925956726,"102":0.9859683513641357,"103":-1.1595033407211304,"104":0.49845629930496216,"105":2.9717178344726562,"106":-0.9120623469352722,"107":0.19137042760849,"108":1.689666509628296,"109":0.5088772773742676,"110":0.0800841823220253,"111":0.2978091239929199,"112":1.5628254413604736,"113":-0.8677292466163635,"114":-0.308357834815979,"115":0.9428734183311462,"116":1.3227200508117676,"117":0.14606228470802307,"118":0.05622376874089241,"119":-2.435030698776245,"120":-0.8139278292655945,"121":-1.58822762966156,"122":-2.6793220043182373,"123":-1.0660094022750854,"124":-1.0127508640289307,"125":-0.8258717060089111,"126":-0.9569442272186279,"127":-1.592808723449707,"128":0.9268561601638794,"129":0.1129491999745369,"130":-0.06772713363170624,"131":-1.277869701385498,"132":0.6438409090042114,"133":0.5758869647979736,"134":-0.15457575023174286}},"14":{"bias":-1.7503719329833984,"weights":{"0":0.8707435131072998,"1":-0.2203693389892578,"2":0.7234651446342468,"3":-0.5417691469192505,"4":-0.4103774130344391,"5":-0.26058319211006165,"6":0.5260615944862366,"7":-0.5208943486213684,"8":-0.5287931561470032,"9":-0.344370573759079,"10":1.2039459943771362,"11":-0.42100581526756287,"12":0.3306196630001068,"13":-0.6312878131866455,"14":0.36934152245521545,"15":-0.3977217674255371,"16":-0.07387301325798035,"17":0.10404366254806519,"18":0.27612173557281494,"19":0.09687820822000504,"20":-0.37078097462654114,"21":-0.32547107338905334,"22":-0.21366912126541138,"23":-0.10419176518917084,"24":-0.10607728362083435,"25":0.23285411298274994,"26":-0.7131239771842957,"27":0.5144167542457581,"28":-0.04024766385555267,"29":-0.21248584985733032,"30":-0.446638822555542,"31":-0.12199269235134125,"32":-0.0849982276558876,"33":0.37660688161849976,"34":-0.20006464421749115,"35":-0.0229315347969532,"36":-0.23789086937904358,"37":0.14134719967842102,"38":0.002939801663160324,"39":-0.21621640026569366,"40":0.2139032632112503,"41":-0.39215728640556335,"42":-0.18948884308338165,"43":-0.1765373945236206,"44":0.4026515781879425,"45":0.4561018645763397,"46":-0.3662186563014984,"47":0.07598678767681122,"48":-0.3585146367549896,"49":-0.011165373027324677,"50":-0.00901577714830637,"51":0.14918166399002075,"52":0.1145276352763176,"53":0.03924872726202011,"54":-0.3691597282886505,"55":-0.1334252655506134,"56":-0.22274187207221985,"57":-0.6475798487663269,"58":-0.6413634419441223,"59":-0.24791251122951508,"60":0.5302008986473083,"61":-0.20159664750099182,"62":0.08991632610559464,"63":0.06413020938634872,"64":0.07710053026676178,"65":-0.8843151926994324,"66":-0.4446345865726471,"67":-0.6271953582763672,"68":0.1789410561323166,"69":-0.3741648495197296,"70":-0.020081777125597,"71":1.1661632061004639,"72":0.2520715892314911,"73":0.7306048274040222,"74":-0.005720421206206083,"75":-0.49896979331970215,"76":-0.19734662771224976,"77":-0.03980524465441704,"78":-0.0657959058880806,"79":0.1333199292421341,"80":-0.06894368678331375,"81":0.5199181437492371,"82":-0.5431027412414551,"83":-0.06413646042346954,"84":0.1027420237660408,"85":-0.3274764120578766,"86":-0.0753374993801117,"87":-0.14562274515628815,"88":0.10836811363697052,"89":-0.7562704086303711,"90":-0.04165397956967354,"91":0.9604917764663696,"92":-0.06781025975942612,"93":-0.14276616275310516,"94":-1.4382994174957275,"95":-0.5217835307121277,"96":0.2171832025051117,"97":-0.1022508293390274,"98":0.7719453573226929,"99":0.04988397657871246,"100":-0.6674143075942993,"101":-0.32804039120674133,"102":0.06674561649560928,"103":-0.007772096432745457,"104":0.23747685551643372,"105":0.22754129767417908,"106":0.27028343081474304,"107":0.05676853656768799,"108":0.7971948981285095,"109":0.009905721992254257,"110":-0.2303893268108368,"111":0.3044276833534241,"112":0.6937119364738464,"113":0.31131893396377563,"114":0.19317670166492462,"115":0.5547733902931213,"116":-0.8289963603019714,"117":-0.0037594232708215714,"118":-0.17189209163188934,"119":-0.2077225297689438,"120":-0.30667826533317566,"121":0.19965238869190216,"122":-0.4831375777721405,"123":-0.21192337572574615,"124":-0.18514995276927948,"125":-0.5512183904647827,"126":-0.5158907175064087,"127":-0.17502157390117645,"128":0.08348305523395538,"129":0.10153724253177643,"130":-0.243369460105896,"131":-0.03504929319024086,"132":-0.253074049949646,"133":-0.26994070410728455,"134":0.18356402218341827}},"15":{"bias":-3.5477004051208496,"weights":{"0":0.08343042433261871,"1":1.1389894485473633,"2":-2.90739107131958,"3":-1.9026535749435425,"4":-1.1012362241744995,"5":2.998541831970215,"6":1.5013725757598877,"7":-1.8704674243927002,"8":0.7731534838676453,"9":-1.0239684581756592,"10":-1.1709816455841064,"11":-0.24110154807567596,"12":-3.9529736042022705,"13":-1.7414677143096924,"14":-0.24371500313282013,"15":1.490029215812683,"16":1.9020920991897583,"17":0.18285183608531952,"18":0.07331027835607529,"19":-0.9284125566482544,"20":2.1505181789398193,"21":2.8864827156066895,"22":0.5768421292304993,"23":-0.32849666476249695,"24":-0.7423517107963562,"25":-1.4659655094146729,"26":-0.6358119249343872,"27":1.7288621664047241,"28":0.7627443671226501,"29":1.2079674005508423,"30":-0.6305879354476929,"31":0.09872893989086151,"32":1.034303903579712,"33":-1.9441843032836914,"34":-2.186110019683838,"35":-2.244140386581421,"36":-0.37957215309143066,"37":-0.8112184405326843,"38":-1.1840593814849854,"39":-0.4479394555091858,"40":0.8202440142631531,"41":-1.8881806135177612,"42":0.18444930016994476,"43":0.4031699001789093,"44":1.727062702178955,"45":4.077641487121582,"46":-1.6077100038528442,"47":-1.05913507938385,"48":-1.039007306098938,"49":0.7461045384407043,"50":-0.36246225237846375,"51":-2.433149576187134,"52":2.259878635406494,"53":-0.7639622092247009,"54":-3.933809995651245,"55":-1.520312786102295,"56":0.3465472161769867,"57":-2.4553210735321045,"58":-4.573296070098877,"59":-0.1644565910100937,"60":0.635976254940033,"61":0.379952073097229,"62":-1.3043967485427856,"63":0.6765633225440979,"64":-0.4590601921081543,"65":5.024288654327393,"66":0.7749902009963989,"67":-0.19055147469043732,"68":-2.0011725425720215,"69":0.625903844833374,"70":0.9707852005958557,"71":4.6604084968566895,"72":2.7318732738494873,"73":-3.5339441299438477,"74":-1.2791308164596558,"75":0.07676514238119125,"76":0.4938410520553589,"77":0.25672125816345215,"78":-1.3709449768066406,"79":1.0863782167434692,"80":0.6211378574371338,"81":1.045356273651123,"82":2.6208434104919434,"83":-0.8449467420578003,"84":-1.2658772468566895,"85":-2.1891894340515137,"86":-0.27024421095848083,"87":-2.153343915939331,"88":-3.4549074172973633,"89":-1.4362046718597412,"90":1.1712788343429565,"91":-1.443867802619934,"92":1.4762240648269653,"93":0.48797205090522766,"94":0.8452907204627991,"95":2.599622964859009,"96":3.7315759658813477,"97":0.13373982906341553,"98":-0.9307271838188171,"99":-0.410505473613739,"100":2.5843639373779297,"101":-5.196713924407959,"102":1.115557312965393,"103":0.8744062781333923,"104":0.3558383882045746,"105":-1.1674317121505737,"106":-1.2230076789855957,"107":-0.02378779835999012,"108":-5.696685791015625,"109":0.7051071524620056,"110":1.924744963645935,"111":-0.40447568893432617,"112":-1.4531495571136475,"113":0.3727776110172272,"114":0.43353739380836487,"115":-1.2917797565460205,"116":-0.7001599073410034,"117":-0.1952316164970398,"118":3.356290578842163,"119":2.732966423034668,"120":-2.9561405181884766,"121":-2.6215667724609375,"122":3.409298896789551,"123":2.255567789077759,"124":0.5689216256141663,"125":-4.734401702880859,"126":1.756868600845337,"127":-3.016542911529541,"128":0.688084602355957,"129":-0.2805509865283966,"130":0.4672541916370392,"131":2.2529187202453613,"132":-0.6127670407295227,"133":-0.852921187877655,"134":0.08021532744169235}},"16":{"bias":-1.673870325088501,"weights":{"0":-0.5687408447265625,"1":0.05464763194322586,"2":-0.5939406156539917,"3":0.39122483134269714,"4":-0.8696345686912537,"5":0.1975090354681015,"6":-0.5016341209411621,"7":-0.08458245545625687,"8":1.1410059928894043,"9":1.0737627744674683,"10":-0.40647101402282715,"11":-0.8385595083236694,"12":-0.14144952595233917,"13":0.3312964141368866,"14":0.4185340702533722,"15":0.14370134472846985,"16":0.27434617280960083,"17":0.28840431571006775,"18":-0.13867546617984772,"19":-0.17569544911384583,"20":0.6248822808265686,"21":0.03807922080159187,"22":-0.675858199596405,"23":-0.033966921269893646,"24":-0.18076086044311523,"25":-0.34816503524780273,"26":-0.1341715306043625,"27":0.6479982733726501,"28":-0.11537937819957733,"29":0.5860365033149719,"30":-0.07374211400747299,"31":-0.030398422852158546,"32":-0.2836809754371643,"33":0.02691788226366043,"34":-0.07484250515699387,"35":-1.3880095481872559,"36":-0.343405157327652,"37":-0.019434180110692978,"38":0.27168241143226624,"39":0.5701438784599304,"40":-0.37153545022010803,"41":-0.5769046545028687,"42":0.33533287048339844,"43":0.20507363975048065,"44":0.10204491019248962,"45":0.38944050669670105,"46":-0.5061962008476257,"47":-0.012904512695968151,"48":0.25187793374061584,"49":-0.41087019443511963,"50":0.25775158405303955,"51":-0.41027966141700745,"52":0.026635222136974335,"53":-0.35430291295051575,"54":-0.5767320990562439,"55":-0.1608022004365921,"56":-0.5083684325218201,"57":-0.7136050462722778,"58":0.5869181156158447,"59":0.11257830262184143,"60":-0.08170045167207718,"61":0.3304049074649811,"62":0.11888391524553299,"63":-0.16703584790229797,"64":0.02618866041302681,"65":-1.1072049140930176,"66":-0.05600684508681297,"67":0.09657344967126846,"68":0.11461124569177628,"69":0.07517774403095245,"70":0.10353593528270721,"71":0.20550069212913513,"72":0.18291479349136353,"73":0.6035693883895874,"74":0.6444975137710571,"75":-0.7232000827789307,"76":-0.21202678978443146,"77":-0.03715706989169121,"78":-0.730767548084259,"79":0.2620141804218292,"80":0.0634668618440628,"81":-0.1553211659193039,"82":-0.08379355818033218,"83":1.1114033460617065,"84":1.5756666660308838,"85":-1.2626686096191406,"86":0.35406458377838135,"87":-0.16090881824493408,"88":-0.08172809332609177,"89":0.09622501581907272,"90":-0.017264699563384056,"91":1.1266868114471436,"92":0.06227912753820419,"93":-0.36501356959342957,"94":-0.5469229221343994,"95":-0.2633797228336334,"96":-0.1543499231338501,"97":0.1788979321718216,"98":-0.6317699551582336,"99":-0.17994309961795807,"100":0.04337487742304802,"101":-0.9192403554916382,"102":0.2895978093147278,"103":-0.09737908840179443,"104":-0.058120742440223694,"105":-0.6174699664115906,"106":-0.4903896450996399,"107":0.08479832857847214,"108":-0.057998236268758774,"109":0.17914064228534698,"110":0.04747138172388077,"111":-0.06458727270364761,"112":0.42657461762428284,"113":-0.20539166033267975,"114":-0.03503401204943657,"115":0.2746708393096924,"116":-2.1475541591644287,"117":-0.09510017186403275,"118":0.2637264132499695,"119":0.12120233476161957,"120":-0.3020690381526947,"121":-0.0031017367728054523,"122":0.3089466094970703,"123":-0.029323406517505646,"124":0.059399235993623734,"125":-1.0325411558151245,"126":0.6863667964935303,"127":0.06248572841286659,"128":0.3056960105895996,"129":0.20609478652477264,"130":0.17517641186714172,"131":-0.19641387462615967,"132":-1.117882490158081,"133":0.8958427906036377,"134":0.013448484241962433}},"17":{"bias":-5.837019443511963,"weights":{"0":1.5134708881378174,"1":1.9571490287780762,"2":-3.704066514968872,"3":2.086726188659668,"4":-0.21766769886016846,"5":-1.3989285230636597,"6":0.15978309512138367,"7":-0.6448280215263367,"8":0.5208882689476013,"9":-2.039074420928955,"10":-4.967795372009277,"11":0.26897040009498596,"12":1.6327563524246216,"13":-0.4008486270904541,"14":0.9670106768608093,"15":1.126771330833435,"16":-1.2208949327468872,"17":0.1360224038362503,"18":-1.0906542539596558,"19":0.3968956768512726,"20":-0.844695508480072,"21":5.065003395080566,"22":-0.0996573269367218,"23":-0.5970462560653687,"24":-0.9552270174026489,"25":-2.9660778045654297,"26":-1.252821445465088,"27":0.23546698689460754,"28":1.5946968793869019,"29":1.3467599153518677,"30":3.857151985168457,"31":-0.6027421951293945,"32":-0.8782488107681274,"33":3.916161060333252,"34":-0.059074580669403076,"35":-0.09195791929960251,"36":-1.1313999891281128,"37":-1.164681315422058,"38":1.487383484840393,"39":-4.6661376953125,"40":-0.05267923325300217,"41":-3.3990325927734375,"42":1.4337987899780273,"43":0.4410609304904938,"44":0.7267256379127502,"45":-2.848222494125366,"46":-2.722789764404297,"47":-0.735968291759491,"48":-3.620800018310547,"49":-0.6512477993965149,"50":0.9184843897819519,"51":0.5821734070777893,"52":-0.5652053356170654,"53":0.9722150564193726,"54":-5.244296550750732,"55":1.3378410339355469,"56":-1.6199244260787964,"57":3.086674690246582,"58":-2.75663423538208,"59":0.7493596076965332,"60":-2.820054054260254,"61":-1.9304412603378296,"62":-3.4775986671447754,"63":0.9148258566856384,"64":-0.3083997070789337,"65":1.2644391059875488,"66":0.5786550641059875,"67":-0.25573861598968506,"68":4.494178295135498,"69":1.1529126167297363,"70":1.2399747371673584,"71":2.3134589195251465,"72":-1.5564051866531372,"73":1.0923000574111938,"74":-1.022961139678955,"75":1.8467423915863037,"76":-0.6217115521430969,"77":1.5301573276519775,"78":-3.3311266899108887,"79":-2.3216769695281982,"80":-0.27109432220458984,"81":-5.240359783172607,"82":2.0878608226776123,"83":-2.076303243637085,"84":3.009594678878784,"85":2.011260986328125,"86":1.628269076347351,"87":-2.5735421180725098,"88":-2.4214582443237305,"89":2.5880751609802246,"90":-1.531603217124939,"91":-0.7202429175376892,"92":-6.093505859375,"93":-0.1642608791589737,"94":0.5803017020225525,"95":3.6684014797210693,"96":-2.150059700012207,"97":-0.06533803790807724,"98":4.63217306137085,"99":-2.445840835571289,"100":-2.303971290588379,"101":-1.263832688331604,"102":0.2014550417661667,"103":0.734509289264679,"104":1.3110653162002563,"105":1.9240018129348755,"106":-2.154648542404175,"107":0.15356966853141785,"108":-7.371246814727783,"109":0.19555798172950745,"110":1.7411695718765259,"111":-6.079479694366455,"112":2.3616461753845215,"113":-0.546774685382843,"114":0.8239277005195618,"115":-1.2435331344604492,"116":2.459951877593994,"117":0.020311838015913963,"118":0.7415784597396851,"119":-1.0422312021255493,"120":-1.4215006828308105,"121":-1.7894200086593628,"122":4.608431339263916,"123":1.7776609659194946,"124":0.1777172088623047,"125":0.6011388897895813,"126":-3.4706668853759766,"127":-3.829557180404663,"128":3.6726207733154297,"129":-0.6615423560142517,"130":0.45130711793899536,"131":0.06206415593624115,"132":2.9015884399414062,"133":-2.2527859210968018,"134":-0.14080242812633514}},"18":{"bias":-2.6207563877105713,"weights":{"0":-2.9450666904449463,"1":-2.4644229412078857,"2":1.999183177947998,"3":-0.7624114751815796,"4":-3.0469746589660645,"5":-0.6802893280982971,"6":0.4084678292274475,"7":-1.6244138479232788,"8":-2.3724453449249268,"9":-0.23570892214775085,"10":3.8475561141967773,"11":2.496795415878296,"12":0.21270453929901123,"13":-3.0912506580352783,"14":1.390723705291748,"15":-0.9519465565681458,"16":0.924411952495575,"17":2.3987936973571777,"18":5.623450756072998,"19":-1.8265454769134521,"20":-0.11455082148313522,"21":0.4322616755962372,"22":1.7052780389785767,"23":-0.7438129186630249,"24":-2.463653326034546,"25":3.344088315963745,"26":-3.8456664085388184,"27":-2.4682390689849854,"28":5.176690101623535,"29":0.6067317724227905,"30":1.0186855792999268,"31":-2.2152249813079834,"32":-0.6907414197921753,"33":2.3714828491210938,"34":-0.7260146141052246,"35":-0.3386744260787964,"36":0.8312681317329407,"37":1.8598536252975464,"38":-0.6258920431137085,"39":0.362703800201416,"40":-0.39970287680625916,"41":-1.7181254625320435,"42":0.5103651881217957,"43":0.9080489277839661,"44":-1.9453279972076416,"45":0.27175870537757874,"46":2.149684190750122,"47":-3.262786865234375,"48":-2.8527040481567383,"49":0.13791722059249878,"50":1.636986494064331,"51":-0.19060401618480682,"52":-0.9307167530059814,"53":-2.653071165084839,"54":-1.0891170501708984,"55":-4.766624450683594,"56":-1.969037413597107,"57":0.9475536942481995,"58":-0.5893180966377258,"59":1.662381649017334,"60":-0.973804235458374,"61":0.034965742379426956,"62":2.8768701553344727,"63":0.20771823823451996,"64":0.6848399639129639,"65":-1.0027761459350586,"66":1.449706792831421,"67":-2.304399013519287,"68":0.07227464765310287,"69":1.767668604850769,"70":0.6953216195106506,"71":-2.716665029525757,"72":-1.1152851581573486,"73":-2.807933807373047,"74":-0.9297181367874146,"75":3.7130420207977295,"76":0.5840216279029846,"77":1.4314450025558472,"78":3.4694395065307617,"79":-2.3799242973327637,"80":-0.04495660215616226,"81":-3.1259853839874268,"82":0.04721030592918396,"83":-1.5002521276474,"84":-1.9979119300842285,"85":0.6962229013442993,"86":2.0043466091156006,"87":2.5007529258728027,"88":1.240824580192566,"89":1.6032620668411255,"90":1.3275177478790283,"91":-3.2413711547851562,"92":-1.5961965322494507,"93":1.7010024785995483,"94":-0.6404227018356323,"95":-2.297576904296875,"96":1.2004573345184326,"97":-0.12401372194290161,"98":-4.1891326904296875,"99":-1.5328729152679443,"100":-1.6223713159561157,"101":1.7282415628433228,"102":2.8210620880126953,"103":0.8072476983070374,"104":0.34599387645721436,"105":1.4337103366851807,"106":-0.6886322498321533,"107":-0.1882169097661972,"108":-2.332960605621338,"109":-0.3756825029850006,"110":0.8441788554191589,"111":-0.23436683416366577,"112":-2.33150053024292,"113":-1.3638031482696533,"114":-1.502647042274475,"115":0.9978251457214355,"116":0.20267319679260254,"117":0.13144055008888245,"118":0.41846752166748047,"119":1.6784223318099976,"120":-0.31821683049201965,"121":-0.8154693245887756,"122":2.4988718032836914,"123":1.2502390146255493,"124":0.1557735651731491,"125":0.6361048221588135,"126":-2.050356388092041,"127":-1.8904567956924438,"128":1.015974998474121,"129":0.7147904634475708,"130":0.4923038184642792,"131":-0.042304299771785736,"132":0.4756251275539398,"133":-0.36878401041030884,"134":0.13154509663581848}},"19":{"bias":-4.369837284088135,"weights":{"0":-1.323479413986206,"1":-2.800628423690796,"2":0.7437750101089478,"3":2.5685887336730957,"4":0.321111798286438,"5":0.05225003510713577,"6":-1.7097070217132568,"7":0.047884292900562286,"8":1.3877301216125488,"9":-1.0178278684616089,"10":-2.2831945419311523,"11":-0.5867854952812195,"12":-0.2215169221162796,"13":0.27788761258125305,"14":-0.06762094795703888,"15":-0.7642437815666199,"16":-0.8530286550521851,"17":-0.7114605903625488,"18":1.1139050722122192,"19":-2.5284366607666016,"20":1.8534514904022217,"21":3.0374696254730225,"22":-2.2449564933776855,"23":-0.36894553899765015,"24":-0.0046387482434511185,"25":-0.22491221129894257,"26":1.4670672416687012,"27":-2.806607961654663,"28":-1.1137933731079102,"29":-0.3928350806236267,"30":1.686223030090332,"31":0.030914003029465675,"32":0.7653934359550476,"33":-1.3008638620376587,"34":0.18377788364887238,"35":1.3920708894729614,"36":-2.005598783493042,"37":-1.9877835512161255,"38":0.7643604278564453,"39":0.4102100133895874,"40":2.780266761779785,"41":0.06336601823568344,"42":-0.21536506712436676,"43":-0.48706623911857605,"44":-2.0328497886657715,"45":0.2649274170398712,"46":-0.14375825226306915,"47":0.07124901562929153,"48":-0.32880720496177673,"49":-0.7826545834541321,"50":-0.14176902174949646,"51":-0.6674215793609619,"52":1.3733867406845093,"53":-1.1078004837036133,"54":-0.7045981287956238,"55":0.32164621353149414,"56":1.171696662902832,"57":-0.5198579430580139,"58":2.1003401279449463,"59":-1.1221786737442017,"60":0.10571663826704025,"61":-1.0454492568969727,"62":-0.009214472956955433,"63":1.0756043195724487,"64":-1.5356959104537964,"65":1.9549047946929932,"66":0.8711854219436646,"67":-0.5052831768989563,"68":1.556060791015625,"69":0.1763634830713272,"70":-0.7318463325500488,"71":-1.6076953411102295,"72":1.517256498336792,"73":-2.127431869506836,"74":-0.10765199363231659,"75":-0.07299666851758957,"76":-1.5740777254104614,"77":-0.5248658657073975,"78":-1.4127528667449951,"79":-2.1172549724578857,"80":0.36496981978416443,"81":1.390128254890442,"82":-1.1010643243789673,"83":-2.8911054134368896,"84":1.6763746738433838,"85":1.5560863018035889,"86":0.9558737277984619,"87":-0.02968299388885498,"88":0.15473124384880066,"89":2.502889633178711,"90":-0.5823255777359009,"91":-0.36859941482543945,"92":2.3831772804260254,"93":-3.193246841430664,"94":-1.10935640335083,"95":-3.4640254974365234,"96":-1.7870373725891113,"97":-0.05026513338088989,"98":-1.7596031427383423,"99":0.8113349676132202,"100":0.07419662177562714,"101":-1.0703917741775513,"102":-1.1457443237304688,"103":0.03356584534049034,"104":-0.25175991654396057,"105":2.446486234664917,"106":0.37101849913597107,"107":-0.04213862121105194,"108":3.8652520179748535,"109":-0.3796786665916443,"110":0.16459660232067108,"111":-1.2792237997055054,"112":1.8698887825012207,"113":-0.16887855529785156,"114":-0.9184611439704895,"115":2.018458127975464,"116":0.03742862492799759,"117":0.16739438474178314,"118":0.5364137291908264,"119":-2.6220552921295166,"120":-0.2903371751308441,"121":0.775499165058136,"122":-2.7620761394500732,"123":-1.3416638374328613,"124":-0.9985039830207825,"125":3.255072593688965,"126":-0.5037581920623779,"127":-1.7886767387390137,"128":-3.0833168029785156,"129":-0.5530698895454407,"130":-0.5113744735717773,"131":-1.712579607963562,"132":0.49639755487442017,"133":-0.042639635503292084,"134":-0.0407242476940155}},"20":{"bias":-2.294616222381592,"weights":{"0":0.44271132349967957,"1":0.02401706576347351,"2":1.0456452369689941,"3":0.3739146292209625,"4":0.1685006469488144,"5":-0.06802385300397873,"6":3.949357032775879,"7":-0.4938356876373291,"8":-1.6968836784362793,"9":-1.0981779098510742,"10":-0.404316782951355,"11":-1.2116926908493042,"12":-0.21024256944656372,"13":-2.7121334075927734,"14":0.237603560090065,"15":1.0690650939941406,"16":0.4778738021850586,"17":1.1236432790756226,"18":-1.1554539203643799,"19":1.8706446886062622,"20":-1.565368413925171,"21":0.19854363799095154,"22":0.19111508131027222,"23":-0.4377039968967438,"24":-0.9374255537986755,"25":-0.5453635454177856,"26":0.033749453723430634,"27":-0.385835200548172,"28":-0.15557360649108887,"29":-1.2101401090621948,"30":0.3453003168106079,"31":0.835358202457428,"32":0.8449897766113281,"33":0.7288460731506348,"34":0.46382877230644226,"35":1.8853689432144165,"36":-1.2958447933197021,"37":-1.1691856384277344,"38":-3.475090265274048,"39":1.4797465801239014,"40":-3.1319491863250732,"41":-1.3268885612487793,"42":1.5552928447723389,"43":0.9359766840934753,"44":-2.4592444896698,"45":0.4646579623222351,"46":-1.9973279237747192,"47":2.57745361328125,"48":0.7555751204490662,"49":0.06280982494354248,"50":0.29792630672454834,"51":0.7629659175872803,"52":-1.004448652267456,"53":1.6190650463104248,"54":-0.33275073766708374,"55":0.05841532722115517,"56":0.3468576967716217,"57":1.1483103036880493,"58":-1.2658451795578003,"59":0.7689442038536072,"60":-0.7385597229003906,"61":0.009279855526983738,"62":1.0602260828018188,"63":1.0464026927947998,"64":0.4125431478023529,"65":-0.9914250373840332,"66":-2.3865811824798584,"67":-3.051628828048706,"68":3.0728702545166016,"69":0.3906380534172058,"70":0.04583672434091568,"71":0.21374529600143433,"72":-0.7388571500778198,"73":-1.9714035987854004,"74":2.5819365978240967,"75":-0.6932600736618042,"76":0.5399717688560486,"77":0.6806754469871521,"78":-0.002627074485644698,"79":-1.8156683444976807,"80":-0.01935337297618389,"81":2.212259531021118,"82":-0.16895146667957306,"83":1.0132454633712769,"84":-1.2746561765670776,"85":1.2151645421981812,"86":-1.0434606075286865,"87":-0.7984018325805664,"88":-0.0038463736418634653,"89":-0.6523237824440002,"90":0.7950578331947327,"91":1.7592345476150513,"92":-0.7726950645446777,"93":-0.5959581136703491,"94":-2.5019989013671875,"95":-1.0359615087509155,"96":0.07048672437667847,"97":-0.1147710308432579,"98":0.5571668148040771,"99":-0.4865438938140869,"100":-0.4284711480140686,"101":1.0786163806915283,"102":0.3161716163158417,"103":0.25751495361328125,"104":0.2767997086048126,"105":-1.8427588939666748,"106":0.13104531168937683,"107":-0.15741577744483948,"108":-0.5470730066299438,"109":-0.884674608707428,"110":0.02924492582678795,"111":0.1865866631269455,"112":-1.0735841989517212,"113":0.885920524597168,"114":-0.45966148376464844,"115":-1.888319492340088,"116":-0.44585010409355164,"117":0.1743638813495636,"118":0.7825070023536682,"119":1.4048131704330444,"120":-1.1529322862625122,"121":-0.6114372611045837,"122":0.7557398080825806,"123":0.5112378597259521,"124":0.2641366422176361,"125":0.6909834742546082,"126":0.11056703329086304,"127":-0.9255822896957397,"128":0.8866996765136719,"129":0.05034986138343811,"130":0.08548129349946976,"131":-0.039751872420310974,"132":-0.3972952663898468,"133":-0.3714769780635834,"134":0.08854294568300247}},"21":{"bias":-2.183607816696167,"weights":{"0":-0.2004934698343277,"1":-0.14343325793743134,"2":-1.0331014394760132,"3":-1.2192785739898682,"4":-2.0121681690216064,"5":-0.45546457171440125,"6":0.22578652203083038,"7":-0.25255897641181946,"8":1.2988731861114502,"9":1.253991723060608,"10":-0.12210710346698761,"11":0.6840759515762329,"12":0.8527087569236755,"13":-0.838552713394165,"14":0.7599502801895142,"15":-0.20417553186416626,"16":0.14555726945400238,"17":-0.6676850914955139,"18":-1.9845601320266724,"19":-0.6920797824859619,"20":0.2939402163028717,"21":0.4801974594593048,"22":1.0202600955963135,"23":-0.26078352332115173,"24":0.21904391050338745,"25":0.34835851192474365,"26":-0.36847028136253357,"27":0.2302529364824295,"28":0.5730288028717041,"29":0.22547116875648499,"30":-1.4633846282958984,"31":-1.9478050470352173,"32":0.2713891565799713,"33":1.430059790611267,"34":0.33850735425949097,"35":-1.2616018056869507,"36":-0.4828191101551056,"37":0.3883485198020935,"38":-0.6523333191871643,"39":0.771702766418457,"40":-0.12214669585227966,"41":-0.6908681392669678,"42":0.4485018849372864,"43":0.23442129790782928,"44":0.3879639208316803,"45":0.4570036232471466,"46":-0.7616228461265564,"47":-0.7978744506835938,"48":-0.6031247973442078,"49":0.49066591262817383,"50":0.11169914901256561,"51":-0.3010018467903137,"52":0.9407017827033997,"53":-0.2615470588207245,"54":0.01580537110567093,"55":0.2173290103673935,"56":1.082414150238037,"57":1.137391209602356,"58":-1.8437626361846924,"59":0.09047316014766693,"60":-0.2156732976436615,"61":-1.3142328262329102,"62":-0.6894997358322144,"63":0.579609751701355,"64":0.5020089149475098,"65":-1.0722521543502808,"66":-1.1190680265426636,"67":-1.1382601261138916,"68":0.6832472681999207,"69":0.4725949764251709,"70":-0.2271868884563446,"71":0.6965822577476501,"72":0.7168074250221252,"73":0.37273162603378296,"74":0.024353429675102234,"75":0.1444537341594696,"76":-0.09559184312820435,"77":0.07347884774208069,"78":-1.1526861190795898,"79":0.6130870580673218,"80":-0.33170294761657715,"81":-0.48004230856895447,"82":0.529824435710907,"83":0.3448062539100647,"84":0.0024920126888900995,"85":-1.1770673990249634,"86":0.13078604638576508,"87":0.13825520873069763,"88":0.2233121395111084,"89":0.558796226978302,"90":-0.31677666306495667,"91":-0.26952019333839417,"92":-1.244088888168335,"93":0.9186509251594543,"94":-3.0125672817230225,"95":-0.4181445240974426,"96":1.1660420894622803,"97":0.09528862684965134,"98":-0.7786469459533691,"99":0.17202432453632355,"100":1.6947407722473145,"101":1.1870137453079224,"102":-0.8963111042976379,"103":-0.2929127812385559,"104":-0.7821846604347229,"105":0.42571282386779785,"106":-0.6737228035926819,"107":0.00443284260109067,"108":2.0499846935272217,"109":0.026156533509492874,"110":-0.24748334288597107,"111":0.4103044271469116,"112":1.2402337789535522,"113":0.20499904453754425,"114":0.33223897218704224,"115":-0.49120691418647766,"116":-0.2626268267631531,"117":-0.1037411093711853,"118":0.036642465740442276,"119":0.049723364412784576,"120":-0.9692564010620117,"121":-1.6433967351913452,"122":0.09892705827951431,"123":-0.02141774259507656,"124":-0.10486894100904465,"125":-0.7665585279464722,"126":-1.6840444803237915,"127":-0.8401774168014526,"128":-0.5743895769119263,"129":-0.31323692202568054,"130":-0.22645726799964905,"131":0.295692503452301,"132":0.26879793405532837,"133":0.7621688842773438,"134":0.1746651977300644}},"22":{"bias":-2.75034236907959,"weights":{"0":1.5630728006362915,"1":0.052452024072408676,"2":-1.2451876401901245,"3":-1.2120311260223389,"4":0.7645032405853271,"5":-0.06321624666452408,"6":-0.031700488179922104,"7":-0.4087240993976593,"8":0.5272021293640137,"9":0.13445185124874115,"10":-0.2798912227153778,"11":0.573894739151001,"12":0.5409702658653259,"13":-2.5009467601776123,"14":1.450522541999817,"15":-0.10518641769886017,"16":-0.17219528555870056,"17":0.6943322420120239,"18":-0.06988556683063507,"19":-0.8931563496589661,"20":-0.27625584602355957,"21":0.3073786199092865,"22":-0.6562539339065552,"23":-0.2989474833011627,"24":-0.6088418364524841,"25":0.1766553521156311,"26":-0.9767681956291199,"27":2.5071606636047363,"28":-0.19673316180706024,"29":0.796211838722229,"30":-1.4215316772460938,"31":1.4712138175964355,"32":-0.31519582867622375,"33":-0.919670581817627,"34":-0.3198309540748596,"35":0.3737540543079376,"36":-1.4652811288833618,"37":-1.0096569061279297,"38":-1.3346682786941528,"39":0.37357163429260254,"40":-2.5933339595794678,"41":1.712790608406067,"42":0.37576013803482056,"43":-0.07825324684381485,"44":-1.1769887208938599,"45":-0.43931153416633606,"46":-2.0425970554351807,"47":-0.672021746635437,"48":2.9254226684570312,"49":-0.06649519503116608,"50":0.20711179077625275,"51":0.5293688774108887,"52":-0.6341243982315063,"53":1.4801712036132812,"54":0.6444104313850403,"55":-0.8408739566802979,"56":1.1824814081192017,"57":0.18278741836547852,"58":0.48740577697753906,"59":-1.2392674684524536,"60":-1.6513298749923706,"61":0.2581459581851959,"62":-0.43024685978889465,"63":0.1607755720615387,"64":-0.17999576032161713,"65":1.9153400659561157,"66":0.14739543199539185,"67":0.2487601637840271,"68":0.14506390690803528,"69":-0.07699903845787048,"70":0.5800941586494446,"71":-0.8625478744506836,"72":-0.46426016092300415,"73":-1.3434640169143677,"74":0.4906909167766571,"75":-0.7257193326950073,"76":-0.14137713611125946,"77":0.158547505736351,"78":-0.9315699934959412,"79":0.23130115866661072,"80":-0.22619476914405823,"81":-1.0309185981750488,"82":-1.3904386758804321,"83":2.6429755687713623,"84":-1.3295506238937378,"85":0.8639901280403137,"86":-1.1081246137619019,"87":-0.24692361056804657,"88":0.45690539479255676,"89":1.2399749755859375,"90":-0.2997720241546631,"91":2.3910887241363525,"92":2.703012466430664,"93":-0.8119665384292603,"94":-0.7834358215332031,"95":-1.560327410697937,"96":-1.3619112968444824,"97":-0.02681875228881836,"98":-0.861018180847168,"99":0.7139107584953308,"100":-2.019551992416382,"101":-0.7905182242393494,"102":-1.417108178138733,"103":-0.17389193177223206,"104":0.19110120832920074,"105":-0.5616244077682495,"106":1.289652943611145,"107":-0.18652495741844177,"108":-0.7834154367446899,"109":-0.36797192692756653,"110":0.29459822177886963,"111":0.4287327826023102,"112":0.8237928748130798,"113":-0.8249375820159912,"114":-0.42708903551101685,"115":-0.17251889407634735,"116":1.0433540344238281,"117":-0.011738131754100323,"118":-0.017660845071077347,"119":0.4766171872615814,"120":-1.0078203678131104,"121":-0.8035409450531006,"122":-0.6213832497596741,"123":-0.6753625869750977,"124":-0.2821158766746521,"125":0.097417451441288,"126":0.9284671545028687,"127":-1.4419786930084229,"128":-0.15697626769542694,"129":-0.03358442336320877,"130":-0.06098948046565056,"131":-0.6443354487419128,"132":0.465359091758728,"133":0.0651833713054657,"134":0.05711294338107109}},"23":{"bias":-2.3560497760772705,"weights":{"0":-2.0108726024627686,"1":1.334941029548645,"2":-1.2265958786010742,"3":0.8150836825370789,"4":1.8199831247329712,"5":-0.3466038107872009,"6":1.2547684907913208,"7":-0.46870309114456177,"8":0.41940146684646606,"9":-3.7461841106414795,"10":0.39395830035209656,"11":-1.3638420104980469,"12":2.412841558456421,"13":-0.10356318205595016,"14":-0.399352490901947,"15":0.22069209814071655,"16":-1.9975543022155762,"17":0.6029233932495117,"18":-3.0384361743927,"19":1.6819076538085938,"20":-1.073880672454834,"21":-0.6938616037368774,"22":3.3376121520996094,"23":0.37460386753082275,"24":1.0543100833892822,"25":-1.608110785484314,"26":-0.4465833306312561,"27":-2.9892871379852295,"28":0.013605781830847263,"29":-1.3890002965927124,"30":-1.12748384475708,"31":-0.6112267971038818,"32":-1.4613302946090698,"33":-1.7394367456436157,"34":1.2872143983840942,"35":0.6708648204803467,"36":0.941068172454834,"37":-1.143691897392273,"38":-0.7040939331054688,"39":-1.5243308544158936,"40":-1.6692713499069214,"41":3.9092538356781006,"42":0.013167733326554298,"43":0.35295000672340393,"44":1.141160249710083,"45":-1.034744381904602,"46":-3.5596210956573486,"47":1.7560027837753296,"48":3.435572862625122,"49":0.49810054898262024,"50":0.8483991622924805,"51":-0.29537832736968994,"52":0.19761483371257782,"53":1.2571074962615967,"54":-1.2881920337677002,"55":-0.4151315987110138,"56":-0.6885672807693481,"57":0.18968696892261505,"58":-0.5217272639274597,"59":-1.0310084819793701,"60":1.7247109413146973,"61":-1.1635533571243286,"62":0.46875083446502686,"63":-0.46417275071144104,"64":-0.8702996373176575,"65":-0.8533226251602173,"66":4.687947750091553,"67":4.0334153175354,"68":-2.520430564880371,"69":1.2530808448791504,"70":-0.34317371249198914,"71":-1.0969916582107544,"72":-1.0702725648880005,"73":-0.38281646370887756,"74":-3.0429744720458984,"75":0.8625390529632568,"76":0.27610671520233154,"77":0.2755941152572632,"78":0.39370405673980713,"79":-1.7089781761169434,"80":0.5304846167564392,"81":-6.520651340484619,"82":-1.5005310773849487,"83":-0.07868003845214844,"84":-0.05432789400219917,"85":-1.259941577911377,"86":1.519635796546936,"87":1.2353577613830566,"88":-1.6440008878707886,"89":-0.8687779307365417,"90":0.9397367835044861,"91":0.12137898057699203,"92":-0.9766417145729065,"93":-2.2736613750457764,"94":-2.3828070163726807,"95":-0.01714221201837063,"96":2.370912790298462,"97":0.0679287314414978,"98":3.4640114307403564,"99":1.2610535621643066,"100":0.48689427971839905,"101":1.0344492197036743,"102":1.166234016418457,"103":0.5314403772354126,"104":0.20608669519424438,"105":-0.4539652168750763,"106":1.2402933835983276,"107":-0.10090157389640808,"108":-5.620510578155518,"109":-0.7698628306388855,"110":0.990893542766571,"111":1.5212037563323975,"112":0.5928125977516174,"113":-3.274775505065918,"114":0.0900774598121643,"115":0.7699906826019287,"116":-0.47698575258255005,"117":-0.030610455200076103,"118":1.520486831665039,"119":1.3596205711364746,"120":-1.809308648109436,"121":-0.9777656197547913,"122":1.3496983051300049,"123":1.115217685699463,"124":0.43806329369544983,"125":1.3914140462875366,"126":-2.4530186653137207,"127":1.0040336847305298,"128":2.265704393386841,"129":-0.09397493302822113,"130":0.15864263474941254,"131":-0.27482831478118896,"132":-0.7043926119804382,"133":-1.1564921140670776,"134":-0.1250048577785492}},"24":{"bias":-4.94569730758667,"weights":{"0":-2.108022689819336,"1":-2.065836191177368,"2":-1.8663582801818848,"3":-0.1567229926586151,"4":3.495150566101074,"5":-0.6835727691650391,"6":0.029627999290823936,"7":0.05775347352027893,"8":2.4451475143432617,"9":-0.7898091077804565,"10":-2.189556121826172,"11":2.3357884883880615,"12":1.1961545944213867,"13":-0.47674229741096497,"14":0.6998928189277649,"15":-0.9214603304862976,"16":0.016873003914952278,"17":2.2954492568969727,"18":0.25477007031440735,"19":-1.8010036945343018,"20":-0.05537758022546768,"21":-2.983189105987549,"22":-1.9079393148422241,"23":-0.07673099637031555,"24":0.5012973546981812,"25":-0.24941720068454742,"26":-1.1132310628890991,"27":3.893970489501953,"28":-1.935265302658081,"29":-1.0551270246505737,"30":0.2063647359609604,"31":-0.36916521191596985,"32":-1.2752580642700195,"33":-1.0218924283981323,"34":-1.1342852115631104,"35":1.5129872560501099,"36":-0.9881510734558105,"37":-0.773723304271698,"38":1.3927446603775024,"39":0.26523059606552124,"40":-2.365247964859009,"41":-1.4669857025146484,"42":-0.4875931441783905,"43":-0.3446185290813446,"44":3.6561977863311768,"45":-3.0733985900878906,"46":-0.9256144165992737,"47":0.747735321521759,"48":1.984387755393982,"49":-0.015335071831941605,"50":-0.8147628307342529,"51":-0.1706879884004593,"52":-1.8632954359054565,"53":0.5132935047149658,"54":1.0003714561462402,"55":-0.012283816933631897,"56":-1.3475435972213745,"57":2.7707173824310303,"58":-0.5685912370681763,"59":-1.9940447807312012,"60":0.345072865486145,"61":-0.4149569272994995,"62":-1.4683737754821777,"63":-0.24834509193897247,"64":1.2095459699630737,"65":2.407113552093506,"66":0.17212463915348053,"67":-1.4858229160308838,"68":-0.35397469997406006,"69":-0.8884707689285278,"70":-0.22606846690177917,"71":-0.7180602550506592,"72":2.4630937576293945,"73":-2.503430128097534,"74":-0.5429511070251465,"75":-1.755529522895813,"76":-0.957719624042511,"77":-0.6016646027565002,"78":0.024469176307320595,"79":0.6264610290527344,"80":-0.18052707612514496,"81":1.1051158905029297,"82":1.4459493160247803,"83":0.3019672632217407,"84":0.24251070618629456,"85":-0.6800855398178101,"86":-1.511654257774353,"87":-0.5001618266105652,"88":-0.9100374579429626,"89":0.5702404379844666,"90":0.06329604983329773,"91":-1.7111260890960693,"92":0.6586607098579407,"93":-3.2977957725524902,"94":-3.228367567062378,"95":-1.7773332595825195,"96":-1.1341830492019653,"97":0.10648321360349655,"98":0.825562596321106,"99":0.8985962271690369,"100":0.6645551919937134,"101":1.1515668630599976,"102":0.5043424963951111,"103":-0.2675486207008362,"104":-0.12867920100688934,"105":0.3855568468570709,"106":-0.011114278808236122,"107":0.16028966009616852,"108":2.262748956680298,"109":-1.2525957822799683,"110":0.05514124408364296,"111":-1.732721209526062,"112":0.36548930406570435,"113":-1.4054408073425293,"114":-0.2313517928123474,"115":0.2576965093612671,"116":1.0035556554794312,"117":-0.04931174963712692,"118":-1.1318836212158203,"119":-0.9288895726203918,"120":-0.9328329563140869,"121":-0.7993965148925781,"122":-1.9560022354125977,"123":-0.7456446290016174,"124":-0.2600427567958832,"125":0.936673641204834,"126":0.11212471127510071,"127":1.5953216552734375,"128":-0.8826546669006348,"129":-0.5568742752075195,"130":-0.36858123540878296,"131":-0.5089870691299438,"132":1.1089859008789062,"133":0.6479504108428955,"134":-0.08323781937360764}},"25":{"bias":-4.51011848449707,"weights":{"0":-0.5726715922355652,"1":-0.5169613361358643,"2":-2.491394281387329,"3":-3.701751470565796,"4":-4.444981098175049,"5":0.29162877798080444,"6":2.5737202167510986,"7":0.4597652852535248,"8":0.14697352051734924,"9":0.04153556749224663,"10":3.325997829437256,"11":1.9418549537658691,"12":0.25458186864852905,"13":-1.2021230459213257,"14":-1.2815256118774414,"15":-2.104729175567627,"16":-1.6889501810073853,"17":3.389200448989868,"18":0.9348146319389343,"19":0.7745383977890015,"20":0.16915138065814972,"21":2.2394368648529053,"22":-1.6119619607925415,"23":-0.04395216703414917,"24":0.5440974831581116,"25":-0.7501363158226013,"26":-2.1842637062072754,"27":-2.9876785278320312,"28":-1.3588076829910278,"29":-3.037465810775757,"30":-1.0270729064941406,"31":1.359023094177246,"32":-0.9339905381202698,"33":-0.9832420349121094,"34":2.416463851928711,"35":0.6305979490280151,"36":4.504265785217285,"37":-1.5816806554794312,"38":-4.773573398590088,"39":0.4269665777683258,"40":-1.2432745695114136,"41":-1.1321383714675903,"42":-1.6211342811584473,"43":-0.9669595956802368,"44":2.5076608657836914,"45":2.350734233856201,"46":0.3461221754550934,"47":2.237863063812256,"48":0.15490011870861053,"49":-0.4161079227924347,"50":0.12073131650686264,"51":1.4221935272216797,"52":0.12378240376710892,"53":-0.36583617329597473,"54":-3.1205084323883057,"55":-3.0061545372009277,"56":-2.1102497577667236,"57":3.8787598609924316,"58":-1.1234753131866455,"59":-1.7431117296218872,"60":1.6961668729782104,"61":1.4428446292877197,"62":-0.646945059299469,"63":-0.32432588934898376,"64":-0.6364167332649231,"65":0.2966512441635132,"66":2.065290927886963,"67":-1.9269481897354126,"68":-0.7704541087150574,"69":-0.7022481560707092,"70":-0.2683216333389282,"71":1.252695918083191,"72":-1.254345178604126,"73":3.0641603469848633,"74":1.7451987266540527,"75":-1.2703663110733032,"76":-0.16370107233524323,"77":-0.8528435826301575,"78":0.6176223754882812,"79":-0.972807765007019,"80":-0.057361260056495667,"81":-1.3926388025283813,"82":-1.9866756200790405,"83":-2.492556571960449,"84":1.3824979066848755,"85":1.768235683441162,"86":-0.19588907063007355,"87":-2.0242502689361572,"88":1.1090139150619507,"89":2.036226511001587,"90":-0.11698711663484573,"91":0.7141895294189453,"92":3.076674699783325,"93":-1.3354130983352661,"94":-1.311195731163025,"95":-0.247981995344162,"96":-0.07425197213888168,"97":0.012213345617055893,"98":-1.8146518468856812,"99":-0.32125094532966614,"100":0.2798767387866974,"101":-1.8409374952316284,"102":-2.59484601020813,"103":-0.9155181050300598,"104":0.9671428203582764,"105":0.8046809434890747,"106":0.8111495971679688,"107":0.1716333031654358,"108":2.292734384536743,"109":0.04719838127493858,"110":-0.6361055374145508,"111":-0.051846444606781006,"112":-0.5265281796455383,"113":0.3390628695487976,"114":-0.11566869914531708,"115":-0.45259028673171997,"116":-0.6773930191993713,"117":-0.08289362490177155,"118":-0.9073916673660278,"119":1.5798124074935913,"120":1.362824559211731,"121":0.9106813073158264,"122":-1.4962016344070435,"123":-0.916808009147644,"124":-0.32186031341552734,"125":-1.6981712579727173,"126":-1.241654396057129,"127":1.5776445865631104,"128":-1.9107840061187744,"129":0.014245210215449333,"130":-0.19731326401233673,"131":0.25686997175216675,"132":0.1395270973443985,"133":-1.73085618019104,"134":-0.03350697457790375}},"26":{"bias":-3.8043437004089355,"weights":{"0":-1.3850626945495605,"1":-1.3342465162277222,"2":0.19245368242263794,"3":-1.3964892625808716,"4":-2.5299770832061768,"5":-1.3188177347183228,"6":2.039876699447632,"7":0.10666908323764801,"8":-0.9115496277809143,"9":-0.7172305583953857,"10":1.9066681861877441,"11":-2.753937005996704,"12":1.0897533893585205,"13":-2.0619828701019287,"14":-1.1679131984710693,"15":-0.11424905806779861,"16":-0.0074338107369840145,"17":2.9788875579833984,"18":0.47903987765312195,"19":2.4179444313049316,"20":-2.273946762084961,"21":-0.4333939850330353,"22":0.33992013335227966,"23":-0.18278680741786957,"24":0.23556870222091675,"25":1.1185098886489868,"26":1.2013148069381714,"27":-0.5190680623054504,"28":-0.615472674369812,"29":0.34706753492355347,"30":-0.9850307106971741,"31":-2.8881447315216064,"32":-0.6152347326278687,"33":2.320626735687256,"34":-0.11837414652109146,"35":-1.0065422058105469,"36":2.1704459190368652,"37":1.333270788192749,"38":-0.31037813425064087,"39":1.2542974948883057,"40":-2.3549110889434814,"41":-2.4628384113311768,"42":-0.061130717396736145,"43":-0.10305142402648926,"44":1.130365252494812,"45":-1.3541721105575562,"46":2.0624539852142334,"47":0.15018340945243835,"48":-1.3771892786026,"49":-1.0587118864059448,"50":-0.15658137202262878,"51":1.4340671300888062,"52":-1.413572907447815,"53":0.9151116013526917,"54":1.7427676916122437,"55":0.08670113235712051,"56":0.3902236521244049,"57":-0.123438760638237,"58":-2.867171049118042,"59":-0.6001042127609253,"60":-0.8845264911651611,"61":1.1652144193649292,"62":0.3488107919692993,"63":-0.6981342434883118,"64":-0.48748889565467834,"65":-2.1456713676452637,"66":1.9654206037521362,"67":-1.3177547454833984,"68":-0.5820173025131226,"69":1.134599208831787,"70":-0.7447279691696167,"71":-1.0663330554962158,"72":1.6201496124267578,"73":2.186699628829956,"74":-0.5037477016448975,"75":-0.8189299702644348,"76":-0.5432310700416565,"77":-0.5519944429397583,"78":-1.3499832153320312,"79":0.21070002019405365,"80":-0.2502603530883789,"81":-0.006428857333958149,"82":1.3676332235336304,"83":1.032848596572876,"84":0.6934507489204407,"85":-0.42387083172798157,"86":0.1754726618528366,"87":-0.3085794448852539,"88":-0.8558604121208191,"89":0.33407992124557495,"90":-0.846287190914154,"91":1.1238315105438232,"92":-0.8083199858665466,"93":-1.6817034482955933,"94":-4.076255798339844,"95":-0.41853854060173035,"96":-0.4716343879699707,"97":-0.06823014467954636,"98":-0.044043101370334625,"99":-0.30397510528564453,"100":3.7487878799438477,"101":-1.1742969751358032,"102":-0.812631368637085,"103":-0.372815877199173,"104":-1.0080690383911133,"105":-0.3421003520488739,"106":1.7279493808746338,"107":0.17110185325145721,"108":-2.0710408687591553,"109":1.039011836051941,"110":-1.047777533531189,"111":-0.6364578008651733,"112":-1.5242503881454468,"113":-0.32577571272850037,"114":1.1231364011764526,"115":-1.3016356229782104,"116":-1.374843955039978,"117":0.1176643818616867,"118":-1.0375417470932007,"119":1.8270162343978882,"120":-0.7629786729812622,"121":-0.48741763830184937,"122":-0.19888809323310852,"123":-0.016432635486125946,"124":-0.6856279373168945,"125":0.9044083952903748,"126":1.355044960975647,"127":1.4740277528762817,"128":-0.11631530523300171,"129":-0.19268782436847687,"130":-0.15726535022258759,"131":0.5539438128471375,"132":-1.209045171737671,"133":0.9726223945617676,"134":0.0022789835929870605}},"27":{"bias":-1.9350641965866089,"weights":{"0":-0.4676107168197632,"1":-1.8726541996002197,"2":0.325986385345459,"3":-0.007929924875497818,"4":0.011173631064593792,"5":-0.24184273183345795,"6":1.2817528247833252,"7":0.566156268119812,"8":-1.8534164428710938,"9":-0.3918609023094177,"10":0.5519921183586121,"11":1.1236237287521362,"12":0.08778826147317886,"13":-1.583741307258606,"14":1.3324415683746338,"15":-0.5657778382301331,"16":2.223435163497925,"17":2.2511653900146484,"18":0.4387892782688141,"19":-2.083099603652954,"20":0.9690421223640442,"21":-3.3988635540008545,"22":-2.3787906169891357,"23":1.8285768032073975,"24":-2.299349069595337,"25":3.2869973182678223,"26":-0.8669716715812683,"27":0.8512681126594543,"28":1.3236984014511108,"29":1.9764156341552734,"30":-0.3693709671497345,"31":1.6094921827316284,"32":2.6137919425964355,"33":-1.46222984790802,"34":1.3205044269561768,"35":1.1374716758728027,"36":-0.9361310005187988,"37":0.4359956383705139,"38":-0.7803285121917725,"39":1.913246512413025,"40":3.1056933403015137,"41":1.7257771492004395,"42":0.9436261057853699,"43":0.7949565052986145,"44":-3.337681293487549,"45":-2.375128984451294,"46":-1.9554475545883179,"47":0.18458952009677887,"48":-3.8706135749816895,"49":0.1556646227836609,"50":-0.07506068795919418,"51":-0.5906588435173035,"52":-2.6700592041015625,"53":-2.976747512817383,"54":-0.8232988715171814,"55":2.774224042892456,"56":1.9717676639556885,"57":2.980605125427246,"58":-3.9747653007507324,"59":0.8555061221122742,"60":1.4274777173995972,"61":-0.6929071545600891,"62":-6.088693141937256,"63":0.49503791332244873,"64":-1.2982077598571777,"65":-2.479034900665283,"66":-1.5048551559448242,"67":-0.24986319243907928,"68":-0.5858960151672363,"69":0.3270368278026581,"70":3.7390658855438232,"71":-2.372514009475708,"72":3.977832317352295,"73":-2.3669979572296143,"74":-0.7293019890785217,"75":2.2479331493377686,"76":1.1946316957473755,"77":0.47603288292884827,"78":-4.884433746337891,"79":2.776937961578369,"80":-0.12258913367986679,"81":3.362974166870117,"82":-0.13523612916469574,"83":0.09756165742874146,"84":-1.1910629272460938,"85":-6.105198383331299,"86":-1.0569069385528564,"87":2.6504812240600586,"88":2.100076913833618,"89":-1.2764880657196045,"90":-0.41635850071907043,"91":-0.7783601880073547,"92":0.7688648700714111,"93":2.23227858543396,"94":0.500163733959198,"95":-0.6947674751281738,"96":0.02135145664215088,"97":0.0061011770740151405,"98":-0.7336110472679138,"99":-1.097682237625122,"100":1.632759690284729,"101":-1.4210671186447144,"102":3.1568210124969482,"103":0.3861597776412964,"104":-0.12483122199773788,"105":-3.2943782806396484,"106":0.4030032753944397,"107":-0.06751186400651932,"108":-3.0185532569885254,"109":-0.08526305854320526,"110":-0.40924978256225586,"111":1.7291265726089478,"112":-0.8249581456184387,"113":-1.5063581466674805,"114":0.6948638558387756,"115":-2.4557058811187744,"116":-2.7233223915100098,"117":0.12097861617803574,"118":-0.5434809923171997,"119":-1.8187482357025146,"120":5.899073123931885,"121":5.4970502853393555,"122":3.530744791030884,"123":0.30718091130256653,"124":0.5862074494361877,"125":-5.963588237762451,"126":1.6875587701797485,"127":-0.6679648756980896,"128":-0.9384446740150452,"129":0.035329826176166534,"130":0.380301833152771,"131":1.1039153337478638,"132":-2.9379773139953613,"133":0.6844632625579834,"134":-0.06698821485042572}},"28":{"bias":-1.7202519178390503,"weights":{"0":1.2455286979675293,"1":0.155691996216774,"2":-0.1808805614709854,"3":0.13447166979312897,"4":-1.5363849401474,"5":-0.6651095747947693,"6":-1.1378958225250244,"7":0.012525225058197975,"8":-0.3221028745174408,"9":-1.556575059890747,"10":-0.47118717432022095,"11":1.2596606016159058,"12":1.3220702409744263,"13":-1.886921763420105,"14":1.0325082540512085,"15":0.1197558343410492,"16":0.1595439314842224,"17":-1.3340400457382202,"18":1.5147805213928223,"19":-0.0776902362704277,"20":-0.12234009057283401,"21":0.5208192467689514,"22":0.6986510157585144,"23":-0.22444425523281097,"24":-0.1779044270515442,"25":0.20275844633579254,"26":-0.46186137199401855,"27":-0.8504824638366699,"28":0.08841370791196823,"29":0.22191481292247772,"30":-1.4427942037582397,"31":-0.1880081743001938,"32":0.08911976963281631,"33":0.22500158846378326,"34":-0.5620688199996948,"35":-1.2368569374084473,"36":0.5343959331512451,"37":0.08667377382516861,"38":-0.19267724454402924,"39":-0.08367528021335602,"40":-0.01956910267472267,"41":0.5402079224586487,"42":-0.019291499629616737,"43":0.47541695833206177,"44":0.08412566781044006,"45":0.5847479104995728,"46":-0.42493361234664917,"47":0.4586675763130188,"48":-0.39420267939567566,"49":-0.21904794871807098,"50":0.080010786652565,"51":-0.9893438220024109,"52":-0.5572160482406616,"53":1.1985695362091064,"54":0.8781967759132385,"55":1.2014611959457397,"56":-0.0011420943774282932,"57":-0.9644298553466797,"58":-0.45248109102249146,"59":1.6838845014572144,"60":0.1509116142988205,"61":-0.8006798624992371,"62":-0.002256627893075347,"63":0.15775300562381744,"64":0.6501302123069763,"65":-0.3188402056694031,"66":0.1364077776670456,"67":-1.4036227464675903,"68":0.3028550446033478,"69":0.26636993885040283,"70":-0.41030463576316833,"71":-1.3898035287857056,"72":1.0519969463348389,"73":-0.359419047832489,"74":-1.5286160707473755,"75":0.2478005737066269,"76":0.18287456035614014,"77":0.36281129717826843,"78":-0.5697343945503235,"79":-0.5216848254203796,"80":-0.5385589599609375,"81":-0.13033902645111084,"82":-0.3054507374763489,"83":2.1695752143859863,"84":-0.8988448977470398,"85":1.114243984222412,"86":0.6277966499328613,"87":0.14634037017822266,"88":-1.1466546058654785,"89":0.010878171771764755,"90":0.22437722980976105,"91":2.812748670578003,"92":-2.6397366523742676,"93":-1.995591402053833,"94":-2.965924024581909,"95":1.475287914276123,"96":0.8411592245101929,"97":0.16531072556972504,"98":-0.2626360356807709,"99":1.104323148727417,"100":-1.5382192134857178,"101":-0.02691410854458809,"102":-0.022165963426232338,"103":0.3167245388031006,"104":0.2539706528186798,"105":-0.5907867550849915,"106":0.10729163885116577,"107":0.12915576994419098,"108":-3.1622157096862793,"109":-0.1091523990035057,"110":0.2561768889427185,"111":1.9804986715316772,"112":1.4045701026916504,"113":0.5805906653404236,"114":-0.022215286269783974,"115":-0.6758222579956055,"116":-0.9493252635002136,"117":0.17189468443393707,"118":0.8256813883781433,"119":0.8152254223823547,"120":-0.056652817875146866,"121":-0.39888498187065125,"122":1.273026943206787,"123":-0.042941078543663025,"124":-0.030127499252557755,"125":-0.6502691507339478,"126":-1.3957409858703613,"127":-0.7683493494987488,"128":0.2727601230144501,"129":-0.388542503118515,"130":0.015565628185868263,"131":0.2655544579029083,"132":-0.196407750248909,"133":-0.495958536863327,"134":-0.12003175169229507}},"29":{"bias":0.5495125651359558,"weights":{"0":0.8366353511810303,"1":-1.4981783628463745,"2":-0.04881789907813072,"3":-0.8429206013679504,"4":-0.028432190418243408,"5":0.9115262031555176,"6":1.8620007038116455,"7":0.7628657221794128,"8":-1.3984040021896362,"9":-0.6365666389465332,"10":0.9639037847518921,"11":3.2404134273529053,"12":1.056364893913269,"13":0.9660859107971191,