{"sizes":[7,14,7,1],"layers":[{"0":{},"1":{},"2":{},"3":{},"4":{},"5":{},"6":{}},{"0":{"bias":1.5622837543487549,"weights":{"0":-5.640796184539795,"1":-24.735563278198242,"2":-9.739874839782715,"3":-21.29591941833496,"4":56.18758773803711,"5":-18.361377716064453,"6":-1.146899700164795}},"1":{"bias":-18.654312133789062,"weights":{"0":-48.426815032958984,"1":-18.496362686157227,"2":17.19450569152832,"3":-13.518533706665039,"4":99.78556060791016,"5":59.84343338012695,"6":76.844970703125}},"2":{"bias":-25.019607543945312,"weights":{"0":34.72432327270508,"1":-1.4483020305633545,"2":3.075908660888672,"3":-5.70013952255249,"4":2.209852695465088,"5":0.5209700465202332,"6":221.4093017578125}},"3":{"bias":-14.719606399536133,"weights":{"0":-18.77996063232422,"1":1.4898426532745361,"2":4.170351505279541,"3":1.612559199333191,"4":-15.929119110107422,"5":-5.8211140632629395,"6":157.03143310546875}},"4":{"bias":-24.367521286010742,"weights":{"0":-1.5999897718429565,"1":-5.672378063201904,"2":-10.699198722839355,"3":9.84731674194336,"4":28.855724334716797,"5":-15.687677383422852,"6":210.18222045898438}},"5":{"bias":-3.190467596054077,"weights":{"0":-1.1474171876907349,"1":-1.168874740600586,"2":-0.9902047514915466,"3":-0.5975969433784485,"4":1.9500502347946167,"5":-0.15531420707702637,"6":1.9199455976486206}},"6":{"bias":-36.53948974609375,"weights":{"0":23.787521362304688,"1":2.9748051166534424,"2":-3.7237040996551514,"3":4.6203694343566895,"4":111.39232635498047,"5":-7.341617107391357,"6":214.94786071777344}},"7":{"bias":-11.940537452697754,"weights":{"0":-11.776057243347168,"1":-1.9408690929412842,"2":0.5435802340507507,"3":-10.891619682312012,"4":-8.048190116882324,"5":-0.8029624819755554,"6":123.69392395019531}},"8":{"bias":-6.461191654205322,"weights":{"0":-3.367692470550537,"1":-11.468974113464355,"2":-19.727827072143555,"3":-22.619129180908203,"4":-11.580904960632324,"5":5.387099266052246,"6":90.51810455322266}},"9":{"bias":-12.90185260772705,"weights":{"0":-10.726351737976074,"1":-4.5027947425842285,"2":-7.083785533905029,"3":4.611329078674316,"4":-8.039643287658691,"5":13.369844436645508,"6":121.74562072753906}},"10":{"bias":-34.85723114013672,"weights":{"0":18.533039093017578,"1":17.508087158203125,"2":-10.552838325500488,"3":31.984882354736328,"4":113.27937316894531,"5":-40.850059509277344,"6":197.0223846435547}},"11":{"bias":-3.165255308151245,"weights":{"0":-0.8627138137817383,"1":-1.4763154983520508,"2":-0.9901024699211121,"3":-1.0064588785171509,"4":1.6360636949539185,"5":-0.5978431105613708,"6":2.597973585128784}},"12":{"bias":-15.926377296447754,"weights":{"0":-16.06009292602539,"1":0.3515639007091522,"2":10.098409652709961,"3":9.257162094116211,"4":-40.09599304199219,"5":-30.958866119384766,"6":197.66725158691406}},"13":{"bias":-8.60315990447998,"weights":{"0":5.158730983734131,"1":-7.457818508148193,"2":-15.990087509155273,"3":-15.966334342956543,"4":12.480622291564941,"5":13.198845863342285,"6":61.18355941772461}}},{"0":{"bias":0.5330356359481812,"weights":{"0":-3.444131851196289,"1":-4.903260707855225,"2":-7.527228355407715,"3":-5.043707370758057,"4":-6.2188496589660645,"5":-1.155077576637268,"6":-6.331135272979736,"7":-4.507432460784912,"8":-3.6277737617492676,"9":-4.575344085693359,"10":-6.341342449188232,"11":-0.9908077716827393,"12":-5.565472602844238,"13":-3.2927534580230713}},"1":{"bias":4.229713439941406,"weights":{"0":2.7848892211914062,"1":-1.2718701362609863,"2":-8.429448127746582,"3":-10.551972389221191,"4":-8.97332763671875,"5":-0.9572712779045105,"6":4.970348358154297,"7":-8.324394226074219,"8":-7.255570411682129,"9":-10.899707794189453,"10":4.214643955230713,"11":-0.7872834801673889,"12":-11.115368843078613,"13":-5.111056327819824}},"2":{"bias":1.5279674530029297,"weights":{"0":-3.728355884552002,"1":-6.039543151855469,"2":-7.852831840515137,"3":-5.858301162719727,"4":-6.490250587463379,"5":-0.6422067284584045,"6":-6.8189473152160645,"7":-4.529592037200928,"8":-4.198349952697754,"9":-5.360042095184326,"10":-6.8099684715271,"11":-0.9167582988739014,"12":-6.2813544273376465,"13":-3.444861650466919}},"3":{"bias":30.45503807067871,"weights":{"0":-12.6254243850708,"1":-18.639619827270508,"2":10.968810081481934,"3":0.5234471559524536,"4":-7.82710075378418,"5":-2.0817182064056396,"6":-31.45306968688965,"7":-3.061159610748291,"8":-33.51128387451172,"9":2.5824005603790283,"10":-44.04869842529297,"11":-2.270838975906372,"12":-13.653182029724121,"13":-14.927233695983887}},"4":{"bias":45.01829528808594,"weights":{"0":2.336731195449829,"1":-4.723990440368652,"2":-22.429149627685547,"3":-12.393597602844238,"4":-14.84511661529541,"5":0.3116820454597473,"6":-10.986674308776855,"7":-13.913412094116211,"8":-12.387223243713379,"9":-8.542492866516113,"10":-10.962912559509277,"11":-0.3247542381286621,"12":-31.994131088256836,"13":-12.775735855102539}},"5":{"bias":40.96696090698242,"weights":{"0":4.949706077575684,"1":-21.466350555419922,"2":-20.74503517150879,"3":-36.87297058105469,"4":-31.02324676513672,"5":0.049040116369724274,"6":-15.566046714782715,"7":-24.231691360473633,"8":-8.997331619262695,"9":-20.594430923461914,"10":-4.461147785186768,"11":0.2406233698129654,"12":-53.519866943359375,"13":-6.891556262969971}},"6":{"bias":0.778222918510437,"weights":{"0":-3.5815203189849854,"1":-5.065762042999268,"2":-7.755383491516113,"3":-5.328246116638184,"4":-6.406292915344238,"5":-0.8287239074707031,"6":-6.492569923400879,"7":-4.584129810333252,"8":-3.9915497303009033,"9":-4.769413948059082,"10":-6.390622615814209,"11":-0.6519168615341187,"12":-5.851892948150635,"13":-3.199143886566162}}},{"gender":{"bias":1.2376898527145386,"weights":{"0":-1.8708568811416626,"1":-2.827544689178467,"2":-2.327225685119629,"3":-1.26446533203125,"4":-1.6636219024658203,"5":-1.7040382623672485,"6":-2.026880979537964}}}],"outputLookup":true,"inputLookup":false,"activation":"sigmoid","trainOpts":{"iterations":3000,"errorThresh":0.005,"log":true,"logPeriod":200,"learningRate":0.3,"momentum":0.1,"callbackPeriod":10,"beta1":0.9,"beta2":0.999,"epsilon":1e-8}}