{"sizes":[7,14,7,1],"layers":[{"0":{},"1":{},"2":{},"3":{},"4":{},"5":{},"6":{}},{"0":{"bias":-9.681753158569336,"weights":{"0":18.405717849731445,"1":26.828798294067383,"2":13.15914249420166,"3":-3.8287909030914307,"4":-40.969398498535156,"5":205.6102294921875,"6":-133.5147247314453}},"1":{"bias":10.47459602355957,"weights":{"0":-4.7234063148498535,"1":1.48566734790802,"2":9.872295379638672,"3":21.654651641845703,"4":-19.98752784729004,"5":32.6253662109375,"6":-161.772216796875}},"2":{"bias":12.295167922973633,"weights":{"0":-7.759310722351074,"1":10.317702293395996,"2":8.602245330810547,"3":4.134774684906006,"4":-23.89863395690918,"5":-7.881887435913086,"6":-109.19135284423828}},"3":{"bias":12.607135772705078,"weights":{"0":8.408126831054688,"1":6.27122688293457,"2":-12.089619636535645,"3":25.924617767333984,"4":58.593833923339844,"5":-63.999515533447266,"6":-129.74102783203125}},"4":{"bias":13.310345649719238,"weights":{"0":-10.874455451965332,"1":7.220041275024414,"2":7.6687421798706055,"3":-5.642424583435059,"4":-46.274688720703125,"5":-35.82725143432617,"6":-64.73399353027344}},"5":{"bias":7.997025489807129,"weights":{"0":9.340786933898926,"1":12.69402027130127,"2":49.08964538574219,"3":-62.892578125,"4":-44.843196868896484,"5":-60.617897033691406,"6":4.487462997436523}},"6":{"bias":28.862516403198242,"weights":{"0":3.194542407989502,"1":-4.912778377532959,"2":-14.775555610656738,"3":-30.180644989013672,"4":-70.93303680419922,"5":26.376996994018555,"6":-185.36329650878906}},"7":{"bias":10.172274589538574,"weights":{"0":9.003678321838379,"1":-3.5844473838806152,"2":4.778838157653809,"3":-10.53687572479248,"4":10.397737503051758,"5":-7.388603687286377,"6":-111.96473693847656}},"8":{"bias":17.44245147705078,"weights":{"0":-0.12293843179941177,"1":-0.4602413475513458,"2":9.402804374694824,"3":0.5589425563812256,"4":-3.152209758758545,"5":-11.041953086853027,"6":-167.652587890625}},"9":{"bias":13.044327735900879,"weights":{"0":44.561676025390625,"1":45.797515869140625,"2":-13.279088973999023,"3":13.37297534942627,"4":-111.13602447509766,"5":-135.51931762695312,"6":36.96073532104492}},"10":{"bias":18.035247802734375,"weights":{"0":-24.3431396484375,"1":-8.650286674499512,"2":26.03075408935547,"3":3.832073450088501,"4":3.6722605228424072,"5":-0.4228249788284302,"6":-182.19033813476562}},"11":{"bias":1.2850788831710815,"weights":{"0":-2.142343282699585,"1":6.394044399261475,"2":10.17956256866455,"3":-0.7529518604278564,"4":-23.35683822631836,"5":-15.08281421661377,"6":-13.891545295715332}},"12":{"bias":23.27314567565918,"weights":{"0":3.4406991004943848,"1":-9.278241157531738,"2":-43.47373580932617,"3":-49.08237838745117,"4":26.30614471435547,"5":-18.23458480834961,"6":-127.64540100097656}},"13":{"bias":10.9082612991333,"weights":{"0":21.768400192260742,"1":24.685108184814453,"2":-5.189332008361816,"3":24.576393127441406,"4":21.710765838623047,"5":75.4029769897461,"6":-238.14303588867188}}},{"0":{"bias":50.351470947265625,"weights":{"0":-3.480038642883301,"1":-27.40974998474121,"2":-16.469844818115234,"3":-19.32387924194336,"4":-8.024523735046387,"5":9.832324028015137,"6":-32.570072174072266,"7":-22.904178619384766,"8":-35.78107452392578,"9":-3.4074490070343018,"10":-37.722686767578125,"11":1.2310813665390015,"12":-12.872671127319336,"13":-20.192882537841797}},"1":{"bias":1.4212658405303955,"weights":{"0":-63.24831008911133,"1":-2.92409086227417,"2":0.6027936339378357,"3":0.10842111706733704,"4":5.120842456817627,"5":2.0522665977478027,"6":-24.25411605834961,"7":-12.251237869262695,"8":-8.125741958618164,"9":12.908105850219727,"10":2.008938789367676,"11":4.552938461303711,"12":-8.246458053588867,"13":-10.493417739868164}},"2":{"bias":23.372329711914062,"weights":{"0":1.640250325202942,"1":-6.2064619064331055,"2":-3.4501657485961914,"3":0.014201277866959572,"4":-0.596251904964447,"5":-2.1345090866088867,"6":-4.32238245010376,"7":-4.094694137573242,"8":-2.561464309692383,"9":-7.311333179473877,"10":-3.2225048542022705,"11":-2.1339852809906006,"12":-0.4512830674648285,"13":-12.321898460388184}},"3":{"bias":6.481810569763184,"weights":{"0":8.238031387329102,"1":-32.811805725097656,"2":-8.34842586517334,"3":-3.9236576557159424,"4":-12.454994201660156,"5":-21.365793228149414,"6":-0.9165535569190979,"7":-0.5511401891708374,"8":-9.435298919677734,"9":-1.9980523586273193,"10":1.1738477945327759,"11":-9.11388111114502,"12":-3.928276538848877,"13":5.934488296508789}},"4":{"bias":15.285438537597656,"weights":{"0":1.0295488834381104,"1":-33.490413665771484,"2":-24.576406478881836,"3":-6.59165096282959,"4":-9.989355087280273,"5":2.7867767810821533,"6":-6.8087873458862305,"7":-24.445903778076172,"8":-38.76256561279297,"9":2.581681251525879,"10":-22.186607360839844,"11":-1.1995842456817627,"12":-10.480616569519043,"13":-12.48430347442627}},"5":{"bias":39.614261627197266,"weights":{"0":-26.06952476501465,"1":-17.625843048095703,"2":-5.371737003326416,"3":-12.334745407104492,"4":-13.978827476501465,"5":6.37374210357666,"6":-15.313587188720703,"7":-8.31219482421875,"8":-10.9149751663208,"9":12.313427925109863,"10":-14.483318328857422,"11":-0.7242127060890198,"12":-9.818864822387695,"13":-3.3974883556365967}},"6":{"bias":6.742905616760254,"weights":{"0":-22.881343841552734,"1":-8.9317045211792,"2":-3.0973126888275146,"3":-11.220074653625488,"4":2.7986207008361816,"5":-9.666411399841309,"6":-12.42392635345459,"7":-12.955631256103516,"8":-13.669296264648438,"9":23.223161697387695,"10":-1.1226482391357422,"11":5.415533542633057,"12":-24.956439971923828,"13":-13.504727363586426}}},{"gender":{"bias":-3.502748966217041,"weights":{"0":-2.232326030731201,"1":4.456148624420166,"2":2.6713335514068604,"3":1.4351648092269897,"4":-2.714790105819702,"5":2.6918091773986816,"6":-1.7327570915222168}}}],"outputLookup":true,"inputLookup":false,"activation":"sigmoid","trainOpts":{"iterations":3000,"errorThresh":0.005,"log":true,"logPeriod":200,"learningRate":0.3,"momentum":0.1,"callbackPeriod":10,"beta1":0.9,"beta2":0.999,"epsilon":1e-8}}