{"sizes":[7,14,7,1],"layers":[{"0":{},"1":{},"2":{},"3":{},"4":{},"5":{},"6":{}},{"0":{"bias":2.266982316970825,"weights":{"0":-9.522605895996094,"1":-4.704392910003662,"2":-2.8205313682556152,"3":0.9835739731788635,"4":-9.272819519042969,"5":8.317136764526367,"6":-33.168514251708984}},"1":{"bias":4.5708699226379395,"weights":{"0":-9.472677230834961,"1":-8.27400016784668,"2":3.614840269088745,"3":-2.2860143184661865,"4":1.4608542919158936,"5":0.0354367233812809,"6":-54.256988525390625}},"2":{"bias":4.532735824584961,"weights":{"0":29.754405975341797,"1":19.2332763671875,"2":-13.59968090057373,"3":7.8318400382995605,"4":33.549339294433594,"5":23.19116973876953,"6":-128.52931213378906}},"3":{"bias":5.8896098136901855,"weights":{"0":-9.772316932678223,"1":-11.858078956604004,"2":4.682028293609619,"3":-3.481546401977539,"4":3.7079129219055176,"5":1.370410442352295,"6":-66.98059844970703}},"4":{"bias":7.8400774002075195,"weights":{"0":-11.242856979370117,"1":-17.44035530090332,"2":4.980041027069092,"3":-6.9568939208984375,"4":12.919872283935547,"5":-5.071630477905273,"6":-74.36654663085938}},"5":{"bias":9.717840194702148,"weights":{"0":-4.188238620758057,"1":-14.555801391601562,"2":6.274261951446533,"3":0.8845306634902954,"4":-4.1497802734375,"5":-0.8606580495834351,"6":-97.6350326538086}},"6":{"bias":4.778187274932861,"weights":{"0":-8.3679780960083,"1":-7.607390880584717,"2":5.697511672973633,"3":0.8932877779006958,"4":-4.781671047210693,"5":3.9608044624328613,"6":-59.5932731628418}},"7":{"bias":1.8321545124053955,"weights":{"0":-9.89803695678711,"1":3.414989948272705,"2":3.5319104194641113,"3":1.8339298963546753,"4":-13.338343620300293,"5":15.557395935058594,"6":-39.09901809692383}},"8":{"bias":23.272125244140625,"weights":{"0":7.591447353363037,"1":14.322264671325684,"2":17.13667106628418,"3":-5.043410778045654,"4":-147.67967224121094,"5":18.367082595825195,"6":-130.43482971191406}},"9":{"bias":14.255388259887695,"weights":{"0":-31.01590347290039,"1":-8.10835075378418,"2":8.784046173095703,"3":2.29886531829834,"4":33.86891174316406,"5":-67.09028625488281,"6":-91.20865631103516}},"10":{"bias":15.419601440429688,"weights":{"0":11.09349250793457,"1":19.5983943939209,"2":-14.980947494506836,"3":18.9593563079834,"4":25.425201416015625,"5":-83.38153076171875,"6":-110.74442291259766}},"11":{"bias":5.583356857299805,"weights":{"0":-9.250594139099121,"1":0.7552762031555176,"2":-7.769599437713623,"3":-9.221142768859863,"4":43.849952697753906,"5":104.8692398071289,"6":-157.13999938964844}},"12":{"bias":4.8917155265808105,"weights":{"0":-13.624956130981445,"1":-16.755069732666016,"2":-17.19647979736328,"3":-2.6017799377441406,"4":-10.15002727508545,"5":10.35045051574707,"6":-33.71867370605469}},"13":{"bias":0.733097493648529,"weights":{"0":-8.935198783874512,"1":6.086234092712402,"2":2.667829751968384,"3":6.586029052734375,"4":-13.016365051269531,"5":12.257564544677734,"6":-33.87738037109375}}},{"0":{"bias":16.510452270507812,"weights":{"0":-9.163180351257324,"1":-7.0547685623168945,"2":-19.020246505737305,"3":-7.794375419616699,"4":-10.454778671264648,"5":-7.441817283630371,"6":-5.93430233001709,"7":-4.527487754821777,"8":-25.99888801574707,"9":-1.0900700092315674,"10":10.420653343200684,"11":-24.144874572753906,"12":-16.24640464782715,"13":-2.1765971183776855}},"1":{"bias":2.1688575744628906,"weights":{"0":-1.4373931884765625,"1":0.8009272217750549,"2":-16.839574813842773,"3":0.19461926817893982,"4":1.9654220342636108,"5":-0.41774076223373413,"6":0.2934008538722992,"7":-3.450345277786255,"8":-1.9216289520263672,"9":30.536781311035156,"10":21.421499252319336,"11":-34.822261810302734,"12":-4.53364896774292,"13":-0.36360764503479004}},"2":{"bias":29.533920288085938,"weights":{"0":0.2333454191684723,"1":-6.4458537101745605,"2":-8.460399627685547,"3":-8.253310203552246,"4":-8.379864692687988,"5":-8.035841941833496,"6":-6.12053918838501,"7":-3.435711622238159,"8":-14.631083488464355,"9":-7.3223490715026855,"10":-9.48980712890625,"11":-0.8153930902481079,"12":6.381313800811768,"13":-3.43689227104187}},"3":{"bias":23.399560928344727,"weights":{"0":-6.725812911987305,"1":-6.411341190338135,"2":-15.060218811035156,"3":-6.409221649169922,"4":-2.642930269241333,"5":-12.500651359558105,"6":-9.456795692443848,"7":-10.59399127960205,"8":-5.075929641723633,"9":-0.7127652764320374,"10":-0.7697806358337402,"11":-15.78657341003418,"12":1.099166989326477,"13":-10.371050834655762}},"4":{"bias":32.22951889038086,"weights":{"0":-5.861138343811035,"1":-7.05767822265625,"2":-3.1324245929718018,"3":-8.370377540588379,"4":-5.829305648803711,"5":-10.308477401733398,"6":-7.831455707550049,"7":-2.7160744667053223,"8":-11.234774589538574,"9":-3.641235589981079,"10":-7.923081398010254,"11":-17.22883415222168,"12":-1.9385530948638916,"13":-2.1685590744018555}},"5":{"bias":17.8151798248291,"weights":{"0":-4.615450382232666,"1":-9.499242782592773,"2":-12.891596794128418,"3":-11.308568000793457,"4":-12.472530364990234,"5":-12.806051254272461,"6":-8.046041488647461,"7":-5.55172872543335,"8":-2.0286407470703125,"9":-7.42729377746582,"10":-7.918832778930664,"11":-12.669785499572754,"12":-4.394779682159424,"13":-4.553231716156006}},"6":{"bias":-0.31121864914894104,"weights":{"0":-2.0088553428649902,"1":-1.7442229986190796,"2":-2.378368377685547,"3":-1.7876626253128052,"4":-1.8128217458724976,"5":-2.1425042152404785,"6":-1.873542308807373,"7":-2.1402440071105957,"8":-5.963219165802002,"9":-1.8791205883026123,"10":-2.1003410816192627,"11":-5.760231971740723,"12":-2.1260645389556885,"13":-2.0554897785186768}}},{"gender":{"bias":-2.678907871246338,"weights":{"0":3.2613613605499268,"1":0.8860539197921753,"2":2.346829414367676,"3":-2.5941057205200195,"4":3.8667638301849365,"5":-4.2293596267700195,"6":0.9809570908546448}}}],"outputLookup":true,"inputLookup":false,"activation":"sigmoid","trainOpts":{"iterations":5000,"errorThresh":0.005,"log":true,"logPeriod":1000,"learningRate":0.3,"momentum":0.1,"callbackPeriod":10,"beta1":0.9,"beta2":0.999,"epsilon":1e-8}}