{"sizes":[135,64,32,1],"layers":[{"0":{},"1":{},"2":{},"3":{},"4":{},"5":{},"6":{},"7":{},"8":{},"9":{},"10":{},"11":{},"12":{},"13":{},"14":{},"15":{},"16":{},"17":{},"18":{},"19":{},"20":{},"21":{},"22":{},"23":{},"24":{},"25":{},"26":{},"27":{},"28":{},"29":{},"30":{},"31":{},"32":{},"33":{},"34":{},"35":{},"36":{},"37":{},"38":{},"39":{},"40":{},"41":{},"42":{},"43":{},"44":{},"45":{},"46":{},"47":{},"48":{},"49":{},"50":{},"51":{},"52":{},"53":{},"54":{},"55":{},"56":{},"57":{},"58":{},"59":{},"60":{},"61":{},"62":{},"63":{},"64":{},"65":{},"66":{},"67":{},"68":{},"69":{},"70":{},"71":{},"72":{},"73":{},"74":{},"75":{},"76":{},"77":{},"78":{},"79":{},"80":{},"81":{},"82":{},"83":{},"84":{},"85":{},"86":{},"87":{},"88":{},"89":{},"90":{},"91":{},"92":{},"93":{},"94":{},"95":{},"96":{},"97":{},"98":{},"99":{},"100":{},"101":{},"102":{},"103":{},"104":{},"105":{},"106":{},"107":{},"108":{},"109":{},"110":{},"111":{},"112":{},"113":{},"114":{},"115":{},"116":{},"117":{},"118":{},"119":{},"120":{},"121":{},"122":{},"123":{},"124":{},"125":{},"126":{},"127":{},"128":{},"129":{},"130":{},"131":{},"132":{},"133":{},"134":{}},{"0":{"bias":-2.8413069248199463,"weights":{"0":1.329403281211853,"1":-1.414255142211914,"2":-1.3942463397979736,"3":-1.5496245622634888,"4":-0.23503485321998596,"5":0.37625011801719666,"6":0.6184830069541931,"7":1.3473520278930664,"8":0.9010196328163147,"9":-0.45043858885765076,"10":0.15442714095115662,"11":0.26959794759750366,"12":-0.4155842065811157,"13":-0.6337780952453613,"14":-1.3097929954528809,"15":0.0372152216732502,"16":0.09288399666547775,"17":2.5384788513183594,"18":-0.918580949306488,"19":0.47542500495910645,"20":1.7370790243148804,"21":-1.431247353553772,"22":-0.07466071844100952,"23":-0.03562845289707184,"24":0.23035360872745514,"25":-0.9140408635139465,"26":-1.6314982175827026,"27":-3.0797078609466553,"28":-0.916244626045227,"29":-0.3348143398761749,"30":0.08562564849853516,"31":-2.0081939697265625,"32":-0.06667343527078629,"33":0.6556870341300964,"34":-0.542482852935791,"35":-0.03823528438806534,"36":2.364307165145874,"37":0.19251517951488495,"38":0.6095730662345886,"39":0.2178388386964798,"40":0.06998962163925171,"41":1.8576520681381226,"42":-0.05038154497742653,"43":-0.36515942215919495,"44":-1.8407559394836426,"45":1.5269910097122192,"46":-0.5928916335105896,"47":-0.2421332746744156,"48":0.4787255823612213,"49":-0.02041259966790676,"50":-0.18589229881763458,"51":0.39299511909484863,"52":-0.359231173992157,"53":0.04429858177900314,"54":-2.2407209873199463,"55":-0.5591831207275391,"56":-0.36392754316329956,"57":-1.656054973602295,"58":-0.7870081067085266,"59":0.5326387882232666,"60":-0.21712228655815125,"61":-0.2698369324207306,"62":-0.49327796697616577,"63":-0.005810543894767761,"64":-0.03141338378190994,"65":1.7510766983032227,"66":1.8596035242080688,"67":0.5567649602890015,"68":-0.6594116687774658,"69":0.23273655772209167,"70":0.03990517929196358,"71":0.13795706629753113,"72":-1.690675139427185,"73":0.6058427691459656,"74":-0.5080929398536682,"75":1.091822624206543,"76":0.02852790616452694,"77":-0.13657058775424957,"78":0.99818354845047,"79":-1.2336610555648804,"80":-0.07701952010393143,"81":-1.8614909648895264,"82":-0.03614604473114014,"83":-1.8601394891738892,"84":-0.5522600412368774,"85":-0.8963373899459839,"86":0.15949420630931854,"87":0.20562326908111572,"88":-0.03900755196809769,"89":0.3520539402961731,"90":-0.23415929079055786,"91":2.3403024673461914,"92":-0.6476815938949585,"93":-1.5357369184494019,"94":-1.0071384906768799,"95":1.2243441343307495,"96":-1.1534113883972168,"97":0.19995376467704773,"98":0.9781635403633118,"99":-0.5084572434425354,"100":1.0286370515823364,"101":0.5867414474487305,"102":-0.04435969516634941,"103":0.10339713841676712,"104":-0.058782536536455154,"105":-0.9897122383117676,"106":0.26318415999412537,"107":-0.08592735975980759,"108":-0.8763164281845093,"109":0.4508340060710907,"110":-0.7525133490562439,"111":-0.3241789937019348,"112":1.1520118713378906,"113":0.3145827651023865,"114":-0.44623106718063354,"115":-0.04949034005403519,"116":-0.23657511174678802,"117":0.05191690847277641,"118":-0.7825660109519958,"119":-0.9766955375671387,"120":-0.63102787733078,"121":-1.5741428136825562,"122":1.7926878929138184,"123":0.05965676158666611,"124":0.1138741597533226,"125":-0.09889678657054901,"126":0.10997822880744934,"127":-0.466681569814682,"128":0.7574499249458313,"129":-0.12184523791074753,"130":0.015407154336571693,"131":0.3692285418510437,"132":-1.0733131170272827,"133":0.4247930943965912,"134":0.15789620578289032}},"1":{"bias":-3.0327723026275635,"weights":{"0":-2.156010866165161,"1":2.4626529216766357,"2":-1.1799890995025635,"3":-1.5280073881149292,"4":-2.218635320663452,"5":-0.7380536198616028,"6":2.9186105728149414,"7":-1.5593754053115845,"8":-0.840264618396759,"9":1.4517730474472046,"10":2.476608991622925,"11":1.6625356674194336,"12":-1.5850744247436523,"13":-0.5341260433197021,"14":-2.4831318855285645,"15":-0.8848926424980164,"16":0.40959474444389343,"17":-0.1096259132027626,"18":1.5703433752059937,"19":-0.46296724677085876,"20":-0.12223462760448456,"21":1.1174367666244507,"22":2.542548894882202,"23":0.36012646555900574,"24":-1.8264539241790771,"25":-1.671816110610962,"26":-0.14737339317798615,"27":-1.8060836791992188,"28":-0.04074005410075188,"29":-1.2277531623840332,"30":-2.90934419631958,"31":1.5134360790252686,"32":-0.7132331132888794,"33":1.7849385738372803,"34":-0.48164984583854675,"35":-0.9500890374183655,"36":-0.6834191083908081,"37":0.8045303225517273,"38":0.9066528081893921,"39":0.5050336122512817,"40":-1.7210689783096313,"41":-1.928634524345398,"42":-0.547280490398407,"43":-1.0539648532867432,"44":1.1104315519332886,"45":0.7880724668502808,"46":3.056273937225342,"47":-3.6532883644104004,"48":0.23587985336780548,"49":1.1958445310592651,"50":2.2485570907592773,"51":0.544197142124176,"52":0.6632742881774902,"53":-0.15208344161510468,"54":0.7186231017112732,"55":-2.4692599773406982,"56":-0.989360511302948,"57":-2.203874349594116,"58":0.9792019128799438,"59":0.7661141157150269,"60":1.1641820669174194,"61":2.115952730178833,"62":-1.0842552185058594,"63":0.751557469367981,"64":-0.4397942125797272,"65":0.2986906170845032,"66":-0.6117904186248779,"67":1.0796778202056885,"68":-1.7277382612228394,"69":0.9088661074638367,"70":0.7365539073944092,"71":-1.8362493515014648,"72":3.781437635421753,"73":-5.436954021453857,"74":-2.342323064804077,"75":-0.42849937081336975,"76":0.5237354636192322,"77":1.1782296895980835,"78":-2.2080540657043457,"79":2.4870381355285645,"80":0.07621409744024277,"81":-2.8375656604766846,"82":-3.0931379795074463,"83":-1.787676215171814,"84":-1.2071517705917358,"85":0.9630199670791626,"86":3.4826292991638184,"87":0.014202102087438107,"88":3.8757212162017822,"89":-3.298872709274292,"90":1.4337540864944458,"91":-1.7833950519561768,"92":-0.13069970905780792,"93":3.8282313346862793,"94":-1.009307622909546,"95":1.595849871635437,"96":0.21496517956256866,"97":0.060807473957538605,"98":-3.1093051433563232,"99":-0.011040845885872841,"100":-0.393688827753067,"101":-1.3095327615737915,"102":1.4118841886520386,"103":0.8672468066215515,"104":-0.10191179066896439,"105":-2.3815877437591553,"106":1.7670910358428955,"107":0.1731889247894287,"108":-3.5269217491149902,"109":-0.4601614475250244,"110":0.6216073632240295,"111":-1.1731892824172974,"112":1.9532470703125,"113":0.2771245539188385,"114":0.7475677132606506,"115":-0.23105496168136597,"116":-2.250500202178955,"117":-0.1754334568977356,"118":0.7810803651809692,"119":3.540721893310547,"120":-2.1704046726226807,"121":-1.6939493417739868,"122":1.2480791807174683,"123":0.39911016821861267,"124":0.01979798451066017,"125":0.8827103972434998,"126":0.12342257797718048,"127":-1.5272057056427002,"128":2.6515650749206543,"129":0.5861020684242249,"130":0.05070096254348755,"131":0.24883438646793365,"132":-2.169508218765259,"133":-2.16249680519104,"134":-0.07580152153968811}},"2":{"bias":-2.001068353652954,"weights":{"0":0.6523643136024475,"1":3.6601498126983643,"2":-1.0699524879455566,"3":0.6797872185707092,"4":1.1282262802124023,"5":0.2696436941623688,"6":1.811903476715088,"7":-0.32676050066947937,"8":1.5654339790344238,"9":-1.6785944700241089,"10":-3.929170608520508,"11":-0.779021680355072,"12":0.5947044491767883,"13":3.6954729557037354,"14":-3.314462184906006,"15":0.3317517042160034,"16":-0.595467209815979,"17":-3.5628821849823,"18":-1.296580195426941,"19":-1.0749359130859375,"20":-0.2939402163028717,"21":0.1692364364862442,"22":-0.8105435371398926,"23":-0.39660605788230896,"24":1.6866636276245117,"25":-2.5451927185058594,"26":2.604618787765503,"27":0.5843738913536072,"28":-3.3875279426574707,"29":-1.6755813360214233,"30":1.2487999200820923,"31":-1.984269618988037,"32":2.200674057006836,"33":-2.752828359603882,"34":-0.2614443302154541,"35":2.392015218734741,"36":-1.2647398710250854,"37":-0.10485434532165527,"38":3.062427043914795,"39":-0.6247000098228455,"40":2.885239601135254,"41":-2.252223253250122,"42":-0.14529003202915192,"43":-0.8808366656303406,"44":2.433666944503784,"45":0.9982879161834717,"46":-3.670236587524414,"47":-0.8826634287834167,"48":-0.028151480481028557,"49":0.6678757667541504,"50":-0.3647018373012543,"51":0.22827695310115814,"52":-0.8394892811775208,"53":2.4138989448547363,"54":3.044370174407959,"55":0.420357882976532,"56":-3.3945372104644775,"57":-2.1550345420837402,"58":2.397815465927124,"59":2.8922536373138428,"60":-0.5527393817901611,"61":2.677488088607788,"62":-0.5580136775970459,"63":-1.099859595298767,"64":1.8523670434951782,"65":0.7241669297218323,"66":-1.5473545789718628,"67":-3.220963716506958,"68":-1.1032624244689941,"69":-1.2413221597671509,"70":-0.7584967017173767,"71":-3.712801218032837,"72":2.529315710067749,"73":-1.167110800743103,"74":-0.4299945533275604,"75":-0.5626282691955566,"76":-0.10994909703731537,"77":-0.7864632606506348,"78":-0.18111011385917664,"79":2.7778396606445312,"80":0.27014920115470886,"81":5.661468982696533,"82":1.1285873651504517,"83":0.4005521237850189,"84":-4.236502647399902,"85":-3.45930552482605,"86":-0.3089621663093567,"87":-0.8298207521438599,"88":1.43516206741333,"89":1.571455955505371,"90":0.049354445189237595,"91":-1.5569411516189575,"92":0.4176873564720154,"93":0.2362402379512787,"94":-1.5705863237380981,"95":-4.385001182556152,"96":-1.4099973440170288,"97":-0.028224343433976173,"98":-3.3889617919921875,"99":2.1296634674072266,"100":2.9411776065826416,"101":0.38415035605430603,"102":0.6619459390640259,"103":-0.4040793776512146,"104":-0.40485695004463196,"105":-0.07435094565153122,"106":2.5150303840637207,"107":-0.07368075847625732,"108":7.006527900695801,"109":-0.06341556459665298,"110":-0.02849220111966133,"111":0.001071967650204897,"112":6.63582706451416,"113":-0.8174615502357483,"114":0.35159480571746826,"115":2.3588788509368896,"116":1.9585133790969849,"117":-0.0813506692647934,"118":0.7388907074928284,"119":-3.079023599624634,"120":-1.1850529909133911,"121":0.07518241554498672,"122":-4.763249397277832,"123":-1.0697399377822876,"124":-0.39834707975387573,"125":0.21210600435733795,"126":-4.950089454650879,"127":-2.7590935230255127,"128":0.4855039119720459,"129":-0.10695137083530426,"130":-0.26031604409217834,"131":-1.3099440336227417,"132":2.9358069896698,"133":-3.158903121948242,"134":-0.06005903705954552}},"3":{"bias":-2.97510027885437,"weights":{"0":-1.7200512886047363,"1":2.292409896850586,"2":-2.171144962310791,"3":2.9599668979644775,"4":-2.074753522872925,"5":0.6899177432060242,"6":-3.062924861907959,"7":-0.2025192677974701,"8":-0.6330961585044861,"9":0.7185885906219482,"10":0.9550485610961914,"11":-1.6821696758270264,"12":0.00016588832659181207,"13":2.420079231262207,"14":-0.3962501585483551,"15":0.6340386867523193,"16":-1.4195678234100342,"17":-1.6551300287246704,"18":0.8797199726104736,"19":0.1603616625070572,"20":-0.18970322608947754,"21":2.1766927242279053,"22":4.692046642303467,"23":-0.5472063422203064,"24":-3.146375894546509,"25":0.40028735995292664,"26":-3.0896074771881104,"27":-4.943997383117676,"28":2.5852277278900146,"29":-0.07585172355175018,"30":4.459677696228027,"31":-5.359985828399658,"32":2.5472099781036377,"33":-1.1004725694656372,"34":-2.6279830932617188,"35":-1.9949697256088257,"36":0.5538231134414673,"37":-1.3693206310272217,"38":5.957120418548584,"39":-4.161368370056152,"40":3.010694980621338,"41":-6.759798526763916,"42":0.7332181334495544,"43":0.4883340299129486,"44":4.213972568511963,"45":5.99606466293335,"46":-3.22937273979187,"47":-3.560695171356201,"48":-0.7061877250671387,"49":-1.365014672279358,"50":0.9742581248283386,"51":-1.0736784934997559,"52":3.036146402359009,"53":0.13059070706367493,"54":-1.2834242582321167,"55":1.4003417491912842,"56":-2.1508255004882812,"57":2.362330198287964,"58":1.35989511013031,"59":-1.7963273525238037,"60":-2.156609296798706,"61":-1.2405894994735718,"62":-1.871657133102417,"63":-0.08216705918312073,"64":3.12636661529541,"65":2.0492849349975586,"66":3.687330484390259,"67":3.618321418762207,"68":-6.247255325317383,"69":0.4637379050254822,"70":-1.4524005651474,"71":2.9657366275787354,"72":-3.8440356254577637,"73":2.517451047897339,"74":-1.5335201025009155,"75":-2.6825060844421387,"76":1.1581854820251465,"77":0.090278260409832,"78":-1.3218021392822266,"79":-0.5784977674484253,"80":0.060996491461992264,"81":1.6552952527999878,"82":1.244276523590088,"83":-0.3210758566856384,"84":-1.9633485078811646,"85":-0.8050567507743835,"86":3.2169344425201416,"87":-4.8185343742370605,"88":-2.8507637977600098,"89":1.0620564222335815,"90":-2.5244500637054443,"91":-0.07019663602113724,"92":0.7053395509719849,"93":0.6080916523933411,"94":-5.310337543487549,"95":3.1453778743743896,"96":3.06583833694458,"97":0.08695370703935623,"98":3.671421527862549,"99":-0.8052173256874084,"100":-3.6886980533599854,"101":-2.3332066535949707,"102":3.915226697921753,"103":1.0043491125106812,"104":1.2357802391052246,"105":-0.8929585218429565,"106":-0.8251121044158936,"107":0.1388164609670639,"108":-4.516066551208496,"109":-0.3881453573703766,"110":2.320716142654419,"111":-0.09115878492593765,"112":-0.34384623169898987,"113":-1.7085890769958496,"114":0.9859775900840759,"115":1.0199474096298218,"116":0.03405991569161415,"117":-0.15144853293895721,"118":0.03129606321454048,"119":1.9168764352798462,"120":-0.5268206596374512,"121":-1.0354466438293457,"122":5.1550726890563965,"123":1.528362512588501,"124":0.19311952590942383,"125":-2.5319840908050537,"126":-5.422008037567139,"127":-2.6292037963867188,"128":3.4489102363586426,"129":-0.3300585150718689,"130":0.3436119556427002,"131":0.6733861565589905,"132":0.5551776885986328,"133":-2.0426840782165527,"134":0.09837570786476135}},"4":{"bias":-1.9145081043243408,"weights":{"0":-1.2184295654296875,"1":1.4619194269180298,"2":-0.9238271117210388,"3":1.5590883493423462,"4":1.6718772649765015,"5":0.30661773681640625,"6":0.5108605623245239,"7":-0.6751438975334167,"8":-2.1227593421936035,"9":-0.7775676250457764,"10":-0.09999226033687592,"11":-1.3673807382583618,"12":0.5848455429077148,"13":0.1404164582490921,"14":-1.9820117950439453,"15":-0.686044454574585,"16":0.10051792860031128,"17":0.24651208519935608,"18":0.8251537680625916,"19":2.4692628383636475,"20":0.0660235658288002,"21":-1.5088701248168945,"22":-0.9311234354972839,"23":0.1364993304014206,"24":0.5943294763565063,"25":0.3033680021762848,"26":-1.3515198230743408,"27":-4.239358901977539,"28":0.47921812534332275,"29":-0.009069505147635937,"30":1.0270329713821411,"31":0.34249815344810486,"32":0.030094606801867485,"33":-2.410884141921997,"34":0.0517134889960289,"35":-0.025712285190820694,"36":-0.22744230926036835,"37":-0.10524782538414001,"38":-2.651658296585083,"39":-1.1981946229934692,"40":-0.2537003457546234,"41":2.108144521713257,"42":0.037253547459840775,"43":0.459504097700119,"44":1.0020290613174438,"45":2.286358118057251,"46":-0.3052603304386139,"47":1.2538315057754517,"48":-0.11707957088947296,"49":0.44601181149482727,"50":0.46062999963760376,"51":-1.0453670024871826,"52":-1.456667423248291,"53":0.9919472932815552,"54":0.34044697880744934,"55":1.3977360725402832,"56":0.4352464973926544,"57":-0.5467435717582703,"58":-2.91072678565979,"59":-1.0509129762649536,"60":2.399622678756714,"61":-1.1981654167175293,"62":-0.8050563335418701,"63":-0.2587808072566986,"64":-0.33702293038368225,"65":-1.184970736503601,"66":0.4373684227466583,"67":1.426315426826477,"68":2.2309443950653076,"69":0.04021422564983368,"70":0.43400058150291443,"71":0.12482364475727081,"72":-1.965446949005127,"73":-0.9497153759002686,"74":-0.45800113677978516,"75":1.0760608911514282,"76":-0.5590990781784058,"77":0.13599230349063873,"78":0.10508200526237488,"79":-1.955828309059143,"80":0.47812917828559875,"81":-1.6684938669204712,"82":-1.2991881370544434,"83":0.8010925054550171,"84":-1.3052692413330078,"85":-2.8825204372406006,"86":-1.134738802909851,"87":1.993097186088562,"88":-0.5569209456443787,"89":-1.3852832317352295,"90":0.5635307431221008,"91":-0.8862906098365784,"92":1.008989930152893,"93":-0.4237886369228363,"94":0.3336232900619507,"95":0.902900218963623,"96":-0.35652652382850647,"97":0.05979614332318306,"98":0.11778155714273453,"99":0.6278724670410156,"100":-0.9279463291168213,"101":2.6857314109802246,"102":0.36554449796676636,"103":0.3056817352771759,"104":0.07167468965053558,"105":-0.45205429196357727,"106":1.9868725538253784,"107":-0.15842412412166595,"108":-0.8830918669700623,"109":-0.559634268283844,"110":-0.02522866427898407,"111":-1.5149105787277222,"112":-1.6633661985397339,"113":0.0378374382853508,"114":-0.02828187122941017,"115":0.23581278324127197,"116":-2.9272818565368652,"117":-0.01774716190993786,"118":0.6782846450805664,"119":1.201682448387146,"120":-1.823539137840271,"121":-1.235018253326416,"122":0.5850738883018494,"123":0.4018629789352417,"124":0.23413144052028656,"125":3.2674853801727295,"126":1.7836652994155884,"127":2.0608227252960205,"128":0.34839314222335815,"129":0.13861386477947235,"130":0.03178231790661812,"131":0.016181938350200653,"132":-1.9298374652862549,"133":-0.45362943410873413,"134":0.14797255396842957}},"5":{"bias":-2.690493583679199,"weights":{"0":-0.7763956189155579,"1":-2.530564785003662,"2":1.6809309720993042,"3":-1.73334538936615,"4":-1.3292697668075562,"5":-0.9315858483314514,"6":-2.164736032485962,"7":-0.7497372627258301,"8":2.515587568283081,"9":2.4295926094055176,"10":1.2611539363861084,"11":-2.1727840900421143,"12":1.24974524974823,"13":-0.11006221175193787,"14":-1.0404139757156372,"15":-0.7537795305252075,"16":0.38829970359802246,"17":0.13011109828948975,"18":4.428111553192139,"19":-3.793416976928711,"20":-0.8733735680580139,"21":1.6007215976715088,"22":0.40102657675743103,"23":-0.9614258408546448,"24":0.7308847308158875,"25":3.9911646842956543,"26":-3.3615705966949463,"27":-0.7807092666625977,"28":-2.383155584335327,"29":-1.234429955482483,"30":2.7827677726745605,"31":-4.6132073402404785,"32":-1.8835657835006714,"33":2.1793317794799805,"34":-0.2950765788555145,"35":0.9562209248542786,"36":-0.37336257100105286,"37":-0.9025179147720337,"38":-1.1243350505828857,"39":0.2503942847251892,"40":-1.453468680381775,"41":1.4129856824874878,"42":-0.8676261901855469,"43":0.522383451461792,"44":1.9188332557678223,"45":-0.6576113700866699,"46":2.515899896621704,"47":-0.6934275031089783,"48":0.9782648682594299,"49":0.0987599715590477,"50":-0.5688951015472412,"51":2.527592420578003,"52":-0.24267695844173431,"53":-0.6454854011535645,"54":-0.4988558292388916,"55":3.3689942359924316,"56":-0.9363488554954529,"57":2.6117911338806152,"58":-1.2232468128204346,"59":-0.13708096742630005,"60":1.013497233390808,"61":0.12843050062656403,"62":1.41255784034729,"63":0.016818104311823845,"64":0.3677808344364166,"65":-1.023321270942688,"66":-5.462835788726807,"67":-1.0666954517364502,"68":-1.461911678314209,"69":-0.1719031035900116,"70":-2.3936519622802734,"71":3.6042163372039795,"72":2.1213457584381104,"73":-2.830538034439087,"74":-1.9969714879989624,"75":-1.2386993169784546,"76":-0.822929859161377,"77":-0.26604849100112915,"78":-0.3013561964035034,"79":3.4525363445281982,"80":1.2781833410263062,"81":4.354578971862793,"82":-1.9631950855255127,"83":-1.7529118061065674,"84":1.7589291334152222,"85":0.8377649188041687,"86":-0.5111693143844604,"87":0.30682942271232605,"88":-2.151777744293213,"89":-3.163820505142212,"90":1.9944018125534058,"91":0.061948247253894806,"92":-0.5455660223960876,"93":-0.28386396169662476,"94":-2.1208319664001465,"95":-1.731683611869812,"96":-1.530565619468689,"97":-0.12553240358829498,"98":0.778896152973175,"99":3.5189802646636963,"100":-4.824695110321045,"101":-0.07549841701984406,"102":0.6546403169631958,"103":0.1664879024028778,"104":-0.2006743997335434,"105":1.3851789236068726,"106":2.1494390964508057,"107":0.18832679092884064,"108":1.0170680284500122,"109":-0.15694081783294678,"110":0.07077061384916306,"111":-0.2907112240791321,"112":1.2252954244613647,"113":0.15638194978237152,"114":1.0444806814193726,"115":0.14887076616287231,"116":-4.671698093414307,"117":-0.06538818031549454,"118":-0.004321868997067213,"119":-0.6679837107658386,"120":-2.24334716796875,"121":1.0000871419906616,"122":-0.48949387669563293,"123":-0.19871188700199127,"124":-0.08207330852746964,"125":0.6021265387535095,"126":2.572582483291626,"127":3.5172903537750244,"128":-3.3789775371551514,"129":-0.16626444458961487,"130":-0.3223068118095398,"131":0.062037352472543716,"132":-2.661101818084717,"133":0.5638463497161865,"134":-0.11081847548484802}},"6":{"bias":-5.467193603515625,"weights":{"0":-1.3266438245773315,"1":-0.800815224647522,"2":-0.6408021450042725,"3":-1.3974117040634155,"4":0.4759965240955353,"5":-0.7156415581703186,"6":2.9115138053894043,"7":-0.41079121828079224,"8":1.3886210918426514,"9":0.8522204756736755,"10":-1.7753534317016602,"11":2.5409162044525146,"12":-2.623643398284912,"13":1.6160086393356323,"14":0.29001811146736145,"15":-1.5119659900665283,"16":-0.22161559760570526,"17":-1.1016954183578491,"18":-3.323807716369629,"19":-1.4005801677703857,"20":1.3084919452667236,"21":0.3970518708229065,"22":0.12914228439331055,"23":-0.3508446514606476,"24":0.0505908764898777,"25":1.18171226978302,"26":-1.7293232679367065,"27":2.159292221069336,"28":0.15325796604156494,"29":-0.3890664577484131,"30":0.20232291519641876,"31":-2.5941555500030518,"32":-0.19820281863212585,"33":-1.1446772813796997,"34":0.5729544758796692,"35":-1.9114196300506592,"36":-2.384099006652832,"37":-0.6833603382110596,"38":4.055446147918701,"39":-3.293182373046875,"40":-1.4219094514846802,"41":-0.0009003281593322754,"42":0.04745494946837425,"43":-0.4394077956676483,"44":3.823650598526001,"45":0.0323471873998642,"46":-2.721342086791992,"47":-1.6353741884231567,"48":3.4514317512512207,"49":0.7678913474082947,"50":-0.6619779467582703,"51":-0.20690913498401642,"52":0.783335268497467,"53":-1.6254260540008545,"54":3.4699466228485107,"55":-1.4985216856002808,"56":1.7298564910888672,"57":4.839603900909424,"58":-1.9400495290756226,"59":-1.682739019393921,"60":-1.6723383665084839,"61":-1.3218214511871338,"62":-2.3546602725982666,"63":-1.0007774829864502,"64":0.7492483258247375,"65":0.7042789459228516,"66":-2.92362380027771,"67":-2.2319154739379883,"68":1.733235478401184,"69":-0.8132293224334717,"70":1.1205822229385376,"71":-2.759889841079712,"72":4.194653511047363,"73":-1.1724241971969604,"74":-1.9298124313354492,"75":-2.064849615097046,"76":-0.28967657685279846,"77":0.00660174572840333,"78":2.4836230278015137,"79":-1.8926758766174316,"80":0.10771521925926208,"81":2.0545642375946045,"82":-1.3564605712890625,"83":-0.09491100907325745,"84":-0.31651735305786133,"85":-3.180443286895752,"86":-2.020505905151367,"87":-0.4053359031677246,"88":-0.6106220483779907,"89":2.2878527641296387,"90":0.7694259285926819,"91":-0.7234980463981628,"92":1.5522992610931396,"93":-3.9230668544769287,"94":-0.6405255198478699,"95":-1.679170846939087,"96":-1.5754575729370117,"97":-0.1759870946407318,"98":-2.078352451324463,"99":1.4709811210632324,"100":1.3810389041900635,"101":0.811480700969696,"102":0.7420109510421753,"103":0.5404384136199951,"104":-0.2559816241264343,"105":0.8914046883583069,"106":-0.2711606025695801,"107":-0.1172756552696228,"108":1.6335513591766357,"109":0.09983034431934357,"110":-0.3540540337562561,"111":-0.1497744768857956,"112":0.8324658870697021,"113":-0.6768742203712463,"114":-0.1385805308818817,"115":-0.8092547059059143,"116":1.3991551399230957,"117":0.12776567041873932,"118":-0.7529932856559753,"119":-2.8788342475891113,"120":-2.951998472213745,"121":-1.668473243713379,"122":-1.860443115234375,"123":-0.9120643734931946,"124":-0.21507404744625092,"125":3.7242085933685303,"126":-0.3825320899486542,"127":0.4312589466571808,"128":-0.407198429107666,"129":0.025974441319704056,"130":-0.04973356053233147,"131":-0.7753241658210754,"132":2.094203233718872,"133":-0.8199781179428101,"134":-0.027431994676589966}},"7":{"bias":-2.7320661544799805,"weights":{"0":3.9106783866882324,"1":1.704057216644287,"2":0.7835452556610107,"3":2.642301082611084,"4":0.5646767616271973,"5":-2.9587807655334473,"6":-1.8541938066482544,"7":-2.48287034034729,"8":-0.8032687306404114,"9":-2.6731793880462646,"10":-0.5091835856437683,"11":-4.459225654602051,"12":5.654768466949463,"13":2.5891201496124268,"14":-0.9633055925369263,"15":0.9574951529502869,"16":0.7119947075843811,"17":-1.9976701736450195,"18":0.5612471103668213,"19":0.33418384194374084,"20":-6.72798490524292,"21":1.9852266311645508,"22":-0.00047212341451086104,"23":0.6719101667404175,"24":-2.049466609954834,"25":0.5668019652366638,"26":0.8480996489524841,"27":-1.6648775339126587,"28":-3.7315564155578613,"29":0.20436567068099976,"30":-4.038320064544678,"31":-3.0456929206848145,"32":3.753732204437256,"33":-0.8731010556221008,"34":4.431590557098389,"35":-0.09890784323215485,"36":0.12625975906848907,"37":-0.12603291869163513,"38":-1.4923821687698364,"39":-0.49498382210731506,"40":-1.8698731660842896,"41":3.5177338123321533,"42":0.4223976731300354,"43":0.9034625887870789,"44":2.2680819034576416,"45":-0.024942034855484962,"46":-4.529585838317871,"47":0.6396661996841431,"48":1.7574305534362793,"49":-1.4861338138580322,"50":0.05448726937174797,"51":-0.3975067734718323,"52":2.7262237071990967,"53":0.3654971718788147,"54":-0.7363842129707336,"55":1.872341275215149,"56":0.06299204379320145,"57":5.456526279449463,"58":-4.788148403167725,"59":0.6342520713806152,"60":1.6243871450424194,"61":-2.85196590423584,"62":-2.654766082763672,"63":0.922460675239563,"64":0.06995159387588501,"65":-7.322131633758545,"66":2.933201551437378,"67":4.429788589477539,"68":0.16798220574855804,"69":2.0899901390075684,"70":3.0170905590057373,"71":-7.458041191101074,"72":0.14820246398448944,"73":0.6372933983802795,"74":-2.1937289237976074,"75":2.2293879985809326,"76":1.307438611984253,"77":-0.3558673560619354,"78":-0.4902733564376831,"79":-0.06446222960948944,"80":-1.7067283391952515,"81":-4.649909019470215,"82":-1.4703006744384766,"83":1.6571824550628662,"84":-0.737006425857544,"85":-1.1588411331176758,"86":-0.4751832187175751,"87":2.358989715576172,"88":1.831647515296936,"89":2.7388179302215576,"90":3.9894144535064697,"91":3.549358367919922,"92":-5.490653038024902,"93":-5.928309440612793,"94":-2.4325947761535645,"95":0.6335031390190125,"96":-1.1052639484405518,"97":-0.006385138723999262,"98":0.19981448352336884,"99":1.1993122100830078,"100":-0.2593519389629364,"101":1.4188312292099,"102":-2.6954522132873535,"103":0.9607074856758118,"104":2.2216601371765137,"105":2.467423915863037,"106":-1.5331084728240967,"107":0.06435564160346985,"108":-0.40991970896720886,"109":-1.6031455993652344,"110":3.299229621887207,"111":-4.426181316375732,"112":-1.7337533235549927,"113":-1.0890129804611206,"114":0.6625194549560547,"115":-1.0457156896591187,"116":-0.2607521116733551,"117":-0.12813697755336761,"118":6.300708293914795,"119":0.31599727272987366,"120":2.5619454383850098,"121":1.3953979015350342,"122":4.273425102233887,"123":1.21483314037323,"124":0.6602802872657776,"125":-3.9932971000671387,"126":-2.280784845352173,"127":-3.845377206802368,"128":1.486228346824646,"129":-0.15953654050827026,"130":0.18738889694213867,"131":0.5062806606292725,"132":-1.022847294807434,"133":-3.592622756958008,"134":-0.11975976079702377}},"8":{"bias":-2.9366533756256104,"weights":{"0":1.1287782192230225,"1":-0.6288096904754639,"2":3.2888758182525635,"3":-1.9636781215667725,"4":-3.9120726585388184,"5":-0.6179185509681702,"6":0.4056396782398224,"7":-0.3642153739929199,"8":-1.0521636009216309,"9":0.8197049498558044,"10":1.2484675645828247,"11":-2.410510301589966,"12":1.8199571371078491,"13":-0.9375064373016357,"14":-1.0233873128890991,"15":-0.9848304390907288,"16":0.05333434417843819,"17":2.527327299118042,"18":-1.5548803806304932,"19":-0.9304339289665222,"20":1.8549119234085083,"21":-0.5906648635864258,"22":0.23716744780540466,"23":-0.0108669837936759,"24":-1.7605262994766235,"25":1.4710328578948975,"26":0.25752222537994385,"27":-2.3401641845703125,"28":-1.5056864023208618,"29":3.2383437156677246,"30":-0.16208873689174652,"31":0.42552703619003296,"32":0.17006206512451172,"33":0.06230320781469345,"34":-2.080332040786743,"35":0.6116788387298584,"36":1.189697027206421,"37":-0.5101183652877808,"38":-2.9651665687561035,"39":0.23535478115081787,"40":1.8715968132019043,"41":-0.41346073150634766,"42":-0.7280901074409485,"43":-0.24005067348480225,"44":1.2996019124984741,"45":1.8207104206085205,"46":-0.653932511806488,"47":-1.860094428062439,"48":-0.4548608064651489,"49":-0.1326264888048172,"50":-0.07734984159469604,"51":-2.277946710586548,"52":-0.14319947361946106,"53":1.743949055671692,"54":-0.03932137414813042,"55":0.14347612857818604,"56":1.2103856801986694,"57":-3.4051907062530518,"58":-0.8068082928657532,"59":-1.0409075021743774,"60":0.20640750229358673,"61":-0.5507912635803223,"62":-2.232987642288208,"63":-0.41365769505500793,"64":-0.754742443561554,"65":-2.464731454849243,"66":2.4837989807128906,"67":1.281954050064087,"68":2.8456549644470215,"69":0.978882372379303,"70":0.34419023990631104,"71":1.395597219467163,"72":-3.6002790927886963,"73":2.3450398445129395,"74":2.1522843837738037,"75":-0.2181544303894043,"76":-0.15775753557682037,"77":0.061132557690143585,"78":-1.6306811571121216,"79":-0.8460749387741089,"80":0.38859283924102783,"81":-1.0948822498321533,"82":-1.1686663627624512,"83":-0.36944636702537537,"84":0.45739826560020447,"85":-1.6767654418945312,"86":-1.2275747060775757,"87":-0.5847949981689453,"88":0.5170626044273376,"89":0.037932027131319046,"90":-1.0779651403427124,"91":1.2109609842300415,"92":-0.5102023482322693,"93":1.2271817922592163,"94":0.4455634653568268,"95":0.6731866598129272,"96":-0.26951807737350464,"97":0.15065860748291016,"98":-0.8294082880020142,"99":1.1590863466262817,"100":-2.025757312774658,"101":1.1949175596237183,"102":-1.1618366241455078,"103":0.3076935410499573,"104":-0.2591695189476013,"105":-1.192737102508545,"106":1.9285547733306885,"107":-0.13226191699504852,"108":-0.41875287890434265,"109":0.12364090979099274,"110":-0.577040433883667,"111":-1.685247778892517,"112":-3.2196969985961914,"113":0.6774698495864868,"114":0.15508368611335754,"115":0.14254869520664215,"116":1.7234609127044678,"117":0.1487535834312439,"118":-0.1605430543422699,"119":0.31505030393600464,"120":-1.0602346658706665,"121":0.14909280836582184,"122":-0.30375799536705017,"123":0.23933705687522888,"124":-0.2756734788417816,"125":-0.28339529037475586,"126":-0.055899981409311295,"127":-0.18914856016635895,"128":-0.41635575890541077,"129":-0.11083080619573593,"130":-0.049645282328128815,"131":0.428010493516922,"132":0.39350923895835876,"133":2.1218602657318115,"134":0.009154217317700386}},"9":{"bias":-1.757196307182312,"weights":{"0":-0.1528983861207962,"1":-0.35893675684928894,"2":-0.15625260770320892,"3":-1.39510977268219,"4":1.3472434282302856,"5":-0.2493208646774292,"6":-0.3434820771217346,"7":-0.13511133193969727,"8":-1.1617344617843628,"9":0.5100090503692627,"10":-0.36851856112480164,"11":-2.491628646850586,"12":-0.19702798128128052,"13":-0.54942786693573,"14":-1.0787068605422974,"15":-0.18674549460411072,"16":0.046378280967473984,"17":1.6666659116744995,"18":1.117448329925537,"19":-0.9524630308151245,"20":1.5032519102096558,"21":-0.27291879057884216,"22":0.39578187465667725,"23":0.10501477122306824,"24":0.3565807044506073,"25":0.44048359990119934,"26":0.07843859493732452,"27":0.7207488417625427,"28":1.1036187410354614,"29":-0.6637601852416992,"30":-0.6651294231414795,"31":-0.3506108820438385,"32":-0.1988248974084854,"33":-0.2377922087907791,"34":-1.132765293121338,"35":1.2465914487838745,"36":0.04074546694755554,"37":1.1947205066680908,"38":0.8792376518249512,"39":0.7610809803009033,"40":-1.3852839469909668,"41":-0.12972697615623474,"42":0.3748362362384796,"43":-0.044528037309646606,"44":-2.42362904548645,"45":0.08419309556484222,"46":0.8041185140609741,"47":-0.6458405256271362,"48":-1.3038464784622192,"49":-0.5093777775764465,"50":0.3826902508735657,"51":1.4111980199813843,"52":0.44645029306411743,"53":-0.940645694732666,"54":0.570659875869751,"55":1.0926687717437744,"56":-1.6198548078536987,"57":2.3590261936187744,"58":-0.4237133860588074,"59":-0.17644637823104858,"60":-0.46417930722236633,"61":-0.9968996047973633,"62":-0.4345162808895111,"63":-0.11685650050640106,"64":0.5348113179206848,"65":-0.6990050077438354,"66":-0.282789945602417,"67":-1.346601963043213,"68":1.2161979675292969,"69":-0.05818230286240578,"70":0.7634932994842529,"71":-1.6639806032180786,"72":-1.038265585899353,"73":-0.42532679438591003,"74":0.754804790019989,"75":-0.04330441355705261,"76":-0.15920788049697876,"77":-0.012754490599036217,"78":0.28066012263298035,"79":-0.2312133014202118,"80":-0.14002206921577454,"81":0.12353848665952682,"82":2.109614610671997,"83":-1.1372106075286865,"84":-0.7117081880569458,"85":-0.8755479454994202,"86":-0.15631580352783203,"87":-0.3896462917327881,"88":-0.24966591596603394,"89":-0.35829654335975647,"90":-0.5927238464355469,"91":-0.5111250281333923,"92":-2.516214370727539,"93":0.21999289095401764,"94":-2.135075569152832,"95":1.2195950746536255,"96":0.3554092347621918,"97":-0.039044011384248734,"98":-0.3352545201778412,"99":1.1310607194900513,"100":1.757226586341858,"101":1.4429892301559448,"102":0.7071360349655151,"103":0.06464176625013351,"104":0.2704775035381317,"105":-2.1768078804016113,"106":0.33890748023986816,"107":0.03101642057299614,"108":-1.2135639190673828,"109":0.18953508138656616,"110":0.11863969266414642,"111":0.2919045686721802,"112":-3.2996366024017334,"113":0.8435283899307251,"114":0.118620365858078,"115":-0.5092931389808655,"116":0.6187210083007812,"117":0.11396528035402298,"118":-0.2261667251586914,"119":0.5446121692657471,"120":-0.5873746871948242,"121":0.03319582715630531,"122":2.32202410697937,"123":0.7394220232963562,"124":0.25980520248413086,"125":-0.6373035311698914,"126":-3.2364420890808105,"127":-0.19136513769626617,"128":0.3962601125240326,"129":0.10034694522619247,"130":0.10858365893363953,"131":1.0734041929244995,"132":0.34334662556648254,"133":0.41544124484062195,"134":-0.12303021550178528}},"10":{"bias":-2.176035165786743,"weights":{"0":-4.1158127784729,"1":-1.9211952686309814,"2":1.9115263223648071,"3":-3.8004567623138428,"4":1.243782639503479,"5":1.9496124982833862,"6":-2.812281847000122,"7":2.953150749206543,"8":-0.43874675035476685,"9":-0.26239460706710815,"10":-1.4982094764709473,"11":0.6470192670822144,"12":2.6895060539245605,"13":3.534599542617798,"14":-0.9261350631713867,"15":-1.4430794715881348,"16":0.542790949344635,"17":-2.3151750564575195,"18":-1.0093108415603638,"19":0.6237719058990479,"20":-0.8880102634429932,"21":1.3710672855377197,"22":2.8271260261535645,"23":-0.007428252603858709,"24":1.2441736459732056,"25":-0.23162710666656494,"26":-1.5979429483413696,"27":-3.077709913253784,"28":1.7668076753616333,"29":0.3632599115371704,"30":2.9465367794036865,"31":-2.6986777782440186,"32":0.7747951149940491,"33":0.6709374189376831,"34":0.8482928276062012,"35":-5.229477882385254,"36":2.105785846710205,"37":-1.127655029296875,"38":-1.2232766151428223,"39":-1.6399260759353638,"40":1.2299243211746216,"41":-0.6737954616546631,"42":-0.11350173503160477,"43":-0.0739932656288147,"44":2.505324125289917,"45":-0.31764277815818787,"46":0.46069231629371643,"47":-3.1253225803375244,"48":2.8214612007141113,"49":-1.7214847803115845,"50":1.4104849100112915,"51":0.17072200775146484,"52":0.8175827860832214,"53":-0.5364680886268616,"54":0.05297636240720749,"55":2.7991950511932373,"56":-2.6857099533081055,"57":0.5381394624710083,"58":-2.268228769302368,"59":-3.451761245727539,"60":0.5740308165550232,"61":-1.2695481777191162,"62":3.218937397003174,"63":0.4009062349796295,"64":-0.20896552503108978,"65":-1.1789064407348633,"66":1.9616684913635254,"67":-0.35345524549484253,"68":2.461923122406006,"69":0.9833583831787109,"70":-0.4661555290222168,"71":-0.04278213158249855,"72":-0.9290183186531067,"73":0.7792944312095642,"74":-2.8212878704071045,"75":-0.14051303267478943,"76":-0.7043424844741821,"77":0.43885958194732666,"78":1.5727938413619995,"79":-1.702621340751648,"80":0.5092849135398865,"81":-3.2455503940582275,"82":-0.9850545525550842,"83":-1.3688058853149414,"84":2.9301795959472656,"85":-2.538938283920288,"86":-2.710049629211426,"87":3.0454118251800537,"88":0.03869316726922989,"89":-0.31188181042671204,"90":1.1873623132705688,"91":3.7143235206604004,"92":0.08596105873584747,"93":1.2963058948516846,"94":1.1230450868606567,"95":0.7933018803596497,"96":1.8452385663986206,"97":0.0522344708442688,"98":-2.3729381561279297,"99":-0.13279251754283905,"100":-1.5051639080047607,"101":0.7669403553009033,"102":-1.4692392349243164,"103":0.4373190402984619,"104":-0.10703549534082413,"105":-2.513357639312744,"106":-1.196921944618225,"107":-0.19574125111103058,"108":-3.927088499069214,"109":1.6497001647949219,"110":1.0654685497283936,"111":-2.4627418518066406,"112":-1.7764478921890259,"113":-1.324079155921936,"114":-1.5142971277236938,"115":1.5899494886398315,"116":-2.186769962310791,"117":-0.10054349899291992,"118":0.535475492477417,"119":5.467606067657471,"120":-3.240710973739624,"121":-3.5747873783111572,"122":0.6832212805747986,"123":0.7427334785461426,"124":0.09210611134767532,"125":2.585090160369873,"126":0.7736801505088806,"127":3.2539188861846924,"128":-2.47152042388916,"129":0.06282269209623337,"130":0.06972100585699081,"131":0.4306770861148834,"132":-0.1104336604475975,"133":0.41111767292022705,"134":-0.030216025188565254}},"11":{"bias":-2.057044506072998,"weights":{"0":-0.02117789536714554,"1":0.2854611277580261,"2":-1.4792187213897705,"3":-0.8652907013893127,"4":0.5322300791740417,"5":-0.26981669664382935,"6":-0.38914692401885986,"7":0.325389564037323,"8":0.00450484873726964,"9":-0.3499715328216553,"10":0.5413930416107178,"11":-1.3018726110458374,"12":0.2565159499645233,"13":-0.4179997146129608,"14":0.20724838972091675,"15":-0.5031209588050842,"16":-0.19739532470703125,"17":3.1912875175476074,"18":-0.4933907389640808,"19":0.7539430856704712,"20":-1.6594979763031006,"21":-0.8446372747421265,"22":-0.08360347896814346,"23":-0.10645367950201035,"24":0.33000925183296204,"25":0.8254099488258362,"26":-0.8192149996757507,"27":-2.6081597805023193,"28":0.18131022155284882,"29":1.5628570318222046,"30":0.12932495772838593,"31":-0.3207099437713623,"32":-0.19088305532932281,"33":0.3199089467525482,"34":-1.1793586015701294,"35":-2.4674699306488037,"36":0.2891007661819458,"37":-0.36332589387893677,"38":-2.791022777557373,"39":0.9803770184516907,"40":-2.3606693744659424,"41":1.1211771965026855,"42":0.13147586584091187,"43":-0.3404942750930786,"44":0.28112947940826416,"45":0.6631866693496704,"46":-1.3714157342910767,"47":0.7716259956359863,"48":0.6244350075721741,"49":1.5064492225646973,"50":0.18249717354774475,"51":-0.665233850479126,"52":0.5796643495559692,"53":2.388216733932495,"54":1.6315221786499023,"55":-0.7277693152427673,"56":-0.32191866636276245,"57":0.6787490248680115,"58":-0.03429611772298813,"59":0.08502282947301865,"60":1.224992275238037,"61":-0.852056622505188,"62":-0.9955676198005676,"63":0.01029793918132782,"64":0.4147087037563324,"65":-1.8385463953018188,"66":-0.7928923964500427,"67":0.18043138086795807,"68":0.7079522609710693,"69":0.16782160103321075,"70":0.35742974281311035,"71":-1.063417673110962,"72":-1.6346702575683594,"73":1.2386362552642822,"74":0.8094842433929443,"75":-0.07358463853597641,"76":-0.1061771810054779,"77":0.006727912463247776,"78":-0.3213123083114624,"79":-1.1727467775344849,"80":-0.00589511776342988,"81":-2.0518436431884766,"82":-0.6347781419754028,"83":0.3557097613811493,"84":0.3863312602043152,"85":-0.48861175775527954,"86":-0.508768618106842,"87":1.0269155502319336,"88":0.22094692289829254,"89":0.27387338876724243,"90":0.2119835466146469,"91":1.2906523942947388,"92":-0.22443456947803497,"93":-0.40204527974128723,"94":-1.0756350755691528,"95":-0.22637306153774261,"96":-0.10916653275489807,"97":0.010023069567978382,"98":0.6911386847496033,"99":1.1177856922149658,"100":-1.1922907829284668,"101":0.8220415711402893,"102":-0.917622447013855,"103":0.015401833690702915,"104":-0.05800028145313263,"105":-0.4959952235221863,"106":0.0649932473897934,"107":0.0028311116620898247,"108":0.834686815738678,"109":-0.13729986548423767,"110":-0.33190134167671204,"111":0.9276973009109497,"112":-0.6346046328544617,"113":1.1018500328063965,"114":-0.3913159668445587,"115":-0.1340406835079193,"116":-0.4136498272418976,"117":-0.17098009586334229,"118":-0.20737002789974213,"119":1.5071252584457397,"120":-0.6548014879226685,"121":-0.08887550979852676,"122":-1.297356367111206,"123":0.007582340855151415,"124":-0.04484040290117264,"125":-0.5172304511070251,"126":0.26619431376457214,"127":-0.08140280842781067,"128":-0.3143371343612671,"129":-0.11641781032085419,"130":0.05857335031032562,"131":-0.42452749609947205,"132":-1.3868763446807861,"133":-0.06334511935710907,"134":-0.008167827501893044}},"12":{"bias":-3.295657157897949,"weights":{"0":2.4668171405792236,"1":0.16188712418079376,"2":-0.2943847179412842,"3":-1.6289423704147339,"4":2.1802773475646973,"5":0.5738823413848877,"6":-4.746938228607178,"7":-1.5750072002410889,"8":-4.524705410003662,"9":2.5742099285125732,"10":-0.47133782505989075,"11":2.445844888687134,"12":-1.1939719915390015,"13":0.8773925304412842,"14":2.250136137008667,"15":-1.459176778793335,"16":0.9543823599815369,"17":3.5179033279418945,"18":4.309171199798584,"19":-2.43259859085083,"20":-2.7533979415893555,"21":-1.2029610872268677,"22":1.4727863073349,"23":0.2530320882797241,"24":-2.281738519668579,"25":-1.0052956342697144,"26":-0.5005151629447937,"27":-1.151397943496704,"28":-1.798521876335144,"29":0.14820605516433716,"30":3.3903579711914062,"31":-2.4521994590759277,"32":-1.4447839260101318,"33":-0.4887760579586029,"34":1.160900354385376,"35":-2.205521821975708,"36":1.4366899728775024,"37":1.0277026891708374,"38":0.7512073516845703,"39":0.6712220907211304,"40":1.5362882614135742,"41":-5.01604700088501,"42":3.0947105884552,"43":0.4280086159706116,"44":4.389254570007324,"45":1.6328626871109009,"46":-0.7443227171897888,"47":-3.057981491088867,"48":-0.9670565724372864,"49":-0.5597453117370605,"50":1.2518566846847534,"51":-2.3227479457855225,"52":0.9962397217750549,"53":-3.134164333343506,"54":-1.333687424659729,"55":4.694042205810547,"56":-0.5013366341590881,"57":-2.191129207611084,"58":0.31301066279411316,"59":-0.9878002405166626,"60":2.7088112831115723,"61":-2.070528984069824,"62":2.764512777328491,"63":0.8473883867263794,"64":-0.7648521065711975,"65":-2.993164300918579,"66":-1.5905319452285767,"67":-6.252152442932129,"68":1.7988117933273315,"69":0.6250221729278564,"70":0.5822606682777405,"71":-1.1002633571624756,"72":-0.7339001297950745,"73":0.4949113428592682,"74":-2.1673672199249268,"75":2.7142791748046875,"76":1.0682547092437744,"77":0.3114403784275055,"78":3.168590545654297,"79":-2.447622299194336,"80":-0.15093305706977844,"81":-3.534792423248291,"82":1.821349024772644,"83":-2.5926246643066406,"84":1.0661382675170898,"85":-1.0610297918319702,"86":0.4413606524467468,"87":3.603722333908081,"88":-0.3469606637954712,"89":-1.1171395778656006,"90":0.6625797748565674,"91":-4.870830535888672,"92":1.6592035293579102,"93":4.716761112213135,"94":3.697174072265625,"95":3.9303743839263916,"96":0.26799824833869934,"97":-0.019815679639577866,"98":-4.8154826164245605,"99":-4.105961799621582,"100":-6.331931114196777,"101":5.060931205749512,"102":1.8591879606246948,"103":0.07205670326948166,"104":-0.07546565681695938,"105":-0.816814661026001,"106":-2.2447376251220703,"107":0.060189057141542435,"108":-2.0284042358398438,"109":2.334531307220459,"110":1.7375409603118896,"111":-2.8501718044281006,"112":-3.4810848236083984,"113":1.1349530220031738,"114":-1.0482261180877686,"115":0.6435428857803345,"116":-3.951674222946167,"117":0.17149405181407928,"118":0.22737786173820496,"119":-2.256937026977539,"120":0.31280839443206787,"121":1.4962787628173828,"122":0.29201075434684753,"123":0.32667872309684753,"124":0.9898573756217957,"125":3.676240921020508,"126":1.763357400894165,"127":1.6170886754989624,"128":-1.8748317956924438,"129":0.4379418194293976,"130":0.6103412508964539,"131":0.39237457513809204,"132":-3.1040236949920654,"133":-0.639354407787323,"134":-0.07513575255870819}},"13":{"bias":-3.3360798358917236,"weights":{"0":0.5722715258598328,"1":1.306602120399475,"2":0.15975308418273926,"3":-0.6018196940422058,"4":-3.1093785762786865,"5":-1.4414607286453247,"6":2.1378731727600098,"7":-0.6605913043022156,"8":2.1055471897125244,"9":0.48833605647087097,"10":-1.4921598434448242,"11":-2.941197633743286,"12":-1.8186297416687012,"13":-2.682691812515259,"14":-0.7989920377731323,"15":2.2609169483184814,"16":0.3763909637928009,"17":0.08265001326799393,"18":-0.5232359170913696,"19":1.8919914960861206,"20":-0.014644448645412922,"21":-0.6553614735603333,"22":1.648030400276184,"23":-0.1254991739988327,"24":1.426519513130188,"25":0.7419453859329224,"26":-1.8670662641525269,"27":-0.8334153294563293,"28":1.3879456520080566,"29":-1.0491809844970703,"30":4.116491794586182,"31":-2.053455352783203,"32":-1.1262550354003906,"33":-1.764447808265686,"34":-0.9830894470214844,"35":-0.7179268002510071,"36":2.2370054721832275,"37":1.1300947666168213,"38":-2.047739267349243,"39":-1.3571312427520752,"40":0.22548413276672363,"41":-1.3269706964492798,"42":-0.7620577812194824,"43":0.6154789924621582,"44":-0.24621528387069702,"45":-1.0522154569625854,"46":0.08694937825202942,"47":-0.6315714120864868,"48":1.3442195653915405,"49":0.6572461724281311,"50":0.008318369276821613,"51":-0.13967517018318176,"52":-2.353987455368042,"53":2.710303783416748,"54":-0.46947985887527466,"55":1.0405476093292236,"56":-2.515836715698242,"57":-1.2390007972717285,"58":-0.8272712230682373,"59":0.6330646872520447,"60":1.7131388187408447,"61":-1.5761172771453857,"62":-0.25597846508026123,"63":1.2800089120864868,"64":-0.8351542949676514,"65":-3.5610597133636475,"66":-0.18663011491298676,"67":0.35505619645118713,"68":0.302008718252182,"69":0.6741487979888916,"70":-0.08865285664796829,"71":4.027551651000977,"72":-2.9375572204589844,"73":-0.36362162232398987,"74":0.9043436050415039,"75":0.7116191387176514,"76":0.49435439705848694,"77":-0.01019088365137577,"78":-0.1504778116941452,"79":-2.0507187843322754,"80":0.3555230498313904,"81":-1.1560264825820923,"82":-1.4384034872055054,"83":-1.1613078117370605,"84":-0.22468186914920807,"85":-2.1206934452056885,"86":-0.397126168012619,"87":0.6517557501792908,"88":-0.16001759469509125,"89":0.13240516185760498,"90":0.4585798680782318,"91":-1.1301755905151367,"92":0.8260413408279419,"93":-0.6528617739677429,"94":-0.9647176265716553,"95":3.7314670085906982,"96":0.682333767414093,"97":-0.1373559534549713,"98":-1.956863284111023,"99":-1.7796823978424072,"100":0.13073675334453583,"101":4.33554744720459,"102":-0.8088851571083069,"103":-0.1701878309249878,"104":-0.1018710732460022,"105":0.9569905996322632,"106":-1.2334970235824585,"107":-0.029269320890307426,"108":2.1903278827667236,"109":-0.18049409985542297,"110":1.4160411357879639,"111":0.16044582426548004,"112":-4.466912746429443,"113":-1.1484919786453247,"114":-0.3178589344024658,"115":-0.25846993923187256,"116":1.1054915189743042,"117":-0.06027868390083313,"118":0.24364209175109863,"119":0.5823060870170593,"120":-2.189265012741089,"121":-2.7039501667022705,"122":1.2746236324310303,"123":0.147457093000412,"124":-0.03943159431219101,"125":4.1380109786987305,"126":0.3487527072429657,"127":-2.6189398765563965,"128":-0.17953039705753326,"129":0.04934387281537056,"130":0.35483255982398987,"131":-0.5085711479187012,"132":-0.8040268421173096,"133":-0.6987502574920654,"134":-0.06860295683145523}},"14":{"bias":-0.3954654037952423,"weights":{"0":-0.27292919158935547,"1":-1.1947988271713257,"2":-1.8019874095916748,"3":-2.8711495399475098,"4":-2.0484066009521484,"5":1.7287739515304565,"6":3.1670970916748047,"7":-0.8774413466453552,"8":-0.8431913256645203,"9":-2.0245070457458496,"10":0.20799916982650757,"11":1.503746509552002,"12":0.8030755519866943,"13":-3.798837184906006,"14":1.697387933731079,"15":-0.0583769790828228,"16":2.0100913047790527,"17":-0.3354164958000183,"18":1.0211032629013062,"19":-0.5664404630661011,"20":2.6738760471343994,"21":-0.1989886462688446,"22":2.8700132369995117,"23":0.2833556532859802,"24":-1.6805317401885986,"25":0.5800623893737793,"26":-0.49256643652915955,"27":2.9263644218444824,"28":0.12198402732610703,"29":-1.7738587856292725,"30":-2.979351758956909,"31":-0.6492593288421631,"32":-0.4172429144382477,"33":2.1989617347717285,"34":-0.6012840270996094,"35":-0.2710801661014557,"36":-1.7640982866287231,"37":0.7810085415840149,"38":5.416473865509033,"39":-0.2504529356956482,"40":-3.518407106399536,"41":2.2591235637664795,"42":2.374157190322876,"43":0.7123385071754456,"44":-5.984280586242676,"45":-0.3882618546485901,"46":1.9910064935684204,"47":1.5976738929748535,"48":-3.403630256652832,"49":4.245925426483154,"50":0.4271639585494995,"51":-2.469334363937378,"52":-0.6322855353355408,"53":0.22663775086402893,"54":1.4766435623168945,"55":3.06681752204895,"56":-3.856337785720825,"57":-2.4477148056030273,"58":2.288520097732544,"59":0.3195207417011261,"60":1.7011644840240479,"61":-0.7649163603782654,"62":0.5777506828308105,"63":1.643172025680542,"64":-0.3774136006832123,"65":-4.355669021606445,"66":-0.41445422172546387,"67":-8.146780967712402,"68":4.772439956665039,"69":1.5241656303405762,"70":2.8372528553009033,"71":-2.3274707794189453,"72":-1.4280953407287598,"73":0.7231996655464172,"74":1.5232073068618774,"75":0.04129144176840782,"76":0.9250432252883911,"77":1.349062204360962,"78":0.7734026312828064,"79":-0.7986962199211121,"80":-0.9450005888938904,"81":3.9354465007781982,"82":-0.275646448135376,"83":-0.32277897000312805,"84":-4.467171669006348,"85":1.3356232643127441,"86":3.9497838020324707,"87":-0.543893575668335,"88":3.5226123332977295,"89":-0.7636147141456604,"90":-1.6046639680862427,"91":-1.8327715396881104,"92":0.27833807468414307,"93":-0.8362035155296326,"94":-2.442553997039795,"95":1.2767449617385864,"96":3.531825542449951,"97":-0.12753455340862274,"98":-5.3944196701049805,"99":2.479872941970825,"100":-6.415334224700928,"101":1.7491499185562134,"102":1.1538944244384766,"103":0.4657483696937561,"104":-0.21934765577316284,"105":-0.6323904395103455,"106":1.5418814420700073,"107":0.18223485350608826,"108":-2.5430660247802734,"109":0.13941159844398499,"110":1.1992387771606445,"111":1.1048641204833984,"112":-4.21060848236084,"113":4.233012676239014,"114":-0.19407527148723602,"115":-1.725106954574585,"116":-5.894038200378418,"117":-0.09693694114685059,"118":1.5982807874679565,"119":4.187710285186768,"120":-0.11203796416521072,"121":-3.793757200241089,"122":2.1485559940338135,"123":1.6591384410858154,"124":1.2045234441757202,"125":1.1179786920547485,"126":3.187936305999756,"127":-2.6375491619110107,"128":1.3081458806991577,"129":0.7881790995597839,"130":0.31443071365356445,"131":0.5916807651519775,"132":-6.324959754943848,"133":2.1028571128845215,"134":0.10478648543357849}},"15":{"bias":-5.835482597351074,"weights":{"0":1.851981282234192,"1":0.48681995272636414,"2":-1.395758867263794,"3":2.392219305038452,"4":2.5307159423828125,"5":-0.6264957785606384,"6":0.9109640121459961,"7":-1.120118260383606,"8":2.6923513412475586,"9":-0.7040611505508423,"10":-3.898766279220581,"11":0.5650690197944641,"12":-5.300386428833008,"13":-4.688622951507568,"14":0.6757593750953674,"15":0.6580194234848022,"16":-0.11344926804304123,"17":-0.5825701355934143,"18":-0.2140541672706604,"19":-2.0660204887390137,"20":0.671999990940094,"21":2.550891637802124,"22":4.694469928741455,"23":0.4156484007835388,"24":-3.500858783721924,"25":-3.41017746925354,"26":-0.6613835096359253,"27":1.960821270942688,"28":1.5060784816741943,"29":-1.0646963119506836,"30":-0.2814238369464874,"31":0.27373456954956055,"32":1.3913944959640503,"33":2.6842260360717773,"34":2.64666748046875,"35":-2.1791043281555176,"36":-1.3014793395996094,"37":4.201573848724365,"38":-0.767689049243927,"39":-4.662132740020752,"40":2.574986457824707,"41":0.4869764745235443,"42":0.7343249320983887,"43":0.06357599049806595,"44":0.7205078601837158,"45":-0.49588528275489807,"46":-2.9897615909576416,"47":-2.0172033309936523,"48":-3.0103819370269775,"49":-2.32850980758667,"50":-1.52482008934021,"51":-3.0550384521484375,"52":-0.2282213270664215,"53":0.7262389063835144,"54":-5.167417526245117,"55":-1.6515940427780151,"56":-0.332254558801651,"57":4.758066654205322,"58":-1.2160903215408325,"59":-4.767429351806641,"60":0.7444444298744202,"61":-3.006225347518921,"62":-2.240412950515747,"63":0.5136805772781372,"64":-0.5632063746452332,"65":3.0762808322906494,"66":-1.6214605569839478,"67":-3.773686647415161,"68":0.022644218057394028,"69":0.5780013203620911,"70":1.382144570350647,"71":5.286845684051514,"72":2.4593539237976074,"73":-1.590964436531067,"74":-1.037713646888733,"75":0.48097047209739685,"76":-0.6268981695175171,"77":0.6527576446533203,"78":-3.0248799324035645,"79":2.1123921871185303,"80":2.351531505584717,"81":-5.179392337799072,"82":3.1575069427490234,"83":-1.9794939756393433,"84":0.008676372468471527,"85":1.154974102973938,"86":-1.12220299243927,"87":-0.44536206126213074,"88":-1.2211408615112305,"89":1.7813678979873657,"90":-0.6098288893699646,"91":-0.6111460328102112,"92":0.06798088550567627,"93":1.1141505241394043,"94":2.9734044075012207,"95":-0.10252604633569717,"96":0.16096557676792145,"97":0.14529766142368317,"98":-3.387847661972046,"99":0.5896143317222595,"100":-0.88472980260849,"101":-2.9759364128112793,"102":4.389667510986328,"103":0.5612419247627258,"104":0.690849781036377,"105":0.7204291820526123,"106":-3.7400810718536377,"107":0.005069071892648935,"108":-5.47202730178833,"109":1.2840461730957031,"110":2.8448069095611572,"111":-0.27476370334625244,"112":1.0394277572631836,"113":-0.7278512120246887,"114":1.093707799911499,"115":-1.1957812309265137,"116":1.5232363939285278,"117":0.06364306807518005,"118":2.0387539863586426,"119":1.0627635717391968,"120":-4.864572048187256,"121":-4.436981201171875,"122":2.8164730072021484,"123":0.9228700399398804,"124":-0.004325617104768753,"125":-1.576758861541748,"126":-2.899839162826538,"127":-3.2726612091064453,"128":2.3845152854919434,"129":-0.3848748505115509,"130":0.2391093522310257,"131":1.4742027521133423,"132":2.467794418334961,"133":-3.8873353004455566,"134":-0.08754532784223557}},"16":{"bias":-2.8172085285186768,"weights":{"0":2.071202039718628,"1":-1.6151922941207886,"2":-0.8028513789176941,"3":-1.0325615406036377,"4":-2.791356086730957,"5":-0.07873567938804626,"6":-0.6894879937171936,"7":1.1432671546936035,"8":3.0854275226593018,"9":0.5296432971954346,"10":-1.8299039602279663,"11":0.37087735533714294,"12":0.7961751222610474,"13":1.8099477291107178,"14":-0.30315253138542175,"15":-0.6138718724250793,"16":-0.005633280612528324,"17":0.529504120349884,"18":-1.1910827159881592,"19":-0.7668419480323792,"20":-0.7854200601577759,"21":-1.085800290107727,"22":0.03944041579961777,"23":-0.2830067574977875,"24":1.365283727645874,"25":1.3670505285263062,"26":-2.6661949157714844,"27":1.5960732698440552,"28":0.14526493847370148,"29":1.066301941871643,"30":-0.2027636021375656,"31":-0.9637617468833923,"32":0.11532548815011978,"33":0.7360751032829285,"34":-0.09076245129108429,"35":1.3162282705307007,"36":-2.1143689155578613,"37":-0.20142753422260284,"38":-3.183793306350708,"39":-1.8143929243087769,"40":-1.1354410648345947,"41":1.1757519245147705,"42":-0.26312005519866943,"43":-0.17084652185440063,"44":2.69351863861084,"45":-0.8589782118797302,"46":0.2529018819332123,"47":-1.0020930767059326,"48":-0.5454236268997192,"49":0.08933128416538239,"50":-0.12776879966259003,"51":-0.5534659028053284,"52":-0.6773184537887573,"53":0.5785310864448547,"54":0.4862796664237976,"55":-1.8103801012039185,"56":-2.480682134628296,"57":4.188069820404053,"58":0.9227564930915833,"59":-0.47080108523368835,"60":-0.07659081369638443,"61":-0.8849825263023376,"62":-0.6801121234893799,"63":-0.787325382232666,"64":0.8003056645393372,"65":-2.2355592250823975,"66":-1.459783673286438,"67":-1.17274010181427,"68":-2.6489737033843994,"69":-0.3470068573951721,"70":-0.5635923743247986,"71":0.04040076583623886,"72":2.679234504699707,"73":-0.3304363787174225,"74":2.499770164489746,"75":-1.2438244819641113,"76":-0.3571452796459198,"77":-0.1532987654209137,"78":1.0901581048965454,"79":2.030975580215454,"80":-0.22601017355918884,"81":1.4066096544265747,"82":1.575859785079956,"83":1.4072953462600708,"84":-2.277229070663452,"85":-0.9174354672431946,"86":-0.24148379266262054,"87":0.14750662446022034,"88":-0.35063496232032776,"89":0.9031683206558228,"90":1.4163883924484253,"91":0.00011010156595148146,"92":-1.4600048065185547,"93":1.0059853792190552,"94":-2.3311147689819336,"95":-0.5407538414001465,"96":-0.5730764269828796,"97":0.012108034454286098,"98":-1.8144495487213135,"99":-1.8064758777618408,"100":0.6691306829452515,"101":0.7703364491462708,"102":-0.47617051005363464,"103":-0.016504036262631416,"104":-0.07949257642030716,"105":0.5415215492248535,"106":0.0038070171140134335,"107":0.0756588950753212,"108":-0.4960363507270813,"109":-0.1429828554391861,"110":-0.7042794227600098,"111":0.1985780894756317,"112":-1.4502273797988892,"113":0.7580832839012146,"114":0.09661480784416199,"115":1.2679846286773682,"116":1.337294101715088,"117":0.07585513591766357,"118":-0.03343687206506729,"119":-1.6348689794540405,"120":-0.30073443055152893,"121":0.1947823017835617,"122":-2.4911978244781494,"123":-0.3221414089202881,"124":0.028015539050102234,"125":-1.1159265041351318,"126":-0.6892833709716797,"127":2.8344271183013916,"128":-0.44984519481658936,"129":-0.07392779737710953,"130":-0.07658790051937103,"131":0.0017589145572856069,"132":0.7360156178474426,"133":-0.08818736672401428,"134":-0.19913631677627563}},"17":{"bias":-3.1025261878967285,"weights":{"0":-0.25152474641799927,"1":-1.783650279045105,"2":-1.5492689609527588,"3":-1.6967517137527466,"4":-3.8479385375976562,"5":-0.44736984372138977,"6":-1.1655691862106323,"7":1.2025877237319946,"8":-0.11873422563076019,"9":0.8757656812667847,"10":-0.8419460654258728,"11":1.3504890203475952,"12":0.5741382837295532,"13":3.027956485748291,"14":0.16431507468223572,"15":-0.1482260823249817,"16":0.28068408370018005,"17":-0.6422849297523499,"18":-1.1580443382263184,"19":-1.137283444404602,"20":2.585808515548706,"21":-1.0999647378921509,"22":-0.7020229697227478,"23":-0.24136358499526978,"24":-1.0010042190551758,"25":-1.2224926948547363,"26":4.6984663009643555,"27":-1.5306957960128784,"28":-1.2601842880249023,"29":-0.33538374304771423,"30":-4.222988605499268,"31":-2.110236406326294,"32":0.21257232129573822,"33":-0.5577429533004761,"34":0.8010586500167847,"35":-1.0605281591415405,"36":-0.5222973227500916,"37":-2.251316547393799,"38":0.9526415467262268,"39":-0.7668361067771912,"40":0.102266326546669,"41":1.3855211734771729,"42":0.21033599972724915,"43":-0.6553306579589844,"44":2.7638256549835205,"45":-0.33990949392318726,"46":-2.334191083908081,"47":2.114439010620117,"48":3.1063733100891113,"49":2.1343235969543457,"50":0.06658916920423508,"51":-1.3013861179351807,"52":2.0423636436462402,"53":-0.15703722834587097,"54":-0.687802255153656,"55":-0.8292409777641296,"56":-0.9588304758071899,"57":0.47435641288757324,"58":-3.22821044921875,"59":1.181036353111267,"60":1.2627644538879395,"61":1.8982572555541992,"62":-0.7811938524246216,"63":-0.16543947160243988,"64":-0.18813444674015045,"65":0.4071705639362335,"66":1.305191159248352,"67":-0.0557333379983902,"68":-2.4736344814300537,"69":-0.6901901364326477,"70":-0.48882994055747986,"71":0.37480977177619934,"72":1.5461691617965698,"73":-1.7974157333374023,"74":-0.6793801188468933,"75":-0.6788879036903381,"76":0.07911451905965805,"77":-0.2723425030708313,"78":0.19083313643932343,"79":1.8978791236877441,"80":0.27085426449775696,"81":-2.147420883178711,"82":3.1008059978485107,"83":0.24615631997585297,"84":-1.6758179664611816,"85":-2.5824453830718994,"86":-1.6678493022918701,"87":3.9064433574676514,"88":0.538707435131073,"89":-0.5524481534957886,"90":-0.09369874000549316,"91":-3.207069158554077,"92":-0.09793838858604431,"93":-1.5269341468811035,"94":-1.1901636123657227,"95":-0.6807975769042969,"96":2.4011881351470947,"97":-0.038324836641550064,"98":-2.691298007965088,"99":-0.39995092153549194,"100":3.703622341156006,"101":0.852461040019989,"102":-0.409689724445343,"103":-0.10430528223514557,"104":0.517575204372406,"105":-1.0091278553009033,"106":0.4394223988056183,"107":0.0888696238398552,"108":1.6016762256622314,"109":0.5009914040565491,"110":-0.09131249785423279,"111":-0.8955070972442627,"112":-1.597306489944458,"113":1.6902868747711182,"114":0.8639093041419983,"115":-0.7202938795089722,"116":-1.5516712665557861,"117":-0.11346433311700821,"118":-0.41096463799476624,"119":-1.8314133882522583,"120":0.5673857927322388,"121":-1.940940499305725,"122":0.20839034020900726,"123":0.22404269874095917,"124":0.24407711625099182,"125":-2.6403145790100098,"126":0.7420198321342468,"127":0.9984676837921143,"128":-1.0710625648498535,"129":0.02799045853316784,"130":-0.16170237958431244,"131":0.7416695356369019,"132":-1.2021211385726929,"133":2.9146971702575684,"134":0.06844861060380936}},"18":{"bias":-3.215811252593994,"weights":{"0":-0.5573814511299133,"1":-1.8914109468460083,"2":-0.6914627552032471,"3":-1.747214674949646,"4":0.3181689977645874,"5":-2.1513633728027344,"6":-1.1308314800262451,"7":0.1657392531633377,"8":0.03274253383278847,"9":-1.952504277229309,"10":-0.09011673182249069,"11":-1.2543047666549683,"12":-1.405815601348877,"13":2.153590679168701,"14":-0.6593307852745056,"15":0.9650824069976807,"16":-0.6463823318481445,"17":2.919600486755371,"18":1.3222423791885376,"19":-0.35715463757514954,"20":0.5044906735420227,"21":-0.7843877673149109,"22":-1.0203197002410889,"23":0.8204630017280579,"24":0.676893949508667,"25":2.764341115951538,"26":0.9748618006706238,"27":-0.12657520174980164,"28":-0.7140885591506958,"29":-0.9086741805076599,"30":-1.031113624572754,"31":0.7633639574050903,"32":1.2468911409378052,"33":-3.777796745300293,"34":-0.2641095519065857,"35":-2.751729965209961,"36":-1.8760054111480713,"37":-1.3502366542816162,"38":1.9482911825180054,"39":1.4762840270996094,"40":2.7368226051330566,"41":0.8063551783561707,"42":0.1257600486278534,"43":-0.4370960295200348,"44":-1.7231669425964355,"45":-0.4562736749649048,"46":0.580698549747467,"47":0.09281475096940994,"48":2.8024098873138428,"49":0.35467466711997986,"50":0.10925761610269547,"51":-1.052751898765564,"52":-0.4281617999076843,"53":-0.12585365772247314,"54":-1.2053217887878418,"55":-1.3081309795379639,"56":-0.5581915974617004,"57":2.3588502407073975,"58":0.6470959186553955,"59":-0.1576223373413086,"60":0.33403608202934265,"61":-0.8370294570922852,"62":1.5581170320510864,"63":-0.22822214663028717,"64":-0.1945013850927353,"65":-1.3292803764343262,"66":0.28831350803375244,"67":2.093226432800293,"68":-1.5807245969772339,"69":-0.24125906825065613,"70":-0.30945467948913574,"71":0.015581497922539711,"72":-0.544089138507843,"73":1.750267505645752,"74":-1.2341911792755127,"75":-1.844122052192688,"76":0.08739107847213745,"77":-0.12217843532562256,"78":0.5859943628311157,"79":-0.7614484429359436,"80":0.8426557183265686,"81":-0.43486061692237854,"82":-1.2255144119262695,"83":-2.119445562362671,"84":2.037903070449829,"85":-2.1319515705108643,"86":0.09051578491926193,"87":-0.03784440830349922,"88":-0.8520358800888062,"89":3.2626986503601074,"90":-1.1553454399108887,"91":-2.2054660320281982,"92":2.3431692123413086,"93":-3.739302635192871,"94":2.420060873031616,"95":-1.2345706224441528,"96":-0.35984930396080017,"97":-0.1447848379611969,"98":-0.27061185240745544,"99":1.0693360567092896,"100":1.6966983079910278,"101":-2.378108024597168,"102":-1.4369738101959229,"103":0.006538518238812685,"104":0.3288388252258301,"105":1.6638036966323853,"106":1.4231234788894653,"107":-0.16517099738121033,"108":4.545711994171143,"109":0.70891273021698,"110":-0.7454541921615601,"111":1.2274253368377686,"112":1.574524164199829,"113":0.3186969459056854,"114":-1.2170954942703247,"115":1.1939834356307983,"116":-3.599017381668091,"117":-0.0102130938321352,"118":-0.6318533420562744,"119":0.411199152469635,"120":0.37763604521751404,"121":0.41946884989738464,"122":-0.6852848529815674,"123":-0.5395320653915405,"124":-0.39541128277778625,"125":-1.3554739952087402,"126":-2.291051149368286,"127":-2.0149431228637695,"128":1.3255336284637451,"129":-0.3214229345321655,"130":-0.2050429880619049,"131":-0.3608957529067993,"132":-0.5768558382987976,"133":-1.3923107385635376,"134":0.11240652948617935}},"19":{"bias":-3.0441439151763916,"weights":{"0":-0.9977160096168518,"1":0.12339463084936142,"2":0.05511953681707382,"3":0.9341958165168762,"4":-0.5104173421859741,"5":0.24571861326694489,"6":-2.224493980407715,"7":1.3968178033828735,"8":-0.34101176261901855,"9":-0.4546605050563812,"10":-0.08501169830560684,"11":-0.5379786491394043,"12":-1.2788268327713013,"13":1.0358339548110962,"14":0.2020898014307022,"15":0.00912684015929699,"16":-0.7082225680351257,"17":-0.9172840714454651,"18":-0.6129009127616882,"19":0.35952985286712646,"20":-0.878159761428833,"21":-0.22133539617061615,"22":-1.285593032836914,"23":-0.15974074602127075,"24":0.8053860068321228,"25":1.8772339820861816,"26":-0.08447892218828201,"27":-2.4619948863983154,"28":0.8773567080497742,"29":1.0909966230392456,"30":-0.6388643980026245,"31":1.4125862121582031,"32":-0.23247791826725006,"33":-0.38074809312820435,"34":-2.165553092956543,"35":0.24618969857692719,"36":0.638897716999054,"37":1.8031461238861084,"38":2.1249096393585205,"39":-1.058685541152954,"40":-0.7875587344169617,"41":0.16068147122859955,"42":0.2529517114162445,"43":-0.41187378764152527,"44":-0.12600751221179962,"45":-1.0058337450027466,"46":2.3950724601745605,"47":-2.033128261566162,"48":0.8918944597244263,"49":-2.094785213470459,"50":0.08926086872816086,"51":-0.060419920831918716,"52":-0.8509392738342285,"53":-0.19642101228237152,"54":-0.48393598198890686,"55":0.227006733417511,"56":0.4816623032093048,"57":1.5518325567245483,"58":0.9508510828018188,"59":-0.1940358579158783,"60":0.5979945063591003,"61":0.706649899482727,"62":-0.1805659681558609,"63":-0.27576395869255066,"64":0.30613428354263306,"65":-0.5844812393188477,"66":0.2097984105348587,"67":-0.49121564626693726,"68":1.2791497707366943,"69":-0.11380001157522202,"70":-0.18991132080554962,"71":-2.5399787425994873,"72":0.7430810332298279,"73":-0.34538915753364563,"74":-1.1740347146987915,"75":-1.4554773569107056,"76":-0.2406073361635208,"77":-0.08837833255529404,"78":-0.14424173533916473,"79":-0.4541212320327759,"80":-0.4037925899028778,"81":-1.260855793952942,"82":-1.4032485485076904,"83":-2.1090102195739746,"84":1.8739598989486694,"85":-1.9831849336624146,"86":1.0132813453674316,"87":0.3893659710884094,"88":-0.25085845589637756,"89":1.6034462451934814,"90":0.004733542446047068,"91":-1.144676923751831,"92":0.7426259517669678,"93":-0.5841652750968933,"94":-0.8244356513023376,"95":-0.4844241142272949,"96":-0.02262437902390957,"97":-0.15093927085399628,"98":-0.49139606952667236,"99":0.95305335521698,"100":1.2561347484588623,"101":-0.8188322186470032,"102":0.05468760430812836,"103":0.03502059355378151,"104":0.10833001136779785,"105":0.8590682148933411,"106":0.18969757854938507,"107":-0.18037156760692596,"108":3.257085084915161,"109":0.33409321308135986,"110":0.16205628216266632,"111":1.5468509197235107,"112":-1.1073551177978516,"113":0.28679120540618896,"114":-0.12236780673265457,"115":-0.5287876725196838,"116":-0.7925294041633606,"117":0.028148561716079712,"118":-0.2921040654182434,"119":-1.9729207754135132,"120":0.3353440463542938,"121":-1.3317584991455078,"122":0.8777241706848145,"123":-0.06326737999916077,"124":0.18472494184970856,"125":0.4160919487476349,"126":-1.9698076248168945,"127":-0.37270575761795044,"128":-0.18880081176757812,"129":0.17776449024677277,"130":-0.0243931096047163,"131":-0.21757760643959045,"132":-1.661615014076233,"133":-0.17819520831108093,"134":0.18546923995018005}},"20":{"bias":-2.7200961112976074,"weights":{"0":2.645190477371216,"1":-0.704103410243988,"2":-0.39222607016563416,"3":-0.7912940382957458,"4":-0.1375243365764618,"5":-0.8825955390930176,"6":-0.7021159529685974,"7":-0.2565087676048279,"8":2.22367000579834,"9":-0.16952697932720184,"10":-0.8728194236755371,"11":-0.7038282752037048,"12":-0.36343735456466675,"13":-0.3474610447883606,"14":1.3783153295516968,"15":-0.18982185423374176,"16":-0.2911424934864044,"17":-0.5891016721725464,"18":1.783891201019287,"19":-0.4083957374095917,"20":-1.2381417751312256,"21":-0.029072444885969162,"22":0.433297723531723,"23":-0.1684882491827011,"24":-0.7196173071861267,"25":-0.08698701113462448,"26":-1.0303114652633667,"27":1.1370506286621094,"28":0.4229275584220886,"29":0.6586974859237671,"30":-1.4965733289718628,"31":-1.7610163688659668,"32":-1.183735966682434,"33":0.8344141840934753,"34":-1.3022934198379517,"35":-1.6609896421432495,"36":2.357135772705078,"37":0.03841952607035637,"38":-1.3141497373580933,"39":0.9179157614707947,"40":-0.3632412850856781,"41":0.275839626789093,"42":-0.3334085941314697,"43":0.03138638660311699,"44":0.24331144988536835,"45":-0.9310479164123535,"46":2.522960901260376,"47":-0.361311674118042,"48":-0.5703020095825195,"49":0.28576207160949707,"50":-0.910510241985321,"51":0.073499396443367,"52":-0.4969436228275299,"53":-0.2763218879699707,"54":2.3277409076690674,"55":-0.8832240104675293,"56":-0.8846375346183777,"57":0.4272693991661072,"58":1.1865570545196533,"59":0.1084897369146347,"60":-0.361108660697937,"61":-1.1936184167861938,"62":-1.4610036611557007,"63":-0.06502576917409897,"64":-0.8613549470901489,"65":-0.329675555229187,"66":0.3108236789703369,"67":1.5494585037231445,"68":-0.9764282703399658,"69":0.1302063763141632,"70":0.4051787555217743,"71":-1.738759994506836,"72":-2.088500738143921,"73":0.7096327543258667,"74":0.4897761940956116,"75":0.15646862983703613,"76":0.07481301575899124,"77":0.2657645642757416,"78":-0.2835116386413574,"79":-0.0008819218492135406,"80":0.17836885154247284,"81":0.07650326192378998,"82":1.60971999168396,"83":-0.04571852460503578,"84":2.4085819721221924,"85":0.5117713212966919,"86":-0.20911170542240143,"87":-0.08943869918584824,"88":-0.47710609436035156,"89":-0.8828725814819336,"90":-0.4149375557899475,"91":0.9007184505462646,"92":-1.544280767440796,"93":-0.499603271484375,"94":-2.028519868850708,"95":0.3207603693008423,"96":0.08282311260700226,"97":-0.13517479598522186,"98":-0.7704815864562988,"99":1.1983616352081299,"100":-1.0352007150650024,"101":0.5377867817878723,"102":-1.522066593170166,"103":0.2826385796070099,"104":-0.25492629408836365,"105":-1.6440221071243286,"106":0.6522262096405029,"107":-0.03731798380613327,"108":0.03951958566904068,"109":-0.19992761313915253,"110":0.4143992066383362,"111":-0.22814704477787018,"112":-0.8354640007019043,"113":0.02112598717212677,"114":0.001962418667972088,"115":-0.5751112103462219,"116":0.1938852071762085,"117":-0.17783509194850922,"118":0.6261510252952576,"119":0.8709888458251953,"120":-0.5944358706474304,"121":-0.08848964422941208,"122":1.3706742525100708,"123":0.08436249941587448,"124":0.3182847499847412,"125":-1.05316162109375,"126":-0.7499865889549255,"127":-1.4960362911224365,"128":-0.015287915244698524,"129":-0.07845846563577652,"130":-0.10001514106988907,"131":-0.24418914318084717,"132":-0.39672577381134033,"133":-0.3876064419746399,"134":0.12860910594463348}},"21":{"bias":-3.1814510822296143,"weights":{"0":1.4737358093261719,"1":3.124126672744751,"2":2.2872772216796875,"3":-2.514155626296997,"4":-3.1012818813323975,"5":0.5380050539970398,"6":0.5209894776344299,"7":1.6496059894561768,"8":-0.6596560478210449,"9":-1.89517343044281,"10":0.16928818821907043,"11":-4.32952880859375,"12":2.4154555797576904,"13":-2.564995765686035,"14":-1.5962600708007812,"15":-0.819782018661499,"16":0.011622573249042034,"17":-1.7577464580535889,"18":0.9802942872047424,"19":1.1050843000411987,"20":-0.17264612019062042,"21":3.479706287384033,"22":0.024000708013772964,"23":-0.4370448589324951,"24":-2.4410459995269775,"25":2.9342281818389893,"26":-1.8416471481323242,"27":-3.0245096683502197,"28":1.1665778160095215,"29":2.543030023574829,"30":-2.9073803424835205,"31":-0.3315890431404114,"32":3.3602004051208496,"33":-1.4068588018417358,"34":-1.1920260190963745,"35":-2.004497766494751,"36":-0.9092319011688232,"37":-1.1419767141342163,"38":-4.320069789886475,"39":2.9878485202789307,"40":3.140291452407837,"41":0.9528079628944397,"42":-1.7527310848236084,"43":1.0659736394882202,"44":3.048809051513672,"45":2.450204372406006,"46":-0.484257310628891,"47":-2.3906047344207764,"48":1.6350276470184326,"49":-2.66607928276062,"50":-0.16525624692440033,"51":-0.753579318523407,"52":0.7975828647613525,"53":-0.2656249403953552,"54":-1.6971644163131714,"55":1.3686574697494507,"56":0.7943336367607117,"57":-0.5857509970664978,"58":-0.7022048830986023,"59":-1.3062739372253418,"60":4.944169521331787,"61":-0.4793417155742645,"62":-0.5505390763282776,"63":-0.32784050703048706,"64":-0.6912457346916199,"65":-2.960111141204834,"66":3.355768918991089,"67":2.3943378925323486,"68":2.1111087799072266,"69":-0.37111327052116394,"70":-0.34257781505584717,"71":-1.0671955347061157,"72":-3.155888795852661,"73":-2.3306427001953125,"74":-1.01210618019104,"75":-0.8622673749923706,"76":0.06624075770378113,"77":-0.1138845756649971,"78":1.7933017015457153,"79":-2.501997232437134,"80":0.1407281905412674,"81":-2.8947746753692627,"82":-1.7432891130447388,"83":-1.6949278116226196,"84":-0.38887760043144226,"85":-1.6101924180984497,"86":1.1181931495666504,"87":0.40355193614959717,"88":-0.5882468819618225,"89":-2.7762744426727295,"90":-1.3564269542694092,"91":2.391216993331909,"92":5.133935928344727,"93":2.248722553253174,"94":-3.5197641849517822,"95":-0.8527974486351013,"96":0.16788990795612335,"97":0.07602919638156891,"98":7.272314071655273,"99":-3.2584915161132812,"100":-2.0119547843933105,"101":1.3440274000167847,"102":1.17612886428833,"103":0.7928146719932556,"104":-0.10863975435495377,"105":0.4058557450771332,"106":-2.6723856925964355,"107":0.191274031996727,"108":1.271309733390808,"109":0.3895035982131958,"110":-0.3064650297164917,"111":-3.1468088626861572,"112":-1.742604374885559,"113":3.5637810230255127,"114":-1.0337713956832886,"115":0.7640998363494873,"116":-0.5286725163459778,"117":-0.03162036091089249,"118":0.6218311786651611,"119":-0.22090700268745422,"120":1.1463872194290161,"121":0.6210107207298279,"122":2.096754312515259,"123":-0.06808435171842575,"124":-0.8833475112915039,"125":-2.6615655422210693,"126":-1.1832915544509888,"127":-1.2215534448623657,"128":-0.9260790944099426,"129":0.09011939913034439,"130":-0.11901717633008957,"131":-0.1624315232038498,"132":0.04145360365509987,"133":0.8492540121078491,"134":0.12626759707927704}},"22":{"bias":-3.1916699409484863,"weights":{"0":-2.890727996826172,"1":0.3278731107711792,"2":0.9064340591430664,"3":-0.34651729464530945,"4":-2.884185314178467,"5":-0.6890899538993835,"6":-1.0809913873672485,"7":-0.434653103351593,"8":2.545959949493408,"9":0.4826984405517578,"10":-0.935620129108429,"11":-1.5146247148513794,"12":-0.2813698947429657,"13":0.6253884434700012,"14":-0.5391243100166321,"15":-0.7043927311897278,"16":0.359677255153656,"17":-1.2743159532546997,"18":3.051328182220459,"19":-1.3972643613815308,"20":-0.13443993031978607,"21":0.33990418910980225,"22":-0.7836908102035522,"23":-0.020958660170435905,"24":2.407658338546753,"25":0.24827434122562408,"26":1.227838397026062,"27":-0.5189002752304077,"28":0.06912767142057419,"29":-1.567169189453125,"30":-0.3433132767677307,"31":1.7008121013641357,"32":-0.6550803780555725,"33":-2.360095739364624,"34":1.3578280210494995,"35":-1.0231573581695557,"36":0.762015700340271,"37":-0.5858168601989746,"38":-1.2031502723693848,"39":-1.2029296159744263,"40":1.1541041135787964,"41":-3.030430555343628,"42":-0.537466287612915,"43":0.28090620040893555,"44":0.729536235332489,"45":0.6493857502937317,"46":1.5691611766815186,"47":1.0426275730133057,"48":0.09908488392829895,"49":0.09653950482606888,"50":0.23834460973739624,"51":0.15585380792617798,"52":0.06287258863449097,"53":-0.6857075691223145,"54":-3.224977970123291,"55":1.9450525045394897,"56":-0.3286590278148651,"57":0.8491196632385254,"58":1.5571882724761963,"59":-0.2747761011123657,"60":-0.9767847657203674,"61":-1.1669371128082275,"62":-1.474242091178894,"63":-0.0987555980682373,"64":0.1755513846874237,"65":2.0654144287109375,"66":-2.89640212059021,"67":0.5840535759925842,"68":-0.8731185793876648,"69":0.9803888201713562,"70":0.4003641903400421,"71":-0.9706806540489197,"72":1.3399097919464111,"73":0.12278930097818375,"74":-0.4873465895652771,"75":-1.01034414768219,"76":-0.21168716251850128,"77":-0.26092299818992615,"78":0.47793006896972656,"79":1.1520029306411743,"80":0.07319241017103195,"81":0.32174745202064514,"82":-0.8900976181030273,"83":-0.5765447616577148,"84":1.8120657205581665,"85":-0.1931268572807312,"86":-0.46379777789115906,"87":-0.9119969010353088,"88":-0.2692911624908447,"89":-1.826245903968811,"90":-0.4450278878211975,"91":2.7653207778930664,"92":0.473428875207901,"93":0.4518805742263794,"94":-2.0537109375,"95":-0.7398157119750977,"96":-0.19490870833396912,"97":0.08725988119840622,"98":-1.8148571252822876,"99":0.37848609685897827,"100":-1.5473936796188354,"101":3.550276756286621,"102":-0.29267969727516174,"103":-0.12956851720809937,"104":-0.04987642914056778,"105":-1.1470545530319214,"106":0.46366196870803833,"107":0.17710444331169128,"108":-1.3508683443069458,"109":-0.8134228587150574,"110":0.15273597836494446,"111":1.6486231088638306,"112":-2.604865312576294,"113":0.021530747413635254,"114":0.029993627220392227,"115":-0.7172309756278992,"116":-0.7969204187393188,"117":0.12977710366249084,"118":0.07728175818920135,"119":1.367430567741394,"120":-0.7125707864761353,"121":-1.6201870441436768,"122":0.6848517060279846,"123":-0.23034676909446716,"124":0.09842631220817566,"125":-1.1767290830612183,"126":-1.1962417364120483,"127":2.506580114364624,"128":-0.8821262121200562,"129":-0.06248464062809944,"130":0.07330061495304108,"131":0.00573487626388669,"132":1.2785059213638306,"133":1.7148452997207642,"134":0.06414751708507538}},"23":{"bias":-3.5733044147491455,"weights":{"0":-2.770510196685791,"1":-0.19370417296886444,"2":-0.9936839938163757,"3":-4.118267059326172,"4":-2.319322109222412,"5":1.4084479808807373,"6":2.2196128368377686,"7":-0.924834132194519,"8":0.0972849577665329,"9":-0.24459293484687805,"10":-0.19494472444057465,"11":2.919074773788452,"12":2.0790815353393555,"13":-2.1482014656066895,"14":-1.1281166076660156,"15":0.3894861340522766,"16":0.030643310397863388,"17":1.1550695896148682,"18":2.076042652130127,"19":0.9316259026527405,"20":-0.0160522423684597,"21":1.227001428604126,"22":0.877846360206604,"23":-0.28392842411994934,"24":0.3385380506515503,"25":-0.3581898808479309,"26":-2.96840763092041,"27":-0.32889243960380554,"28":-0.6871970891952515,"29":-1.8473246097564697,"30":-0.6026386022567749,"31":0.7169570326805115,"32":-1.020256519317627,"33":3.7302558422088623,"34":0.12035857141017914,"35":-3.1078882217407227,"36":0.48919400572776794,"37":-1.3163330554962158,"38":3.1624209880828857,"39":-1.26161527633667,"40":-1.595654845237732,"41":-2.462692975997925,"42":-0.6822600364685059,"43":0.3017793893814087,"44":2.176520586013794,"45":1.123720407485962,"46":1.3951226472854614,"47":2.0673656463623047,"48":-1.6781489849090576,"49":-0.5735869407653809,"50":-0.17027193307876587,"51":-1.4961520433425903,"52":0.6202050447463989,"53":-0.517356276512146,"54":1.7981544733047485,"55":4.019773006439209,"56":-0.8399293422698975,"57":1.9060883522033691,"58":-1.8905891180038452,"59":-0.7158403992652893,"60":1.2745736837387085,"61":0.521638035774231,"62":-3.176008462905884,"63":-0.1444205790758133,"64":1.1564552783966064,"65":-2.329312801361084,"66":-1.897078275680542,"67":-3.3325164318084717,"68":1.8976857662200928,"69":0.3623606562614441,"70":-0.7548511624336243,"71":0.06251227110624313,"72":-0.8178188800811768,"73":2.154395341873169,"74":0.15029875934123993,"75":-1.3336315155029297,"76":-0.16465918719768524,"77":0.003456502454355359,"78":-1.4222685098648071,"79":0.08194906264543533,"80":-0.046846553683280945,"81":-2.2865793704986572,"82":1.4137904644012451,"83":-2.832606792449951,"84":1.0748356580734253,"85":0.8584174513816833,"86":-0.4670726954936981,"87":-0.7382429838180542,"88":-0.6113981604576111,"89":-2.60294771194458,"90":0.053566209971904755,"91":1.480313777923584,"92":-1.785144567489624,"93":-0.24161818623542786,"94":-1.1231441497802734,"95":-0.7878381013870239,"96":2.427769660949707,"97":0.12684768438339233,"98":0.29808980226516724,"99":-0.2624386250972748,"100":2.3182566165924072,"101":-0.7369537949562073,"102":-0.044605374336242676,"103":-0.188835009932518,"104":-0.2894219160079956,"105":1.7599679231643677,"106":0.3345469832420349,"107":0.11173170804977417,"108":3.5627188682556152,"109":2.2099380493164062,"110":-0.2812215983867645,"111":1.7380626201629639,"112":0.8383603692054749,"113":0.6797130107879639,"114":0.10096906125545502,"115":-0.7864184379577637,"116":-4.053313732147217,"117":-0.12055160850286484,"118":-0.950381338596344,"119":2.573270797729492,"120":-0.1426512897014618,"121":-1.7062289714813232,"122":-0.994535505771637,"123":-0.33971118927001953,"124":-0.3005397915840149,"125":-2.3722527027130127,"126":-1.1468952894210815,"127":-0.36547064781188965,"128":-0.3720749318599701,"129":0.09624022245407104,"130":-0.03979622572660446,"131":0.3019942045211792,"132":-0.9780703186988831,"133":-1.1082381010055542,"134":-0.11603062599897385}},"24":{"bias":-4.965649127960205,"weights":{"0":-2.0164220333099365,"1":-0.06040068715810776,"2":-1.5034741163253784,"3":-0.5314621925354004,"4":1.446243166923523,"5":-0.46984219551086426,"6":-1.4158121347427368,"7":3.447010040283203,"8":0.37590134143829346,"9":-1.8184113502502441,"10":0.06978309899568558,"11":3.6759278774261475,"12":3.06681489944458,"13":-1.5317317247390747,"14":-0.20918644964694977,"15":0.43939459323883057,"16":-0.001168165705166757,"17":-2.890765428543091,"18":-2.0861945152282715,"19":0.5873458981513977,"20":0.427805095911026,"21":-1.3527628183364868,"22":-1.6203199625015259,"23":0.08925843983888626,"24":-0.7667497992515564,"25":0.25692132115364075,"26":-0.49949052929878235,"27":-0.6975508332252502,"28":-1.0659643411636353,"29":2.3974246978759766,"30":-1.0693185329437256,"31":-2.770019292831421,"32":-0.6597344279289246,"33":-2.337966203689575,"34":-1.2006906270980835,"35":-1.3833625316619873,"36":-0.6239185929298401,"37":2.9157772064208984,"38":0.8329726457595825,"39":0.8347925543785095,"40":-1.110947847366333,"41":1.6718881130218506,"42":0.07082764804363251,"43":-0.7864943742752075,"44":1.067759394645691,"45":-1.1874760389328003,"46":-2.279165029525757,"47":0.9398531317710876,"48":1.1547099351882935,"49":-0.670644223690033,"50":0.33566877245903015,"51":1.9660500288009644,"52":-0.8774125576019287,"53":-0.9783792495727539,"54":-2.6808347702026367,"55":0.4445739984512329,"56":3.6758322715759277,"57":-0.967394232749939,"58":0.12929153442382812,"59":-1.0679011344909668,"60":-1.8673975467681885,"61":0.0042143394239246845,"62":-1.7945032119750977,"63":0.1373114138841629,"64":-2.0452725887298584,"65":3.275843858718872,"66":-0.6313539743423462,"67":0.9250941276550293,"68":0.8286815285682678,"69":0.050008341670036316,"70":0.08337737619876862,"71":0.032579805701971054,"72":-2.691352605819702,"73":0.6827567219734192,"74":0.9722636342048645,"75":0.35237398743629456,"76":0.19885310530662537,"77":-0.47870132327079773,"78":-0.9137226343154907,"79":-0.16473247110843658,"80":-0.8420464396476746,"81":-0.9567789435386658,"82":-1.883038878440857,"83":-2.1080477237701416,"84":2.5066769123077393,"85":3.2095067501068115,"86":-0.3215729892253876,"87":0.3675423860549927,"88":0.49319347739219666,"89":0.957157552242279,"90":-0.14944469928741455,"91":-0.13115978240966797,"92":-0.3089577853679657,"93":-1.4643588066101074,"94":-0.12792585790157318,"95":-1.476074457168579,"96":-1.3404234647750854,"97":0.009183757938444614,"98":-1.1372532844543457,"99":0.9532160758972168,"100":-1.0178639888763428,"101":-1.3245275020599365,"102":-2.1761958599090576,"103":0.040290769189596176,"104":-0.3050530254840851,"105":2.075197219848633,"106":0.04644361883401871,"107":-0.04892319440841675,"108":3.444125175476074,"109":-0.5398353338241577,"110":-0.8259826302528381,"111":-0.8580610156059265,"112":2.385528802871704,"113":-1.62398099899292,"114":-0.2889416217803955,"115":-0.2802891135215759,"116":1.2905528545379639,"117":-0.17014704644680023,"118":0.053223613649606705,"119":-0.48375988006591797,"120":-0.297361820936203,"121":-1.207126498222351,"122":-1.1722266674041748,"123":-1.0583043098449707,"124":-0.04668470099568367,"125":-0.24234716594219208,"126":-0.5415675640106201,"127":-1.6326284408569336,"128":-1.2463027238845825,"129":-0.3972974419593811,"130":0.019389590248465538,"131":-0.7445989847183228,"132":0.3125481605529785,"133":0.5624396204948425,"134":0.028791408985853195}},"25":{"bias":2.0436666011810303,"weights":{"0":3.2666075229644775,"1":1.2949405908584595,"2":0.10834969580173492,"3":-2.731053113937378,"4":3.495405435562134,"5":-1.626612663269043,"6":-1.4410762786865234,"7":-3.12638258934021,"8":3.559143543243408,"9":-0.5298414826393127,"10":5.2083563804626465,"11":-0.6294371485710144,"12":-2.7063419818878174,"13":0.5201210975646973,"14":-2.5502753257751465,"15":-0.8290181756019592,"16":0.21364600956439972,"17":4.408934116363525,"18":4.122105121612549,"19":0.8840652108192444,"20":-5.166682243347168,"21":-3.2426846027374268,"22":-1.0187536478042603,"23":-0.16362729668617249,"24":3.56048321723938,"25":-0.040339212864637375,"26":-1.854720950126648,"27":-1.4489691257476807,"28":-3.314873218536377,"29":1.417614221572876,"30":-3.723034620285034,"31":-1.2183974981307983,"32":0.5616649985313416,"33":-1.558736801147461,"34":1.851375937461853,"35":-3.3223819732666016,"36":1.0287398099899292,"37":-0.4890820384025574,"38":3.716022253036499,"39":1.1173456907272339,"40":-1.0183510780334473,"41":1.4451242685317993,"42":-0.6928648948669434,"43":2.259791374206543,"44":-3.15781569480896,"45":2.072695016860962,"46":-1.2757097482681274,"47":4.83521842956543,"48":-1.5470340251922607,"49":-2.2351179122924805,"50":-0.6864435076713562,"51":0.023961089551448822,"52":3.3086390495300293,"53":4.884844779968262,"54":4.554877758026123,"55":0.5281375646591187,"56":-2.121248483657837,"57":-1.050389289855957,"58":-0.44881588220596313,"59":1.0674604177474976,"60":-0.6990382671356201,"61":0.5060850381851196,"62":3.376955509185791,"63":-1.3921130895614624,"64":2.207503318786621,"65":1.67624831199646,"66":1.4883391857147217,"67":6.640913963317871,"68":-0.16627657413482666,"69":-0.35922637581825256,"70":-0.3253367841243744,"71":3.044952154159546,"72":-3.8710272312164307,"73":-0.8358131051063538,"74":-1.8758764266967773,"75":-4.611282825469971,"76":-0.8375157713890076,"77":-1.7318745851516724,"78":2.5199849605560303,"79":-4.588904857635498,"80":0.5804612636566162,"81":-1.6727482080459595,"82":2.2894675731658936,"83":0.210163876414299,"84":-1.0891504287719727,"85":0.8278318047523499,"86":-0.06292379647493362,"87":2.633796215057373,"88":0.6259348392486572,"89":0.35702240467071533,"90":0.9237616658210754,"91":-1.373591423034668,"92":2.1407196521759033,"93":-2.1087942123413086,"94":-4.222689151763916,"95":-2.978241443634033,"96":-2.747777223587036,"97":-0.19297949969768524,"98":-2.658952474594116,"99":1.250099778175354,"100":6.492697238922119,"101":1.898763656616211,"102":-3.6611087322235107,"103":-0.14954906702041626,"104":0.14915731549263,"105":2.2860186100006104,"106":3.1588680744171143,"107":0.023305552080273628,"108":4.978302001953125,"109":-0.20984166860580444,"110":-2.5072484016418457,"111":-0.08360133320093155,"112":0.830386757850647,"113":-1.6681135892868042,"114":-0.3842974007129669,"115":1.7553240060806274,"116":2.8898251056671143,"117":-0.10985417664051056,"118":-0.4324319064617157,"119":2.595820426940918,"120":-0.27560675144195557,"121":-1.8022022247314453,"122":-2.7765696048736572,"123":-0.6415706276893616,"124":-0.8336652517318726,"125":-2.07542085647583,"126":1.8191076517105103,"127":0.1626913845539093,"128":-0.5501404404640198,"129":-0.20544564723968506,"130":-0.6281183958053589,"131":-1.5877941846847534,"132":2.770077705383301,"133":1.1050541400909424,"134":0.17537370324134827}},"26":{"bias":-3.8879096508026123,"weights":{"0":-0.47776809334754944,"1":-0.8737245798110962,"2":-1.5251985788345337,"3":1.406510591506958,"4":-1.7787315845489502,"5":1.7207523584365845,"6":-1.5853475332260132,"7":-2.5444984436035156,"8":-2.0329060554504395,"9":-2.0525949001312256,"10":-0.04093817248940468,"11":0.6927161812782288,"12":1.3712328672409058,"13":0.10675005614757538,"14":2.480332851409912,"15":-1.0279414653778076,"16":-0.4685461223125458,"17":2.217857599258423,"18":0.8975182175636292,"19":3.5552268028259277,"20":-3.4072015285491943,"21":2.9268009662628174,"22":-1.9594697952270508,"23":-0.10788661241531372,"24":-1.4504450559616089,"25":0.33141857385635376,"26":-1.333272099494934,"27":-4.244623184204102,"28":-1.8337520360946655,"29":-0.9780729413032532,"30":-3.4846837520599365,"31":-0.2926672101020813,"32":-1.206339716911316,"33":4.558536052703857,"34":0.7328439950942993,"35":1.209364414215088,"36":0.8679678440093994,"37":-1.1050283908843994,"38":-2.62480092048645,"39":-3.572669267654419,"40":-5.3001508712768555,"41":1.8214305639266968,"42":-0.8588381409645081,"43":-0.6895787119865417,"44":-0.5669885873794556,"45":2.0530240535736084,"46":-2.004042387008667,"47":2.559579610824585,"48":2.3130664825439453,"49":2.957552671432495,"50":0.13572946190834045,"51":2.42364501953125,"52":-0.8050755858421326,"53":3.044008731842041,"54":0.11303158104419708,"55":-1.8067604303359985,"56":-1.7052394151687622,"57":2.8987035751342773,"58":0.7313014268875122,"59":0.12128829210996628,"60":-0.8452023863792419,"61":1.2051295042037964,"62":-4.529941082000732,"63":-0.1120779886841774,"64":-0.654455840587616,"65":-0.47981753945350647,"66":1.5516095161437988,"67":-3.7768948078155518,"68":-5.545749664306641,"69":-0.8227720856666565,"70":-0.29855456948280334,"71":2.6903412342071533,"72":3.1243157386779785,"73":1.7944788932800293,"74":2.5342836380004883,"75":-2.783834218978882,"76":-0.22790645062923431,"77":-0.32816407084465027,"78":0.028908472508192062,"79":2.603823184967041,"80":0.09825243800878525,"81":-1.881000280380249,"82":-0.8358571529388428,"83":-2.407335042953491,"84":-0.6617781519889832,"85":-0.6909838914871216,"86":-1.271237850189209,"87":-2.5504980087280273,"88":-0.0442882776260376,"89":1.9286006689071655,"90":-0.48069125413894653,"91":-0.9607088565826416,"92":-0.04994887113571167,"93":1.0125023126602173,"94":3.09830379486084,"95":0.07633240520954132,"96":0.4246915578842163,"97":-0.1347682625055313,"98":-1.4217222929000854,"99":-0.5629143714904785,"100":0.3483854830265045,"101":0.019562140107154846,"102":1.2791675329208374,"103":0.5061631798744202,"104":0.7571015954017639,"105":0.8346864581108093,"106":-1.0809929370880127,"107":0.12470124661922455,"108":5.677492618560791,"109":-0.43253421783447266,"110":-0.869749903678894,"111":1.782339334487915,"112":0.48472973704338074,"113":-0.12418675422668457,"114":-1.5566067695617676,"115":-1.333317518234253,"116":-0.19019147753715515,"117":0.13530275225639343,"118":-1.0576032400131226,"119":-0.06473258137702942,"120":0.450986385345459,"121":-0.4898175895214081,"122":-2.4148716926574707,"123":-0.6453118324279785,"124":-0.23213668167591095,"125":-3.075007438659668,"126":-0.16378062963485718,"127":3.3956246376037598,"128":-1.4641098976135254,"129":0.11795724183320999,"130":-0.3233858644962311,"131":0.7554097175598145,"132":-0.7712122201919556,"133":-2.705904722213745,"134":-0.1475316882133484}},"27":{"bias":-2.409914493560791,"weights":{"0":-1.5672672986984253,"1":-1.2357466220855713,"2":-0.7972300052642822,"3":2.1086931228637695,"4":-3.0991947650909424,"5":0.9137583374977112,"6":-0.2381640374660492,"7":0.04189787805080414,"8":-0.5284086465835571,"9":1.2374380826950073,"10":-0.8564043641090393,"11":-0.0005875367787666619,"12":0.07375527173280716,"13":-0.5309624075889587,"14":1.2913508415222168,"15":-0.083443783223629,"16":0.4994770288467407,"17":0.7393578886985779,"18":-0.7800571918487549,"19":-2.492384195327759,"20":0.08202803879976273,"21":1.0716580152511597,"22":-0.6155871748924255,"23":0.22639165818691254,"24":-0.17382359504699707,"25":0.2634137272834778,"26":1.9238206148147583,"27":1.2601984739303589,"28":0.7243053913116455,"29":0.5682949423789978,"30":-0.7656379342079163,"31":-0.0010323001770302653,"32":-0.2302415668964386,"33":0.47114625573158264,"34":-0.44646337628364563,"35":-3.1910712718963623,"36":0.047723978757858276,"37":-1.4793235063552856,"38":-2.3488073348999023,"39":-0.5780743360519409,"40":-1.7938868999481201,"41":0.3741527199745178,"42":0.02883298508822918,"43":-0.24431538581848145,"44":1.7286521196365356,"45":-0.6327937841415405,"46":-0.08506511151790619,"47":1.869353175163269,"48":0.14682330191135406,"49":0.8185732364654541,"50":0.24478664994239807,"51":0.06999480724334717,"52":-0.08946793526411057,"53":-0.13956904411315918,"54":-0.9035990238189697,"55":0.45469528436660767,"56":-1.184743046760559,"57":0.21624769270420074,"58":-0.6759616136550903,"59":0.3515697419643402,"60":0.8194992542266846,"61":0.059485431760549545,"62":0.6553642153739929,"63":0.4113605320453644,"64":0.4659990072250366,"65":0.19960317015647888,"66":-1.9525796175003052,"67":0.4220666289329529,"68":-0.4391915798187256,"69":-0.6970683932304382,"70":0.16452527046203613,"71":-0.4284079372882843,"72":0.03782648220658302,"73":0.6997756361961365,"74":-1.5991240739822388,"75":0.04652677848935127,"76":0.5258931517601013,"77":0.16267676651477814,"78":-0.6628724336624146,"79":0.202521413564682,"80":0.260650098323822,"81":0.3222517669200897,"82":1.059122085571289,"83":0.7773517966270447,"84":-0.03869808837771416,"85":0.013484847731888294,"86":1.060050129890442,"87":-0.43515369296073914,"88":-0.46237409114837646,"89":-0.1913231909275055,"90":0.5228087306022644,"91":-1.8299766778945923,"92":-2.606757879257202,"93":-0.13163380324840546,"94":0.773536741733551,"95":-0.4069051742553711,"96":0.9958024024963379,"97":0.0646602138876915,"98":-0.9625557065010071,"99":-2.0865676403045654,"100":0.24798916280269623,"101":0.4116147458553314,"102":0.06040598452091217,"103":0.3169883191585541,"104":0.26019132137298584,"105":1.5481311082839966,"106":-0.9322665333747864,"107":0.12121759355068207,"108":-0.6889894604682922,"109":-0.048705581575632095,"110":0.13443826138973236,"111":-1.768703579902649,"112":-0.47037988901138306,"113":0.4164034426212311,"114":0.1761232614517212,"115":-0.28460752964019775,"116":0.3864903450012207,"117":0.028484290465712547,"118":1.3532352447509766,"119":-0.32712236046791077,"120":-0.051519785076379776,"121":-1.271775245666504,"122":-0.7833242416381836,"123":-0.22262383997440338,"124":0.004635993391275406,"125":-2.153568744659424,"126":0.5460377335548401,"127":-1.245368242263794,"128":0.22724127769470215,"129":-0.1828969120979309,"130":0.15025857090950012,"131":0.4721428453922272,"132":1.3002721071243286,"133":1.1590831279754639,"134":0.1925150752067566}},"28":{"bias":-3.535682201385498,"weights":{"0":1.4369571208953857,"1":-1.3865152597427368,"2":2.4717893600463867,"3":-1.9030790328979492,"4":-1.1257898807525635,"5":-1.0046168565750122,"6":-1.1531087160110474,"7":2.1604909896850586,"8":-2.550766944885254,"9":1.8445886373519897,"10":-0.0697016790509224,"11":-3.2565650939941406,"12":-1.5979827642440796,"13":-0.9923014044761658,"14":-1.1117303371429443,"15":0.5170107483863831,"16":-0.5216399431228638,"17":3.5878312587738037,"18":-0.8549329042434692,"19":0.21087025105953217,"20":-1.8768069744110107,"21":0.5793774127960205,"22":0.47497284412384033,"23":-0.12443826347589493,"24":-0.027793053537607193,"25":-1.2574506998062134,"26":3.134758949279785,"27":-0.8337829113006592,"28":-0.6970857381820679,"29":0.8112210035324097,"30":0.8058825135231018,"31":-1.851059079170227,"32":1.0835024118423462,"33":0.026628220453858376,"34":-0.7538421750068665,"35":-2.850822687149048,"36":0.44402655959129333,"37":-0.482088565826416,"38":-3.251157522201538,"39":-2.618406295776367,"40":2.264251708984375,"41":0.4195508360862732,"42":1.6773936748504639,"43":-0.5558079481124878,"44":-2.072193145751953,"45":-1.4936184883117676,"46":-2.138754367828369,"47":1.9209201335906982,"48":3.4018869400024414,"49":2.3092565536499023,"50":0.23585201799869537,"51":0.5627939701080322,"52":-0.8200553059577942,"53":0.4939773678779602,"54":-0.08725716173648834,"55":-1.6912872791290283,"56":-1.7394804954528809,"57":1.1761486530303955,"58":0.9184197783470154,"59":0.6068142056465149,"60":1.8068292140960693,"61":1.7094708681106567,"62":1.7639644145965576,"63":0.997218132019043,"64":0.5047493577003479,"65":-1.689396619796753,"66":-2.1107146739959717,"67":-4.018737316131592,"68":1.012410283088684,"69":0.4493758976459503,"70":0.3669118881225586,"71":1.8978400230407715,"72":-1.4844164848327637,"73":0.2716221809387207,"74":-0.9955703020095825,"75":-2.9062561988830566,"76":0.6769663095474243,"77":0.11940621584653854,"78":0.877366304397583,"79":-1.973618507385254,"80":-0.48841241002082825,"81":-0.4350031912326813,"82":0.1427721083164215,"83":-1.4847506284713745,"84":1.751497745513916,"85":0.70948725938797,"86":-0.8089253306388855,"87":0.8028940558433533,"88":-0.13646279275417328,"89":1.49855375289917,"90":0.9428995251655579,"91":0.716217041015625,"92":-1.2726776599884033,"93":-1.6468217372894287,"94":-3.356502056121826,"95":0.27558988332748413,"96":0.49173498153686523,"97":0.031257130205631256,"98":3.3655190467834473,"99":-1.469913363456726,"100":1.2698677778244019,"101":0.9099010229110718,"102":-3.24998140335083,"103":0.2446552962064743,"104":0.5027914047241211,"105":-1.553443193435669,"106":-1.671628713607788,"107":-0.07567635178565979,"108":-0.3952070474624634,"109":-0.21213886141777039,"110":0.017102470621466637,"111":-0.1791408807039261,"112":1.3344651460647583,"113":1.8780626058578491,"114":-1.0702097415924072,"115":0.34949982166290283,"116":-0.46960341930389404,"117":0.17864713072776794,"118":-0.7711193561553955,"119":1.462066411972046,"120":-1.0501928329467773,"121":-2.093824863433838,"122":1.2627097368240356,"123":0.07591695338487625,"124":0.2520814836025238,"125":-0.30102264881134033,"126":-3.063094139099121,"127":-1.7876672744750977,"128":-0.39988628029823303,"129":-0.5049254894256592,"130":0.15649206936359406,"131":0.12218961119651794,"132":-0.7513583302497864,"133":2.0731735229492188,"134":0.056956201791763306}},"29":{"bias":-3.3170011043548584,"weights":{"0":1.759972333908081,"1":-0.9342000484466553,"2":0.17778721451759338,"3":-2.7470483779907227,"4":1.0853265523910522,"5":-0.6656035780906677,"6":-0.2726465165615082,"7":-0.8261540532112122,"8":0.22723260521888733,"9":-0.6336154341697693,"10":-0.1721641719341278,"11":-1.1261491775512695,"12":2.440500497817993,"13":-0.008647563867270947,"14":0.0020275793503969908,"15":-0.03410790488123894,"16":-0.6704404950141907,"17":-0.7745428085327148,"18":1.2101534605026245,"19":-1.1170521974563599,"20":0.047216854989528656,"21":0.010375901125371456,"22":-1.2244693040847778,