{"sizes":[135,64,32,1],"layers":[{"0":{},"1":{},"2":{},"3":{},"4":{},"5":{},"6":{},"7":{},"8":{},"9":{},"10":{},"11":{},"12":{},"13":{},"14":{},"15":{},"16":{},"17":{},"18":{},"19":{},"20":{},"21":{},"22":{},"23":{},"24":{},"25":{},"26":{},"27":{},"28":{},"29":{},"30":{},"31":{},"32":{},"33":{},"34":{},"35":{},"36":{},"37":{},"38":{},"39":{},"40":{},"41":{},"42":{},"43":{},"44":{},"45":{},"46":{},"47":{},"48":{},"49":{},"50":{},"51":{},"52":{},"53":{},"54":{},"55":{},"56":{},"57":{},"58":{},"59":{},"60":{},"61":{},"62":{},"63":{},"64":{},"65":{},"66":{},"67":{},"68":{},"69":{},"70":{},"71":{},"72":{},"73":{},"74":{},"75":{},"76":{},"77":{},"78":{},"79":{},"80":{},"81":{},"82":{},"83":{},"84":{},"85":{},"86":{},"87":{},"88":{},"89":{},"90":{},"91":{},"92":{},"93":{},"94":{},"95":{},"96":{},"97":{},"98":{},"99":{},"100":{},"101":{},"102":{},"103":{},"104":{},"105":{},"106":{},"107":{},"108":{},"109":{},"110":{},"111":{},"112":{},"113":{},"114":{},"115":{},"116":{},"117":{},"118":{},"119":{},"120":{},"121":{},"122":{},"123":{},"124":{},"125":{},"126":{},"127":{},"128":{},"129":{},"130":{},"131":{},"132":{},"133":{},"134":{}},{"0":{"bias":-3.4446425437927246,"weights":{"0":-0.9112184643745422,"1":-3.0502519607543945,"2":-2.314512014389038,"3":-1.4573866128921509,"4":0.19762901961803436,"5":-0.49923864006996155,"6":-0.4509750008583069,"7":1.2057480812072754,"8":1.2257356643676758,"9":1.0131213665008545,"10":-0.07863176614046097,"11":-2.1855897903442383,"12":1.469084620475769,"13":-0.94381183385849,"14":-0.11788924783468246,"15":-0.5113362073898315,"16":-0.38363149762153625,"17":1.3860608339309692,"18":-0.7361252307891846,"19":0.564751923084259,"20":0.8614708185195923,"21":0.7595074772834778,"22":3.7852606773376465,"23":0.23338869214057922,"24":-0.7140103578567505,"25":-1.261057734489441,"26":-1.0239399671554565,"27":-5.740444660186768,"28":0.020268836989998817,"29":2.540982246398926,"30":1.1422193050384521,"31":-2.3502731323242188,"32":1.2063143253326416,"33":3.101851463317871,"34":-0.47393858432769775,"35":-1.5878793001174927,"36":-0.8355672359466553,"37":-0.3189387023448944,"38":0.997122585773468,"39":-1.452635645866394,"40":-0.19974224269390106,"41":2.4773354530334473,"42":0.6799682378768921,"43":0.6492591500282288,"44":-0.45764094591140747,"45":-0.2785513401031494,"46":-2.8379058837890625,"47":-0.37667229771614075,"48":-1.666754961013794,"49":-0.8852384686470032,"50":0.27827882766723633,"51":-0.7575692534446716,"52":1.1181668043136597,"53":2.1980600357055664,"54":-0.7681892514228821,"55":-1.957204818725586,"56":0.3003097176551819,"57":0.6499211192131042,"58":-2.425647258758545,"59":-0.11350727826356888,"60":0.38259798288345337,"61":-0.1136736273765564,"62":-2.6199536323547363,"63":-0.4448583126068115,"64":0.11527414619922638,"65":-1.2522705793380737,"66":-0.47447460889816284,"67":0.8044055104255676,"68":4.4085588455200195,"69":0.2589257061481476,"70":0.32665109634399414,"71":-1.0022867918014526,"72":-0.4469752907752991,"73":-0.4480676054954529,"74":0.3349209427833557,"75":-0.24010254442691803,"76":-0.31338754296302795,"77":-0.039037708193063736,"78":0.29917263984680176,"79":-0.41818884015083313,"80":1.6484969854354858,"81":-1.2744373083114624,"82":-1.4398993253707886,"83":1.30393648147583,"84":-1.5764803886413574,"85":-3.195861577987671,"86":-0.10982093214988708,"87":-0.23503625392913818,"88":0.9535465836524963,"89":-0.733344316482544,"90":-0.5300065875053406,"91":3.4770584106445312,"92":2.604506015777588,"93":-0.8720245361328125,"94":-2.338111400604248,"95":0.8340697288513184,"96":0.919840395450592,"97":-0.18510468304157257,"98":0.2843067944049835,"99":-0.6182875037193298,"100":0.4974989891052246,"101":-1.4529558420181274,"102":-0.9781927466392517,"103":-0.15529076755046844,"104":0.13219054043293,"105":-0.1461569219827652,"106":-0.6732520461082458,"107":-0.17704646289348602,"108":-0.8730354309082031,"109":-0.1387345939874649,"110":-0.3582514226436615,"111":0.9330626130104065,"112":3.768089532852173,"113":-0.26766687631607056,"114":0.015639549121260643,"115":-0.5056009292602539,"116":-0.6573983430862427,"117":0.020135728642344475,"118":0.29570838809013367,"119":-0.799426794052124,"120":0.027156991884112358,"121":-2.1562485694885254,"122":-0.4850323796272278,"123":0.3574419617652893,"124":-0.18528468906879425,"125":-1.6323984861373901,"126":0.7378178834915161,"127":0.963039219379425,"128":-0.5021321773529053,"129":0.21857470273971558,"130":-0.019248882308602333,"131":-0.3141024112701416,"132":-2.1595568656921387,"133":-0.21960648894309998,"134":-0.1713992804288864}},"1":{"bias":-4.139429569244385,"weights":{"0":-1.4737238883972168,"1":-2.1894397735595703,"2":-0.9292941689491272,"3":-1.1055607795715332,"4":-4.526321887969971,"5":0.901447057723999,"6":0.4280531406402588,"7":3.0647621154785156,"8":-1.1757136583328247,"9":0.7480875849723816,"10":-1.6042553186416626,"11":1.624685525894165,"12":-2.4041478633880615,"13":7.12450647354126,"14":5.277667999267578,"15":-0.8044256567955017,"16":0.6948750019073486,"17":-3.7678232192993164,"18":-3.2682406902313232,"19":1.7998231649398804,"20":3.853440284729004,"21":-1.1794371604919434,"22":-1.160171627998352,"23":0.20057779550552368,"24":-0.7394859194755554,"25":-0.8020079731941223,"26":-2.366560220718384,"27":0.8352586030960083,"28":2.5657856464385986,"29":0.3771793246269226,"30":-0.7208430767059326,"31":-4.2061381340026855,"32":2.133488416671753,"33":1.800779104232788,"34":-1.7530405521392822,"35":-5.081581115722656,"36":0.3980678617954254,"37":4.059224605560303,"38":-0.7683958411216736,"39":0.4833153784275055,"40":2.9226808547973633,"41":-2.820279359817505,"42":0.36013010144233704,"43":-0.9259345531463623,"44":-3.1201441287994385,"45":1.7208194732666016,"46":3.2754459381103516,"47":-1.8643454313278198,"48":-4.092529773712158,"49":-0.6161908507347107,"50":0.1885327696800232,"51":-1.0223357677459717,"52":1.04304838180542,"53":-0.15665100514888763,"54":1.2376805543899536,"55":0.2563919425010681,"56":4.90647554397583,"57":-5.000137805938721,"58":3.6740293502807617,"59":1.3800344467163086,"60":-3.448854923248291,"61":-0.32544398307800293,"62":-3.003154754638672,"63":-0.279378205537796,"64":2.872347831726074,"65":3.351442813873291,"66":-2.980846643447876,"67":-3.5689690113067627,"68":-2.456801652908325,"69":-1.012772798538208,"70":-0.7612643837928772,"71":-5.339379787445068,"72":2.1195716857910156,"73":3.234438180923462,"74":0.8306323885917664,"75":0.1130896732211113,"76":0.7814865112304688,"77":0.5531182885169983,"78":-3.5070242881774902,"79":3.1610939502716064,"80":0.15621569752693176,"81":5.669238567352295,"82":1.9598312377929688,"83":1.1588358879089355,"84":0.17373305559158325,"85":1.0860223770141602,"86":-1.1292401552200317,"87":0.49547600746154785,"88":0.5971567630767822,"89":-1.5643690824508667,"90":-0.9631303548812866,"91":-1.7711037397384644,"92":-2.7951102256774902,"93":-1.2342368364334106,"94":-2.199631690979004,"95":-1.3120661973953247,"96":2.5131354331970215,"97":0.05655090883374214,"98":-0.7279887795448303,"99":2.7169904708862305,"100":-1.3185303211212158,"101":-0.5687952637672424,"102":-4.957256317138672,"103":1.4177836179733276,"104":-0.2371620237827301,"105":-2.0383338928222656,"106":0.8442787528038025,"107":0.14197790622711182,"108":-0.197923481464386,"109":0.7984384894371033,"110":0.26547399163246155,"111":-1.5109316110610962,"112":-2.4251880645751953,"113":0.8587697148323059,"114":0.9594675302505493,"115":-2.8520047664642334,"116":-4.80119514465332,"117":0.12946827709674835,"118":-1.6541236639022827,"119":5.1816205978393555,"120":0.5639525055885315,"121":0.3626815974712372,"122":0.7871351838111877,"123":0.9687482118606567,"124":0.5608701109886169,"125":-2.2940542697906494,"126":3.2342922687530518,"127":-2.0680744647979736,"128":0.08652426302433014,"129":1.0998151302337646,"130":1.4473847150802612,"131":0.2642955183982849,"132":-3.1571693420410156,"133":-1.1912580728530884,"134":0.09264461696147919}},"2":{"bias":0.18656164407730103,"weights":{"0":-1.6821702718734741,"1":3.234544038772583,"2":-5.574583053588867,"3":-0.10808400064706802,"4":-0.11341673135757446,"5":6.709653854370117,"6":4.795822620391846,"7":-1.9196568727493286,"8":-1.198081612586975,"9":2.5883591175079346,"10":-5.908761024475098,"11":3.1196768283843994,"12":-3.975822925567627,"13":-2.719409704208374,"14":-1.5755996704101562,"15":3.7175943851470947,"16":-0.06995852291584015,"17":0.3871963322162628,"18":-3.508669853210449,"19":2.358339548110962,"20":4.576474189758301,"21":-0.719219446182251,"22":1.5397393703460693,"23":1.1211597919464111,"24":-2.0983073711395264,"25":-1.218531608581543,"26":-1.380009412765503,"27":4.506790637969971,"28":-0.3466838598251343,"29":-0.7215837836265564,"30":1.8777196407318115,"31":1.4980217218399048,"32":1.7405794858932495,"33":-3.784726858139038,"34":-2.495656967163086,"35":1.760195016860962,"36":-0.37278929352760315,"37":-1.261065125465393,"38":0.050395287573337555,"39":2.204472780227661,"40":1.815692663192749,"41":-3.9312188625335693,"42":1.976885437965393,"43":-0.9880037903785706,"44":1.8799430131912231,"45":0.02100721374154091,"46":1.460831880569458,"47":-4.2248053550720215,"48":4.278707504272461,"49":0.934643030166626,"50":-0.284469872713089,"51":1.2974739074707031,"52":-5.267932415008545,"53":-2.986392021179199,"54":-0.08305703848600388,"55":3.056736469268799,"56":-2.5665745735168457,"57":0.42486828565597534,"58":-0.033295147120952606,"59":2.94545841217041,"60":2.5697710514068604,"61":-1.5591663122177124,"62":-3.9306600093841553,"63":1.6869583129882812,"64":0.18467466533184052,"65":-2.9482991695404053,"66":0.8198939561843872,"67":-7.871706962585449,"68":0.5923676490783691,"69":2.6399335861206055,"70":5.35426139831543,"71":-1.1628320217132568,"72":-0.5815669894218445,"73":2.512779951095581,"74":-3.5321743488311768,"75":5.688596725463867,"76":-1.8800761699676514,"77":1.0014864206314087,"78":-4.0448479652404785,"79":0.539684534072876,"80":-0.07126400619745255,"81":7.736487865447998,"82":1.6183172464370728,"83":-3.0526039600372314,"84":-0.9221320152282715,"85":-6.848860740661621,"86":-2.8689959049224854,"87":-3.3396055698394775,"88":-2.669445514678955,"89":-4.027135372161865,"90":-1.0092206001281738,"91":-2.2695095539093018,"92":-0.5613678693771362,"93":4.433542728424072,"94":-0.5866998434066772,"95":7.928800582885742,"96":4.536530494689941,"97":0.11858543008565903,"98":3.2112138271331787,"99":0.8365474939346313,"100":-3.2804665565490723,"101":-1.850513219833374,"102":5.7834930419921875,"103":0.8250547647476196,"104":0.5106282830238342,"105":-4.455964088439941,"106":0.2948564887046814,"107":-0.1082349643111229,"108":-9.478019714355469,"109":0.4728242754936218,"110":3.806384563446045,"111":0.23798350989818573,"112":-4.227221965789795,"113":2.311492443084717,"114":2.701658248901367,"115":-5.404928684234619,"116":-6.254141807556152,"117":0.08386240154504776,"118":-0.4751732647418976,"119":-0.05196058377623558,"120":2.2621381282806396,"121":1.3647639751434326,"122":6.4207963943481445,"123":2.0980937480926514,"124":0.6733285188674927,"125":0.35603079199790955,"126":4.121558666229248,"127":6.009557723999023,"128":-2.9796252250671387,"129":0.5125772356987,"130":0.48668724298477173,"131":0.7128069996833801,"132":-6.153285980224609,"133":-0.3778132200241089,"134":-0.13963909447193146}},"3":{"bias":-3.143742322921753,"weights":{"0":-1.5156689882278442,"1":-4.150638580322266,"2":-5.0856614112854,"3":-2.2522053718566895,"4":-3.0541505813598633,"5":-1.6929529905319214,"6":1.5432140827178955,"7":1.6100894212722778,"8":1.993216872215271,"9":0.6909330487251282,"10":1.6598217487335205,"11":1.4615659713745117,"12":3.2978272438049316,"13":0.8004900217056274,"14":0.9210713505744934,"15":-0.773235559463501,"16":-0.8119869232177734,"17":-2.234117031097412,"18":1.001783013343811,"19":1.8670612573623657,"20":-0.7598587870597839,"21":-2.937575340270996,"22":0.686164140701294,"23":0.014873319305479527,"24":-1.3505867719650269,"25":1.3089507818222046,"26":3.579817056655884,"27":-1.485689640045166,"28":-1.1561048030853271,"29":-0.3269745707511902,"30":-4.709946632385254,"31":0.12957189977169037,"32":0.7003284096717834,"33":1.2126328945159912,"34":1.2836779356002808,"35":2.2535488605499268,"36":2.5331928730010986,"37":-3.0982613563537598,"38":2.797053098678589,"39":-5.352200984954834,"40":-5.488207817077637,"41":2.2982287406921387,"42":-0.20720010995864868,"43":0.8959707021713257,"44":-2.6104297637939453,"45":-5.528042316436768,"46":0.24250707030296326,"47":-0.5200656056404114,"48":5.944971561431885,"49":3.323937177658081,"50":1.204058289527893,"51":0.8016646504402161,"52":1.9171724319458008,"53":0.34363269805908203,"54":5.798417091369629,"55":-4.0358076095581055,"56":3.401153087615967,"57":-4.744792461395264,"58":3.0526018142700195,"59":4.5321173667907715,"60":1.2256301641464233,"61":-1.4983991384506226,"62":3.707557439804077,"63":1.9018645286560059,"64":-0.4889495372772217,"65":-3.3494975566864014,"66":2.07171893119812,"67":-5.785406589508057,"68":-1.5444037914276123,"69":2.00288462638855,"70":2.627061605453491,"71":-6.044833660125732,"72":-2.213442087173462,"73":2.458254337310791,"74":-1.45735502243042,"75":-2.5386009216308594,"76":1.6866161823272705,"77":0.9545501470565796,"78":-1.182598352432251,"79":-0.7705686092376709,"80":-2.610405921936035,"81":1.9824321269989014,"82":-4.119339466094971,"83":-0.6608598828315735,"84":-3.9032552242279053,"85":1.421151041984558,"86":1.8247729539871216,"87":5.4271345138549805,"88":1.94022536277771,"89":1.1199301481246948,"90":3.372361183166504,"91":1.5192643404006958,"92":-3.750621795654297,"93":-0.5574187636375427,"94":-8.922313690185547,"95":0.12468437850475311,"96":1.89677095413208,"97":-0.17343854904174805,"98":2.925536632537842,"99":1.4643146991729736,"100":-2.4936931133270264,"101":1.989160180091858,"102":-1.8758411407470703,"103":0.5661945939064026,"104":-0.3192044496536255,"105":-5.6269636154174805,"106":1.7907460927963257,"107":0.018660541623830795,"108":-0.672179639339447,"109":-2.331965208053589,"110":-0.5047631859779358,"111":1.4868879318237305,"112":-1.1714508533477783,"113":0.14742028713226318,"114":0.7581808567047119,"115":-3.059138774871826,"116":-3.37851881980896,"117":0.08240892738103867,"118":-1.2753196954727173,"119":0.6533783078193665,"120":-2.0124471187591553,"121":-1.2625147104263306,"122":2.7010338306427,"123":1.0324019193649292,"124":0.7424378991127014,"125":-2.942577600479126,"126":5.060722351074219,"127":-1.7571651935577393,"128":2.579045295715332,"129":-0.2672252058982849,"130":0.32348665595054626,"131":0.3923189640045166,"132":-3.70570969581604,"133":4.273019790649414,"134":0.12474201619625092}},"4":{"bias":-1.6539896726608276,"weights":{"0":2.4934470653533936,"1":-0.07132620364427567,"2":-4.818038463592529,"3":-2.027716636657715,"4":3.7045176029205322,"5":-1.7762857675552368,"6":0.32417482137680054,"7":1.0305148363113403,"8":-0.23620234429836273,"9":0.09776962548494339,"10":0.20733346045017242,"11":2.796766757965088,"12":0.2671588659286499,"13":-4.922054290771484,"14":1.1042393445968628,"15":1.797537088394165,"16":-0.2476252317428589,"17":5.788276195526123,"18":-0.4345954358577728,"19":1.9210057258605957,"20":-0.009913269430398941,"21":-4.884945392608643,"22":2.263763189315796,"23":-0.0357796773314476,"24":-0.4066363275051117,"25":-0.31549549102783203,"26":-5.222874164581299,"27":0.051429279148578644,"28":-2.380612850189209,"29":-1.288625717163086,"30":0.5686619281768799,"31":1.078872799873352,"32":-1.833397626876831,"33":1.433313012123108,"34":0.8748607635498047,"35":-2.9546985626220703,"36":-0.12371569871902466,"37":1.0673274993896484,"38":0.8257001638412476,"39":1.837981104850769,"40":-5.779052734375,"41":2.7808406352996826,"42":2.545687675476074,"43":-0.5850419998168945,"44":-6.2035722732543945,"45":3.331526756286621,"46":1.5928622484207153,"47":-1.372642159461975,"48":-1.0843453407287598,"49":-1.258864402770996,"50":2.566694974899292,"51":-1.4783059358596802,"52":2.293660879135132,"53":1.3094524145126343,"54":0.9946777820587158,"55":-0.15190237760543823,"56":0.9705477356910706,"57":3.883880615234375,"58":1.0847351551055908,"59":1.9574230909347534,"60":1.8700835704803467,"61":-2.5502805709838867,"62":-2.9090611934661865,"63":1.5471231937408447,"64":-0.2146737277507782,"65":-3.559704542160034,"66":1.3122402429580688,"67":1.5066421031951904,"68":5.644313812255859,"69":-0.04180168733000755,"70":-0.4369913637638092,"71":0.9928379654884338,"72":-3.424145221710205,"73":-7.524776935577393,"74":-6.116365432739258,"75":3.263505220413208,"76":1.8569518327713013,"77":0.9455230236053467,"78":-0.843284547328949,"79":-0.24695619940757751,"80":-0.4628525376319885,"81":-3.4192872047424316,"82":3.906285524368286,"83":2.6061313152313232,"84":-0.834902822971344,"85":-0.17370475828647614,"86":4.0300798416137695,"87":-1.2419662475585938,"88":-1.252309799194336,"89":-5.8780951499938965,"90":-1.955446720123291,"91":-1.7826271057128906,"92":-0.0352012924849987,"93":4.513146877288818,"94":-6.5350341796875,"95":3.446945905685425,"96":4.279102802276611,"97":0.0019361099693924189,"98":-4.056967258453369,"99":2.0097320079803467,"100":-3.479259967803955,"101":-3.529956340789795,"102":5.219061851501465,"103":2.6634926795959473,"104":0.5631082057952881,"105":-3.9437248706817627,"106":3.159330129623413,"107":-0.18257953226566315,"108":-3.4112043380737305,"109":2.2128615379333496,"110":1.708471655845642,"111":5.242356300354004,"112":-5.026303291320801,"113":-2.5744996070861816,"114":1.1335409879684448,"115":-4.093695163726807,"116":-3.5734376907348633,"117":0.15904931724071503,"118":1.3237375020980835,"119":-2.1906557083129883,"120":-2.7070958614349365,"121":-3.539680242538452,"122":1.242735505104065,"123":0.45063522458076477,"124":0.25510746240615845,"125":-0.8910842537879944,"126":6.555386543273926,"127":1.4147181510925293,"128":3.0943655967712402,"129":1.181107997894287,"130":1.0161033868789673,"131":0.29524585604667664,"132":-3.444791555404663,"133":2.3182694911956787,"134":-0.09214308112859726}},"5":{"bias":-3.352036476135254,"weights":{"0":0.7420290112495422,"1":2.076730728149414,"2":1.9201730489730835,"3":-2.717954397201538,"4":0.35835129022598267,"5":0.29259952902793884,"6":-1.552964687347412,"7":-0.7318427562713623,"8":2.48464298248291,"9":0.3624977171421051,"10":-0.37540149688720703,"11":-1.4503483772277832,"12":-2.3857975006103516,"13":4.511530876159668,"14":0.09933529049158096,"15":0.36046770215034485,"16":-0.13817793130874634,"17":-3.5113775730133057,"18":1.3820494413375854,"19":-1.8304619789123535,"20":0.37781214714050293,"21":-0.1523917019367218,"22":1.357377052307129,"23":-0.10404203832149506,"24":-1.7185890674591064,"25":-1.4591680765151978,"26":-2.0068297386169434,"27":3.4173123836517334,"28":-0.41080242395401,"29":2.2421987056732178,"30":-0.9813542366027832,"31":-3.031521797180176,"32":-0.30932849645614624,"33":-1.8659113645553589,"34":0.45387130975723267,"35":2.0427510738372803,"36":-0.9005232453346252,"37":-0.08955812454223633,"38":0.10578808933496475,"39":1.1112796068191528,"40":-3.02052903175354,"41":-1.6045489311218262,"42":0.08452684432268143,"43":0.21323339641094208,"44":-2.4874825477600098,"45":-2.3517284393310547,"46":-3.0187876224517822,"47":0.39781370759010315,"48":-1.084391713142395,"49":0.06546806544065475,"50":0.8098565936088562,"51":2.2914233207702637,"52":2.345970630645752,"53":1.8366785049438477,"54":0.5640006065368652,"55":-3.446664333343506,"56":-0.9363265037536621,"57":1.802592158317566,"58":-2.3126327991485596,"59":-0.03135877102613449,"60":-0.496352881193161,"61":-1.9800808429718018,"62":0.44228440523147583,"63":0.10637389868497849,"64":1.6508840322494507,"65":-0.3028901517391205,"66":0.6405050158500671,"67":0.25025486946105957,"68":0.9549543261528015,"69":-0.788155198097229,"70":0.20848381519317627,"71":-1.9817421436309814,"72":-1.3484724760055542,"73":-0.1762687861919403,"74":-0.5145273804664612,"75":1.4456340074539185,"76":-0.057128168642520905,"77":-0.11091197282075882,"78":2.3374509811401367,"79":-0.21751245856285095,"80":0.13862687349319458,"81":-1.535046100616455,"82":-1.9921084642410278,"83":-0.799140214920044,"84":-0.7607207298278809,"85":-0.07840452343225479,"86":1.1352663040161133,"87":-0.029603324830532074,"88":-0.4028286337852478,"89":1.8400620222091675,"90":-0.4218672215938568,"91":1.5518206357955933,"92":-2.5645194053649902,"93":-1.1139312982559204,"94":0.04898078367114067,"95":1.0948165655136108,"96":0.6117901802062988,"97":0.0010131166782230139,"98":0.22235313057899475,"99":1.4011961221694946,"100":-1.298549771308899,"101":-1.6954160928726196,"102":-0.18029363453388214,"103":-0.17989875376224518,"104":-0.15546473860740662,"105":0.8345648050308228,"106":0.2928045690059662,"107":-0.05223085731267929,"108":-1.5999428033828735,"109":-0.4825702905654907,"110":-0.5060673356056213,"111":1.0198529958724976,"112":-1.965348482131958,"113":0.23588289320468903,"114":0.12934510409832,"115":0.3449937105178833,"116":0.08796466141939163,"117":0.04091023653745651,"118":-0.6442007422447205,"119":3.5031065940856934,"120":-1.6282505989074707,"121":1.536007285118103,"122":-1.622574806213379,"123":0.02149113453924656,"124":-0.13713255524635315,"125":0.9836355447769165,"126":-3.256110191345215,"127":0.21774223446846008,"128":-0.04620818421244621,"129":-0.37696772813796997,"130":-0.18169967830181122,"131":-0.41268685460090637,"132":2.3969638347625732,"133":-1.148082971572876,"134":0.050286296755075455}},"6":{"bias":-1.8964191675186157,"weights":{"0":1.0886249542236328,"1":0.6185927391052246,"2":-0.4236254096031189,"3":3.074228048324585,"4":0.15361706912517548,"5":-0.6701326966285706,"6":-2.1112120151519775,"7":-0.27577200531959534,"8":1.3272712230682373,"9":-0.5532196164131165,"10":0.14214690029621124,"11":-1.1610805988311768,"12":0.49589142203330994,"13":-2.0725886821746826,"14":-2.0330984592437744,"15":-0.26944100856781006,"16":0.12965716421604156,"17":-0.5293439030647278,"18":-2.0379297733306885,"19":-0.8084412813186646,"20":3.183042049407959,"21":-0.01165580004453659,"22":1.7194311618804932,"23":0.023162024095654488,"24":0.14793306589126587,"25":-0.12357082962989807,"26":-1.0960290431976318,"27":2.253934383392334,"28":-1.7091621160507202,"29":1.3393834829330444,"30":-0.4933508634567261,"31":-1.8391144275665283,"32":1.022444725036621,"33":-0.19768375158309937,"34":-0.5581697821617126,"35":-0.3651065528392792,"36":0.14803007245063782,"37":1.0183371305465698,"38":0.11720526218414307,"39":1.6992450952529907,"40":-2.5930583477020264,"41":-0.8972989916801453,"42":0.22295041382312775,"43":0.07851044833660126,"44":-3.2985360622406006,"45":-0.4455227851867676,"46":0.12068716436624527,"47":1.4978227615356445,"48":-0.9514845609664917,"49":-0.10935092717409134,"50":1.1838045120239258,"51":-0.08121384680271149,"52":0.8371458649635315,"53":0.08058582991361618,"54":1.6192481517791748,"55":-0.745142936706543,"56":-0.6332350373268127,"57":0.6998559832572937,"58":0.6671415567398071,"59":0.1159026250243187,"60":0.7017699480056763,"61":0.4883852005004883,"62":-3.699363946914673,"63":-0.734818696975708,"64":-0.7391877770423889,"65":-1.0946170091629028,"66":0.1965997964143753,"67":-2.9236159324645996,"68":-0.026483258232474327,"69":0.9631941318511963,"70":0.7505552172660828,"71":-1.1345093250274658,"72":2.335322618484497,"73":1.9374347925186157,"74":0.6944164633750916,"75":-0.11774421483278275,"76":-0.19731512665748596,"77":-0.20855391025543213,"78":-1.2017287015914917,"79":-0.23838162422180176,"80":0.23851317167282104,"81":1.0623294115066528,"82":-2.15312123298645,"83":-2.010939598083496,"84":2.8580262660980225,"85":0.6089268922805786,"86":-0.22438952326774597,"87":-1.156785249710083,"88":0.22219376266002655,"89":-1.5074822902679443,"90":-0.6671425700187683,"91":2.687739849090576,"92":-1.0465543270111084,"93":2.4436826705932617,"94":-2.633496046066284,"95":-0.22662626206874847,"96":0.06627318263053894,"97":0.1666126251220703,"98":3.1291449069976807,"99":-0.31423836946487427,"100":-2.2914938926696777,"101":0.3377031087875366,"102":0.6654602289199829,"103":-0.3000965416431427,"104":-0.44295504689216614,"105":-0.553562343120575,"106":-0.5076506733894348,"107":-0.03046194650232792,"108":-0.5431004166603088,"109":-0.37751850485801697,"110":-0.3383671045303345,"111":2.6200921535491943,"112":2.0714709758758545,"113":1.0579781532287598,"114":-0.0329345241189003,"115":-0.8365835547447205,"116":-1.6480704545974731,"117":0.05568955838680267,"118":0.40114834904670715,"119":0.11577505618333817,"120":1.8264952898025513,"121":-2.176929473876953,"122":-0.9077235460281372,"123":-0.3483685553073883,"124":-0.3106270432472229,"125":-1.1096481084823608,"126":-1.185565710067749,"127":0.0618828609585762,"128":0.5648552775382996,"129":0.0895569771528244,"130":-0.04565504565834999,"131":-0.2782789170742035,"132":-1.054315447807312,"133":-0.3041936755180359,"134":-0.08336668461561203}},"7":{"bias":-3.813753843307495,"weights":{"0":-1.3455108404159546,"1":2.3134076595306396,"2":-0.13787370920181274,"3":-0.9141796231269836,"4":0.4970434010028839,"5":0.2862203121185303,"6":0.23589783906936646,"7":1.7670331001281738,"8":-1.1188623905181885,"9":-1.4505698680877686,"10":-0.454196572303772,"11":-0.3831806778907776,"12":2.7812719345092773,"13":0.5394692420959473,"14":-1.6540167331695557,"15":0.08667595684528351,"16":-0.14581361413002014,"17":-0.3157428801059723,"18":-0.9989222288131714,"19":0.3589780628681183,"20":0.37301474809646606,"21":-1.8112181425094604,"22":0.3446084260940552,"23":0.024693837389349937,"24":-0.30586153268814087,"25":0.46085020899772644,"26":-2.2249152660369873,"27":2.467130422592163,"28":-1.4956532716751099,"29":4.795291900634766,"30":0.3168148398399353,"31":1.5894100666046143,"32":-0.4639916718006134,"33":-0.9599553346633911,"34":-0.18130341172218323,"35":-1.5387506484985352,"36":-0.8447848558425903,"37":-0.09358684718608856,"38":0.6320803165435791,"39":-1.402023434638977,"40":-3.381943941116333,"41":-2.9874117374420166,"42":-0.05549783259630203,"43":0.3911270201206207,"44":0.24056212604045868,"45":-1.3961163759231567,"46":-1.8629026412963867,"47":-0.4898369610309601,"48":-0.6098908185958862,"49":0.48727643489837646,"50":-0.09633374959230423,"51":0.4959004819393158,"52":0.18505367636680603,"53":1.5125176906585693,"54":0.29587048292160034,"55":-0.36168795824050903,"56":-0.38230961561203003,"57":0.6389491558074951,"58":-1.3867740631103516,"59":-0.6563483476638794,"60":0.334489643573761,"61":-2.1322031021118164,"62":3.0020852088928223,"63":0.20396815240383148,"64":-0.03128267452120781,"65":-0.34373825788497925,"66":1.343701720237732,"67":-0.9165967106819153,"68":-1.2912404537200928,"69":-0.17008772492408752,"70":0.07810643315315247,"71":-1.0853179693222046,"72":-1.5349360704421997,"73":-0.6365234851837158,"74":1.677213191986084,"75":-1.7130482196807861,"76":-0.5379154086112976,"77":-0.24202418327331543,"78":1.722540259361267,"79":-1.5044647455215454,"80":1.5295014381408691,"81":1.5106216669082642,"82":-0.02197469212114811,"83":2.4625532627105713,"84":1.611007571220398,"85":-1.7670520544052124,"86":-0.39817118644714355,"87":-0.8503017425537109,"88":0.22952957451343536,"89":-1.1348460912704468,"90":0.0576997809112072,"91":1.9303407669067383,"92":-0.6163076162338257,"93":0.49210861325263977,"94":-2.0833334922790527,"95":-0.6303112506866455,"96":0.05243919789791107,"97":-0.16565029323101044,"98":-2.260249137878418,"99":0.2060067504644394,"100":-0.7839568853378296,"101":-0.6710089445114136,"102":-1.5074063539505005,"103":-0.09697090834379196,"104":0.05007993057370186,"105":-0.1612420380115509,"106":-0.009939152747392654,"107":0.11178599298000336,"108":-0.06414299458265305,"109":-0.3409596085548401,"110":0.7431990504264832,"111":-1.1658052206039429,"112":-3.329503059387207,"113":-0.05316200852394104,"114":0.11281941831111908,"115":0.5364169478416443,"116":-1.1505002975463867,"117":0.07083196938037872,"118":-0.5599967241287231,"119":1.6646738052368164,"120":-2.8971564769744873,"121":1.8499822616577148,"122":-0.45140331983566284,"123":0.5156772136688232,"124":0.04063096642494202,"125":2.8633947372436523,"126":1.0929888486862183,"127":-0.1747947484254837,"128":0.05895591899752617,"129":0.04897192865610123,"130":0.0344478003680706,"131":-0.5789207220077515,"132":-2.068875789642334,"133":-0.737673819065094,"134":0.11118186265230179}},"8":{"bias":-3.0865068435668945,"weights":{"0":1.0418881177902222,"1":-2.149620532989502,"2":2.6448163986206055,"3":-1.8446886539459229,"4":-2.130983352661133,"5":-1.6305038928985596,"6":-0.17333438992500305,"7":1.2537384033203125,"8":-0.2111261785030365,"9":-1.1662614345550537,"10":0.3451634347438812,"11":-3.1957645416259766,"12":-0.7008265852928162,"13":0.6160619854927063,"14":-1.944139003753662,"15":-0.26569339632987976,"16":0.1631014198064804,"17":3.4914896488189697,"18":-1.0951558351516724,"19":-1.1342962980270386,"20":1.9342515468597412,"21":1.9983586072921753,"22":-0.0969211682677269,"23":-0.0725238248705864,"24":2.488921642303467,"25":0.5148018002510071,"26":-1.6309378147125244,"27":1.8641743659973145,"28":-0.5195087194442749,"29":1.6327840089797974,"30":-3.634725332260132,"31":-4.038973331451416,"32":-1.806208610534668,"33":-0.43602219223976135,"34":0.4847501218318939,"35":0.38459935784339905,"36":-1.5084099769592285,"37":-0.25848478078842163,"38":3.548743486404419,"39":-2.5519347190856934,"40":-0.9460924863815308,"41":-1.037885308265686,"42":-1.240053653717041,"43":1.6094399690628052,"44":0.3396531343460083,"45":0.9119880795478821,"46":1.7255833148956299,"47":-3.3968968391418457,"48":-1.930375576019287,"49":-0.44788411259651184,"50":0.45506128668785095,"51":2.1427690982818604,"52":3.8529398441314697,"53":1.432981252670288,"54":-1.3573367595672607,"55":2.943451166152954,"56":1.1456513404846191,"57":0.25122949481010437,"58":-2.2601919174194336,"59":-0.7648966908454895,"60":2.7144203186035156,"61":-0.9928553700447083,"62":2.174619674682617,"63":-0.3726058602333069,"64":2.0445191860198975,"65":-2.8460099697113037,"66":-2.2939748764038086,"67":-1.908866286277771,"68":2.9333839416503906,"69":-0.24782277643680573,"70":0.3507358133792877,"71":-4.475335121154785,"72":-0.12140512466430664,"73":-0.09106674045324326,"74":-0.49681565165519714,"75":-1.2621403932571411,"76":-0.08696608245372772,"77":-0.13872845470905304,"78":1.6174010038375854,"79":2.021244525909424,"80":-1.3932439088821411,"81":-1.3978548049926758,"82":-0.06109413132071495,"83":1.470080852508545,"84":-0.007443099282681942,"85":-0.5147002935409546,"86":1.0580366849899292,"87":-0.8277720808982849,"88":-0.3735771179199219,"89":-5.5926513671875,"90":0.1965857446193695,"91":1.0980327129364014,"92":2.531156063079834,"93":-1.5038204193115234,"94":-4.2994065284729,"95":4.984218597412109,"96":0.9427735805511475,"97":0.15502336621284485,"98":-0.0313769094645977,"99":-2.9907326698303223,"100":2.9013938903808594,"101":2.0636351108551025,"102":-1.0357942581176758,"103":0.06679020822048187,"104":-0.3316503167152405,"105":-1.5928796529769897,"106":-0.22142815589904785,"107":-0.050036512315273285,"108":-2.8376615047454834,"109":0.048620618879795074,"110":-1.5471948385238647,"111":0.8566735982894897,"112":-1.8052512407302856,"113":-0.6221399903297424,"114":-0.29495832324028015,"115":-0.07706214487552643,"116":1.1499450206756592,"117":0.0307326540350914,"118":-0.4217722415924072,"119":0.05434485524892807,"120":-0.3756781220436096,"121":-1.8741931915283203,"122":-0.5637396574020386,"123":0.0435432493686676,"124":-0.09342600405216217,"125":0.7358022928237915,"126":0.5133380889892578,"127":1.5457652807235718,"128":0.1537059098482132,"129":-0.07793814688920975,"130":0.05882789567112923,"131":0.49371448159217834,"132":-1.7385622262954712,"133":2.4024863243103027,"134":-0.1871262788772583}},"9":{"bias":-3.4532363414764404,"weights":{"0":1.0426956415176392,"1":-0.8883729577064514,"2":2.963794469833374,"3":-1.2211101055145264,"4":-2.0044615268707275,"5":-0.40338000655174255,"6":-0.39740249514579773,"7":1.7552841901779175,"8":0.7878879904747009,"9":-0.4871852397918701,"10":1.7572606801986694,"11":-1.561528205871582,"12":-1.9771939516067505,"13":-1.3488250970840454,"14":-1.9339882135391235,"15":0.0297600906342268,"16":-0.4007328152656555,"17":-1.6359434127807617,"18":2.353856325149536,"19":-1.0838896036148071,"20":-1.2095404863357544,"21":2.1775169372558594,"22":0.23745720088481903,"23":-0.2216130793094635,"24":1.9935798645019531,"25":-0.1409965306520462,"26":-1.5573312044143677,"27":-2.0103518962860107,"28":2.681793451309204,"29":-1.6452583074569702,"30":2.5720326900482178,"31":-1.5916985273361206,"32":-0.6097356677055359,"33":-0.2283906489610672,"34":0.9667618870735168,"35":-0.5445911288261414,"36":1.244333028793335,"37":-0.27839717268943787,"38":-0.40962934494018555,"39":-3.072490692138672,"40":1.2473036050796509,"41":-0.5054442882537842,"42":0.30032816529273987,"43":0.9060077667236328,"44":1.9309805631637573,"45":-0.4373548626899719,"46":0.4474356472492218,"47":-1.3740794658660889,"48":-1.9258902072906494,"49":-0.6351903676986694,"50":-0.5414987802505493,"51":1.8133736848831177,"52":-1.180841088294983,"53":-1.144712209701538,"54":0.7830991744995117,"55":-1.0260133743286133,"56":-1.9809941053390503,"57":-0.4209458529949188,"58":3.1283059120178223,"59":-0.7803784608840942,"60":-0.40846821665763855,"61":0.2627216577529907,"62":-1.5733044147491455,"63":-1.088722586631775,"64":2.3385543823242188,"65":0.303894966840744,"66":-3.2365314960479736,"67":-0.1365058869123459,"68":1.3303911685943604,"69":3.7316973209381104,"70":-1.2987991571426392,"71":-1.4635051488876343,"72":-2.7030029296875,"73":0.646239161491394,"74":0.6170663237571716,"75":-0.7329361438751221,"76":-0.3023611307144165,"77":-0.17964787781238556,"78":1.0167341232299805,"79":1.0403426885604858,"80":-1.0103874206542969,"81":-1.6914713382720947,"82":1.550909161567688,"83":2.9043796062469482,"84":0.24507996439933777,"85":-2.4079701900482178,"86":-1.0242525339126587,"87":-2.954674005508423,"88":-0.7600683569908142,"89":-0.18870580196380615,"90":-0.9957267045974731,"91":2.971752643585205,"92":-1.356990098953247,"93":1.5221515893936157,"94":-6.078824996948242,"95":3.4284143447875977,"96":2.1734721660614014,"97":-0.02697664685547352,"98":-3.499349594116211,"99":0.7112541794776917,"100":-0.3252109885215759,"101":1.5945959091186523,"102":-1.738316297531128,"103":-0.3390256464481354,"104":-0.5920272469520569,"105":2.152527332305908,"106":0.8160842657089233,"107":-0.1789865493774414,"108":-2.550651788711548,"109":-0.8682756423950195,"110":-0.8191906213760376,"111":-0.9626564979553223,"112":2.7798168659210205,"113":-0.8252636194229126,"114":-0.7499256134033203,"115":-0.4522343873977661,"116":-1.4580825567245483,"117":-0.14284498989582062,"118":1.6724324226379395,"119":3.6127655506134033,"120":-1.261353611946106,"121":-2.072049617767334,"122":1.0517009496688843,"123":0.10776492208242416,"124":-0.17760047316551208,"125":-3.128826856613159,"126":-1.1279858350753784,"127":2.1305644512176514,"128":-0.6967158913612366,"129":0.3084965646266937,"130":-0.060548823326826096,"131":0.05395719036459923,"132":-0.17021851241588593,"133":2.705435276031494,"134":-0.03863963857293129}},"10":{"bias":-1.5421364307403564,"weights":{"0":-0.5862852334976196,"1":-0.7718440294265747,"2":-0.5579042434692383,"3":-1.9388610124588013,"4":0.23382775485515594,"5":-0.13593454658985138,"6":0.3585074245929718,"7":1.6691615581512451,"8":-1.5165213346481323,"9":-0.3829066753387451,"10":-1.0048309564590454,"11":-0.7439953088760376,"12":1.2026700973510742,"13":-0.13983434438705444,"14":0.7332519888877869,"15":-0.27199438214302063,"16":-0.04813225194811821,"17":-0.757823646068573,"18":-0.9031049609184265,"19":2.3376967906951904,"20":-0.43951138854026794,"21":1.839064598083496,"22":0.7970465421676636,"23":0.038901302963495255,"24":-1.2492561340332031,"25":0.5934005975723267,"26":-0.8052616119384766,"27":1.7520235776901245,"28":0.38370567560195923,"29":-1.0792316198349,"30":0.22363510727882385,"31":0.06575314700603485,"32":0.694296658039093,"33":-1.6145514249801636,"34":-0.3269493877887726,"35":-0.5793521404266357,"36":2.483530044555664,"37":0.1750749796628952,"38":-1.6533454656600952,"39":0.0940842479467392,"40":-1.033796787261963,"41":-1.5230027437210083,"42":-0.7900226712226868,"43":0.505288302898407,"44":-0.281657338142395,"45":0.48339390754699707,"46":-2.322995185852051,"47":-1.1891709566116333,"48":1.7736767530441284,"49":0.3607804477214813,"50":-0.11301315575838089,"51":0.9982341527938843,"52":0.8265756368637085,"53":0.30926764011383057,"54":1.9064630270004272,"55":-0.9160045981407166,"56":1.6001049280166626,"57":3.3552820682525635,"58":-1.1320034265518188,"59":-0.19071286916732788,"60":-1.1811723709106445,"61":0.031294118613004684,"62":-0.8538004755973816,"63":0.075372613966465,"64":-0.09515625238418579,"65":-1.349645733833313,"66":0.32332703471183777,"67":-0.2681829035282135,"68":-0.6404109001159668,"69":-0.05674686282873154,"70":0.20181143283843994,"71":0.7183276414871216,"72":-0.20882640779018402,"73":-1.2947195768356323,"74":-0.7165865302085876,"75":0.6757264137268066,"76":0.05059865862131119,"77":-0.2736895978450775,"78":-1.6982061862945557,"79":0.19409175217151642,"80":0.7513791918754578,"81":0.5850457549095154,"82":0.015844251960515976,"83":0.645707905292511,"84":0.36971133947372437,"85":-0.03211049735546112,"86":-0.12159223109483719,"87":1.946129322052002,"88":0.454622745513916,"89":-3.6944503784179688,"90":-0.20871061086654663,"91":3.4127914905548096,"92":-0.29631587862968445,"93":0.23961448669433594,"94":-2.6840574741363525,"95":0.7899850606918335,"96":-0.744397759437561,"97":-0.19116929173469543,"98":-0.7860695123672485,"99":0.8629575967788696,"100":0.13151955604553223,"101":1.6614505052566528,"102":-0.7317702174186707,"103":0.2549097537994385,"104":-0.03718448802828789,"105":-2.524184465408325,"106":-0.9389826655387878,"107":0.14715607464313507,"108":-2.0890064239501953,"109":-0.0707094818353653,"110":-0.016172079369425774,"111":1.0933934450149536,"112":1.1332106590270996,"113":0.12494319677352905,"114":-0.016174234449863434,"115":-0.5915961265563965,"116":-0.1933727115392685,"117":0.0813417062163353,"118":0.451555073261261,"119":1.7288025617599487,"120":0.20234301686286926,"121":-0.36097365617752075,"122":-1.586635947227478,"123":-0.40817153453826904,"124":0.00425622146576643,"125":-1.4543981552124023,"126":0.5093269348144531,"127":0.5108698606491089,"128":0.40525904297828674,"129":0.022425411269068718,"130":-0.02359064668416977,"131":-0.3004089891910553,"132":-2.0739004611968994,"133":0.8509894013404846,"134":-0.03304741904139519}},"11":{"bias":-3.2241954803466797,"weights":{"0":-0.22324204444885254,"1":1.36534583568573,"2":-1.278638482093811,"3":-4.63156795501709,"4":-1.5175402164459229,"5":0.3161346912384033,"6":5.142348289489746,"7":-0.9765811562538147,"8":-2.856802463531494,"9":-4.174727916717529,"10":2.8237717151641846,"11":-1.2070400714874268,"12":1.698523759841919,"13":-2.4540328979492188,"14":3.320070743560791,"15":-0.7810689806938171,"16":0.00829654186964035,"17":0.8970471024513245,"18":0.2896043658256531,"19":-3.39140248298645,"20":1.7591888904571533,"21":4.361543655395508,"22":-0.8971685171127319,"23":0.14332716166973114,"24":-1.028759479522705,"25":3.455036163330078,"26":-3.5868356227874756,"27":-2.8318400382995605,"28":-2.8807878494262695,"29":1.573725938796997,"30":-1.9779666662216187,"31":1.5475589036941528,"32":-0.14492663741111755,"33":-0.563967227935791,"34":0.19675213098526,"35":0.19249486923217773,"36":-0.3266173303127289,"37":0.7159243822097778,"38":-1.8561077117919922,"39":-0.30914080142974854,"40":-2.876131057739258,"41":-1.1563620567321777,"42":0.015873204916715622,"43":0.2238398939371109,"44":1.8209995031356812,"45":3.901339054107666,"46":-0.29648357629776,"47":-1.1151533126831055,"48":2.2841031551361084,"49":-0.41855600476264954,"50":0.16894882917404175,"51":3.198669910430908,"52":-0.6034550070762634,"53":-1.16713547706604,"54":-2.332385301589966,"55":2.4568469524383545,"56":-0.01697544939815998,"57":-1.0688092708587646,"58":0.276048868894577,"59":-0.9039976000785828,"60":0.08831078559160233,"61":-0.5886288285255432,"62":-2.723350763320923,"63":-0.07219801098108292,"64":0.4999631941318512,"65":-1.246060848236084,"66":-0.6332977414131165,"67":-0.012599117122590542,"68":1.6296229362487793,"69":-0.017350059002637863,"70":-0.09781193733215332,"71":1.2642734050750732,"72":0.38821902871131897,"73":-0.8190662860870361,"74":-0.7511253952980042,"75":0.6462425589561462,"76":-0.4121406674385071,"77":0.07045778632164001,"78":1.6416754722595215,"79":-0.3229098916053772,"80":-0.2968927025794983,"81":1.637425184249878,"82":-1.873056173324585,"83":-1.8360482454299927,"84":0.03770790621638298,"85":-1.107057809829712,"86":-0.19475065171718597,"87":-1.2722402811050415,"88":0.44958192110061646,"89":2.114220380783081,"90":-0.10137394070625305,"91":1.1025627851486206,"92":-0.5980976223945618,"93":-1.4315727949142456,"94":0.4455849826335907,"95":0.5842075943946838,"96":0.4188216030597687,"97":0.17630161345005035,"98":-1.4158662557601929,"99":-1.9608598947525024,"100":3.38466739654541,"101":-1.6593159437179565,"102":-2.015367269515991,"103":-0.2925887107849121,"104":-0.0412866584956646,"105":0.5527306199073792,"106":0.746549665927887,"107":0.021867115050554276,"108":1.9111385345458984,"109":0.10928598791360855,"110":0.013615099713206291,"111":-0.8581027984619141,"112":0.6996833086013794,"113":0.49096938967704773,"114":-0.07774252444505692,"115":1.6785178184509277,"116":-2.407567024230957,"117":-0.04040118306875229,"118":0.03280407562851906,"119":2.5183682441711426,"120":-0.5394346117973328,"121":-1.2789249420166016,"122":-1.5665897130966187,"123":-0.6095101833343506,"124":-0.07382003217935562,"125":-3.2687814235687256,"126":0.21900640428066254,"127":-1.0255377292633057,"128":-0.19448181986808777,"129":0.14311207830905914,"130":-0.050332531332969666,"131":0.3202115297317505,"132":1.322134256362915,"133":-0.037517569959163666,"134":0.04745457321405411}},"12":{"bias":-4.821883201599121,"weights":{"0":-0.16593898832798004,"1":1.0172984600067139,"2":-3.949960947036743,"3":1.2703851461410522,"4":-3.349238395690918,"5":-0.06765402853488922,"6":1.7052243947982788,"7":2.7451093196868896,"8":-0.37211427092552185,"9":3.7847864627838135,"10":1.405432105064392,"11":-1.5065865516662598,"12":2.702937602996826,"13":3.420243501663208,"14":-2.4172730445861816,"15":-1.8020250797271729,"16":-1.1640331745147705,"17":0.02040860988199711,"18":-4.572430610656738,"19":1.010597586631775,"20":-6.143454074859619,"21":-0.6378931999206543,"22":-2.9176204204559326,"23":-0.21521027386188507,"24":1.9783881902694702,"25":2.3464999198913574,"26":-0.0298285074532032,"27":-0.29118311405181885,"28":-0.5671054720878601,"29":1.3149765729904175,"30":-1.2525622844696045,"31":-0.9108332395553589,"32":-1.534274935722351,"33":-0.6983285546302795,"34":1.5665544271469116,"35":0.49890825152397156,"36":3.219731569290161,"37":3.58188796043396,"38":-0.11779285967350006,"39":1.6347745656967163,"40":-1.4042108058929443,"41":0.03573700413107872,"42":-2.675119400024414,"43":0.27434203028678894,"44":1.8347532749176025,"45":-5.157094955444336,"46":2.972994089126587,"47":-4.102209091186523,"48":-4.481082439422607,"49":-4.954283714294434,"50":2.605834722518921,"51":2.921816825866699,"52":2.1524930000305176,"53":-0.9532040357589722,"54":-0.841437816619873,"55":-3.511037588119507,"56":-2.686473846435547,"57":0.21740128099918365,"58":0.4370161294937134,"59":-0.5811602473258972,"60":-1.8278465270996094,"61":-1.3553487062454224,"62":5.754307270050049,"63":-0.4457627832889557,"64":-0.757120668888092,"65":1.566396951675415,"66":-2.7140722274780273,"67":-4.252975940704346,"68":0.3166220486164093,"69":-0.55668705701828,"70":-1.9374066591262817,"71":2.6933999061584473,"72":1.4477826356887817,"73":-1.1125034093856812,"74":-1.5424249172210693,"75":1.447136640548706,"76":-0.8807578086853027,"77":-0.27645009756088257,"78":1.4680206775665283,"79":2.6106576919555664,"80":1.1578210592269897,"81":0.6093723177909851,"82":-2.114025592803955,"83":1.2959672212600708,"84":-2.9261622428894043,"85":-1.2471987009048462,"86":0.9558181762695312,"87":-2.0303070545196533,"88":-0.5443011522293091,"89":2.6401965618133545,"90":-1.1278507709503174,"91":1.9625346660614014,"92":4.7761006355285645,"93":0.12837031483650208,"94":-4.82640266418457,"95":-2.139490842819214,"96":-1.7360644340515137,"97":-0.03264038264751434,"98":-1.277679681777954,"99":0.11550000309944153,"100":-1.1814711093902588,"101":3.119169235229492,"102":-0.51811683177948,"103":-0.5570532083511353,"104":-0.8949637413024902,"105":0.4168979823589325,"106":2.415755271911621,"107":-0.19652727246284485,"108":-2.662602186203003,"109":-0.4283486306667328,"110":-0.8797798752784729,"111":4.025793075561523,"112":-2.219958543777466,"113":-2.043757915496826,"114":-0.24557054042816162,"115":0.633445680141449,"116":0.6025204658508301,"117":0.14181368052959442,"118":-1.2994790077209473,"119":-4.058093070983887,"120":1.9954054355621338,"121":0.41775086522102356,"122":-3.061777114868164,"123":-0.8544009923934937,"124":-0.9674442410469055,"125":-3.1794281005859375,"126":-0.07133816182613373,"127":6.684976100921631,"128":-1.0258209705352783,"129":2.007580518722534,"130":-0.2860138714313507,"131":-1.1251170635223389,"132":1.328958511352539,"133":1.8530696630477905,"134":0.13295893371105194}},"13":{"bias":-5.732100486755371,"weights":{"0":-0.9652031064033508,"1":-1.4212685823440552,"2":2.3646631240844727,"3":-0.6394016742706299,"4":3.7079663276672363,"5":-1.8247721195220947,"6":-2.500661849975586,"7":-1.2114992141723633,"8":-1.58293879032135,"9":-2.0192816257476807,"10":1.8485288619995117,"11":2.1571385860443115,"12":4.078030109405518,"13":-4.575176239013672,"14":-2.2827627658843994,"15":0.3699148893356323,"16":-0.3248099982738495,"17":2.4213778972625732,"18":-0.0978451743721962,"19":-0.7502420544624329,"20":-2.7258598804473877,"21":0.15593121945858002,"22":1.3221858739852905,"23":-0.18306401371955872,"24":-1.363698959350586,"25":0.5665526390075684,"26":-0.7961392998695374,"27":2.4480926990509033,"28":0.39527037739753723,"29":-3.0124104022979736,"30":-0.7940136194229126,"31":2.1799473762512207,"32":-2.2628509998321533,"33":3.829293727874756,"34":-1.0042692422866821,"35":0.21275730431079865,"36":0.8738476037979126,"37":-0.496244877576828,"38":-0.2757751941680908,"39":-0.07573219388723373,"40":-2.5022079944610596,"41":-2.4652786254882812,"42":0.43097561597824097,"43":0.40263232588768005,"44":-1.8520958423614502,"45":0.1927025020122528,"46":0.9720472097396851,"47":-4.120928764343262,"48":0.16590198874473572,"49":1.1421250104904175,"50":0.19367673993110657,"51":1.8383619785308838,"52":-1.9155218601226807,"53":-0.6317297220230103,"54":1.5400965213775635,"55":2.5943002700805664,"56":-0.05738894268870354,"57":-1.776743769645691,"58":2.069782257080078,"59":0.23858751356601715,"60":5.1334099769592285,"61":0.6942301392555237,"62":0.8336983919143677,"63":-0.7481757998466492,"64":-2.395843744277954,"65":-2.474381446838379,"66":-2.293087959289551,"67":-6.613857746124268,"68":-2.941638946533203,"69":-0.18717263638973236,"70":-0.41707584261894226,"71":-1.550565242767334,"72":-1.7783986330032349,"73":3.5577268600463867,"74":-0.15405388176441193,"75":-0.4723171591758728,"76":-0.48777538537979126,"77":-1.0547001361846924,"78":1.4726815223693848,"79":-0.38453778624534607,"80":-0.19636720418930054,"81":-2.701859951019287,"82":2.4025514125823975,"83":1.4644386768341064,"84":-0.3038528859615326,"85":-1.3567595481872559,"86":-2.510293960571289,"87":0.32198596000671387,"88":-0.035716909915208817,"89":0.9952982068061829,"90":-0.012926611118018627,"91":-1.8333158493041992,"92":-1.5292922258377075,"93":-2.7345073223114014,"94":0.6425182223320007,"95":-0.16520880162715912,"96":-0.18022888898849487,"97":0.0038019057828933,"98":0.8395239114761353,"99":1.9859776496887207,"100":0.4540543854236603,"101":-4.4452691078186035,"102":-0.0807267278432846,"103":-1.1909459829330444,"104":0.4763428270816803,"105":1.7446311712265015,"106":1.3360366821289062,"107":0.01391793042421341,"108":3.2527284622192383,"109":-0.584308385848999,"110":-0.7199245095252991,"111":-3.0666611194610596,"112":-1.4458601474761963,"113":0.5144708156585693,"114":-1.1847084760665894,"115":0.6466954350471497,"116":0.028293820098042488,"117":0.18628525733947754,"118":-1.5562901496887207,"119":3.191401720046997,"120":-1.275710940361023,"121":-3.4671542644500732,"122":-0.3014683127403259,"123":-0.09561527520418167,"124":-0.6928999423980713,"125":-4.4772047996521,"126":4.9106221199035645,"127":-2.0670437812805176,"128":1.1775420904159546,"129":-0.08208010345697403,"130":-0.18297085165977478,"131":0.46567991375923157,"132":-1.4670584201812744,"133":1.5820708274841309,"134":0.014157820492982864}},"14":{"bias":-5.083457946777344,"weights":{"0":-3.8687171936035156,"1":-0.19865794479846954,"2":3.8887040615081787,"3":-0.4754926562309265,"4":-0.06115824729204178,"5":0.4476379454135895,"6":0.7053486704826355,"7":0.44005438685417175,"8":-3.420574426651001,"9":-1.531646728515625,"10":5.00343132019043,"11":0.9785318374633789,"12":-4.248837947845459,"13":-1.6385796070098877,"14":-1.0231525897979736,"15":-1.019068717956543,"16":-0.9077621102333069,"17":-0.5450700521469116,"18":-0.6568979024887085,"19":7.309223175048828,"20":-0.11233814060688019,"21":-0.08456120640039444,"22":-2.2985498905181885,"23":-0.3388214707374573,"24":-1.5155731439590454,"25":0.6308810710906982,"26":-1.0037219524383545,"27":-3.169494152069092,"28":0.12782195210456848,"29":-1.2375726699829102,"30":-1.6076769828796387,"31":-4.2092695236206055,"32":-3.005781888961792,"33":8.062704086303711,"34":-3.6030116081237793,"35":5.694572925567627,"36":-0.7173402905464172,"37":-1.5229038000106812,"38":-2.2662158012390137,"39":0.3825885057449341,"40":-2.8524744510650635,"41":-0.43389174342155457,"42":-0.7975723743438721,"43":0.2307424247264862,"44":-2.2120466232299805,"45":-4.489876747131348,"46":2.9506783485412598,"47":1.7767161130905151,"48":0.04731607064604759,"49":-0.09915313869714737,"50":-0.23214471340179443,"51":7.062128067016602,"52":-1.9660898447036743,"53":2.5265536308288574,"54":3.4200289249420166,"55":1.0641242265701294,"56":2.2774055004119873,"57":3.480008125305176,"58":-3.4529786109924316,"59":-2.630328416824341,"60":-3.054276704788208,"61":0.38387593626976013,"62":-2.2444961071014404,"63":-0.5477589964866638,"64":-1.147540807723999,"65":-0.6663041114807129,"66":-0.08042377233505249,"67":-3.590519666671753,"68":-0.6457239985466003,"69":-1.8506264686584473,"70":-3.17341947555542,"71":2.781419277191162,"72":4.4388885498046875,"73":5.445681095123291,"74":-4.636474609375,"75":-7.358953952789307,"76":-0.8802236318588257,"77":-0.3859853148460388,"78":-0.8498337864875793,"79":4.292128562927246,"80":3.2327287197113037,"81":-4.312729835510254,"82":1.7651686668395996,"83":-0.7562103867530823,"84":0.6529013514518738,"85":0.645583987236023,"86":-1.0989960432052612,"87":-2.4250218868255615,"88":0.656484842300415,"89":0.16615496575832367,"90":-0.40776094794273376,"91":-1.6632757186889648,"92":-2.14631724357605,"93":4.127545356750488,"94":-2.6971442699432373,"95":0.8713705539703369,"96":0.48752883076667786,"97":0.15369658172130585,"98":-0.827832043170929,"99":-0.6537023782730103,"100":-0.08261874318122864,"101":3.160446882247925,"102":-1.1157770156860352,"103":-1.4994264841079712,"104":-0.1560932844877243,"105":2.4820685386657715,"106":-1.1125385761260986,"107":-0.0005759794730693102,"108":-4.557666301727295,"109":1.4111852645874023,"110":-2.264817476272583,"111":-0.6405981183052063,"112":-0.8417993187904358,"113":-0.4855172038078308,"114":-1.2218462228775024,"115":1.2451626062393188,"116":-2.9138424396514893,"117":-0.18390217423439026,"118":-2.2037739753723145,"119":-0.2553352415561676,"120":1.877077579498291,"121":2.9800121784210205,"122":-1.2854177951812744,"123":-0.746285617351532,"124":-1.1782008409500122,"125":-2.978347063064575,"126":3.5149834156036377,"127":3.565624952316284,"128":-2.823902130126953,"129":-0.44500309228897095,"130":-0.7698656916618347,"131":0.9424405097961426,"132":-3.0217700004577637,"133":6.199251651763916,"134":0.10067762434482574}},"15":{"bias":-4.060157299041748,"weights":{"0":0.050797585397958755,"1":0.104810431599617,"2":0.711696207523346,"3":-1.645023226737976,"4":2.4799351692199707,"5":-0.5130869150161743,"6":0.2502668797969818,"7":-1.8199162483215332,"8":1.6309535503387451,"9":-1.2936094999313354,"10":-1.0442683696746826,"11":-1.2411046028137207,"12":-3.5715205669403076,"13":-0.6136835217475891,"14":-1.5859471559524536,"15":-0.3747294843196869,"16":-0.05054539069533348,"17":-2.2911183834075928,"18":0.4849555492401123,"19":-0.6353558301925659,"20":-0.1480800211429596,"21":0.7853637337684631,"22":-1.2098541259765625,"23":-0.10157846659421921,"24":-0.8487801551818848,"25":4.3858747482299805,"26":2.7982099056243896,"27":-1.9922163486480713,"28":1.041797161102295,"29":-3.081345558166504,"30":-0.46851056814193726,"31":-1.422735333442688,"32":0.13025282323360443,"33":2.466825008392334,"34":0.6096045970916748,"35":1.344912052154541,"36":-2.5023107528686523,"37":0.9562607407569885,"38":0.6911971569061279,"39":2.400346279144287,"40":-0.5410853624343872,"41":0.6371548771858215,"42":-1.2294515371322632,"43":0.087408646941185,"44":-1.3317996263504028,"45":-2.9237053394317627,"46":0.355500727891922,"47":-0.7007074356079102,"48":0.6962767243385315,"49":-1.7601960897445679,"50":0.3167535662651062,"51":0.28135624527931213,"52":0.13335663080215454,"53":0.7827455401420593,"54":-1.2160025835037231,"55":-1.1362961530685425,"56":-0.5448806285858154,"57":-0.9913474321365356,"58":1.207563877105713,"59":0.10366900265216827,"60":-0.3593841791152954,"61":-0.23569385707378387,"62":-1.268796682357788,"63":-0.805213987827301,"64":0.3133426010608673,"65":1.1478866338729858,"66":-3.2081923484802246,"67":-0.52503901720047,"68":-1.0135234594345093,"69":-0.28656890988349915,"70":-0.3870328664779663,"71":2.446765422821045,"72":2.5056583881378174,"73":-1.1791658401489258,"74":-0.3686913251876831,"75":-1.410357117652893,"76":0.22461991012096405,"77":0.0746205523610115,"78":-0.12096041440963745,"79":1.0863800048828125,"80":0.9886952638626099,"81":2.123157024383545,"82":-0.32247334718704224,"83":-1.4325790405273438,"84":-0.7098214626312256,"85":-2.1474499702453613,"86":-0.5894312858581543,"87":-0.9956434369087219,"88":-0.18274655938148499,"89":-1.2819846868515015,"90":-1.1538288593292236,"91":-0.9138751029968262,"92":1.7568964958190918,"93":1.7888121604919434,"94":-2.536147356033325,"95":2.24930477142334,"96":-0.9585315585136414,"97":-0.14731474220752716,"98":0.1537252813577652,"99":0.6420540809631348,"100":1.294867992401123,"101":-0.6973245739936829,"102":0.18816375732421875,"103":-0.26313281059265137,"104":-0.05639170855283737,"105":-1.4971097707748413,"106":0.3827584385871887,"107":-0.17623794078826904,"108":2.7072577476501465,"109":0.022465510293841362,"110":-0.8896634578704834,"111":-0.8064867258071899,"112":-1.445942759513855,"113":-0.7963886260986328,"114":-0.07969482243061066,"115":-0.31569361686706543,"116":0.15884622931480408,"117":0.10040965676307678,"118":0.005601158365607262,"119":-0.4950864911079407,"120":-1.114412784576416,"121":2.3645877838134766,"122":-0.8933844566345215,"123":0.08838753402233124,"124":-0.19559398293495178,"125":2.2697434425354004,"126":-1.3553462028503418,"127":-0.45676925778388977,"128":-0.5200076699256897,"129":0.029167721047997475,"130":-0.03308594971895218,"131":-0.19412082433700562,"132":-1.9006034135818481,"133":0.20075513422489166,"134":0.12306278198957443}},"16":{"bias":-3.094144105911255,"weights":{"0":2.8823609352111816,"1":-1.496535301208496,"2":3.372689962387085,"3":2.1997838020324707,"4":-0.6507290005683899,"5":0.030057968571782112,"6":-2.7609081268310547,"7":-1.5124635696411133,"8":-0.4138224422931671,"9":0.5720818042755127,"10":2.868100166320801,"11":-2.822587728500366,"12":-0.4037911891937256,"13":-3.4273061752319336,"14":-3.006669759750366,"15":-0.22039368748664856,"16":0.3260952830314636,"17":-0.8699327707290649,"18":4.691239833831787,"19":-2.8146164417266846,"20":0.021402424201369286,"21":-0.22021014988422394,"22":2.9417409896850586,"23":-0.20645904541015625,"24":-2.052025556564331,"25":-1.3292821645736694,"26":0.4704669117927551,"27":-0.0033388237934559584,"28":2.890275716781616,"29":-2.7472691535949707,"30":-0.6526678204536438,"31":-0.6833013892173767,"32":-1.4296663999557495,"33":3.73610520362854,"34":0.13215938210487366,"35":-6.338493347167969,"36":-0.15680618584156036,"37":1.9700387716293335,"38":2.448638677597046,"39":1.5497010946273804,"40":-1.6966948509216309,"41":1.2792445421218872,"42":0.8836782574653625,"43":-0.7828176021575928,"44":-2.4470174312591553,"45":0.5323324203491211,"46":1.627769112586975,"47":-2.29111385345459,"48":-2.4435510635375977,"49":-1.5575387477874756,"50":0.7728899717330933,"51":1.6276979446411133,"52":0.9287768006324768,"53":0.1325082629919052,"54":-1.1479802131652832,"55":1.3881785869598389,"56":-2.5391831398010254,"57":2.2259626388549805,"58":0.6375289559364319,"59":0.06958610564470291,"60":-0.9774081707000732,"61":-2.179805278778076,"62":1.6745628118515015,"63":-1.9341131448745728,"64":4.069949626922607,"65":-1.8555127382278442,"66":-3.631636381149292,"67":-3.207359790802002,"68":3.513568639755249,"69":0.8937475681304932,"70":0.19371353089809418,"71":-2.6791903972625732,"72":2.5924179553985596,"73":-3.2703802585601807,"74":4.84535551071167,"75":-0.7128010392189026,"76":-0.8506968021392822,"77":0.11763302236795425,"78":-0.9550944566726685,"79":-1.1381161212921143,"80":1.4728264808654785,"81":3.0130906105041504,"82":-0.22442451119422913,"83":2.1555984020233154,"84":-0.9698716402053833,"85":4.975241184234619,"86":0.06420290470123291,"87":-1.620402216911316,"88":-1.012467622756958,"89":-6.924389362335205,"90":-0.5716466903686523,"91":3.5197019577026367,"92":-2.325493097305298,"93":-0.561328113079071,"94":-0.6772918701171875,"95":2.0497002601623535,"96":0.8675611615180969,"97":0.03243927285075188,"98":-1.6244853734970093,"99":-0.8055969476699829,"100":0.9679792523384094,"101":-0.5130195617675781,"102":-0.34536129236221313,"103":0.052150510251522064,"104":-0.40922829508781433,"105":-0.2776614725589752,"106":-2.0399324893951416,"107":0.07011064887046814,"108":-4.330114364624023,"109":-0.6300625801086426,"110":0.2938796579837799,"111":-2.491035223007202,"112":-0.41680166125297546,"113":0.1479089856147766,"114":-0.34938955307006836,"115":0.6843434572219849,"116":-0.9242079854011536,"117":0.1344289928674698,"118":-1.6490695476531982,"119":2.0795228481292725,"120":-0.0016793649410828948,"121":2.11175537109375,"122":-0.6798672080039978,"123":0.781534731388092,"124":-0.12247362732887268,"125":-0.05636480078101158,"126":-1.6667500734329224,"127":1.8525367975234985,"128":-0.5509086847305298,"129":0.17684811353683472,"130":0.012623511254787445,"131":0.8375489115715027,"132":1.1602450609207153,"133":0.6106009483337402,"134":-0.09491060674190521}},"17":{"bias":-5.719315528869629,"weights":{"0":-0.8124010562896729,"1":-3.836089849472046,"2":1.074053406715393,"3":-0.36964014172554016,"4":0.02597186714410782,"5":2.5772786140441895,"6":-2.2657344341278076,"7":-1.5216622352600098,"8":4.087734222412109,"9":-1.497007131576538,"10":1.516645073890686,"11":2.6019787788391113,"12":2.464848041534424,"13":3.9131855964660645,"14":-3.647411823272705,"15":-1.4584332704544067,"16":-0.12937556207180023,"17":0.14560894668102264,"18":-0.9841534495353699,"19":-2.577765941619873,"20":-4.700718402862549,"21":-1.493171215057373,"22":-0.6338920593261719,"23":-0.4759950339794159,"24":1.0768632888793945,"25":3.3804562091827393,"26":-2.991689682006836,"27":2.0723440647125244,"28":1.5796128511428833,"29":-5.343610763549805,"30":-1.3389198780059814,"31":-3.6975672245025635,"32":-0.20876504480838776,"33":1.3040647506713867,"34":-2.0251452922821045,"35":2.8700308799743652,"36":-1.684845209121704,"37":-0.43462899327278137,"38":-1.5680774450302124,"39":4.610958576202393,"40":0.5073217749595642,"41":-2.868574857711792,"42":0.6804555058479309,"43":-0.303092360496521,"44":-2.009674072265625,"45":-0.04982803389430046,"46":-0.15649066865444183,"47":-5.585400581359863,"48":5.011455059051514,"49":0.02317771315574646,"50":-0.07750702649354935,"51":4.254083156585693,"52":-1.0499329566955566,"53":-0.7248603105545044,"54":-1.3257173299789429,"55":4.509042739868164,"56":0.6546342968940735,"57":2.9912617206573486,"58":1.4040476083755493,"59":-2.479271650314331,"60":4.2060418128967285,"61":-1.1064090728759766,"62":-3.379363775253296,"63":-1.6601080894470215,"64":1.9848068952560425,"65":-0.5367308259010315,"66":-5.749634742736816,"67":1.859475016593933,"68":1.3293774127960205,"69":-0.3679918646812439,"70":-3.2237255573272705,"71":3.942862033843994,"72":0.574625551700592,"73":1.1808907985687256,"74":-5.540353298187256,"75":-3.9221794605255127,"76":-1.6391667127609253,"77":-0.16994760930538177,"78":-0.7699680328369141,"79":1.2071888446807861,"80":0.18966279923915863,"81":5.575264930725098,"82":4.244289398193359,"83":0.8406450748443604,"84":-5.227847576141357,"85":-1.6506329774856567,"86":-0.21616415679454803,"87":4.717129230499268,"88":0.3495257794857025,"89":-7.887794017791748,"90":0.7148478627204895,"91":-0.02486548386514187,"92":-3.041800022125244,"93":2.8761143684387207,"94":-0.6390304565429688,"95":-0.5110543966293335,"96":-0.7612426280975342,"97":-0.032518722116947174,"98":-0.3032416105270386,"99":-2.7336909770965576,"100":-4.949245452880859,"101":1.6617168188095093,"102":4.1585001945495605,"103":-0.1847846508026123,"104":-0.08951499313116074,"105":-0.7155027389526367,"106":-2.8055903911590576,"107":-0.11999284476041794,"108":-3.814037322998047,"109":-0.17768238484859467,"110":0.26240918040275574,"111":-0.17543372511863708,"112":0.7244981527328491,"113":0.7186123728752136,"114":-0.1236865222454071,"115":-0.32284000515937805,"116":-1.5046980381011963,"117":0.0022354326210916042,"118":-0.1056419238448143,"119":0.711634635925293,"120":-4.81283712387085,"121":-0.379672646522522,"122":-0.8510205745697021,"123":-0.1462547928094864,"124":-0.29260343313217163,"125":-0.9912298321723938,"126":5.448673725128174,"127":1.9654113054275513,"128":-2.1881935596466064,"129":-0.05385392904281616,"130":-0.46601739525794983,"131":-1.0238335132598877,"132":-1.6672430038452148,"133":2.688518762588501,"134":-0.04320520907640457}},"18":{"bias":-4.535377502441406,"weights":{"0":1.6676661968231201,"1":-1.1761001348495483,"2":1.3158382177352905,"3":4.150110721588135,"4":-2.5449376106262207,"5":-1.4802422523498535,"6":-1.8874280452728271,"7":-0.704262912273407,"8":1.5450637340545654,"9":-2.798973560333252,"10":-1.2677695751190186,"11":1.984188199043274,"12":2.1092846393585205,"13":-2.3079757690429688,"14":-1.0384153127670288,"15":-0.8115463256835938,"16":-0.01248965598642826,"17":3.4410228729248047,"18":-0.4926217198371887,"19":-0.6160464882850647,"20":-1.0537598133087158,"21":1.3843004703521729,"22":-0.9021250009536743,"23":-0.09586454182863235,"24":-2.1657960414886475,"25":0.37120822072029114,"26":-1.9867929220199585,"27":-0.4096403121948242,"28":1.3206048011779785,"29":0.3019618093967438,"30":0.9078134894371033,"31":1.147220253944397,"32":-0.9382448196411133,"33":0.6555975079536438,"34":-1.802708625793457,"35":-4.007041931152344,"36":1.3913816213607788,"37":0.7287505269050598,"38":-2.8102617263793945,"39":3.458054542541504,"40":0.580021858215332,"41":0.1747957170009613,"42":-0.15783816576004028,"43":0.7415552735328674,"44":-0.9762696027755737,"45":-2.1496403217315674,"46":-1.0999393463134766,"47":-2.6527645587921143,"48":3.279254198074341,"49":-0.3445640504360199,"50":-0.14950138330459595,"51":-0.459289014339447,"52":-2.264887809753418,"53":0.7078773975372314,"54":4.475187301635742,"55":-0.8406288623809814,"56":0.23395560681819916,"57":2.595028877258301,"58":-0.8296225070953369,"59":-0.4272294044494629,"60":-1.2085820436477661,"61":1.4592148065567017,"62":-3.0599164962768555,"63":0.3205713629722595,"64":-0.01552554126828909,"65":-1.077959656715393,"66":-1.2737336158752441,"67":3.3201122283935547,"68":-2.185908794403076,"69":-0.13571767508983612,"70":-0.8983191251754761,"71":-2.266430139541626,"72":1.6034464836120605,"73":-3.154480218887329,"74":2.026902437210083,"75":-2.6646437644958496,"76":0.06163068115711212,"77":-0.4358327090740204,"78":-1.8531972169876099,"79":0.43802428245544434,"80":0.5502530932426453,"81":-0.3271889090538025,"82":-0.2110312581062317,"83":-2.0785648822784424,"84":0.862864077091217,"85":0.3594891428947449,"86":-0.9827588200569153,"87":0.9439083933830261,"88":0.6401894092559814,"89":1.177371859550476,"90":-0.6083123087882996,"91":0.8502211570739746,"92":-2.971550941467285,"93":1.2715636491775513,"94":-1.6026585102081299,"95":0.9518731236457825,"96":-0.512928307056427,"97":0.021447204053401947,"98":1.8976285457611084,"99":-3.1333072185516357,"100":1.5949128866195679,"101":2.0235061645507812,"102":-0.866628885269165,"103":-0.3174373507499695,"104":-1.087042212486267,"105":-1.924325704574585,"106":-0.643718421459198,"107":-0.14918649196624756,"108":-2.0704636573791504,"109":0.660582959651947,"110":-0.9116587042808533,"111":2.1897130012512207,"112":-0.8949803709983826,"113":-0.7737358808517456,"114":-0.2732522785663605,"115":-0.3755437731742859,"116":-1.7467749118804932,"117":-0.1624763011932373,"118":-0.6944029927253723,"119":-2.358081817626953,"120":0.904236376285553,"121":-0.46432894468307495,"122":-1.5577690601348877,"123":-0.18526504933834076,"124":-0.2349575161933899,"125":1.5907055139541626,"126":6.224605560302734,"127":0.06144704297184944,"128":-0.4806935787200928,"129":0.11814504861831665,"130":-0.35993650555610657,"131":-0.46853992342948914,"132":-2.644793748855591,"133":0.6640202403068542,"134":-0.12851054966449738}},"19":{"bias":-7.498757839202881,"weights":{"0":-0.731630265712738,"1":2.0206544399261475,"2":-0.6265236139297485,"3":2.4817495346069336,"4":4.971028804779053,"5":1.3103700876235962,"6":-4.254478931427002,"7":0.38042160868644714,"8":-3.8189187049865723,"9":-1.9414976835250854,"10":-1.459822654724121,"11":-0.7776649594306946,"12":-2.0346455574035645,"13":2.476449966430664,"14":-5.211015701293945,"15":0.9687663912773132,"16":-2.0251705646514893,"17":-4.653839588165283,"18":4.983785152435303,"19":2.9250051975250244,"20":-2.877979278564453,"21":-3.1387975215911865,"22":-2.1928629875183105,"23":-0.32077962160110474,"24":1.7707288265228271,"25":1.5579941272735596,"26":1.2715075016021729,"27":5.220602035522461,"28":3.1739439964294434,"29":-0.9637733697891235,"30":4.978384017944336,"31":-2.268756151199341,"32":0.49789154529571533,"33":-1.5358023643493652,"34":1.9685543775558472,"35":-2.2572877407073975,"36":-1.2770357131958008,"37":-2.0988943576812744,"38":-1.6492382287979126,"39":4.521414756774902,"40":2.005977153778076,"41":-3.7658491134643555,"42":0.5879485607147217,"43":-1.37480628490448,"44":0.03412211313843727,"45":-7.293593883514404,"46":1.1559951305389404,"47":1.5195914506912231,"48":-2.2929368019104004,"49":-1.4282997846603394,"50":-0.4640079140663147,"51":3.3517439365386963,"52":-3.55029034614563,"53":-5.431253910064697,"54":2.6839349269866943,"55":-2.62406063079834,"56":-1.1377320289611816,"57":-3.158259391784668,"58":-2.8505492210388184,"59":3.3627781867980957,"60":-0.18629416823387146,"61":3.397040367126465,"62":1.3421744108200073,"63":-0.7906248569488525,"64":1.8629158735275269,"65":-1.0677248239517212,"66":2.2246463298797607,"67":-1.3112637996673584,"68":-1.1774024963378906,"69":-1.523665189743042,"70":-0.387280136346817,"71":-1.4173551797866821,"72":-1.3331280946731567,"73":-1.8689606189727783,"74":0.08432275801897049,"75":-2.059199094772339,"76":-0.21366055309772491,"77":-0.04545522481203079,"78":0.09103378653526306,"79":0.4226864278316498,"80":-0.4350571632385254,"81":0.7500088214874268,"82":0.8952491879463196,"83":1.1174077987670898,"84":-2.412179946899414,"85":1.2194498777389526,"86":3.072234869003296,"87":-2.544743537902832,"88":-3.5597455501556396,"89":2.4868502616882324,"90":-0.820561945438385,"91":-2.1063897609710693,"92":2.3883819580078125,"93":-2.9808449745178223,"94":2.038208484649658,"95":-2.727107524871826,"96":-1.5084913969039917,"97":0.0438719280064106,"98":-2.5894241333007812,"99":3.294235944747925,"100":-3.2982239723205566,"101":-4.534457206726074,"102":-2.5060689449310303,"103":-0.5882550477981567,"104":0.27174678444862366,"105":1.2816190719604492,"106":4.8164191246032715,"107":0.0767577514052391,"108":3.6583364009857178,"109":-1.9030141830444336,"110":-0.4663725793361664,"111":-1.5481274127960205,"112":0.4508110284805298,"113":-0.707289457321167,"114":0.17261412739753723,"115":-2.1136558055877686,"116":2.321120023727417,"117":0.0430341437458992,"118":-3.836676836013794,"119":0.11661092936992645,"120":-0.9881445169448853,"121":-1.81598961353302,"122":-2.061082363128662,"123":-0.9067656397819519,"124":-0.4948802590370178,"125":0.9653159379959106,"126":-2.4820241928100586,"127":-0.27989688515663147,"128":1.907959222793579,"129":-0.7563243508338928,"130":-0.6914316415786743,"131":-0.578004777431488,"132":3.230276584625244,"133":-1.0150864124298096,"134":-0.09496153146028519}},"20":{"bias":-3.498438596725464,"weights":{"0":-1.748998761177063,"1":1.2720227241516113,"2":-1.141719102859497,"3":0.46457698941230774,"4":0.22739556431770325,"5":-0.20581720769405365,"6":-0.21568293869495392,"7":-0.748472273349762,"8":1.1080546379089355,"9":-3.5181450843811035,"10":-0.9433769583702087,"11":0.8980444669723511,"12":-0.47529321908950806,"13":-0.40525445342063904,"14":2.108689546585083,"15":-0.17623162269592285,"16":0.4985133111476898,"17":-0.19908258318901062,"18":-0.5296294689178467,"19":-0.16579850018024445,"20":-0.3550665080547333,"21":-1.106857419013977,"22":0.02850169874727726,"23":0.06309042870998383,"24":0.8037235140800476,"25":0.9941352605819702,"26":-0.16803735494613647,"27":-0.4010300636291504,"28":-0.3156973719596863,"29":-0.332210898399353,"30":1.5716882944107056,"31":-2.9581596851348877,"32":-1.0941869020462036,"33":-1.3986061811447144,"34":-0.9267547726631165,"35":-2.913235664367676,"36":-0.5978896021842957,"37":3.951514720916748,"38":0.31896424293518066,"39":0.8316460251808167,"40":0.8743731379508972,"41":-2.246859312057495,"42":0.3550412058830261,"43":0.38804224133491516,"44":0.9630516171455383,"45":-1.7228968143463135,"46":-0.26832717657089233,"47":0.8837418556213379,"48":2.0462863445281982,"49":-0.8839349746704102,"50":-0.26884225010871887,"51":-0.612630307674408,"52":-2.402324914932251,"53":4.302290439605713,"54":3.63447904586792,"55":-0.6306890249252319,"56":1.7295178174972534,"57":0.8019329309463501,"58":-1.916664481163025,"59":-0.8294510841369629,"60":0.17075668275356293,"61":-2.0974512100219727,"62":-2.5634605884552,"63":-0.4855082631111145,"64":0.2623889446258545,"65":0.33367183804512024,"66":1.5270520448684692,"67":-1.297269344329834,"68":-2.1623148918151855,"69":0.8230116963386536,"70":0.20558269321918488,"71":-1.6238049268722534,"72":-1.9167553186416626,"73":1.5134735107421875,"74":-0.580332338809967,"75":-1.3700610399246216,"76":-0.3802730441093445,"77":-0.04292880371212959,"78":-1.2211805582046509,"79":1.7634559869766235,"80":2.3986010551452637,"81":1.4588803052902222,"82":-0.8290982842445374,"83":3.399447202682495,"84":-0.6722713708877563,"85":-4.358552932739258,"86":-1.1128895282745361,"87":-0.7324972748756409,"88":-1.5921366214752197,"89":-1.7437747716903687,"90":-0.6296908259391785,"91":4.13856315612793,"92":-1.759537935256958,"93":2.421682596206665,"94":0.34242722392082214,"95":-0.7258573770523071,"96":-0.0655638724565506,"97":-0.09739787876605988,"98":-1.5494508743286133,"99":1.1143710613250732,"100":-2.8250226974487305,"101":1.3109352588653564,"102":-0.8301757574081421,"103":-0.5121701955795288,"104":-0.3191513419151306,"105":0.28939515352249146,"106":1.2294644117355347,"107":0.022771159186959267,"108":-0.49521884322166443,"109":0.7628575563430786,"110":-1.797448992729187,"111":1.3918821811676025,"112":-0.9744319319725037,"113":-0.6708799004554749,"114":0.48806941509246826,"115":-0.03187538683414459,"116":-4.478817939758301,"117":0.001833548303693533,"118":-1.6485843658447266,"119":0.8668761253356934,"120":-2.0909669399261475,"121":-1.2678806781768799,"122":1.5664273500442505,"123":0.3476531505584717,"124":-0.5581852793693542,"125":0.9217650890350342,"126":4.695658206939697,"127":0.42679062485694885,"128":-0.7110077738761902,"129":1.5387871265411377,"130":-0.04148927330970764,"131":0.5080201625823975,"132":-1.5702016353607178,"133":-0.5405580401420593,"134":-0.187772735953331}},"21":{"bias":-8.07163143157959,"weights":{"0":-6.449155807495117,"1":-1.8467049598693848,"2":0.10397865623235703,"3":3.4221889972686768,"4":0.400611013174057,"5":-0.20813259482383728,"6":-3.1835110187530518,"7":-3.534730911254883,"8":0.4743976593017578,"9":-3.125107526779175,"10":-2.7717902660369873,"11":4.620748043060303,"12":-2.5369741916656494,"13":2.4721872806549072,"14":1.9229224920272827,"15":-0.8503942489624023,"16":-1.6240901947021484,"17":5.178286552429199,"18":4.290407180786133,"19":-3.4464917182922363,"20":0.4706159830093384,"21":0.12447985261678696,"22":-2.5585262775421143,"23":0.39376720786094666,"24":-0.3085803985595703,"25":1.4598637819290161,"26":-1.9774543046951294,"27":2.0735366344451904,"28":-2.9483799934387207,"29":-2.213667869567871,"30":-2.1360108852386475,"31":1.974305510520935,"32":1.754699468612671,"33":0.9499914050102234,"34":1.5928407907485962,"35":1.13081955909729,"36":-2.420238733291626,"37":-0.6926347613334656,"38":2.3229610919952393,"39":0.2617869973182678,"40":-1.5786875486373901,"41":1.3877344131469727,"42":1.78437077999115,"43":-1.1785032749176025,"44":-4.299842834472656,"45":-4.840633869171143,"46":-3.768435478210449,"47":5.606624126434326,"48":1.6271216869354248,"49":0.013471466489136219,"50":0.05074751377105713,"51":-0.45639920234680176,"52":-5.420073986053467,"53":1.0911976099014282,"54":0.0027452341746538877,"55":-0.6407396197319031,"56":3.3703384399414062,"57":-2.1320502758026123,"58":4.120010852813721,"59":2.6813480854034424,"60":0.5124053359031677,"61":1.1973494291305542,"62":0.16966287791728973,"63":-0.8438399434089661,"64":0.4279606342315674,"65":6.069576263427734,"66":-2.0927863121032715,"67":-1.599102258682251,"68":-1.3712944984436035,"69":0.11680854856967926,"70":-0.45384785532951355,"71":-2.2551686763763428,"72":0.5484999418258667,"73":-9.11351490020752,"74":-2.6757850646972656,"75":-1.7236504554748535,"76":-0.8905150294303894,"77":-1.137606143951416,"78":-2.1180076599121094,"79":0.8653377294540405,"80":-0.6417320370674133,"81":2.5956413745880127,"82":-1.2474602460861206,"83":-0.8256323933601379,"84":3.4100232124328613,"85":3.2228269577026367,"86":2.0986382961273193,"87":3.1422441005706787,"88":0.007712576538324356,"89":-1.24515962600708,"90":1.0768343210220337,"91":1.2133400440216064,"92":2.500502586364746,"93":-3.7027244567871094,"94":-2.985384941101074,"95":-2.7341949939727783,"96":-1.2492175102233887,"97":-0.11939199268817902,"98":-0.6453472971916199,"99":-2.969255208969116,"100":-2.888554811477661,"101":-1.90358304977417,"102":0.39918285608291626,"103":-1.3201606273651123,"104":0.8584355115890503,"105":-3.5808348655700684,"106":-2.3158152103424072,"107":-0.1493944227695465,"108":8.93724536895752,"109":-2.2201249599456787,"110":-1.1209843158721924,"111":-2.4275546073913574,"112":-1.433358907699585,"113":-1.6783279180526733,"114":-0.8629477024078369,"115":1.6707777976989746,"116":0.18051062524318695,"117":-0.12475450336933136,"118":-1.5562702417373657,"119":-2.8866515159606934,"120":-3.9009807109832764,"121":-2.897573232650757,"122":-2.5216522216796875,"123":-2.376497983932495,"124":-0.23887433111667633,"125":5.3335652351379395,"126":4.003650665283203,"127":0.451314240694046,"128":-4.600657939910889,"129":-0.46179330348968506,"130":-0.4228256344795227,"131":-2.0554697513580322,"132":1.5662727355957031,"133":1.792435884475708,"134":0.04065559059381485}},"22":{"bias":-2.315540313720703,"weights":{"0":-1.90485417842865,"1":3.7745704650878906,"2":-3.3414499759674072,"3":-3.072766065597534,"4":2.306828737258911,"5":-1.7497133016586304,"6":-2.063244104385376,"7":-2.4362854957580566,"8":4.302984714508057,"9":-3.1598403453826904,"10":-2.584580659866333,"11":-1.5277873277664185,"12":4.346313953399658,"13":5.0113911628723145,"14":-4.651257038116455,"15":-0.18795469403266907,"16":-0.0692451223731041,"17":5.02271032333374,"18":-7.469076156616211,"19":-1.9325281381607056,"20":1.5756056308746338,"21":5.84910249710083,"22":-3.9671292304992676,"23":-0.18315660953521729,"24":0.8387653827667236,"25":0.2576187252998352,"26":2.991133451461792,"27":-2.2549047470092773,"28":-1.9718989133834839,"29":1.1022367477416992,"30":-1.6972988843917847,"31":-3.5707929134368896,"32":0.16580542922019958,"33":-2.1792826652526855,"34":-2.4083120822906494,"35":-2.444321393966675,"36":3.407545566558838,"37":-1.8355597257614136,"38":2.6130247116088867,"39":-0.2997135519981384,"40":2.38227915763855,"41":-1.888370156288147,"42":1.3677775859832764,"43":-1.3739584684371948,"44":3.3192930221557617,"45":0.20387062430381775,"46":6.077626705169678,"47":-4.428850173950195,"48":-0.6569657325744629,"49":0.18625377118587494,"50":1.289926290512085,"51":2.0937118530273438,"52":1.042812466621399,"53":-0.3416714668273926,"54":2.462472677230835,"55":-4.944987773895264,"56":3.0699427127838135,"57":-1.6678646802902222,"58":4.6200385093688965,"59":0.6946774125099182,"60":1.6975276470184326,"61":-0.12238919734954834,"62":5.050113677978516,"63":-2.63543438911438,"64":-2.0050125122070312,"65":3.871469020843506,"66":2.9916653633117676,"67":-1.9007694721221924,"68":-2.0692431926727295,"69":-2.7244558334350586,"70":-2.9032604694366455,"71":-7.31831693649292,"72":-2.8787286281585693,"73":-1.4893321990966797,"74":0.3200450539588928,"75":1.4929134845733643,"76":-0.46644166111946106,"77":-0.42288142442703247,"78":4.6208319664001465,"79":-1.0919767618179321,"80":0.5096840858459473,"81":1.265214443206787,"82":-4.7901506423950195,"83":4.540524005889893,"84":-4.761280536651611,"85":-1.2353767156600952,"86":-1.632043480873108,"87":0.5767741799354553,"88":5.538319110870361,"89":0.6550535559654236,"90":0.1279718577861786,"91":-1.1609762907028198,"92":5.0721211433410645,"93":2.102745532989502,"94":-2.1369688510894775,"95":-3.160443067550659,"96":-0.6765377521514893,"97":0.19422872364521027,"98":-4.818807125091553,"99":0.9881223440170288,"100":3.83204984664917,"101":4.06190299987793,"102":-3.1220648288726807,"103":-0.7528517842292786,"104":-2.691831111907959,"105":0.3268851935863495,"106":-1.5080382823944092,"107":-0.027171354740858078,"108":8.713207244873047,"109":2.044858694076538,"110":-2.139613151550293,"111":1.0664151906967163,"112":3.7182750701904297,"113":-0.012933488003909588,"114":-0.49107077717781067,"115":1.615742564201355,"116":1.9209020137786865,"117":0.10225656628608704,"118":-2.3374216556549072,"119":-2.7777364253997803,"120":-2.1937484741210938,"121":-2.37677001953125,"122":-3.417208433151245,"123":-0.8738794922828674,"124":-0.9177099466323853,"125":2.129786968231201,"126":-1.0359244346618652,"127":0.2377232313156128,"128":-3.7630527019500732,"129":-0.11177122592926025,"130":-1.178082823753357,"131":-1.9599024057388306,"132":0.7697281837463379,"133":0.8186352849006653,"134":0.09512586891651154}},"23":{"bias":-3.2942276000976562,"weights":{"0":0.8261427283287048,"1":0.33499860763549805,"2":-1.7498565912246704,"3":2.6328840255737305,"4":4.844404220581055,"5":0.29493269324302673,"6":-1.7086411714553833,"7":-1.694176197052002,"8":0.3594687283039093,"9":-5.264329433441162,"10":-3.033240795135498,"11":-1.022236943244934,"12":-3.225778341293335,"13":-3.221607208251953,"14":1.8596510887145996,"15":-0.2407541424036026,"16":0.534559428691864,"17":3.134070634841919,"18":3.2219440937042236,"19":-0.8306822776794434,"20":1.4599626064300537,"21":5.227678298950195,"22":-2.361489772796631,"23":-0.3936328887939453,"24":-3.165015697479248,"25":2.1044909954071045,"26":-2.914055585861206,"27":-1.4219061136245728,"28":-1.9373589754104614,"29":-0.3196044862270355,"30":3.2072720527648926,"31":-1.8497346639633179,"32":-1.9070452451705933,"33":3.809950113296509,"34":-1.8222975730895996,"35":-1.734794020652771,"36":-2.131380081176758,"37":3.1311585903167725,"38":-2.3004093170166016,"39":0.08649277687072754,"40":0.8983146548271179,"41":-2.00250506401062,"42":-0.5928367972373962,"43":0.46607232093811035,"44":-2.0814859867095947,"45":1.8915776014328003,"46":-1.1429510116577148,"47":-2.5468294620513916,"48":3.767220973968506,"49":3.4410133361816406,"50":-0.2757245600223541,"51":0.17544476687908173,"52":2.1979076862335205,"53":-1.9785382747650146,"54":-3.169656276702881,"55":6.071200847625732,"56":2.4763119220733643,"57":7.345769882202148,"58":0.9563128352165222,"59":0.2799328863620758,"60":-3.0817131996154785,"61":-2.9261856079101562,"62":2.4756228923797607,"63":-0.46056225895881653,"64":-1.8537989854812622,"65":1.3378430604934692,"66":-1.413028597831726,"67":-0.2333150953054428,"68":-1.9049257040023804,"69":-0.26769715547561646,"70":-0.35055795311927795,"71":-0.2823724150657654,"72":0.18070197105407715,"73":-2.184617757797241,"74":-1.8394325971603394,"75":-2.6483516693115234,"76":0.08128335326910019,"77":-0.42999595403671265,"78":-2.6336398124694824,"79":-2.2102773189544678,"80":2.4208922386169434,"81":-4.22218132019043,"82":-1.2153337001800537,"83":0.37816566228866577,"84":2.8581490516662598,"85":3.074171781539917,"86":-1.5392614603042603,"87":-0.13654585182666779,"88":-1.2694607973098755,"89":6.076135635375977,"90":-0.549198567867279,"91":3.287881374359131,"92":3.884056806564331,"93":2.989607810974121,"94":0.49257412552833557,"95":-2.0622172355651855,"96":0.45290181040763855,"97":-0.17504557967185974,"98":-1.2062593698501587,"99":-1.3788983821868896,"100":-3.4511091709136963,"101":-1.9067319631576538,"102":-3.1268222332000732,"103":0.01601734198629856,"104":-0.7638551592826843,"105":-1.8515232801437378,"106":-2.3521666526794434,"107":-0.07350929826498032,"108":-5.0924072265625,"109":-0.5830991268157959,"110":-0.7890530228614807,"111":-3.2145040035247803,"112":-2.3542468547821045,"113":-2.826134443283081,"114":4.736126899719238,"115":-1.6779097318649292,"116":2.757185220718384,"117":0.166413351893425,"118":1.5952973365783691,"119":4.696799278259277,"120":-1.158564805984497,"121":-1.3947641849517822,"122":-1.0039470195770264,"123":-0.02811560407280922,"124":-0.06261851638555527,"125":-1.9580574035644531,"126":1.7305961847305298,"127":0.0016482515493407845,"128":-0.6165222525596619,"129":-0.3917515277862549,"130":-0.05671880766749382,"131":0.24407069385051727,"132":2.2815427780151367,"133":1.6000183820724487,"134":0.13330689072608948}},"24":{"bias":-4.068910598754883,"weights":{"0":-3.8513529300689697,"1":-0.5876901745796204,"2":1.4964447021484375,"3":-3.7688372135162354,"4":-1.5108073949813843,"5":-1.975171685218811,"6":1.124361276626587,"7":-1.065761923789978,"8":-2.1734237670898438,"9":2.9588985443115234,"10":1.8867478370666504,"11":3.27128267288208,"12":1.8353562355041504,"13":-3.1720023155212402,"14":3.382582426071167,"15":0.10240144282579422,"16":-0.28387361764907837,"17":-1.5438021421432495,"18":1.1061097383499146,"19":-2.6852338314056396,"20":0.6919874548912048,"21":0.45278939604759216,"22":0.8932651877403259,"23":-0.1543218195438385,"24":-1.5120396614074707,"25":-0.7747034430503845,"26":0.7300108671188354,"27":-0.38203924894332886,"28":2.4365110397338867,"29":-3.0704517364501953,"30":-0.4516732394695282,"31":2.209217071533203,"32":-1.1603009700775146,"33":-1.8462721109390259,"34":-0.23035769164562225,"35":2.855553150177002,"36":-1.29153311252594,"37":-1.843197226524353,"38":3.58076810836792,"39":-1.5665804147720337,"40":1.4235295057296753,"41":0.68197101354599,"42":0.2946108281612396,"43":0.1197265014052391,"44":-3.0783088207244873,"45":-0.9452918767929077,"46":-2.979170560836792,"47":-0.16700904071331024,"48":-1.420287847518921,"49":0.9211207628250122,"50":-0.06343179941177368,"51":1.7922654151916504,"52":-1.6145695447921753,"53":1.0719196796417236,"54":-0.5472581386566162,"55":-2.3472344875335693,"56":2.411738157272339,"57":-0.9915332794189453,"58":-0.7591437101364136,"59":-0.8023006319999695,"60":0.7159841656684875,"61":-0.4665127992630005,"62":-2.7930617332458496,"63":-0.45741426944732666,"64":2.3628811836242676,"65":-4.235196590423584,"66":1.0948666334152222,"67":1.7890411615371704,"68":1.795888066291809,"69":0.6319304704666138,"70":0.7957276701927185,"71":1.9912912845611572,"72":-1.509798288345337,"73":-0.7463317513465881,"74":-2.8902230262756348,"75":1.3402279615402222,"76":-0.2678055167198181,"77":-0.24065746366977692,"78":-0.8504164814949036,"79":-1.2686172723770142,"80":1.9528967142105103,"81":-1.7863490581512451,"82":-0.8645283579826355,"83":0.7961885929107666,"84":1.7960878610610962,"85":-2.3185369968414307,"86":-1.0535883903503418,"87":1.0348572731018066,"88":0.9006657600402832,"89":-1.3046025037765503,"90":-0.7719938158988953,"91":2.1068084239959717,"92":-2.3764898777008057,"93":0.11363585293292999,"94":-2.104527473449707,"95":3.645745038986206,"96":2.91784930229187,"97":-0.14451459050178528,"98":-0.16153381764888763,"99":-0.985362708568573,"100":-2.1027684211730957,"101":1.0501697063446045,"102":0.2679447531700134,"103":0.025536762550473213,"104":0.7778431177139282,"105":-2.488469362258911,"106":-1.4598236083984375,"107":-0.09294676780700684,"108":-0.23173807561397552,"109":1.1288179159164429,"110":1.0830388069152832,"111":0.14449305832386017,"112":2.0651204586029053,"113":0.29618099331855774,"114":1.906297206878662,"115":-0.6661245226860046,"116":-0.8247405886650085,"117":-0.1817963719367981,"118":1.4351775646209717,"119":0.5213981866836548,"120":-2.470480442047119,"121":-3.6833698749542236,"122":-0.453823059797287,"123":1.0464200973510742,"124":-0.19507049024105072,"125":-0.18883219361305237,"126":-3.9948644638061523,"127":-0.6081042289733887,"128":0.09170505404472351,"129":-0.01893700659275055,"130":-0.2624255418777466,"131":0.3044886589050293,"132":-0.7745221853256226,"133":-0.6798990368843079,"134":0.08142035454511642}},"25":{"bias":-5.057818412780762,"weights":{"0":-0.8137543201446533,"1":1.3977049589157104,"2":-4.2931904792785645,"3":1.2358930110931396,"4":0.971897304058075,"5":-1.3895258903503418,"6":1.4554121494293213,"7":-1.4790772199630737,"8":2.892390012741089,"9":-0.6257261037826538,"10":-6.617836952209473,"11":-1.026915192604065,"12":-1.7354403734207153,"13":1.1208701133728027,"14":-1.3059632778167725,"15":2.7179489135742188,"16":-1.3446520566940308,"17":1.0617642402648926,"18":-1.8460721969604492,"19":5.560428142547607,"20":-7.798275947570801,"21":2.7324678897857666,"22":6.6121506690979,"23":0.07163366675376892,"24":0.890300452709198,"25":-1.5827564001083374,"26":-2.0843887329101562,"27":-2.595923900604248,"28":6.8270721435546875,"29":-2.38277268409729,"30":4.012976169586182,"31":0.2470693439245224,"32":-2.517871856689453,"33":1.8393820524215698,"34":1.5773835182189941,"35":-0.4908945858478546,"36":-2.007500171661377,"37":0.7150034308433533,"38":-0.0007900449563749135,"39":-4.495729923248291,"40":5.516226291656494,"41":-2.3227527141571045,"42":-2.793524742126465,"43":1.067570686340332,"44":-1.0300567150115967,"45":0.6927602887153625,"46":0.3485780954360962,"47":-4.794905185699463,"48":-5.132076740264893,"49":1.4618314504623413,"50":0.6985183954238892,"51":-0.80451899766922,"52":0.02512458711862564,"53":-0.04550931230187416,"54":-6.468889236450195,"55":-3.6667919158935547,"56":-3.4630086421966553,"57":0.8339847922325134,"58":-2.630176305770874,"59":-8.87102222442627,"60":3.5877833366394043,"61":-1.7740720510482788,"62":-4.933375835418701,"63":1.8412052392959595,"64":2.6285459995269775,"65":-2.6445555686950684,"66":9.102218627929688,"67":2.85331392288208,"68":1.5167102813720703,"69":1.4465705156326294,"70":0.8920915722846985,"71":4.010850429534912,"72":-2.177565574645996,"73":-0.46300938725471497,"74":1.2941651344299316,"75":1.3529483079910278,"76":-1.548801064491272,"77":2.0192806720733643,"78":-2.8615574836730957,"79":0.07743556797504425,"80":2.441218852996826,"81":-6.14851188659668,"82":0.585936963558197,"83":-1.8479129076004028,"84":2.7125301361083984,"85":1.9406588077545166,"86":-2.529244899749756,"87":2.6181111335754395,"88":-0.2949618101119995,"89":-0.9373515248298645,"90":0.6408918499946594,"91":-2.3859918117523193,"92":0.5338026881217957,"93":-4.810169219970703,"94":6.107717037200928,"95":-1.3617573976516724,"96":0.4227106273174286,"97":0.16182763874530792,"98":8.037819862365723,"99":-4.278243541717529,"100":-0.46153953671455383,"101":-0.0926542729139328,"102":-1.7506071329116821,"103":0.3426293730735779,"104":-0.27950412034988403,"105":1.955273985862732,"106":-4.469656467437744,"107":-0.19198141992092133,"108":-11.277190208435059,"109":-0.6061225533485413,"110":3.4193694591522217,"111":-3.2778666019439697,"112":1.1537144184112549,"113":-5.966474533081055,"114":-0.08755207806825638,"115":0.5085559487342834,"116":2.519238233566284,"117":-0.12226330488920212,"118":3.3905868530273438,"119":2.598848819732666,"120":-5.568998336791992,"121":-4.742067337036133,"122":10.135798454284668,"123":0.9158545136451721,"124":0.12283295392990112,"125":4.406319618225098,"126":-4.133630752563477,"127":-2.4575393199920654,"128":2.8627922534942627,"129":0.19939938187599182,"130":0.9617128968238831,"131":-1.219498634338379,"132":2.8984713554382324,"133":-2.6227874755859375,"134":-0.04168720170855522}},"26":{"bias":-9.619247436523438,"weights":{"0":4.732104301452637,"1":-3.8826305866241455,"2":-4.791463375091553,"3":-5.969160556793213,"4":1.3445196151733398,"5":2.609992504119873,"6":-2.0937321186065674,"7":-0.9819571375846863,"8":4.547959327697754,"9":-0.8290975689888,"10":-3.8470683097839355,"11":2.9862163066864014,"12":-1.956199288368225,"13":0.24025137722492218,"14":-2.86956524848938,"15":-0.764380931854248,"16":-0.2741553783416748,"17":1.614561676979065,"18":-2.3035340309143066,"19":-5.6420207023620605,"20":-1.3177602291107178,"21":-3.5531976222991943,"22":2.44303822517395,"23":-0.10546498000621796,"24":7.55656623840332,"25":1.7495402097702026,"26":-0.1252906173467636,"27":4.631449222564697,"28":-2.5648412704467773,"29":-0.5011572241783142,"30":-0.398050457239151,"31":2.4033915996551514,"32":-0.13002131879329681,"33":-0.6827165484428406,"34":-1.2509227991104126,"35":4.047787666320801,"36":-4.318055152893066,"37":-1.3671191930770874,"38":-6.061224937438965,"39":-2.1466715335845947,"40":3.8232367038726807,"41":-5.834359169006348,"42":-0.8049162030220032,"43":-0.47813811898231506,"44":2.4408304691314697,"45":-2.007641077041626,"46":3.788881301879883,"47":-4.518868446350098,"48":2.6552135944366455,"49":-0.6239798069000244,"50":-0.12451605498790741,"51":1.2150542736053467,"52":-1.361173152923584,"53":0.10065287351608276,"54":-4.057093143463135,"55":-2.485215663909912,"56":-0.32676008343696594,"57":3.4029431343078613,"58":-2.00830340385437,"59":-2.192042350769043,"60":-0.9422281980514526,"61":-2.154534101486206,"62":3.7076127529144287,"63":-0.9620761275291443,"64":1.350283145904541,"65":4.225463390350342,"66":-0.508242666721344,"67":7.122410774230957,"68":-2.638366222381592,"69":-0.4549412131309509,"70":-0.4034941494464874,"71":-0.8795231580734253,"72":-1.0951248407363892,"73":-3.596822738647461,"74":-1.2793569564819336,"75":-4.021827220916748,"76":-0.4833436906337738,"77":-0.1921476125717163,"78":2.033688545227051,"79":-0.2668198347091675,"80":-1.242240071296692,"81":4.250205039978027,"82":-3.4308154582977295,"83":-0.7922455668449402,"84":0.04615223780274391,"85":0.5958384871482849,"86":2.2247018814086914,"87":-2.183244466781616,"88":-1.6049336194992065,"89":1.2806309461593628,"90":0.8447651863098145,"91":0.6789404153823853,"92":-0.11081373691558838,"93":-3.1969199180603027,"94":1.8241389989852905,"95":-7.839776515960693,"96":0.8276492953300476,"97":0.1067417562007904,"98":-4.413064956665039,"99":2.0443575382232666,"100":-0.7828728556632996,"101":-4.8892903327941895,"102":0.9194163084030151,"103":-0.0642227903008461,"104":-0.013863222673535347,"105":0.5796929001808167,"106":1.46157705783844,"107":-0.14325277507305145,"108":6.708059787750244,"109":-0.9204575419425964,"110":0.1844054013490677,"111":-0.9535820484161377,"112":-3.7612740993499756,"113":0.5797462463378906,"114":-1.2287631034851074,"115":1.6588605642318726,"116":-3.2444090843200684,"117":0.12049181014299393,"118":-1.5598756074905396,"119":-0.8233511447906494,"120":1.8373584747314453,"121":1.497520923614502,"122":-3.0232784748077393,"123":-0.7879351377487183,"124":-0.1786564588546753,"125":-0.31893590092658997,"126":-1.038644790649414,"127":2.24120831489563,"128":-2.882073163986206,"129":-0.4518508315086365,"130":-0.7266116142272949,"131":-0.5103518962860107,"132":-1.9957109689712524,"133":-0.5816474556922913,"134":-0.03836483880877495}},"27":{"bias":-5.201362609863281,"weights":{"0":-5.541447162628174,"1":-0.661766767501831,"2":-2.6678876876831055,"3":-2.7988736629486084,"4":-3.3799943923950195,"5":1.9157572984695435,"6":0.09768719971179962,"7":2.1010353565216064,"8":-0.3401392996311188,"9":0.4964945614337921,"10":-1.4916749000549316,"11":-0.3437137007713318,"12":-2.712228536605835,"13":-0.279099702835083,"14":-0.902339518070221,"15":-0.040819477289915085,"16":0.4888121485710144,"17":2.0579380989074707,"18":1.3808857202529907,"19":1.3737187385559082,"20":3.273447036743164,"21":-1.9322463274002075,"22":0.9471871256828308,"23":-0.2771131694316864,"24":1.440487027168274,"25":-1.2273377180099487,"26":3.800441026687622,"27":-4.5630693435668945,"28":0.46092095971107483,"29":2.7287817001342773,"30":0.6434213519096375,"31":-1.865364909172058,"32":-2.410912275314331,"33":0.7833229899406433,"34":1.6007939577102661,"35":1.0521944761276245,"36":-0.5167378783226013,"37":2.239081859588623,"38":-2.6512649059295654,"39":0.7778629064559937,"40":0.9220388531684875,"41":-4.5434064865112305,"42":0.6601471900939941,"43":0.14748156070709229,"44":1.947182059288025,"45":1.9815564155578613,"46":-1.1916954517364502,"47":1.84811270236969,"48":-3.9116077423095703,"49":-1.3209850788116455,"50":-0.037116192281246185,"51":-1.7673722505569458,"52":3.275965690612793,"53":-1.778390884399414,"54":-2.0179474353790283,"55":2.0031821727752686,"56":1.1873321533203125,"57":3.7336931228637695,"58":-0.3470785915851593,"59":-1.1827248334884644,"60":-2.4181981086730957,"61":-1.896923303604126,"62":-1.5958067178726196,"63":-1.0605014562606812,"64":-1.4724855422973633,"65":-2.7733254432678223,"66":4.039060115814209,"67":-1.8921045064926147,"68":-1.9893152713775635,"69":-0.0732547715306282,"70":1.0588947534561157,"71":-3.8389034271240234,"72":1.961409330368042,"73":3.6714138984680176,"74":-0.0003476767451502383,"75":-0.14194269478321075,"76":-1.3376587629318237,"77":-0.10495566576719284,"78":-0.0362684391438961,"79":1.593380331993103,"80":-1.13939368724823,"81":-1.3003249168395996,"82":5.165250301361084,"83":-0.18549089133739471,"84":5.432187080383301,"85":-0.3883726894855499,"86":-2.0701966285705566,"87":-0.1079624593257904,"88":-1.557527780532837,"89":0.11724241077899933,"90":-1.8508352041244507,"91":-1.0918816328048706,"92":-4.472042560577393,"93":3.655247688293457,"94":-6.402716159820557,"95":0.2735688388347626,"96":-0.14761726558208466,"97":-0.09765586256980896,"98":-1.9221159219741821,"99":0.11162170022726059,"100":-0.6586845517158508,"101":0.8784756064414978,"102":2.136610746383667,"103":-0.45748698711395264,"104":-0.5582705736160278,"105":-0.6207184195518494,"106":0.7880927324295044,"107":0.002150698797777295,"108":1.578510046005249,"109":0.616793155670166,"110":-1.126289963722229,"111":-2.657930850982666,"112":-7.548855781555176,"113":-0.6791282296180725,"114":0.47842878103256226,"115":-1.0505515336990356,"116":2.745304822921753,"117":0.008467210456728935,"118":-2.60014271736145,"119":2.6762983798980713,"120":-1.556864619255066,"121":-1.6425788402557373,"122":-2.369961738586426,"123":-0.24239453673362732,"124":-0.6414647102355957,"125":1.0845017433166504,"126":2.2398791313171387,"127":1.308523416519165,"128":-0.9749114513397217,"129":0.2752472460269928,"130":-0.33485475182533264,"131":0.6674817800521851,"132":2.6042048931121826,"133":0.1409696340560913,"134":0.08014917373657227}},"28":{"bias":-4.278373718261719,"weights":{"0":4.344988822937012,"1":-0.22968967258930206,"2":2.1204681396484375,"3":-2.660679578781128,"4":-2.6576621532440186,"5":0.6975767612457275,"6":-0.29547691345214844,"7":0.1235995814204216,"8":1.0808643102645874,"9":-1.8460266590118408,"10":-0.7796348333358765,"11":-2.118718385696411,"12":-2.2850840091705322,"13":-2.4557929039001465,"14":-1.9016082286834717,"15":-0.5344911217689514,"16":-0.8431697487831116,"17":0.8231504559516907,"18":-0.04284972324967384,"19":-0.47112298011779785,"20":-0.22077885270118713,"21":2.2216248512268066,"22":1.267167091369629,"23":0.11721839010715485,"24":0.4636203944683075,"25":-0.19187742471694946,"26":1.612350583076477,"27":-2.6145193576812744,"28":1.3502757549285889,"29":-1.215893268585205,"30":4.109023571014404,"31":-2.5386440753936768,"32":-0.3557821214199066,"33":1.898512363433838,"34":1.06858491897583,"35":-1.1306229829788208,"36":-0.9237238168716431,"37":-1.9009144306182861,"38":-1.2179884910583496,"39":1.0598647594451904,"40":0.5997447967529297,"41":-0.8257011771202087,"42":0.5596330761909485,"43":1.6504483222961426,"44":-0.8414754271507263,"45":-2.5669586658477783,"46":0.8017520308494568,"47":0.42178985476493835,"48":-1.7955561876296997,"49":-1.0867060422897339,"50":-0.4440898597240448,"51":-0.6280236840248108,"52":-3.0813894271850586,"53":5.085600852966309,"54":4.14171838760376,"55":-0.5984380841255188,"56":-2.153958559036255,"57":-2.4097747802734375,"58":-0.3817239999771118,"59":-0.39060500264167786,"60":-3.2773144245147705,"61":3.2782301902770996,"62":-2.4532594680786133,"63":-1.349689245223999,"64":-1.9960194826126099,"65":-3.1798033714294434,"66":2.8186872005462646,"67":3.244513750076294,"68":-3.045611619949341,"69":0.0982123464345932,"70":0.07454369217157364,"71":-3.49063777923584,"72":2.4562761783599854,"73":4.459017753601074,"74":-0.6904314160346985,"75":-0.10253477096557617,"76":-0.6394050717353821,"77":-0.16155396401882172,"78":0.07268377393484116,"79":2.6084604263305664,"80":-0.6544259786605835,"81":-1.3697043657302856,"82":3.4655227661132812,"83":0.7762740850448608,"84":0.012175783514976501,"85":-1.2667477130889893,"86":-0.40696150064468384,"87":1.840533971786499,"88":-0.09566037356853485,"89":-3.757946729660034,"90":-1.6736726760864258,"91":-0.07639558613300323,"92":0.961479663848877,"93":-0.463989794254303,"94":-0.17264939844608307,"95":-0.38619574904441833,"96":0.19167660176753998,"97":0.0517011433839798,"98":-3.489964246749878,"99":0.7143886685371399,"100":2.0086135864257812,"101":0.37281113862991333,"102":2.6184041500091553,"103":-1.6590408086776733,"104":-0.6463404297828674,"105":-2.308523416519165,"106":0.023440323770046234,"107":-0.09143722057342529,"108":2.3878977298736572,"109":0.829055666923523,"110":-0.8843810558319092,"111":-2.711284637451172,"112":-2.390249013900757,"113":0.4609639644622803,"114":0.059686463326215744,"115":0.08611226826906204,"116":-3.2538013458251953,"117":0.01903640665113926,"118":-0.9140694737434387,"119":1.9704779386520386,"120":-2.2007012367248535,"121":-2.435771942138672,"122":-3.8317883014678955,"123":0.464347243309021,"124":-0.5697978138923645,"125":-1.5300893783569336,"126":3.439697265625,"127":2.687382221221924,"128":1.1943540573120117,"129":0.462971031665802,"130":-0.4243631660938263,"131":0.8890751004219055,"132":-0.4279922842979431,"133":2.503889560699463,"134":-0.09898915886878967}},"29":{"bias":-1.2892272472381592,"weights":{"0":-0.30303001403808594,"1":1.9143303632736206,"2":-0.7361786961555481,"3":-1.0400795936584473,"4":1.5515748262405396,"5":-2.4852497577667236,"6":-2.1815006732940674,"7":-1.608708381652832,"8":-1.2664810419082642,"9":3.610264778137207,"10":-2.0747880935668945,"11":3.1332273483276367,"12":1.6707961559295654,"13":0.5997728705406189,"14":-5.073653697967529,"15":-0.7386107444763184,"16":0.09134414792060852,"17":6.014676094055176,"18":-2.4306094646453857,"19":2.6622025966644287,"20":1.8525819778442383,"21":-2.064258098602295,"22":0.41055771708488464,"23":0.025604575872421265,"24":-2.9031546115875244,"25":3.3196029663085938,"26":-2.8176114559173584,"27":4.301300525665283,"28":-2.102735996246338,"29":5.093050479888916,"30":-3.3439009189605713,"31":4.370649337768555,"32":-1.5006945133209229,"33":-1.812737226486206,"34":3.375037908554077,"35":-0.6272091865539551,"36":-2.8643312454223633,