{"sizes":[135,32,16,1],"layers":[{"0":{},"1":{},"2":{},"3":{},"4":{},"5":{},"6":{},"7":{},"8":{},"9":{},"10":{},"11":{},"12":{},"13":{},"14":{},"15":{},"16":{},"17":{},"18":{},"19":{},"20":{},"21":{},"22":{},"23":{},"24":{},"25":{},"26":{},"27":{},"28":{},"29":{},"30":{},"31":{},"32":{},"33":{},"34":{},"35":{},"36":{},"37":{},"38":{},"39":{},"40":{},"41":{},"42":{},"43":{},"44":{},"45":{},"46":{},"47":{},"48":{},"49":{},"50":{},"51":{},"52":{},"53":{},"54":{},"55":{},"56":{},"57":{},"58":{},"59":{},"60":{},"61":{},"62":{},"63":{},"64":{},"65":{},"66":{},"67":{},"68":{},"69":{},"70":{},"71":{},"72":{},"73":{},"74":{},"75":{},"76":{},"77":{},"78":{},"79":{},"80":{},"81":{},"82":{},"83":{},"84":{},"85":{},"86":{},"87":{},"88":{},"89":{},"90":{},"91":{},"92":{},"93":{},"94":{},"95":{},"96":{},"97":{},"98":{},"99":{},"100":{},"101":{},"102":{},"103":{},"104":{},"105":{},"106":{},"107":{},"108":{},"109":{},"110":{},"111":{},"112":{},"113":{},"114":{},"115":{},"116":{},"117":{},"118":{},"119":{},"120":{},"121":{},"122":{},"123":{},"124":{},"125":{},"126":{},"127":{},"128":{},"129":{},"130":{},"131":{},"132":{},"133":{},"134":{}},{"0":{"bias":-4.504743576049805,"weights":{"0":-2.4557578563690186,"1":-2.7148513793945312,"2":-0.32705986499786377,"3":-2.471045732498169,"4":4.029118537902832,"5":0.43082693219184875,"6":-1.4560539722442627,"7":0.187045618891716,"8":0.43504849076271057,"9":0.1734161078929901,"10":-0.13647907972335815,"11":-2.248096227645874,"12":-1.3053946495056152,"13":0.09639096260070801,"14":-4.494439125061035,"15":-0.5350916981697083,"16":0.2814211845397949,"17":-3.1193366050720215,"18":2.4229941368103027,"19":-0.5168887972831726,"20":2.9410512447357178,"21":0.17408780753612518,"22":1.221035361289978,"23":-0.6967025399208069,"24":2.5919315814971924,"25":3.155318260192871,"26":-0.3553508520126343,"27":-2.319077968597412,"28":0.6829414367675781,"29":2.039996862411499,"30":2.7211835384368896,"31":-0.8804304003715515,"32":0.2313447743654251,"33":-0.14693917334079742,"34":-2.7690370082855225,"35":0.16137290000915527,"36":1.9963653087615967,"37":-2.399012804031372,"38":-2.4097039699554443,"39":-4.018763542175293,"40":-3.2663204669952393,"41":-3.1207025051116943,"42":0.5835492014884949,"43":-0.3204510807991028,"44":0.7302104234695435,"45":1.3188613653182983,"46":1.1115559339523315,"47":-2.13197660446167,"48":1.8561087846755981,"49":2.8219826221466064,"50":-1.285161018371582,"51":2.1162912845611572,"52":1.179215908050537,"53":0.06514085084199905,"54":-0.9882453680038452,"55":4.069157600402832,"56":2.061304807662964,"57":3.8964784145355225,"58":-0.7364407181739807,"59":-1.953398585319519,"60":-2.2128217220306396,"61":-1.4111075401306152,"62":-0.3498460650444031,"63":-1.8084927797317505,"64":0.4131278991699219,"65":-0.14005127549171448,"66":3.2191269397735596,"67":0.1207641139626503,"68":-2.403266191482544,"69":0.21649372577667236,"70":-0.7327291965484619,"71":-3.0425708293914795,"72":0.9727730751037598,"73":-0.5332285165786743,"74":0.9596365690231323,"75":-1.41970956325531,"76":0.6576733589172363,"77":-1.1236932277679443,"78":-1.5643879175186157,"79":-2.3483328819274902,"80":0.6472609043121338,"81":0.586350679397583,"82":0.3954106569290161,"83":0.030385209247469902,"84":2.0234596729278564,"85":-0.9062978625297546,"86":1.544539451599121,"87":-1.5445990562438965,"88":-2.52648663520813,"89":-0.8206003904342651,"90":0.006328610237687826,"91":0.28453803062438965,"92":-4.409679412841797,"93":-5.810067653656006,"94":1.582314372062683,"95":1.681828260421753,"96":-0.8123381733894348,"97":-0.03652149811387062,"98":1.364143967628479,"99":1.9910234212875366,"100":1.2606078386306763,"101":2.539155960083008,"102":-3.160072088241577,"103":-0.6447970271110535,"104":-0.4184207320213318,"105":-0.08009565621614456,"106":1.159839391708374,"107":0.07353061437606812,"108":-4.357787132263184,"109":0.4140881896018982,"110":0.8045639991760254,"111":2.1200976371765137,"112":-2.729431629180908,"113":0.05694664269685745,"114":0.9171028137207031,"115":-0.4443439841270447,"116":3.3453562259674072,"117":0.14926497638225555,"118":1.089950680732727,"119":3.659615993499756,"120":-3.806645631790161,"121":-3.8713316917419434,"122":-1.553979754447937,"123":-0.27177727222442627,"124":-0.09609968960285187,"125":-0.03175639733672142,"126":-4.233981132507324,"127":-2.356680393218994,"128":-0.5554905533790588,"129":-0.6454724669456482,"130":-0.22484885156154633,"131":0.4149705171585083,"132":3.3495726585388184,"133":3.3800504207611084,"134":0.12313154339790344}},"1":{"bias":-2.7269351482391357,"weights":{"0":-4.586731433868408,"1":-0.5939838886260986,"2":-2.522542953491211,"3":-1.7262521982192993,"4":0.7953752279281616,"5":3.567823648452759,"6":-0.44111868739128113,"7":-1.263150930404663,"8":1.4175688028335571,"9":3.030751943588257,"10":-1.6843925714492798,"11":-0.40821897983551025,"12":-1.156873106956482,"13":2.9207582473754883,"14":-0.622784435749054,"15":0.4543836712837219,"16":-2.543912649154663,"17":-2.352065324783325,"18":-3.173140287399292,"19":-0.46949684619903564,"20":1.6700462102890015,"21":-0.7291420698165894,"22":3.2026665210723877,"23":0.39717307686805725,"24":2.1910908222198486,"25":-3.1139471530914307,"26":4.83592414855957,"27":-0.6791695356369019,"28":-1.3264834880828857,"29":-7.265809059143066,"30":-0.13761043548583984,"31":-2.467592716217041,"32":2.823444366455078,"33":-0.534589946269989,"34":-0.6991199254989624,"35":-0.5014700889587402,"36":0.4573342800140381,"37":2.5836873054504395,"38":-1.6333162784576416,"39":-2.963423252105713,"40":3.3325133323669434,"41":-0.028389696031808853,"42":-0.941852867603302,"43":0.4338389039039612,"44":0.4674879014492035,"45":-2.160051107406616,"46":2.5051257610321045,"47":1.1703383922576904,"48":1.751796007156372,"49":2.3210182189941406,"50":0.1340761035680771,"51":0.8094974160194397,"52":-0.5400131940841675,"53":-0.5634332299232483,"54":-0.6181530952453613,"55":2.611452579498291,"56":1.8354012966156006,"57":-1.8192652463912964,"58":0.1258426457643509,"59":0.3573306202888489,"60":-0.6453779339790344,"61":4.120749473571777,"62":-0.5247021317481995,"63":2.4010088443756104,"64":-0.7132374048233032,"65":-0.033144883811473846,"66":-2.8602476119995117,"67":-0.8788594603538513,"68":-2.8927111625671387,"69":1.2439258098602295,"70":-1.6797889471054077,"71":1.7381948232650757,"72":-4.033740997314453,"73":2.1421236991882324,"74":1.0613652467727661,"75":-3.63417387008667,"76":0.11951053887605667,"77":0.5533552765846252,"78":-0.6100090146064758,"79":1.0322599411010742,"80":-1.3201117515563965,"81":0.42242321372032166,"82":-1.782721757888794,"83":-1.9064472913742065,"84":0.5799685120582581,"85":-2.752350091934204,"86":-1.5152192115783691,"87":-3.109921932220459,"88":1.189848780632019,"89":-1.3510446548461914,"90":0.9019972681999207,"91":-4.239584445953369,"92":-1.3103001117706299,"93":-3.625429630279541,"94":0.5549910664558411,"95":0.5967018604278564,"96":3.954390287399292,"97":0.09209226071834564,"98":5.337331295013428,"99":0.5982893109321594,"100":3.859050989151001,"101":0.7650147676467896,"102":-1.6758930683135986,"103":1.8751444816589355,"104":-0.3507617712020874,"105":-0.4173937439918518,"106":-0.28687214851379395,"107":-0.10546968132257462,"108":-1.7439301013946533,"109":-2.925274133682251,"110":2.348116397857666,"111":-1.5786476135253906,"112":-3.053593873977661,"113":-0.9282962083816528,"114":1.8431880474090576,"115":-1.1294827461242676,"116":-2.792754650115967,"117":-0.1931276172399521,"118":3.0415334701538086,"119":-0.5247567892074585,"120":-0.7893255949020386,"121":-0.1475597470998764,"122":2.881838798522949,"123":0.9183697700500488,"124":1.3156774044036865,"125":-1.6496918201446533,"126":-0.6894816160202026,"127":1.7442773580551147,"128":-0.752343475818634,"129":-0.15998002886772156,"130":0.5243105888366699,"131":1.2686725854873657,"132":-2.9100661277770996,"133":1.1103407144546509,"134":0.10966793447732925}},"2":{"bias":-3.555137872695923,"weights":{"0":2.5439798831939697,"1":-1.4463706016540527,"2":-0.015441475436091423,"3":-3.6906089782714844,"4":0.41320884227752686,"5":1.4580540657043457,"6":-0.5872102379798889,"7":-1.148129940032959,"8":3.25049090385437,"9":1.1220413446426392,"10":1.0959795713424683,"11":0.282592236995697,"12":-2.093632698059082,"13":-4.96638822555542,"14":-2.009495973587036,"15":1.6470799446105957,"16":-1.5639790296554565,"17":1.415126085281372,"18":-0.7886534929275513,"19":5.336911678314209,"20":-2.661892890930176,"21":-2.567863702774048,"22":-1.6856917142868042,"23":0.5185565948486328,"24":1.6254539489746094,"25":-2.3017988204956055,"26":1.739794135093689,"27":-0.34887805581092834,"28":-3.863452911376953,"29":0.9238681793212891,"30":-2.257420063018799,"31":1.5119004249572754,"32":-1.50533127784729,"33":3.4457106590270996,"34":-0.6615357398986816,"35":-1.9664335250854492,"36":4.977007865905762,"37":0.011102532036602497,"38":3.816676378250122,"39":-2.389904499053955,"40":-7.087380409240723,"41":0.886637270450592,"42":-0.5008443593978882,"43":0.46191686391830444,"44":-1.649960994720459,"45":4.3243584632873535,"46":-1.9538205862045288,"47":1.1813136339187622,"48":2.4099936485290527,"49":-0.6327078938484192,"50":1.6370493173599243,"51":-3.316761016845703,"52":-2.1708662509918213,"53":1.0210368633270264,"54":1.3137059211730957,"55":-2.591219902038574,"56":-1.7788596153259277,"57":-3.607501268386841,"58":-0.5577355027198792,"59":5.276882648468018,"60":-1.485209345817566,"61":0.023314183577895164,"62":0.8167651295661926,"63":1.187088966369629,"64":0.9397767186164856,"65":-2.9450085163116455,"66":-0.03519991785287857,"67":2.177332639694214,"68":-0.7009169459342957,"69":0.7046552896499634,"70":4.929525375366211,"71":4.036745548248291,"72":-1.4597041606903076,"73":-3.896822690963745,"74":-4.288014888763428,"75":-0.4461674094200134,"76":0.13555335998535156,"77":0.2611955404281616,"78":-2.1953718662261963,"79":0.3442618250846863,"80":0.41978511214256287,"81":-1.2523161172866821,"82":0.4192911386489868,"83":0.5381771922111511,"84":-0.6356694102287292,"85":-2.051076650619507,"86":2.298855781555176,"87":-1.5883798599243164,"88":-4.738720893859863,"89":-3.891413688659668,"90":2.273608922958374,"91":0.8660436868667603,"92":-2.0349466800689697,"93":-2.053082227706909,"94":-6.645546913146973,"95":2.640960454940796,"96":2.082305431365967,"97":0.0816042497754097,"98":-2.938847541809082,"99":3.2055983543395996,"100":1.3591570854187012,"101":4.541228771209717,"102":2.986205816268921,"103":1.4293392896652222,"104":0.3763178586959839,"105":-3.6571929454803467,"106":3.174337863922119,"107":-0.1545860767364502,"108":0.3219030797481537,"109":-1.5076215267181396,"110":1.3942804336547852,"111":0.6407719850540161,"112":0.06505020707845688,"113":0.20608529448509216,"114":-0.2656635046005249,"115":-2.014911651611328,"116":-1.479369878768921,"117":0.060180310159921646,"118":2.315192937850952,"119":0.6131467819213867,"120":-3.7030458450317383,"121":-4.593787670135498,"122":-0.26408904790878296,"123":0.11409313976764679,"124":0.4402351975440979,"125":2.95754337310791,"126":-0.14732667803764343,"127":-2.134115219116211,"128":1.404860496520996,"129":0.18180176615715027,"130":0.5485125780105591,"131":0.05281061306595802,"132":-1.3508715629577637,"133":1.3213196992874146,"134":-0.09338156133890152}},"3":{"bias":-2.544881820678711,"weights":{"0":1.1249574422836304,"1":2.6149778366088867,"2":-0.9068760871887207,"3":-0.8879563212394714,"4":-6.969852924346924,"5":-0.5690088868141174,"6":-1.6681911945343018,"7":0.8006284832954407,"8":1.2784100770950317,"9":-0.434710294008255,"10":-0.9887223839759827,"11":-2.285465955734253,"12":2.24402117729187,"13":-1.0519150495529175,"14":2.0382890701293945,"15":0.4889836609363556,"16":0.8275731801986694,"17":0.1667361855506897,"18":0.4040939509868622,"19":0.8354600071907043,"20":2.48205828666687,"21":-1.819925308227539,"22":2.1154348850250244,"23":-0.19311104714870453,"24":0.6958065629005432,"25":0.5128007531166077,"26":-2.8874218463897705,"27":-1.5767139196395874,"28":0.6666115522384644,"29":-1.9367557764053345,"30":-3.5547800064086914,"31":0.011271100491285324,"32":-0.9171273112297058,"33":2.6130566596984863,"34":0.4675593674182892,"35":-2.554962396621704,"36":3.731428861618042,"37":1.1990689039230347,"38":-2.069209575653076,"39":-0.7579716444015503,"40":-0.4724188446998596,"41":3.303457736968994,"42":-1.4329220056533813,"43":-0.2374422550201416,"44":0.6713763475418091,"45":2.9770259857177734,"46":-3.382145881652832,"47":4.785656452178955,"48":-1.274103045463562,"49":-1.5150015354156494,"50":-0.30097630620002747,"51":-2.201986312866211,"52":1.4877760410308838,"53":-1.554850459098816,"54":-1.8415822982788086,"55":3.676621437072754,"56":-1.7238178253173828,"57":3.3132951259613037,"58":-1.2558691501617432,"59":-0.4455626904964447,"60":-2.6705315113067627,"61":-1.775585412979126,"62":-4.024860382080078,"63":-0.4963180720806122,"64":2.8610591888427734,"65":-1.6338450908660889,"66":-0.31724032759666443,"67":-4.19527006149292,"68":2.023082733154297,"69":0.27446043491363525,"70":1.2398123741149902,"71":1.3391940593719482,"72":0.059618160128593445,"73":3.8794829845428467,"74":1.645935297012329,"75":-0.24668090045452118,"76":0.5265554785728455,"77":-0.37906143069267273,"78":-3.4786243438720703,"79":0.3704760670661926,"80":0.5124418139457703,"81":-3.100956678390503,"82":-1.4010589122772217,"83":-3.964618682861328,"84":-2.8386683464050293,"85":-1.1635692119598389,"86":0.20614980161190033,"87":-0.15495653450489044,"88":1.4817873239517212,"89":-3.4296715259552,"90":-1.4974690675735474,"91":-1.0104824304580688,"92":-1.2141122817993164,"93":4.458815097808838,"94":-3.8861608505249023,"95":2.733405351638794,"96":1.4094202518463135,"97":0.10562454164028168,"98":1.0622342824935913,"99":2.1626243591308594,"100":0.05802111327648163,"101":5.302992343902588,"102":-2.1878833770751953,"103":-0.5069311261177063,"104":0.038895394653081894,"105":2.193695545196533,"106":2.17258620262146,"107":-0.11644500494003296,"108":-0.8410630822181702,"109":0.5496556162834167,"110":-0.6943448781967163,"111":1.695927619934082,"112":1.1206648349761963,"113":1.4653937816619873,"114":0.37038514018058777,"115":1.1998270750045776,"116":1.208994746208191,"117":-0.10942652821540833,"118":-1.367596983909607,"119":3.671454668045044,"120":-4.977721691131592,"121":-4.646390438079834,"122":-0.148403599858284,"123":0.049112170934677124,"124":-0.30656173825263977,"125":-0.15718093514442444,"126":-4.298029899597168,"127":1.969366431236267,"128":-1.2324495315551758,"129":-0.3658493459224701,"130":-0.054547082632780075,"131":1.1574691534042358,"132":1.3679232597351074,"133":0.48646748065948486,"134":-0.02122778818011284}},"4":{"bias":-4.096464157104492,"weights":{"0":-4.064737319946289,"1":2.2048535346984863,"2":-1.9051530361175537,"3":0.23389366269111633,"4":-2.1477487087249756,"5":0.21891245245933533,"6":1.1137206554412842,"7":1.5319803953170776,"8":0.25696927309036255,"9":2.36930513381958,"10":-1.0943089723587036,"11":0.44929251074790955,"12":-2.428298234939575,"13":-1.805877685546875,"14":-0.0003828600747510791,"15":0.007642033975571394,"16":0.5694087147712708,"17":2.649261474609375,"18":-1.8488736152648926,"19":2.77423357963562,"20":0.13514234125614166,"21":-1.4388365745544434,"22":1.7446006536483765,"23":0.8700773119926453,"24":0.1347508579492569,"25":-0.7766940593719482,"26":-4.274239540100098,"27":-0.3471582233905792,"28":5.190704345703125,"29":-0.8411001563072205,"30":4.2041239738464355,"31":2.973634958267212,"32":-3.2049131393432617,"33":1.1713480949401855,"34":0.9125964641571045,"35":-2.140493631362915,"36":-3.6534461975097656,"37":2.1566550731658936,"38":-6.2503275871276855,"39":0.09580448269844055,"40":5.255856037139893,"41":0.06654715538024902,"42":-0.9223418831825256,"43":-0.07839392125606537,"44":-6.174282550811768,"45":-0.9283473491668701,"46":3.776608943939209,"47":-1.8100188970565796,"48":3.207049608230591,"49":-1.1063896417617798,"50":0.1498960703611374,"51":-1.3892041444778442,"52":-2.9473166465759277,"53":-1.5301148891448975,"54":-3.56831431388855,"55":0.6028505563735962,"56":-1.640859842300415,"57":-0.17085705697536469,"58":2.8512990474700928,"59":-4.889808654785156,"60":2.0736401081085205,"61":-0.8985878825187683,"62":-2.345888376235962,"63":-0.38179248571395874,"64":0.08791330456733704,"65":-1.7292215824127197,"66":0.7202256321907043,"67":-4.46713924407959,"68":-1.5489119291305542,"69":0.6531126499176025,"70":1.8022918701171875,"71":1.2942203283309937,"72":2.377474069595337,"73":1.5425987243652344,"74":1.438326120376587,"75":-0.27308639883995056,"76":-0.47031939029693604,"77":0.5818057060241699,"78":-0.1215599849820137,"79":1.6752076148986816,"80":0.07530573010444641,"81":-1.13968026638031,"82":0.30141681432724,"83":-1.1893683671951294,"84":2.179149627685547,"85":-2.000969409942627,"86":-4.472087860107422,"87":-0.12022222578525543,"88":-1.3595980405807495,"89":-4.3934125900268555,"90":-0.7228479981422424,"91":0.34056511521339417,"92":3.6210594177246094,"93":3.224741220474243,"94":4.7714338302612305,"95":-1.126365065574646,"96":-0.44017156958580017,"97":-0.08750590682029724,"98":4.6938700675964355,"99":-2.5295090675354004,"100":-4.244142532348633,"101":-0.12478119134902954,"102":4.295198440551758,"103":0.38121360540390015,"104":-0.07418985664844513,"105":-3.2403340339660645,"106":-1.5425176620483398,"107":-0.17217396199703217,"108":-6.135428428649902,"109":0.2438661754131317,"110":1.604121446609497,"111":-1.885453462600708,"112":-1.6749001741409302,"113":-0.35702115297317505,"114":1.1408230066299438,"115":-1.891690731048584,"116":-3.364732503890991,"117":0.18573275208473206,"118":0.27606672048568726,"119":-1.6940542459487915,"120":-1.8191301822662354,"121":-2.0908522605895996,"122":0.7596516609191895,"123":0.7648975253105164,"124":0.665976345539093,"125":5.709536552429199,"126":6.593356132507324,"127":1.8320988416671753,"128":-1.564701795578003,"129":0.906747043132782,"130":0.3018699586391449,"131":0.3685319423675537,"132":-2.5563623905181885,"133":-0.4389478862285614,"134":-0.17362651228904724}},"5":{"bias":-2.6646432876586914,"weights":{"0":-3.1377334594726562,"1":-1.1356308460235596,"2":0.8208984732627869,"3":1.3451666831970215,"4":-2.3948633670806885,"5":2.6417922973632812,"6":-1.6249372959136963,"7":0.6217262148857117,"8":-3.3697988986968994,"9":2.3303558826446533,"10":0.763468325138092,"11":2.1196138858795166,"12":-1.2588984966278076,"13":-2.4960668087005615,"14":-2.099243402481079,"15":0.3786414563655853,"16":0.05607191473245621,"17":-3.6887595653533936,"18":3.3691978454589844,"19":1.027246117591858,"20":-0.5509675741195679,"21":0.4476774334907532,"22":4.586934566497803,"23":0.40375688672065735,"24":-3.306302309036255,"25":0.7642380595207214,"26":-0.2627427577972412,"27":2.3233160972595215,"28":-1.5934233665466309,"29":0.6639978885650635,"30":1.2774454355239868,"31":0.9973694086074829,"32":-0.6761687994003296,"33":3.1546051502227783,"34":-1.1849075555801392,"35":-2.6931493282318115,"36":0.2843681573867798,"37":0.8668316602706909,"38":-1.58000648021698,"39":-0.9261227250099182,"40":-1.527802586555481,"41":-1.4355264902114868,"42":1.084270715713501,"43":-0.008036202751100063,"44":3.325371026992798,"45":-2.3635990619659424,"46":3.0469651222229004,"47":-6.030765056610107,"48":-0.6330057382583618,"49":3.318561553955078,"50":0.310209721326828,"51":-1.9343407154083252,"52":-0.9389241337776184,"53":-0.29276150465011597,"54":1.7412186861038208,"55":-1.6996636390686035,"56":0.34889891743659973,"57":2.1218292713165283,"58":0.6684023141860962,"59":-0.42621809244155884,"60":2.2589025497436523,"61":-1.2490966320037842,"62":0.30281034111976624,"63":1.2935030460357666,"64":-0.7256639003753662,"65":-4.566544532775879,"66":-1.8543901443481445,"67":-4.557185649871826,"68":0.5763762593269348,"69":2.355592727661133,"70":1.3248268365859985,"71":-1.4530280828475952,"72":1.9790456295013428,"73":-2.5728416442871094,"74":0.25544360280036926,"75":1.1443372964859009,"76":0.25454455614089966,"77":0.2798384726047516,"78":0.7561745643615723,"79":-0.25125768780708313,"80":-1.1526470184326172,"81":-2.470282554626465,"82":-1.5826034545898438,"83":-1.4952337741851807,"84":0.7124431729316711,"85":-0.2587001323699951,"86":0.8142116069793701,"87":-0.6417402625083923,"88":0.23552075028419495,"89":-0.04192968085408211,"90":0.46450406312942505,"91":3.053601026535034,"92":-2.165832757949829,"93":4.090282440185547,"94":-2.1889569759368896,"95":-0.12526042759418488,"96":0.2959587872028351,"97":-0.03758179768919945,"98":-3.7535064220428467,"99":-0.7911765575408936,"100":-0.6857407689094543,"101":3.3486971855163574,"102":-0.6312646865844727,"103":0.8696618676185608,"104":-0.15402647852897644,"105":-0.049722377210855484,"106":0.20242755115032196,"107":-0.1303991973400116,"108":-2.6426851749420166,"109":-1.5316569805145264,"110":1.4068994522094727,"111":1.1128661632537842,"112":-0.5134050846099854,"113":0.6729678511619568,"114":0.909892737865448,"115":1.2634798288345337,"116":-3.8200457096099854,"117":0.17606700956821442,"118":0.3042354881763458,"119":1.7918111085891724,"120":0.26306700706481934,"121":-1.8911688327789307,"122":3.45749831199646,"123":0.4848032593727112,"124":0.9933204054832458,"125":0.24553312361240387,"126":-3.595365047454834,"127":-0.7185421586036682,"128":-0.33124083280563354,"129":0.22912055253982544,"130":0.3211604058742523,"131":-0.0025180268567055464,"132":-2.539804697036743,"133":1.1258045434951782,"134":-0.09368150681257248}},"6":{"bias":-3.0385003089904785,"weights":{"0":-0.45697373151779175,"1":-0.2592174708843231,"2":0.46512746810913086,"3":-0.6233083605766296,"4":2.1327106952667236,"5":-2.583822011947632,"6":-0.702497124671936,"7":1.4212661981582642,"8":0.09107191115617752,"9":-0.25719717144966125,"10":-0.748924195766449,"11":-5.268349647521973,"12":-0.1976301670074463,"13":-1.342707633972168,"14":2.1438968181610107,"15":0.5356857776641846,"16":1.1498706340789795,"17":-1.7907627820968628,"18":1.8981420993804932,"19":-2.7406346797943115,"20":2.4516897201538086,"21":-0.005643930751830339,"22":-0.17690865695476532,"23":0.0007713883533142507,"24":2.129807949066162,"25":-0.05516445264220238,"26":-0.10413029044866562,"27":1.2869815826416016,"28":-0.89286208152771,"29":-1.5120983123779297,"30":0.4192665219306946,"31":-1.5627291202545166,"32":-0.8136405348777771,"33":0.614856481552124,"34":-0.6146729588508606,"35":-4.025381088256836,"36":-0.9773889183998108,"37":-1.5758750438690186,"38":-3.7184033393859863,"39":1.6169047355651855,"40":-3.1936066150665283,"41":4.058259010314941,"42":1.625980257987976,"43":1.155800461769104,"44":0.7541709542274475,"45":-0.421906977891922,"46":-3.7839882373809814,"47":1.893395185470581,"48":-0.24681425094604492,"49":0.19745947420597076,"50":0.005682784132659435,"51":0.8223227262496948,"52":1.5372740030288696,"53":4.266696929931641,"54":-0.26519718766212463,"55":-0.3328093886375427,"56":-2.085921049118042,"57":-1.6822054386138916,"58":-2.737112522125244,"59":-0.6684929728507996,"60":1.1186435222625732,"61":-3.0524377822875977,"62":0.7471825480461121,"63":0.7469008564949036,"64":-0.4532543122768402,"65":-2.8986966609954834,"66":0.9205728769302368,"67":3.295917272567749,"68":0.27246880531311035,"69":1.7352107763290405,"70":0.8957746624946594,"71":1.1434297561645508,"72":-0.8647418022155762,"73":0.33723077178001404,"74":0.335599809885025,"75":3.426896095275879,"76":-0.20115113258361816,"77":0.4427473843097687,"78":-2.42822265625,"79":-0.6293166279792786,"80":0.21685698628425598,"81":-1.9155772924423218,"82":0.4925837516784668,"83":1.244455337524414,"84":-4.26590633392334,"85":-2.3590519428253174,"86":-1.4613170623779297,"87":-0.2808842062950134,"88":2.414824962615967,"89":1.0323421955108643,"90":2.810789108276367,"91":1.1628832817077637,"92":-0.26322251558303833,"93":-4.2538743019104,"94":-0.06617938727140427,"95":0.7741712927818298,"96":0.08029394596815109,"97":0.00731051666662097,"98":-1.9344755411148071,"99":-0.4015774130821228,"100":1.0586349964141846,"101":1.8407580852508545,"102":-1.8955574035644531,"103":-0.014282818883657455,"104":0.9117207527160645,"105":1.5946632623672485,"106":0.28728315234184265,"107":-0.052889879792928696,"108":-1.691626787185669,"109":-0.9383789896965027,"110":0.319640576839447,"111":2.8071610927581787,"112":-4.127235412597656,"113":-2.197195529937744,"114":0.6132166981697083,"115":-3.04253888130188,"116":-0.3392513394355774,"117":-0.009124460630118847,"118":-0.5704492330551147,"119":0.17266689240932465,"120":-0.165155827999115,"121":-0.010393901728093624,"122":0.027560409158468246,"123":0.3449958264827728,"124":0.7868574261665344,"125":1.5399309396743774,"126":3.302248954772949,"127":-2.8208096027374268,"128":0.004581708926707506,"129":-1.3665491342544556,"130":0.015303161926567554,"131":0.7197160720825195,"132":-0.23990556597709656,"133":1.5340096950531006,"134":-0.07766123861074448}},"7":{"bias":-3.81838321685791,"weights":{"0":-0.06247260048985481,"1":-1.8480998277664185,"2":-2.85201096534729,"3":0.13044492900371552,"4":0.19335559010505676,"5":-0.801008403301239,"6":-0.9648109674453735,"7":0.45779234170913696,"8":2.220224380493164,"9":-0.1810401827096939,"10":-3.187120199203491,"11":-0.2881062924861908,"12":5.0851898193359375,"13":1.2186717987060547,"14":-1.0124586820602417,"15":-1.6291353702545166,"16":0.7624788284301758,"17":-3.538384199142456,"18":-6.008825778961182,"19":1.221423864364624,"20":-2.667947769165039,"21":4.534029006958008,"22":-2.2105672359466553,"23":-0.4128674268722534,"24":2.778560161590576,"25":1.691842794418335,"26":3.069918394088745,"27":-3.4502909183502197,"28":-0.6668901443481445,"29":-1.1637449264526367,"30":-2.2014124393463135,"31":-1.0665076971054077,"32":-0.00007525545515818521,"33":-3.5186638832092285,"34":-0.5549882650375366,"35":1.3834400177001953,"36":-1.391183614730835,"37":-1.4467486143112183,"38":2.9279043674468994,"39":5.352450370788574,"40":3.4455480575561523,"41":-0.1473701447248459,"42":-0.6886590719223022,"43":-2.298788547515869,"44":2.755889654159546,"45":1.8087830543518066,"46":1.3806499242782593,"47":-2.799736976623535,"48":1.0875742435455322,"49":-1.5181808471679688,"50":0.5758150815963745,"51":-0.05996926501393318,"52":0.45270535349845886,"53":-1.0614545345306396,"54":1.3910819292068481,"55":-2.3426969051361084,"56":-0.7505719065666199,"57":-0.5183155536651611,"58":0.73582923412323,"59":-3.798888921737671,"60":2.789491653442383,"61":1.7860907316207886,"62":5.306852340698242,"63":2.088174819946289,"64":-1.615709900856018,"65":1.2030837535858154,"66":2.4179484844207764,"67":0.3306046426296234,"68":-1.2687314748764038,"69":-1.4997185468673706,"70":0.649978518486023,"71":-1.5210392475128174,"72":-0.8214136958122253,"73":-5.2708740234375,"74":-2.485595226287842,"75":-2.707430839538574,"76":-2.578033208847046,"77":-1.3374097347259521,"78":4.445457458496094,"79":0.29243141412734985,"80":1.1862406730651855,"81":0.4200437068939209,"82":-3.535590648651123,"83":1.7231078147888184,"84":-2.7736852169036865,"85":0.432584673166275,"86":-2.1579346656799316,"87":0.675171971321106,"88":-1.6025429964065552,"89":2.744046211242676,"90":2.2869386672973633,"91":1.922739863395691,"92":3.9531800746917725,"93":1.1008625030517578,"94":-4.129391193389893,"95":-5.716338157653809,"96":-2.3683032989501953,"97":0.10285075753927231,"98":-2.2059552669525146,"99":0.57077956199646,"100":2.9469614028930664,"101":0.10001315921545029,"102":-3.195789337158203,"103":-1.0608373880386353,"104":-0.4001421630382538,"105":2.0905025005340576,"106":2.979950428009033,"107":0.19293126463890076,"108":8.2192964553833,"109":-1.435479760169983,"110":-1.7340669631958008,"111":1.1414415836334229,"112":3.1688385009765625,"113":-0.8285495638847351,"114":-2.0722436904907227,"115":2.692410945892334,"116":2.3547616004943848,"117":0.052706968039274216,"118":-0.01989712007343769,"119":-6.559703826904297,"120":-0.7182159423828125,"121":0.21509747207164764,"122":-4.409081935882568,"123":-1.9292635917663574,"124":-0.3394254446029663,"125":6.4920783042907715,"126":-3.902843713760376,"127":0.44739672541618347,"128":-0.38957276940345764,"129":-0.8756798505783081,"130":-1.105859398841858,"131":-1.2736968994140625,"132":2.095709800720215,"133":-3.0143065452575684,"134":-0.047718144953250885}},"8":{"bias":-4.063447952270508,"weights":{"0":-5.6330718994140625,"1":5.019506454467773,"2":0.5844808220863342,"3":3.0355703830718994,"4":2.389582395553589,"5":-1.7862082719802856,"6":4.536051273345947,"7":0.3598012626171112,"8":-4.026075839996338,"9":1.079254388809204,"10":-0.6137576103210449,"11":-4.728213310241699,"12":-6.110267162322998,"13":-3.829160690307617,"14":-1.7455897331237793,"15":3.886479616165161,"16":0.2516871392726898,"17":-4.614136219024658,"18":-0.380299836397171,"19":2.415417194366455,"20":1.6570528745651245,"21":3.8354408740997314,"22":2.408918619155884,"23":0.9980883598327637,"24":-1.9113105535507202,"25":2.3695974349975586,"26":-3.3999693393707275,"27":-0.3758547604084015,"28":-2.141043186187744,"29":0.26625046133995056,"30":-3.110164165496826,"31":3.0405642986297607,"32":4.374569892883301,"33":-0.4813115894794464,"34":-2.901334285736084,"35":4.90878438949585,"36":-0.5207786560058594,"37":-0.6168832778930664,"38":-7.697544574737549,"39":-2.741847515106201,"40":1.27759850025177,"41":1.8886815309524536,"42":1.294503092765808,"43":0.5311733484268188,"44":-2.7902655601501465,"45":5.593609809875488,"46":-3.062108039855957,"47":-2.5882017612457275,"48":-2.5288143157958984,"49":0.4720134139060974,"50":1.8179479837417603,"51":2.7273905277252197,"52":-0.8507488369941711,"53":-1.0692462921142578,"54":-4.6312689781188965,"55":1.162031650543213,"56":0.7938790917396545,"57":-0.3598361015319824,"58":-5.775206565856934,"59":-3.8593711853027344,"60":-0.9599471092224121,"61":-0.44673195481300354,"62":-0.6737688779830933,"63":1.014424443244934,"64":-0.25037118792533875,"65":3.121858596801758,"66":0.44951331615448,"67":2.2274889945983887,"68":1.1373510360717773,"69":0.7626298069953918,"70":1.0017911195755005,"71":1.3154789209365845,"72":1.2914314270019531,"73":-4.463690757751465,"74":-0.2312479019165039,"75":1.0732860565185547,"76":3.0047807693481445,"77":0.08999074250459671,"78":-1.4597229957580566,"79":0.08581433445215225,"80":0.5233554244041443,"81":1.9677895307540894,"82":-2.6605384349823,"83":-3.3224120140075684,"84":-1.0119203329086304,"85":-2.0015766620635986,"86":-3.173711061477661,"87":1.5543097257614136,"88":-2.6714842319488525,"89":-0.44438934326171875,"90":1.857725739479065,"91":1.83217453956604,"92":0.3246496021747589,"93":-2.9351627826690674,"94":-0.3099023699760437,"95":-1.8228042125701904,"96":2.569227457046509,"97":-0.10379478335380554,"98":3.647481679916382,"99":-1.897710919380188,"100":5.0850830078125,"101":-2.826192855834961,"102":3.0853946208953857,"103":0.7785143256187439,"104":0.1346576064825058,"105":0.00008774345042183995,"106":-1.8422483205795288,"107":0.04187355563044548,"108":-4.7835612297058105,"109":-0.1895352005958557,"110":1.488906979560852,"111":0.5651159882545471,"112":-1.1919797658920288,"113":-5.422144889831543,"114":0.22822007536888123,"115":-4.767685413360596,"116":1.4410021305084229,"117":0.05996949225664139,"118":1.6568909883499146,"119":2.2947568893432617,"120":-0.18443718552589417,"121":-0.6635638475418091,"122":3.3939054012298584,"123":1.5021189451217651,"124":0.18095232546329498,"125":-2.2255945205688477,"126":-1.2103981971740723,"127":-2.1146645545959473,"128":3.114118814468384,"129":0.6853080987930298,"130":0.3402876555919647,"131":2.4467504024505615,"132":0.5974685549736023,"133":-1.2149807214736938,"134":-0.18308605253696442}},"9":{"bias":-1.8561943769454956,"weights":{"0":-0.38415902853012085,"1":-0.6760662198066711,"2":0.017101852223277092,"3":-3.165975570678711,"4":-3.589892625808716,"5":-1.9973015785217285,"6":-2.0070109367370605,"7":-0.10879041254520416,"8":-0.6609458923339844,"9":-0.4084358215332031,"10":2.444333076477051,"11":2.4250881671905518,"12":2.262235641479492,"13":-3.8845179080963135,"14":1.3677382469177246,"15":-0.7335320711135864,"16":0.5332484245300293,"17":1.2826048135757446,"18":-1.0108977556228638,"19":-0.05443252995610237,"20":1.9284353256225586,"21":1.9635169506072998,"22":4.245444297790527,"23":0.013342903926968575,"24":1.7009854316711426,"25":-0.5739336013793945,"26":-3.178349256515503,"27":-3.3458399772644043,"28":1.3551571369171143,"29":-0.5274519920349121,"30":-3.035335063934326,"31":-1.7710152864456177,"32":-0.01850847154855728,"33":1.8009929656982422,"34":-0.6554953455924988,"35":-0.9633739590644836,"36":-2.9959278106689453,"37":-0.27493977546691895,"38":-0.21716707944869995,"39":4.240315914154053,"40":0.5206872820854187,"41":-0.3728629946708679,"42":0.4904930293560028,"43":0.24014762043952942,"44":3.2471935749053955,"45":-0.20744922757148743,"46":1.0372493267059326,"47":-1.242776870727539,"48":-2.117709159851074,"49":0.36250919103622437,"50":0.16947919130325317,"51":-0.753800630569458,"52":-0.026898138225078583,"53":3.8397135734558105,"54":1.727308750152588,"55":0.5649238228797913,"56":3.631558656692505,"57":-3.6885645389556885,"58":-5.211649417877197,"59":-0.23410429060459137,"60":-2.03537917137146,"61":1.5892963409423828,"62":-5.3228278160095215,"63":0.4196714162826538,"64":5.744594573974609,"65":1.9592665433883667,"66":-1.0534039735794067,"67":0.0834847092628479,"68":-0.43779945373535156,"69":-0.5245621800422668,"70":0.687737226486206,"71":-0.676576554775238,"72":4.015567302703857,"73":-0.9987565279006958,"74":-2.770005464553833,"75":0.49009451270103455,"76":0.20623742043972015,"77":0.35567253828048706,"78":-0.3621588349342346,"79":0.6712005734443665,"80":-0.2993074357509613,"81":-1.9043803215026855,"82":-1.3811686038970947,"83":1.9397398233413696,"84":-1.776409387588501,"85":-2.1983537673950195,"86":2.7847745418548584,"87":0.3183189928531647,"88":0.007141816429793835,"89":-3.128629446029663,"90":1.7192226648330688,"91":-1.0931506156921387,"92":-0.8364530801773071,"93":4.133003234863281,"94":-1.850949764251709,"95":1.6442028284072876,"96":1.8080393075942993,"97":0.13266640901565552,"98":-1.069035530090332,"99":0.6266332864761353,"100":1.7225239276885986,"101":-4.1148576736450195,"102":1.6203083992004395,"103":-0.33079034090042114,"104":1.5377426147460938,"105":-2.6489508152008057,"106":0.7424658536911011,"107":-0.16947071254253387,"108":-1.9042521715164185,"109":-0.35329708456993103,"110":0.1979699432849884,"111":2.7801272869110107,"112":0.04395109415054321,"113":2.6854774951934814,"114":0.42050886154174805,"115":-0.9262434244155884,"116":-1.217339277267456,"117":0.13930882513523102,"118":1.797924518585205,"119":1.5465238094329834,"120":-0.2750857472419739,"121":-1.27428138256073,"122":1.0267493724822998,"123":0.6042037606239319,"124":0.13652977347373962,"125":-2.7177388668060303,"126":0.7651065587997437,"127":-2.9589014053344727,"128":-1.168067455291748,"129":0.25001397728919983,"130":0.8186370730400085,"131":0.4434904158115387,"132":-1.9472390413284302,"133":-1.0305051803588867,"134":-0.06868249177932739}},"10":{"bias":-4.507228851318359,"weights":{"0":0.5545679330825806,"1":0.7861456871032715,"2":3.111443281173706,"3":-1.5710841417312622,"4":0.9481966495513916,"5":1.2430531978607178,"6":-1.5836288928985596,"7":-1.2988824844360352,"8":-1.4187159538269043,"9":-3.9692511558532715,"10":2.9612653255462646,"11":-1.8461785316467285,"12":0.7378153204917908,"13":0.4411506950855255,"14":-3.711251735687256,"15":-1.4273625612258911,"16":0.3595733642578125,"17":0.1682833731174469,"18":2.9518580436706543,"19":2.1912786960601807,"20":-5.380622386932373,"21":1.8217055797576904,"22":-0.07423856854438782,"23":-0.3682534396648407,"24":-1.5349278450012207,"25":1.207066535949707,"26":-0.19787660241127014,"27":-1.2107374668121338,"28":2.7386186122894287,"29":-0.530850350856781,"30":-5.385133743286133,"31":-0.6546571254730225,"32":-2.7057604789733887,"33":6.4930291175842285,"34":-1.9495210647583008,"35":2.550483226776123,"36":0.07172440737485886,"37":-3.4716598987579346,"38":-1.857552409172058,"39":2.571913719177246,"40":-0.08815255016088486,"41":-2.5258090496063232,"42":-1.099436640739441,"43":-0.07107813656330109,"44":-4.556406021118164,"45":-1.817620873451233,"46":4.477565288543701,"47":-1.4859892129898071,"48":-1.2559973001480103,"49":-0.19013002514839172,"50":-0.3714478611946106,"51":2.7288432121276855,"52":0.12270379066467285,"53":5.146420478820801,"54":2.281826972961426,"55":2.5634219646453857,"56":0.03138791769742966,"57":-5.381002902984619,"58":-0.6072019934654236,"59":-1.818971037864685,"60":4.460518836975098,"61":1.0522377490997314,"62":-0.5949019193649292,"63":-1.2905430793762207,"64":-1.308739423751831,"65":-1.3957186937332153,"66":1.3276443481445312,"67":1.4005943536758423,"68":-4.250532150268555,"69":-2.4133687019348145,"70":-1.62746000289917,"71":3.8114898204803467,"72":0.8935847282409668,"73":2.5822582244873047,"74":-4.9387078285217285,"75":-1.772419810295105,"76":-2.7034809589385986,"77":-0.951681911945343,"78":0.9131001234054565,"79":2.231943368911743,"80":1.4425832033157349,"81":-2.4364535808563232,"82":0.6358206868171692,"83":-2.7867355346679688,"84":-0.7844358086585999,"85":0.1483040601015091,"86":1.735182285308838,"87":0.6774091720581055,"88":1.5562931299209595,"89":-0.8015262484550476,"90":1.2403919696807861,"91":-1.0070000886917114,"92":-0.21522265672683716,"93":-0.8031570315361023,"94":-3.68765926361084,"95":1.1875693798065186,"96":0.09671682864427567,"97":0.12646488845348358,"98":-0.9629571437835693,"99":2.7325165271759033,"100":-2.90964937210083,"101":0.8196141719818115,"102":2.330768346786499,"103":-1.870107889175415,"104":-1.413810133934021,"105":2.8295204639434814,"106":-0.9033782482147217,"107":-0.14625616371631622,"108":1.9530930519104004,"109":0.49419882893562317,"110":-3.1213319301605225,"111":-2.270429849624634,"112":0.5656159520149231,"113":1.9827265739440918,"114":0.9837424755096436,"115":1.5018991231918335,"116":-0.7983686327934265,"117":-0.10164088755846024,"118":-2.6195578575134277,"119":-0.7907944321632385,"120":2.32440447807312,"121":1.1750221252441406,"122":-2.8036420345306396,"123":-0.5875564813613892,"124":-1.4486769437789917,"125":-2.1032872200012207,"126":0.9643125534057617,"127":-0.4887040853500366,"128":-1.8592289686203003,"129":-0.8999913930892944,"130":-0.6954880356788635,"131":0.749760091304779,"132":0.13653726875782013,"133":2.3208792209625244,"134":0.1641797125339508}},"11":{"bias":-0.2016870379447937,"weights":{"0":-0.21361342072486877,"1":-0.7938231229782104,"2":-0.39940106868743896,"3":-0.8791500926017761,"4":0.5832669138908386,"5":-2.5028321743011475,"6":-1.2706903219223022,"7":2.0434863567352295,"8":2.304267406463623,"9":0.3972380757331848,"10":2.012787342071533,"11":-2.1906685829162598,"12":-1.3851832151412964,"13":5.008304119110107,"14":-3.5398101806640625,"15":-3.668086528778076,"16":2.454221248626709,"17":1.1489677429199219,"18":1.561890721321106,"19":1.460402250289917,"20":-1.402076244354248,"21":0.2140752673149109,"22":-5.1727166175842285,"23":-0.24260428547859192,"24":2.6714131832122803,"25":-1.6247804164886475,"26":2.084949016571045,"27":1.3804303407669067,"28":-0.8305101990699768,"29":2.6588757038116455,"30":-1.1334232091903687,"31":0.568857729434967,"32":0.6698300242424011,"33":-3.558232307434082,"34":1.7356210947036743,"35":-1.9386210441589355,"36":-1.978551983833313,"37":1.772206425666809,"38":-1.0382626056671143,"39":0.6126192808151245,"40":3.0683414936065674,"41":0.9228442311286926,"42":-0.43370965123176575,"43":0.01202923059463501,"44":5.062625885009766,"45":-0.43629738688468933,"46":-1.0637983083724976,"47":-1.2137715816497803,"48":-0.5232332348823547,"49":-0.5007253289222717,"50":-0.2020997256040573,"51":-1.812187671661377,"52":-0.3804336190223694,"53":-2.5044405460357666,"54":-1.3300933837890625,"55":-1.6026424169540405,"56":0.8308206796646118,"57":-3.993445873260498,"58":-0.8445817232131958,"59":-3.8463525772094727,"60":-1.3279036283493042,"61":0.9968914985656738,"62":0.2704835534095764,"63":-1.2341468334197998,"64":1.511232852935791,"65":4.669417858123779,"66":-0.2951483726501465,"67":9.095576286315918,"68":0.8219708204269409,"69":-1.7883714437484741,"70":-1.52829110622406,"71":4.0838494300842285,"72":0.5002148747444153,"73":-2.194727659225464,"74":0.4289833903312683,"75":-2.5962677001953125,"76":-1.3176692724227905,"77":-0.9991905689239502,"78":1.2078802585601807,"79":-0.4548318684101105,"80":2.233186721801758,"81":-4.601473808288574,"82":-1.3573317527770996,"83":1.1385442018508911,"84":2.271568775177002,"85":5.955173969268799,"86":-1.9810996055603027,"87":2.6593408584594727,"88":2.849625825881958,"89":-3.9874892234802246,"90":2.7259809970855713,"91":2.116532802581787,"92":0.5925578474998474,"93":-1.0066479444503784,"94":3.0262274742126465,"95":-2.75102162361145,"96":-3.120499610900879,"97":-0.16333770751953125,"98":-2.259242534637451,"99":-2.533128023147583,"100":5.526375770568848,"101":-5.450496196746826,"102":-1.8541232347488403,"103":-0.21710209548473358,"104":-0.25543510913848877,"105":5.2828049659729,"106":-2.8082387447357178,"107":0.15284588932991028,"108":2.215477466583252,"109":0.7721162438392639,"110":-0.6015909910202026,"111":1.7732150554656982,"112":3.3619298934936523,"113":0.22704485058784485,"114":-2.170257568359375,"115":5.1940178871154785,"116":2.3858280181884766,"117":0.03138096258044243,"118":-1.80307137966156,"119":0.016374554485082626,"120":-2.4824321269989014,"121":-2.6643218994140625,"122":-3.7118427753448486,"123":-3.331430435180664,"124":-1.161354899406433,"125":-2.249462842941284,"126":3.972121000289917,"127":1.5945475101470947,"128":-2.5350589752197266,"129":0.7345845699310303,"130":-0.6410931348800659,"131":-0.1912916600704193,"132":2.5296428203582764,"133":-0.12017440050840378,"134":-0.036390677094459534}},"12":{"bias":-2.0982489585876465,"weights":{"0":-3.645448684692383,"1":0.17216259241104126,"2":-2.355207920074463,"3":-1.1279282569885254,"4":-0.2365955263376236,"5":-1.5495312213897705,"6":0.9182595014572144,"7":2.4499659538269043,"8":-3.9105234146118164,"9":0.45327892899513245,"10":0.40084969997406006,"11":1.7614670991897583,"12":5.890900611877441,"13":-0.9428019523620605,"14":3.0948376655578613,"15":-1.327846884727478,"16":0.9263037443161011,"17":3.6132986545562744,"18":0.4626806378364563,"19":1.5083931684494019,"20":2.4019715785980225,"21":-4.4814934730529785,"22":-3.1068737506866455,"23":0.1831682324409485,"24":-2.7523138523101807,"25":-1.2888225317001343,"26":0.02095828950405121,"27":-3.382408618927002,"28":0.2202097326517105,"29":0.9971725344657898,"30":2.0241734981536865,"31":-1.7976815700531006,"32":1.2931976318359375,"33":0.10577309876680374,"34":0.20716309547424316,"35":-0.9806212782859802,"36":0.9622575044631958,"37":-0.5782669186592102,"38":-1.6800841093063354,"39":-1.1005674600601196,"40":1.2474682331085205,"41":1.527478575706482,"42":1.7110865116119385,"43":-0.26574182510375977,"44":-2.7095255851745605,"45":-1.8378281593322754,"46":-0.4858754575252533,"47":-1.109332799911499,"48":2.8871166706085205,"49":0.36032676696777344,"50":0.4529232680797577,"51":-0.784469723701477,"52":-2.7363193035125732,"53":2.1819896697998047,"54":-0.6528615951538086,"55":-0.29298749566078186,"56":-1.3517777919769287,"57":-1.038018822669983,"58":-5.576676845550537,"59":-0.6794686317443848,"60":5.448498249053955,"61":-1.1299864053726196,"62":1.6477857828140259,"63":3.0078277587890625,"64":0.6834346652030945,"65":-5.822066783905029,"66":-2.781402587890625,"67":0.1648150235414505,"68":2.3895063400268555,"69":2.1491146087646484,"70":-1.0350430011749268,"71":-0.4067554175853729,"72":1.024584412574768,"73":-0.9764587879180908,"74":-0.5497019290924072,"75":1.7241352796554565,"76":1.3349801301956177,"77":-0.01072430144995451,"78":1.5596824884414673,"79":-0.9612043499946594,"80":-0.5859217047691345,"81":-1.412746787071228,"82":-1.5267184972763062,"83":-1.2378257513046265,"84":-3.8937323093414307,"85":-1.998164415359497,"86":-3.1567928791046143,"87":6.448042392730713,"88":1.4011337757110596,"89":-2.5968315601348877,"90":0.6075903177261353,"91":-3.4651408195495605,"92":1.619928240776062,"93":1.353631854057312,"94":1.2377642393112183,"95":0.8435543179512024,"96":-0.9002466797828674,"97":-0.052527811378240585,"98":-5.644528865814209,"99":-0.052605222910642624,"100":1.5113236904144287,"101":4.201322078704834,"102":2.0223000049591064,"103":2.022298574447632,"104":-0.6033755540847778,"105":0.018475864082574844,"106":0.38406917452812195,"107":0.03257628530263901,"108":-0.040423549711704254,"109":-0.4403092861175537,"110":0.38981837034225464,"111":0.7324163317680359,"112":-1.9770125150680542,"113":-0.7803173661231995,"114":-0.7247969508171082,"115":-1.2480107545852661,"116":-2.3397116661071777,"117":-0.17767035961151123,"118":0.3362038731575012,"119":0.7319256663322449,"120":1.5730468034744263,"121":1.449169635772705,"122":1.5859354734420776,"123":0.06626435369253159,"124":0.3121488392353058,"125":1.3746120929718018,"126":1.9048627614974976,"127":-2.1235086917877197,"128":-3.945145845413208,"129":0.22882917523384094,"130":0.02400282956659794,"131":0.03833254799246788,"132":-2.1135780811309814,"133":2.4651834964752197,"134":0.04597436264157295}},"13":{"bias":-2.537585735321045,"weights":{"0":-1.5190479755401611,"1":0.7904588580131531,"2":1.205263376235962,"3":-2.096536636352539,"4":-1.870184063911438,"5":-0.9736635684967041,"6":0.6041412353515625,"7":-0.675175130367279,"8":-2.340824842453003,"9":0.2433905452489853,"10":-0.4444909393787384,"11":-3.6508266925811768,"12":0.8190916180610657,"13":-0.3899724781513214,"14":1.998022198677063,"15":-0.4743134379386902,"16":-0.34721440076828003,"17":2.7362582683563232,"18":1.5281925201416016,"19":1.4716812372207642,"20":-0.8774146437644958,"21":3.278414726257324,"22":1.7262682914733887,"23":-0.08047489076852798,"24":-0.4115946888923645,"25":-0.43411174416542053,"26":-2.965512990951538,"27":1.1607024669647217,"28":-1.0698294639587402,"29":0.6639803051948547,"30":1.9671649932861328,"31":1.564856767654419,"32":-2.343282699584961,"33":2.2538394927978516,"34":-0.329142302274704,"35":-3.778272867202759,"36":2.783947706222534,"37":0.5739369988441467,"38":-2.6736831665039062,"39":2.337289333343506,"40":-1.518185019493103,"41":0.26898643374443054,"42":-1.0737189054489136,"43":1.3841115236282349,"44":1.7055509090423584,"45":1.2511780261993408,"46":1.125437617301941,"47":-3.3111493587493896,"48":-2.550981283187866,"49":-0.1848011612892151,"50":-0.3215804398059845,"51":-1.477063536643982,"52":-1.285130500793457,"53":-0.19984494149684906,"54":0.5406235456466675,"55":1.0301278829574585,"56":1.2142837047576904,"57":0.09412463009357452,"58":-3.445143461227417,"59":-2.6931684017181396,"60":1.6644765138626099,"61":-2.610929489135742,"62":-3.435025215148926,"63":0.5453789830207825,"64":2.3833117485046387,"65":-1.967084527015686,"66":-4.087366104125977,"67":3.510377883911133,"68":-0.1643083095550537,"69":-0.06608990579843521,"70":-2.9006073474884033,"71":1.9370564222335815,"72":4.357372283935547,"73":3.016691207885742,"74":-2.023350954055786,"75":-0.06999261677265167,"76":0.9351879358291626,"77":-0.7462684512138367,"78":-3.3851065635681152,"79":2.2241456508636475,"80":0.7028367519378662,"81":-3.7582826614379883,"82":-1.2461796998977661,"83":0.6763150095939636,"84":5.731921672821045,"85":-2.030191421508789,"86":1.0295634269714355,"87":-1.5839903354644775,"88":-0.6497071981430054,"89":3.5980772972106934,"90":-0.567426860332489,"91":0.6591670513153076,"92":-2.5940115451812744,"93":-2.8956284523010254,"94":-3.9236972332000732,"95":2.610865592956543,"96":1.1761759519577026,"97":-0.19814829528331757,"98":2.831223487854004,"99":-4.834242343902588,"100":-0.2850257158279419,"101":3.429680109024048,"102":-1.3914122581481934,"103":-0.11730053275823593,"104":-0.752709150314331,"105":0.9454442262649536,"106":1.2638053894042969,"107":0.0700114369392395,"108":-6.579315185546875,"109":1.7118865251541138,"110":-0.8551861047744751,"111":-1.5813658237457275,"112":-1.7413054704666138,"113":-0.5598045587539673,"114":0.21640747785568237,"115":-0.6731205582618713,"116":-0.5418052077293396,"117":0.01502623688429594,"118":0.3292173147201538,"119":0.25923681259155273,"120":-0.44263407588005066,"121":0.027831653133034706,"122":1.9164644479751587,"123":-0.6303591132164001,"124":-0.9001858234405518,"125":-2.7626571655273438,"126":6.7796478271484375,"127":-0.14874722063541412,"128":0.5862687230110168,"129":0.1676655113697052,"130":0.1291610151529312,"131":-0.00017647839558776468,"132":-1.1155388355255127,"133":3.639728307723999,"134":0.1517932415008545}},"14":{"bias":-3.359466314315796,"weights":{"0":-2.1097192764282227,"1":-0.82691890001297,"2":2.5049564838409424,"3":-1.4605777263641357,"4":-1.8414132595062256,"5":-0.22024548053741455,"6":-0.02628549188375473,"7":-0.9776628613471985,"8":0.6130973696708679,"9":-3.3476016521453857,"10":2.48850679397583,"11":0.9247713685035706,"12":-0.5081185102462769,"13":-1.1431453227996826,"14":3.4424550533294678,"15":0.34006595611572266,"16":0.6250528693199158,"17":0.1893976330757141,"18":1.1565006971359253,"19":-2.228811502456665,"20":-1.1827514171600342,"21":0.0054443152621388435,"22":1.9906452894210815,"23":-0.7751959562301636,"24":-0.4011751115322113,"25":1.3238294124603271,"26":-2.8302454948425293,"27":-4.880777359008789,"28":3.1148037910461426,"29":0.8428165316581726,"30":2.3202755451202393,"31":-9.551093101501465,"32":-2.372720956802368,"33":0.27530843019485474,"34":-1.8934253454208374,"35":1.8213533163070679,"36":-0.1187538132071495,"37":-1.276324987411499,"38":-2.931535482406616,"39":-1.360702633857727,"40":-0.6695433855056763,"41":-0.04093477874994278,"42":-0.11651426553726196,"43":0.17495085299015045,"44":1.0944222211837769,"45":1.7974478006362915,"46":6.713043212890625,"47":-3.738581895828247,"48":3.3851702213287354,"49":-0.46260032057762146,"50":-1.0826606750488281,"51":2.647611379623413,"52":1.500343680381775,"53":2.310387372970581,"54":-5.380199432373047,"55":-3.106583595275879,"56":1.7573485374450684,"57":1.524454951286316,"58":-0.9291924834251404,"59":-6.334521293640137,"60":-0.997545063495636,"61":-0.9878609776496887,"62":3.008375644683838,"63":0.8276780843734741,"64":-1.692604660987854,"65":-0.40376532077789307,"66":4.592419624328613,"67":-1.3191242218017578,"68":0.7787811160087585,"69":0.7944274544715881,"70":2.279893636703491,"71":-1.6627403497695923,"72":-5.926737308502197,"73":1.2060033082962036,"74":0.765325665473938,"75":4.4332122802734375,"76":0.2765323519706726,"77":1.5277360677719116,"78":3.0221283435821533,"79":-1.4260952472686768,"80":0.40129953622817993,"81":-5.291321754455566,"82":0.4975292682647705,"83":0.9688723087310791,"84":1.9283883571624756,"85":4.881819725036621,"86":-2.2733659744262695,"87":-0.05497322976589203,"88":-1.464125156402588,"89":0.10807634890079498,"90":0.1718853861093521,"91":-1.0541746616363525,"92":-5.36859130859375,"93":-0.9405391812324524,"94":-1.034082293510437,"95":0.0850963443517685,"96":2.242872476577759,"97":0.1804981827735901,"98":0.07258208096027374,"99":-0.7753636837005615,"100":-3.374924421310425,"101":4.345969200134277,"102":-1.8363147974014282,"103":0.3446820378303528,"104":0.16796530783176422,"105":3.2907164096832275,"106":-0.06818462908267975,"107":-0.019927335903048515,"108":-5.166802883148193,"109":1.2850104570388794,"110":1.295109748840332,"111":0.08076474815607071,"112":-3.4878809452056885,"113":0.1952696144580841,"114":-0.1600291132926941,"115":2.2311289310455322,"116":0.6371424198150635,"117":0.180501788854599,"118":2.364893674850464,"119":4.954771995544434,"120":-4.353914260864258,"121":-4.9541401863098145,"122":4.506965160369873,"123":1.2277599573135376,"124":0.056028664112091064,"125":3.4055280685424805,"126":-5.4690937995910645,"127":-4.934609413146973,"128":1.796464204788208,"129":0.29018157720565796,"130":0.9330781698226929,"131":-0.8643304109573364,"132":0.906275749206543,"133":-1.350257158279419,"134":0.015124714933335781}},"15":{"bias":-3.225149393081665,"weights":{"0":-1.1145187616348267,"1":2.4079859256744385,"2":-0.3563160300254822,"3":-2.1792290210723877,"4":-1.9544401168823242,"5":0.22093525528907776,"6":-2.9580464363098145,"7":0.2720523476600647,"8":0.35365578532218933,"9":-1.4109910726547241,"10":-3.544459819793701,"11":-2.251873254776001,"12":-2.687020778656006,"13":-4.256017208099365,"14":2.0665605068206787,"15":2.987624406814575,"16":2.2602458000183105,"17":-0.359784334897995,"18":-1.077332854270935,"19":-2.4189324378967285,"20":2.361039161682129,"21":4.186006546020508,"22":2.4671521186828613,"23":1.207746982574463,"24":0.18816955387592316,"25":-0.2266232669353485,"26":1.2114015817642212,"27":4.018464088439941,"28":4.5581536293029785,"29":0.42673102021217346,"30":-2.7534267902374268,"31":-0.8010134696960449,"32":-0.4328332841396332,"33":3.0841691493988037,"34":1.8675650358200073,"35":-0.9831488728523254,"36":-0.6153271198272705,"37":-3.512045383453369,"38":-3.2571067810058594,"39":1.9309245347976685,"40":-4.688202381134033,"41":0.645924985408783,"42":2.943086862564087,"43":-0.23136457800865173,"44":-3.5839223861694336,"45":-2.664203643798828,"46":-2.5282886028289795,"47":0.09634122997522354,"48":1.9822800159454346,"49":3.4831619262695312,"50":0.807529866695404,"51":-1.3223720788955688,"52":-2.184321641921997,"53":0.8060969710350037,"54":-1.8104928731918335,"55":-1.2301729917526245,"56":-3.9882490634918213,"57":1.208937644958496,"58":-4.951605319976807,"59":1.472110390663147,"60":-2.1604809761047363,"61":-1.070490837097168,"62":2.226820230484009,"63":1.4056230783462524,"64":-1.0397528409957886,"65":0.4344060719013214,"66":-4.3090081214904785,"67":-2.2609381675720215,"68":1.2449305057525635,"69":0.6323534250259399,"70":1.6454354524612427,"71":1.3688795566558838,"72":3.6704792976379395,"73":-3.4262535572052,"74":2.5201001167297363,"75":1.5324292182922363,"76":-0.3894604444503784,"77":0.38240930438041687,"78":-1.0203880071640015,"79":4.1071858406066895,"80":0.08979009091854095,"81":-0.049513500183820724,"82":2.887335777282715,"83":-1.3076542615890503,"84":2.739211082458496,"85":-2.35540771484375,"86":2.087899923324585,"87":-2.037773370742798,"88":-0.938881516456604,"89":-1.8252941370010376,"90":0.2957093119621277,"91":0.8029608130455017,"92":-1.6902745962142944,"93":-0.6386734843254089,"94":-2.2139110565185547,"95":-4.931583881378174,"96":4.398894309997559,"97":-0.09321660548448563,"98":1.6976126432418823,"99":-1.8906214237213135,"100":4.611178874969482,"101":-5.1375041007995605,"102":1.4545917510986328,"103":0.23554901778697968,"104":2.445706605911255,"105":-0.3826855421066284,"106":-1.4021697044372559,"107":0.15925630927085876,"108":-7.661540985107422,"109":1.6163426637649536,"110":1.6274136304855347,"111":-1.546433687210083,"112":-0.5041506290435791,"113":2.3344688415527344,"114":-0.07683491706848145,"115":-1.3851425647735596,"116":0.2730250656604767,"117":-0.11522965878248215,"118":1.6989550590515137,"119":3.9479095935821533,"120":-2.4059078693389893,"121":-0.9044622778892517,"122":2.320559024810791,"123":0.41828253865242004,"124":0.46518588066101074,"125":-2.2438745498657227,"126":0.7730951309204102,"127":-3.028127431869507,"128":-3.119152307510376,"129":-0.6648581027984619,"130":0.25787922739982605,"131":1.4869581460952759,"132":-0.08849053084850311,"133":1.7993206977844238,"134":-0.07363154739141464}},"16":{"bias":-7.471850395202637,"weights":{"0":-1.2857011556625366,"1":-1.1426308155059814,"2":0.5235220789909363,"3":-1.6409499645233154,"4":2.295149087905884,"5":0.6018160581588745,"6":2.0641028881073,"7":-2.4036643505096436,"8":-2.6135196685791016,"9":1.4290567636489868,"10":-1.0139260292053223,"11":1.648374319076538,"12":-1.0109232664108276,"13":-2.8521790504455566,"14":0.6955910921096802,"15":2.2387516498565674,"16":-2.855855941772461,"17":0.8786485195159912,"18":1.6750879287719727,"19":-0.2986358106136322,"20":4.146252155303955,"21":-4.486904144287109,"22":-0.5905719995498657,"23":-1.317421555519104,"24":-2.7852890491485596,"25":0.5264444947242737,"26":-0.4717790484428406,"27":1.4848610162734985,"28":-0.8293862342834473,"29":-1.8157958984375,"30":2.6871423721313477,"31":2.521270513534546,"32":-2.3559412956237793,"33":1.9478646516799927,"34":-3.9626240730285645,"35":0.7645273804664612,"36":3.055600881576538,"37":1.2636990547180176,"38":2.609622001647949,"39":0.16159480810165405,"40":1.57951021194458,"41":-0.49008119106292725,"42":-2.123478412628174,"43":-1.3874984979629517,"44":-1.4032447338104248,"45":0.3850366771221161,"46":-3.80259370803833,"47":-2.487919569015503,"48":-1.519507884979248,"49":-3.9679994583129883,"50":-0.35041487216949463,"51":-0.5389674305915833,"52":-0.001346857869066298,"53":0.5232011675834656,"54":6.207319736480713,"55":-0.12210714817047119,"56":-3.384025812149048,"57":-3.612001419067383,"58":1.4035093784332275,"59":0.6138778924942017,"60":-4.275644779205322,"61":-4.158270359039307,"62":5.28978967666626,"63":-0.23677755892276764,"64":0.35586538910865784,"65":-1.5957807302474976,"66":-6.719552040100098,"67":-0.5493907332420349,"68":2.33210825920105,"69":-1.3291202783584595,"70":-0.28124865889549255,"71":-2.3604683876037598,"72":-0.6241850852966309,"73":0.7569373846054077,"74":3.5258712768554688,"75":-1.140015959739685,"76":0.8291527628898621,"77":-0.9916774034500122,"78":3.1487953662872314,"79":-0.7222136855125427,"80":-0.7463039755821228,"81":9.760052680969238,"82":0.8736805319786072,"83":0.38325420022010803,"84":0.8328269720077515,"85":-4.77605676651001,"86":-5.174639701843262,"87":-2.4492149353027344,"88":-0.9894790053367615,"89":0.7660906314849854,"90":-3.4752209186553955,"91":-1.325838565826416,"92":2.1213538646698,"93":-5.388711929321289,"94":6.094645023345947,"95":-0.4727381765842438,"96":-2.6369240283966064,"97":0.06904959678649902,"98":4.140199661254883,"99":1.366706371307373,"100":1.7907347679138184,"101":-2.1640992164611816,"102":-6.087285041809082,"103":0.16330112516880035,"104":-0.9319379329681396,"105":-2.050954580307007,"106":1.7213695049285889,"107":0.11719505488872528,"108":1.2844438552856445,"109":1.0251959562301636,"110":-1.0970230102539062,"111":2.2672040462493896,"112":1.2862236499786377,"113":1.8636629581451416,"114":-2.5010740756988525,"115":0.018428834155201912,"116":1.853763222694397,"117":0.13875219225883484,"118":-0.3865950405597687,"119":-1.9805911779403687,"120":0.017280105501413345,"121":-0.19063182175159454,"122":-3.2841479778289795,"123":-0.11619684845209122,"124":-1.1528704166412354,"125":3.6714823246002197,"126":-9.01029109954834,"127":-2.2107648849487305,"128":2.5575311183929443,"129":-0.15459387004375458,"130":-0.26391109824180603,"131":-0.8362728953361511,"132":2.0072078704833984,"133":-3.360215187072754,"134":0.05851546674966812}},"17":{"bias":-3.4744644165039062,"weights":{"0":-0.3377053737640381,"1":-0.0244001392275095,"2":-0.13141760230064392,"3":-3.0280838012695312,"4":1.4314393997192383,"5":2.2594614028930664,"6":-1.5392382144927979,"7":0.3026881217956543,"8":-6.0357794761657715,"9":0.8663686513900757,"10":-0.9180303812026978,"11":-0.5164854526519775,"12":-3.067795515060425,"13":4.182805061340332,"14":-1.974164366722107,"15":-0.14012503623962402,"16":2.4365386962890625,"17":-1.4023734331130981,"18":1.6469775438308716,"19":-0.8320509791374207,"20":1.1039642095565796,"21":-1.4523578882217407,"22":1.813636064529419,"23":0.1512618362903595,"24":-0.593524694442749,"25":0.846436083316803,"26":1.0126831531524658,"27":-2.929110050201416,"28":-2.9703080654144287,"29":-0.9873253107070923,"30":-2.0193381309509277,"31":-2.4577314853668213,"32":0.02087419107556343,"33":1.250858187675476,"34":-1.5049033164978027,"35":-0.20551136136054993,"36":1.526484727859497,"37":-3.7494325637817383,"38":2.87469482421875,"39":0.2900819480419159,"40":-1.5627894401550293,"41":-4.406964302062988,"42":3.092106342315674,"43":-0.09409042447805405,"44":4.035467624664307,"45":2.022191047668457,"46":-2.394193649291992,"47":0.15620212256908417,"48":2.206826686859131,"49":3.9774010181427,"50":0.9573824405670166,"51":-0.45367762446403503,"52":2.9836950302124023,"53":-2.7724456787109375,"54":0.030367624014616013,"55":2.696338653564453,"56":-0.31584009528160095,"57":-5.241636753082275,"58":0.030783306807279587,"59":-0.6875056028366089,"60":1.3009365797042847,"61":-1.1797655820846558,"62":1.4346718788146973,"63":0.5050854682922363,"64":0.7209669351577759,"65":1.72037935256958,"66":0.35822388529777527,"67":-1.1481587886810303,"68":-0.19496583938598633,"69":0.48080095648765564,"70":-0.853508472442627,"71":-0.11874030530452728,"72":0.5333350896835327,"73":0.3774130344390869,"74":-1.946475625038147,"75":0.43990424275398254,"76":0.09627813845872879,"77":0.12637214362621307,"78":-0.07521510124206543,"79":-1.6117452383041382,"80":-0.17550265789031982,"81":-0.46021726727485657,"82":1.9925367832183838,"83":-1.7822719812393188,"84":-2.9353110790252686,"85":-1.0574983358383179,"86":-0.6806156039237976,"87":1.9116040468215942,"88":1.1708052158355713,"89":-0.8396475911140442,"90":0.6596868634223938,"91":-0.4775458574295044,"92":2.721450090408325,"93":2.526789665222168,"94":-2.2736153602600098,"95":1.5502640008926392,"96":0.9983015656471252,"97":-0.09801583737134933,"98":-1.4543241262435913,"99":0.7594022154808044,"100":-0.7385777235031128,"101":-0.572264552116394,"102":0.9484802484512329,"103":1.1358033418655396,"104":0.41818520426750183,"105":-2.375804901123047,"106":-3.153106689453125,"107":-0.06836778670549393,"108":-5.51343297958374,"109":0.8019177317619324,"110":0.11044829338788986,"111":0.6342623829841614,"112":-1.1046043634414673,"113":1.7060281038284302,"114":0.9953089952468872,"115":2.3973100185394287,"116":-2.2858726978302,"117":-0.10701664537191391,"118":-0.5129733681678772,"119":-0.6872270703315735,"120":-0.07257163524627686,"121":-1.679296612739563,"122":-1.8352206945419312,"123":1.22080397605896,"124":0.38656216859817505,"125":-1.0066012144088745,"126":4.867130756378174,"127":0.5688457489013672,"128":-0.9060227870941162,"129":0.14603452384471893,"130":0.1391715109348297,"131":0.2863083481788635,"132":-2.1576879024505615,"133":-0.40265434980392456,"134":-0.11149366199970245}},"18":{"bias":-4.021666049957275,"weights":{"0":2.083414316177368,"1":1.1945537328720093,"2":-0.062408700585365295,"3":2.697132110595703,"4":-1.1814860105514526,"5":-2.0579140186309814,"6":0.47996917366981506,"7":-3.5130856037139893,"8":-0.6123027801513672,"9":-1.4768580198287964,"10":-0.6507154703140259,"11":-1.2437140941619873,"12":-1.075384497642517,"13":3.1799118518829346,"14":-0.05584562569856644,"15":-0.5991725921630859,"16":-0.2032191902399063,"17":0.1387518048286438,"18":-0.018186205998063087,"19":0.34090864658355713,"20":1.7698075771331787,"21":1.505793571472168,"22":-4.425410270690918,"23":-0.8672900795936584,"24":-0.33799973130226135,"25":0.09158843755722046,"26":1.015586256980896,"27":-0.39000096917152405,"28":-0.40299203991889954,"29":1.4379643201828003,"30":-3.3020310401916504,"31":0.9630131125450134,"32":0.9061075448989868,"33":-1.1593005657196045,"34":-0.05380649119615555,"35":1.2852697372436523,"36":-1.011350393295288,"37":-2.315222978591919,"38":-0.5791839361190796,"39":-0.4230218827724457,"40":2.9715750217437744,"41":0.6839802861213684,"42":-0.22078977525234222,"43":-1.6350380182266235,"44":-2.924887180328369,"45":0.21974965929985046,"46":-2.413140058517456,"47":0.28573569655418396,"48":3.2300403118133545,"49":-2.951204299926758,"50":0.4647906720638275,"51":-0.2817210853099823,"52":1.6069411039352417,"53":1.1523985862731934,"54":-0.5501132011413574,"55":-0.992693305015564,"56":3.1680386066436768,"57":-2.834423780441284,"58":-2.538419246673584,"59":-0.8295959830284119,"60":0.019410615786910057,"61":-1.4719352722167969,"62":2.315725088119507,"63":-0.36917081475257874,"64":-0.3536268174648285,"65":-0.9354288578033447,"66":1.5135575532913208,"67":2.102914333343506,"68":0.18252314627170563,"69":-0.41706109046936035,"70":-0.0959632396697998,"71":1.089719295501709,"72":-0.3141571581363678,"73":0.718673586845398,"74":2.05716872215271,"75":-1.6943225860595703,"76":-0.8873543739318848,"77":-0.27116385102272034,"78":-3.7234833240509033,"79":0.08587171882390976,"80":1.2695491313934326,"81":0.0578588992357254,"82":2.046834945678711,"83":0.14773957431316376,"84":6.287395000457764,"85":2.212891101837158,"86":-0.3993704915046692,"87":-1.863985300064087,"88":-1.853729486465454,"89":-0.09852037578821182,"90":-0.07545629888772964,"91":1.733797311782837,"92":2.0859286785125732,"93":-0.15543901920318604,"94":3.146958112716675,"95":-3.5313963890075684,"96":-2.613137722015381,"97":0.006544469855725765,"98":2.0237128734588623,"99":-2.1932995319366455,"100":-1.6360770463943481,"101":-1.3660290241241455,"102":-2.4023585319519043,"103":-0.4716997444629669,"104":-0.9560381770133972,"105":-2.813584089279175,"106":-0.9579352140426636,"107":-0.0210593082010746,"108":3.1360113620758057,"109":-1.3701351881027222,"110":0.8165778517723083,"111":-2.730334758758545,"112":0.7904503345489502,"113":-1.3070012331008911,"114":-1.014491319656372,"115":-0.9822806119918823,"116":0.08723469078540802,"117":-0.1508718878030777,"118":0.192515566945076,"119":1.0453071594238281,"120":0.22274549305438995,"121":3.918363571166992,"122":-0.6535722613334656,"123":-0.5315608382225037,"124":-0.2856373190879822,"125":-1.6905570030212402,"126":3.1985905170440674,"127":-3.4737751483917236,"128":-1.890336275100708,"129":0.027268746867775917,"130":-0.3046819567680359,"131":0.6596635580062866,"132":-0.9436034560203552,"133":-1.1630865335464478,"134":-0.12013155221939087}},"19":{"bias":0.8672944903373718,"weights":{"0":0.38967302441596985,"1":-2.6440632343292236,"2":-0.764407217502594,"3":-1.5376806259155273,"4":-0.9297495484352112,"5":3.210115432739258,"6":2.3845274448394775,"7":0.26322948932647705,"8":-0.3741782009601593,"9":1.7120540142059326,"10":5.9796857833862305,"11":0.6099435091018677,"12":0.226581871509552,"13":1.0733307600021362,"14":1.1871525049209595,"15":-0.2284409999847412,"16":1.5853956937789917,"17":-3.635265827178955,"18":1.506132960319519,"19":-0.6548535823822021,"20":-0.551280677318573,"21":-4.341938495635986,"22":-1.807638168334961,"23":0.3646199107170105,"24":-0.18853476643562317,"25":0.7861559987068176,"26":-2.8697142601013184,"27":0.00798545777797699,"28":-2.3216042518615723,"29":2.385493040084839,"30":-3.8272504806518555,"31":-1.8660513162612915,"32":-2.1145215034484863,"33":-0.2314281165599823,"34":-0.19901619851589203,"35":-1.9451299905776978,"36":0.9997986555099487,"37":1.6123822927474976,"38":-0.7463506460189819,"39":-2.0478429794311523,"40":-1.0080856084823608,"41":1.6626836061477661,"42":2.028780698776245,"43":1.2406736612319946,"44":-3.5509192943573,"45":1.3379637002944946,"46":-3.4110543727874756,"47":2.401632308959961,"48":8.775753021240234,"49":0.5638473033905029,"50":1.0550786256790161,"51":-1.8243273496627808,"52":0.5347322225570679,"53":0.5720397233963013,"54":6.7415385246276855,"55":-4.20772647857666,"56":5.3621978759765625,"57":-4.044683933258057,"58":-2.4154369831085205,"59":1.9901202917099,"60":-1.4643135070800781,"61":0.9161768555641174,"62":-0.6582914590835571,"63":-0.5016034245491028,"64":3.538745880126953,"65":-0.8856585025787354,"66":-2.4136526584625244,"67":-1.863840937614441,"68":0.0074214031919837,"69":1.6637487411499023,"70":0.2048412710428238,"71":-8.503313064575195,"72":0.7594836354255676,"73":0.630935549736023,"74":1.2566120624542236,"75":2.1454007625579834,"76":2.375548839569092,"77":0.8382476568222046,"78":-1.3651505708694458,"79":2.803091049194336,"80":-1.5654301643371582,"81":3.441378593444824,"82":4.122857570648193,"83":0.1482679396867752,"84":1.1704639196395874,"85":-2.9347569942474365,"86":0.012340846471488476,"87":3.479527711868286,"88":2.6212997436523438,"89":-4.508695125579834,"90":3.3480513095855713,"91":2.3028969764709473,"92":-5.201047897338867,"93":2.405888319015503,"94":-6.3609137535095215,"95":0.2614101767539978,"96":2.835554361343384,"97":-0.11055132746696472,"98":-4.105165004730225,"99":-0.8279122710227966,"100":-1.8342726230621338,"101":0.8738188743591309,"102":-0.15481549501419067,"103":2.722163677215576,"104":-0.39189401268959045,"105":-2.884575366973877,"106":0.13009151816368103,"107":0.05928293243050575,"108":-4.427985668182373,"109":2.0262069702148438,"110":0.29451581835746765,"111":4.716743469238281,"112":-6.483681678771973,"113":1.079323172569275,"114":1.2906441688537598,"115":-4.9256062507629395,"116":-6.695702075958252,"117":0.1697099506855011,"118":3.145611524581909,"119":4.979991912841797,"120":2.07281231880188,"121":3.3517367839813232,"122":7.187886714935303,"123":4.869028568267822,"124":1.5791581869125366,"125":-6.569742202758789,"126":3.485438823699951,"127":0.6419643759727478,"128":-2.467437982559204,"129":0.15222179889678955,"130":0.7114672660827637,"131":2.2523996829986572,"132":-6.524878025054932,"133":-4.083784103393555,"134":-0.09190981090068817}},"20":{"bias":-6.395990371704102,"weights":{"0":-3.2071077823638916,"1":0.774520754814148,"2":0.9063600897789001,"3":-3.7292704582214355,"4":0.17876552045345306,"5":0.8035274147987366,"6":-1.1694679260253906,"7":3.1645290851593018,"8":-3.918386936187744,"9":-0.5297887325286865,"10":3.5825741291046143,"11":1.2479758262634277,"12":0.2863925099372864,"13":-0.01985805295407772,"14":4.108727931976318,"15":-1.2341557741165161,"16":-0.9501168131828308,"17":-1.9063469171524048,"18":0.3247036337852478,"19":0.3787045180797577,"20":2.404817581176758,"21":0.7791905403137207,"22":-3.4699862003326416,"23":0.1486523151397705,"24":-0.5600462555885315,"25":-0.15312787890434265,"26":-6.0585036277771,"27":-4.613438606262207,"28":-4.072628974914551,"29":-0.5890867114067078,"30":-0.8845272064208984,"31":3.4197580814361572,"32":-2.326371669769287,"33":-0.7932526469230652,"34":2.5572845935821533,"35":2.8597335815429688,"36":-1.7330330610275269,"37":-4.046243190765381,"38":-1.0069043636322021,"39":1.913733959197998,"40":-1.5377790927886963,"41":4.284114837646484,"42":-0.8108999729156494,"43":-0.7559173107147217,"44":-4.189408779144287,"45":-2.4600906372070312,"46":0.49003615975379944,"47":4.2746124267578125,"48":4.399479389190674,"49":0.11671452224254608,"50":-1.1352717876434326,"51":1.773002028465271,"52":-3.550623655319214,"53":2.1331796646118164,"54":-3.5227110385894775,"55":-1.5026262998580933,"56":1.5394463539123535,"57":-4.622990131378174,"58":-1.558351993560791,"59":0.7496152520179749,"60":-1.368775725364685,"61":2.673802375793457,"62":-3.144577980041504,"63":0.7704160809516907,"64":-1.2447898387908936,"65":4.468858242034912,"66":0.5092690587043762,"67":-3.612696647644043,"68":0.8241969347000122,"69":-0.4117165803909302,"70":-0.5951969623565674,"71":1.2840580940246582,"72":3.547344923019409,"73":1.0357598066329956,"74":2.462662935256958,"75":-3.968287944793701,"76":-2.0287909507751465,"77":-1.4456756114959717,"78":0.4724874198436737,"79":1.1119085550308228,"80":-0.6168203353881836,"81":-4.120996475219727,"82":-4.609425067901611,"83":2.589374303817749,"84":1.7622652053833008,"85":0.4427333176136017,"86":2.029953956604004,"87":-1.3459807634353638,"88":0.2990773320198059,"89":1.0270344018936157,"90":1.3764712810516357,"91":2.1212427616119385,"92":3.1636316776275635,"93":-4.224495887756348,"94":0.19107016921043396,"95":-1.7774094343185425,"96":-3.9077489376068115,"97":-0.1452101171016693,"98":-2.192509412765503,"99":-1.40867018699646,"100":1.7519334554672241,"101":-2.000059127807617,"102":-0.13136889040470123,"103":0.27171531319618225,"104":0.1359921097755432,"105":2.6876308917999268,"106":-0.9042519927024841,"107":0.06428875029087067,"108":7.780297756195068,"109":-0.5130501985549927,"110":-1.2764296531677246,"111":0.12583588063716888,"112":-0.43397921323776245,"113":-1.047873616218567,"114":-1.0267704725265503,"115":1.9070945978164673,"116":1.1771026849746704,"117":-0.09115990251302719,"118":-1.246203899383545,"119":-3.2515454292297363,"120":2.4531211853027344,"121":2.7850162982940674,"122":-4.285223960876465,"123":-2.178148031234741,"124":-0.38070857524871826,"125":-2.2273590564727783,"126":1.2941420078277588,"127":-0.5106323957443237,"128":-3.050046443939209,"129":-1.633970022201538,"130":-0.7257348299026489,"131":-1.248964786529541,"132":0.4224138855934143,"133":0.3708885908126831,"134":0.09661801904439926}},"21":{"bias":-6.082254409790039,"weights":{"0":0.21746782958507538,"1":4.351845741271973,"2":-2.340956449508667,"3":6.557258129119873,"4":-1.2965682744979858,"5":-1.1411049365997314,"6":-3.0380382537841797,"7":-1.8863457441329956,"8":-0.3615681827068329,"9":-1.2573044300079346,"10":-1.042046070098877,"11":-3.521958589553833,"12":3.4448416233062744,"13":4.069488048553467,"14":-0.43311724066734314,"15":-2.2117245197296143,"16":-0.9980325698852539,"17":-0.007763462141156197,"18":1.5287281274795532,"19":-3.6904213428497314,"20":-1.6574956178665161,"21":0.39118722081184387,"22":-3.0987367630004883,"23":0.5399460196495056,"24":-2.1261112689971924,"25":0.8027513027191162,"26":2.692617177963257,"27":-5.606152534484863,"28":1.217801570892334,"29":5.647197246551514,"30":0.9147498607635498,"31":-3.1090304851531982,"32":-2.1529417037963867,"33":-0.9717172384262085,"34":1.0361837148666382,"35":-2.467148542404175,"36":2.809267520904541,"37":-1.7027136087417603,"38":4.329374313354492,"39":-4.347184658050537,"40":0.9300273060798645,"41":-1.0230531692504883,"42":0.741908848285675,"43":1.0809472799301147,"44":6.26332426071167,"45":-5.871649742126465,"46":-3.076843023300171,"47":1.5268970727920532,"48":0.48749035596847534,"49":-1.0764529705047607,"50":0.037669554352760315,"51":-2.0905532836914062,"52":-1.2056059837341309,"53":1.2812645435333252,"54":-0.8378897309303284,"55":1.611924409866333,"56":-1.4508389234542847,"57":4.349499225616455,"58":-2.2057559490203857,"59":-1.9071846008300781,"60":1.1134469509124756,"61":-0.6154913306236267,"62":-4.0057053565979,"63":0.503667950630188,"64":1.4559050798416138,"65":-0.8500866889953613,"66":-0.28165775537490845,"67":6.850635528564453,"68":-1.187403917312622,"69":1.1364856958389282,"70":-2.389206886291504,"71":-1.6783262491226196,"72":-3.029066801071167,"73":3.508207082748413,"74":-2.763845443725586,"75":-0.7520513534545898,"76":0.6512719988822937,"77":0.43899497389793396,"78":-3.2804715633392334,"79":-2.524824380874634,"80":0.9607058167457581,"81":0.7182483077049255,"82":1.5432014465332031,"83":-3.8044495582580566,"84":0.41007712483406067,"85":-0.29614877700805664,"86":3.6417195796966553,"87":-0.508729100227356,"88":-3.4767088890075684,"89":0.6993032693862915,"90":-0.05077795684337616,"91":-2.3698570728302,"92":-6.909026145935059,"93":-0.5479403138160706,"94":-0.034206002950668335,"95":4.371423721313477,"96":3.307023763656616,"97":-0.031822409480810165,"98":2.560275077819824,"99":-3.4715194702148438,"100":-3.7187511920928955,"101":-0.6181627511978149,"102":1.2074170112609863,"103":1.2034375667572021,"104":1.623000144958496,"105":0.655910849571228,"106":-2.3897833824157715,"107":0.10407518595457077,"108":-5.097770690917969,"109":-2.53005313873291,"110":2.6786093711853027,"111":-2.7197258472442627,"112":1.1074298620224,"113":-2.276541233062744,"114":-0.1666361540555954,"115":0.7868213653564453,"116":1.215867042541504,"117":-0.1236153170466423,"118":2.2883639335632324,"119":-1.0080642700195312,"120":1.6944174766540527,"121":2.1743226051330566,"122":4.072761058807373,"123":1.3115947246551514,"124":0.4928867518901825,"125":-2.910411834716797,"126":-4.29635763168335,"127":-5.459039211273193,"128":3.405874252319336,"129":-1.5525025129318237,"130":0.5909920334815979,"131":0.12950633466243744,"132":1.256011962890625,"133":-2.1576573848724365,"134":-0.025694575160741806}},"22":{"bias":-2.711339235305786,"weights":{"0":0.2283109426498413,"1":-0.44954928755760193,"2":1.097560167312622,"3":-1.5212236642837524,"4":-1.080876111984253,"5":0.044705409556627274,"6":0.7171028256416321,"7":0.972529947757721,"8":1.2495251893997192,"9":-0.286725252866745,"10":-0.09719701111316681,"11":-0.20531301200389862,"12":-1.29599130153656,"13":1.500618577003479,"14":-1.6789472103118896,"15":-0.05540699511766434,"16":0.5804085731506348,"17":-0.23459447920322418,"18":-2.4081175327301025,"19":-1.4139397144317627,"20":-1.0076574087142944,"21":1.3486937284469604,"22":0.9807717800140381,"23":0.04985475540161133,"24":-0.9502649307250977,"25":-0.5634815692901611,"26":1.328984260559082,"27":-0.152071014046669,"28":-0.4061759412288666,"29":-0.36347696185112,"30":2.673825740814209,"31":-1.6122478246688843,"32":-0.39111635088920593,"33":-1.748310923576355,"34":-0.6318755149841309,"35":-0.14524468779563904,"36":0.9967024326324463,"37":0.9524677991867065,"38":0.7151972651481628,"39":1.1309584379196167,"40":-1.5944750308990479,"41":0.2599242627620697,"42":-0.8514348268508911,"43":0.37392470240592957,"44":-2.264044761657715,"45":0.7469679117202759,"46":-1.187382459640503,"47":1.4896372556686401,"48":-1.6137512922286987,"49":1.7838983535766602,"50":-0.045333560556173325,"51":-1.2871865034103394,"52":0.9435026049613953,"53":0.2770964801311493,"54":0.7141739726066589,"55":0.01266112457960844,"56":-0.13797558844089508,"57":-0.04881874844431877,"58":0.5643749833106995,"59":-0.19558210670948029,"60":-0.6651882529258728,"61":0.2060450315475464,"62":-1.734358787536621,"63":-0.12006961554288864,"64":0.10870185494422913,"65":-0.6156505346298218,"66":0.462032675743103,"67":-1.7295974493026733,"68":0.9400115013122559,"69":-0.6453249454498291,"70":0.771784782409668,"71":-0.19208283722400665,"72":1.5079916715621948,"73":0.3424994945526123,"74":-0.44728511571884155,"75":-0.5852081179618835,"76":-0.22609056532382965,"77":-0.39414453506469727,"78":0.0496695451438427,"79":-1.6995642185211182,"80":0.3831920325756073,"81":0.7609685063362122,"82":-0.27856457233428955,"83":0.11166945099830627,"84":-0.2882315218448639,"85":0.7028899788856506,"86":0.1372682750225067,"87":-0.2996608018875122,"88":0.05141906067728996,"89":1.0788459777832031,"90":-0.2021816074848175,"91":-0.03997635841369629,"92":1.3540880680084229,"93":0.8984884023666382,"94":-2.7303969860076904,"95":-1.4455214738845825,"96":-0.5453569293022156,"97":0.08259045332670212,"98":-0.7775099277496338,"99":-0.42079928517341614,"100":-0.7415088415145874,"101":-0.27032795548439026,"102":-1.1388541460037231,"103":-0.35475653409957886,"104":-0.03803103044629097,"105":-0.966292679309845,"106":1.0109230279922485,"107":0.1338169276714325,"108":-0.4190824627876282,"109":-0.4305628836154938,"110":0.34000739455223083,"111":0.9563563466072083,"112":-2.659510850906372,"113":0.11476370692253113,"114":0.07414853572845459,"115":0.09609853476285934,"116":-0.2677363157272339,"117":0.06301712989807129,"118":-0.6011110544204712,"119":2.064415216445923,"120":1.3111186027526855,"121":0.07502617686986923,"122":-2.0893149375915527,"123":0.38374507427215576,"124":-0.038914576172828674,"125":0.3222358822822571,"126":0.07067760825157166,"127":-0.2361752837896347,"128":0.17133033275604248,"129":0.21607427299022675,"130":-0.05415048077702522,"131":0.21728485822677612,"132":-1.8414915800094604,"133":-0.906853437423706,"134":0.1628796011209488}},"23":{"bias":-6.441153526306152,"weights":{"0":-2.0305755138397217,"1":2.9175546169281006,"2":-4.2902655601501465,"3":-3.186785936355591,"4":-0.9353042244911194,"5":0.2230246365070343,"6":-2.038140058517456,"7":-2.631956100463867,"8":5.606344223022461,"9":-2.18727445602417,"10":-3.7897260189056396,"11":-0.6843994855880737,"12":0.7660792469978333,"13":-0.9950867891311646,"14":1.3606563806533813,"15":-0.20102816820144653,"16":-0.4847029745578766,"17":1.9391709566116333,"18":1.9678351879119873,"19":-2.060102701187134,"20":1.4864557981491089,"21":-0.85523921251297,"22":-1.7327784299850464,"23":-0.3141224682331085,"24":4.2213897705078125,"25":0.3744964897632599,"26":-0.08776376396417618,"27":2.8286612033843994,"28":1.0192614793777466,"29":-2.254976511001587,"30":2.848379373550415,"31":2.115967035293579,"32":1.5270529985427856,"33":-1.2914080619812012,"34":-1.6109097003936768,"35":1.247446060180664,"36":-3.162868022918701,"37":0.7260587215423584,"38":-4.864795684814453,"39":2.149050235748291,"40":0.787517786026001,"41":-5.627591609954834,"42":-0.47599783539772034,"43":-0.9027426242828369,"44":-0.48919257521629333,"45":1.26544988155365,"46":1.396822214126587,"47":-2.6751017570495605,"48":1.0813206434249878,"49":-1.3370460271835327,"50":0.4459148645401001,"51":0.6161909103393555,"52":-0.268662691116333,"53":-1.782343864440918,"54":-3.9942376613616943,"55":-0.3638903796672821,"56":1.1271231174468994,"57":0.660014271736145,"58":2.0666918754577637,"59":-1.025924801826477,"60":2.3491313457489014,"61":0.42554527521133423,"62":2.3844568729400635,"63":-0.28586819767951965,"64":-1.041823387145996,"65":1.5026267766952515,"66":4.466644287109375,"67":-3.8738460540771484,"68":-2.165947437286377,"69":-1.768230676651001,"70":0.04139668866991997,"71":-2.872823476791382,"72":0.6543386578559875,"73":-2.4877724647521973,"74":-1.988033413887024,"75":-0.06829549372196198,"76":-0.07895448058843613,"77":-0.1763237863779068,"78":0.501791775226593,"79":-0.5751568078994751,"80":-0.42299020290374756,"81":-2.2005088329315186,"82":-0.18621836602687836,"83":-2.411411762237549,"84":0.8420735001564026,"85":-1.8772932291030884,"86":-4.121848106384277,"87":0.5850673913955688,"88":0.01239719521254301,"89":3.2290070056915283,"90":0.5125221014022827,"91":-1.80588960647583,"92":-2.841691732406616,"93":-4.62605094909668,"94":1.9786405563354492,"95":-3.5857319831848145,"96":-0.131729394197464,"97":-0.17669901251792908,"98":2.095811605453491,"99":2.30206298828125,"100":-0.32579392194747925,"101":-2.7690975666046143,"102":-0.1732543408870697,"103":1.8663642406463623,"104":-0.5848000645637512,"105":3.7061851024627686,"106":3.406700372695923,"107":-0.10111792385578156,"108":6.6422553062438965,"109":-0.779603898525238,"110":-0.7870842814445496,"111":1.7057098150253296,"112":1.3176963329315186,"113":-1.0487949848175049,"114":-2.184570074081421,"115":0.29071468114852905,"116":-0.9567623734474182,"117":0.050871510058641434,"118":-2.073965549468994,"119":-1.5549567937850952,"120":2.4510462284088135,"121":2.4997572898864746,"122":-2.4076056480407715,"123":-0.804000735282898,"124":-0.36944663524627686,"125":-2.0255117416381836,"126":-1.3748223781585693,"127":-1.294191598892212,"128":-0.06879038363695145,"129":-0.159730926156044,"130":-0.25384339690208435,"131":-0.35444366931915283,"132":-0.31343919038772583,"133":-2.9055676460266113,"134":-0.05444218963384628}},"24":{"bias":-5.457888126373291,"weights":{"0":-1.2456128597259521,"1":-1.120421290397644,"2":-5.781108379364014,"3":6.170094013214111,"4":1.6647255420684814,"5":1.202541708946228,"6":-2.980388641357422,"7":-2.488070487976074,"8":3.546314001083374,"9":-2.4438703060150146,"10":-2.9309237003326416,"11":3.362705707550049,"12":-1.8099969625473022,"13":-3.2504160404205322,"14":-1.6409186124801636,"15":1.0198650360107422,"16":1.7695939540863037,"17":1.5176615715026855,"18":4.725745677947998,"19":-3.0769035816192627,"20":-2.1932597160339355,"21":-1.7873561382293701,"22":-0.8054932951927185,"23":-0.8052262663841248,"24":2.2637431621551514,"25":4.090715408325195,"26":-3.2291736602783203,"27":1.800637125968933,"28":-3.2933661937713623,"29":-2.8747832775115967,"30":-0.8718538284301758,"31":0.02687963657081127,"32":-0.011643927544355392,"33":2.9605157375335693,"34":-2.2846086025238037,"35":2.2788827419281006,"36":-1.7835158109664917,"37":-1.926512598991394,"38":0.11584684997797012,"39":-2.8957130908966064,"40":-2.7261595726013184,"41":0.7227703928947449,"42":0.2518545091152191,"43":-0.45685070753097534,"44":-4.111158847808838,"45":-0.25486111640930176,"46":-3.286268711090088,"47":2.057574510574341,"48":5.0684428215026855,"49":3.521571159362793,"50":-1.0323350429534912,"51":4.529537677764893,"52":-3.200092077255249,"53":0.46503230929374695,"54":-0.663390576839447,"55":0.2869299650192261,"56":1.8324154615402222,"57":3.4234607219696045,"58":-0.54072505235672,"59":-2.1065456867218018,"60":1.1166282892227173,"61":0.7541733384132385,"62":-2.009254217147827,"63":1.1909748315811157,"64":3.4769504070281982,"65":-0.46802952885627747,"66":-5.637910842895508,"67":-0.22121331095695496,"68":-2.471794843673706,"69":-1.7355294227600098,"70":-0.16278551518917084,"71":-1.451958417892456,"72":5.277487277984619,"73":-1.7650372982025146,"74":-1.4532759189605713,"75":-2.872800827026367,"76":-1.3716999292373657,"77":-0.2860140800476074,"78":-1.4664890766143799,"79":4.181872367858887,"80":0.08701897412538528,"81":4.157110214233398,"82":-1.3808584213256836,"83":0.9592979550361633,"84":1.038401484489441,"85":-0.8230494260787964,"86":-2.9654741287231445,"87":0.5853252410888672,"88":-1.4923443794250488,"89":-0.9776513576507568,"90":0.897198498249054,"91":-1.4147638082504272,"92":-1.4067250490188599,"93":-2.266092538833618,"94":-0.0648670420050621,"95":-3.847247362136841,"96":-2.0744781494140625,"97":0.18072019517421722,"98":3.7980291843414307,"99":1.9429165124893188,"100":-0.7133157849311829,"101":0.18265947699546814,"102":-1.4190953969955444,"103":0.14597178995609283,"104":0.09167494624853134,"105":-2.152339458465576,"106":2.9418904781341553,"107":-0.1803436130285263,"108":5.490228652954102,"109":0.48334991931915283,"110":-0.6471930742263794,"111":-1.5984495878219604,"112":-1.0220304727554321,"113":0.23061813414096832,"114":-0.6672782301902771,"115":4.076015472412109,"116":-1.6341943740844727,"117":0.18558230996131897,"118":-0.3918786942958832,"119":-0.5419191718101501,"120":-5.358586311340332,"121":-5.191244602203369,"122":-1.3804289102554321,"123":-0.582852303981781,"124":-0.02275719866156578,"125":3.2018320560455322,"126":2.4117398262023926,"127":0.21956349909305573,"128":-2.2632386684417725,"129":-0.27909478545188904,"130":-0.18579024076461792,"131":-0.5286403894424438,"132":-1.8214162588119507,"133":1.9584122896194458,"134":-0.11068373173475266}},"25":{"bias":-4.563055992126465,"weights":{"0":-5.821834564208984,"1":-3.0958175659179688,"2":0.6804331541061401,"3":1.7212697267532349,"4":-4.0350236892700195,"5":-2.554527521133423,"6":-0.6867005228996277,"7":0.5584150552749634,"8":-2.2987821102142334,"9":3.457120656967163,"10":0.6665271520614624,"11":4.689687728881836,"12":0.8727285265922546,"13":0.6670554280281067,"14":0.5006387829780579,"15":-0.4689705967903137,"16":0.4142536222934723,"17":-2.9669029712677,"18":0.6948153376579285,"19":0.772956907749176,"20":-1.890271544456482,"21":-1.1123042106628418,"22":-0.8460624814033508,"23":-0.3616921603679657,"24":-0.3165501356124878,"25":-1.5245119333267212,"26":5.95817232131958,"27":-1.6845871210098267,"28":0.5436777472496033,"29":-0.5245184302330017,"30":0.9540043473243713,"31":1.6894257068634033,"32":-1.571628212928772,"33":-1.1026512384414673,"34":0.031098410487174988,"35":-4.812797546386719,"36":0.007569639943540096,"37":0.21804654598236084,"38":-2.0599677562713623,"39":1.7824585437774658,"40":-2.3823535442352295,"41":-1.8647898435592651,"42":1.4285480976104736,"43":0.22712954878807068,"44":3.2391717433929443,"45":1.1419366598129272,"46":2.5469720363616943,"47":1.1080020666122437,"48":-2.0944340229034424,"49":2.5637459754943848,"50":-0.4039832353591919,"51":-3.3461170196533203,"52":-0.3542567193508148,"53":-0.044801756739616394,"54":-2.534160852432251,"55":-0.15513229370117188,"56":1.2503808736801147,"57":0.21998009085655212,"58":-0.439079225063324,"59":0.04016334190964699,"60":-1.7509000301361084,"61":1.3740792274475098,"62":-4.788561820983887,"63":-0.5167158842086792,"64":2.7537503242492676,"65":1.0445506572723389,"66":1.8640836477279663,"67":-4.315627574920654,"68":-1.1963764429092407,"69":-0.8419206142425537,"70":-0.0032944411505013704,"71":1.7064085006713867,"72":2.3263349533081055,"73":-0.04993068426847458,"74":-1.0514756441116333,"75":-1.5790207386016846,"76":-0.29652413725852966,"77":-0.2809830904006958,"78":-1.2482322454452515,"79":3.370785713195801,"80":-1.3314721584320068,"81":-1.5266435146331787,"82":2.102749824523926,"83":0.14378315210342407,"84":-3.194164752960205,"85":1.2841166257858276,"86":0.7912193536758423,"87":2.714942216873169,"88":-1.2116268873214722,"89":1.0428528785705566,"90":-0.8590855598449707,"91":1.5652387142181396,"92":-4.539740562438965,"93":-2.1494832038879395,"94":-3.6706042289733887,"95":-2.1429028511047363,"96":0.03265949338674545,"97":0.03386221453547478,"98":-2.2620601654052734,"99":1.0890666246414185,"100":1.7635098695755005,"101":2.1522610187530518,"102":0.10482621192932129,"103":-1.0982468128204346,"104":-0.08842641115188599,"105":1.491987943649292,"106":1.6998188495635986,"107":0.037790924310684204,"108":-1.4606244564056396,"109":1.8917690515518188,"110":-1.0716769695281982,"111":4.882665157318115,"112":-4.2539777755737305,"113":0.8297290802001953,"114":1.8303216695785522,"115":-0.21049028635025024,"116":-0.9711564779281616,"117":0.020724790170788765,"118":-0.13801242411136627,"119":-1.9386968612670898,"120":-2.853257656097412,"121":-1.2991265058517456,"122":-2.1312599182128906,"123":-0.4718010127544403,"124":-0.6977257132530212,"125":-1.3810019493103027,"126":2.280165910720825,"127":-0.6425251364707947,"128":-0.45789864659309387,"129":0.17659719288349152,"130":-0.193759486079216,"131":-0.13348841667175293,"132":0.19326283037662506,"133":3.331299066543579,"134":-0.07864556461572647}},"26":{"bias":-5.981457233428955,"weights":{"0":0.06606128811836243,"1":-3.1512069702148438,"2":0.522987961769104,"3":-2.2959349155426025,"4":-4.065011024475098,"5":1.1411263942718506,"6":3.348480463027954,"7":1.3766624927520752,"8":1.6032748222351074,"9":-5.0569963455200195,"10":0.7159637212753296,"11":0.008326477371156216,"12":-0.08593974262475967,"13":-2.1397085189819336,"14":-0.7237891554832458,"15":-0.40000173449516296,"16":-1.636639952659607,"17":-0.1715405434370041,"18":-2.698636054992676,"19":2.675121545791626,"20":1.616262435913086,"21":0.053187474608421326,"22":1.677314043045044,"23":-0.2980744540691376,"24":2.440633535385132,"25":-1.93170964717865,"26":-0.18794381618499756,"27":-0.4575268030166626,"28":0.624806821346283,"29":-3.2673611640930176,"30":1.0683681964874268,"31":-1.821453332901001,"32":-1.582018494606018,"33":1.5010284185409546,"34":-0.08112815767526627,"35":1.271762728691101,"36":-6.4187798500061035,"37":-1.9406676292419434,"38":1.6684041023254395,"39":-0.9717063903808594,"40":1.1384763717651367,"41":-3.102046251296997,"42":-1.307570457458496,"43":-0.1511877328157425,"44":5.972902774810791,"45":-0.9959270358085632,"46":-0.25432807207107544,"47":1.5110702514648438,"48":3.2973275184631348,"49":0.06164492666721344,"50":-0.4995616376399994,"51":1.2806789875030518,"52":-3.3663601875305176,"53":0.6193750500679016,"54":3.590625524520874,"55":-0.9612814784049988,"56":0.6683133840560913,"57":-0.2279699742794037,"58":-6.02500057220459,"59":-0.1140904650092125,"60":2.9236559867858887,"61":-0.0019524602685123682,"62":0.02380264177918434,"63":-0.4914366602897644,"64":0.7599704265594482,"65":-2.3720016479492188,"66":1.948909044265747,"67":-4.38926887512207,"68":1.6717116832733154,"69":-0.10970354825258255,"70":-0.3619539737701416,"71":-2.2553601264953613,"72":0.584316611289978,"73":1.9289000034332275,"74":-2.8433773517608643,"75":-1.1215324401855469,"76":-0.854092001914978,"77":-0.32690486311912537,"78":0.7894067764282227,"79":1.3942224979400635,"80":-0.12922842800617218,"81":1.943427562713623,"82":3.3438563346862793,"83":1.3589786291122437,"84":-0.4719986617565155,"85":-0.09194114059209824,"86":-2.5405969619750977,"87":-1.7800315618515015,"88":0.6183269023895264,"89":0.17423976957798004,"90":0.3306434750556946,"91":-4.298806190490723,"92":-1.7110233306884766,"93":5.748111724853516,"94":-6.200244903564453,"95":-0.7146235108375549,"96":-0.9072782397270203,"97":-0.0969645231962204,"98":-3.506437063217163,"99":0.5029375553131104,"100":7.552146911621094,"101":-5.044752597808838,"102":2.5418155193328857,"103":-2.4229323863983154,"104":1.0851755142211914,"105":-0.9254909157752991,"106":-1.0635297298431396,"107":-0.1754816323518753,"108":2.6528546810150146,"109":0.24952693283557892,"110":-1.7127439975738525,"111":-1.3157848119735718,"112":2.044461488723755,"113":-1.8328520059585571,"114":0.36951693892478943,"115":-0.6819676160812378,"116":-0.40482455492019653,"117":-0.09327556937932968,"118":-1.6134096384048462,"119":0.4461050033569336,"120":-0.2033890038728714,"121":-1.0345935821533203,"122":-2.7487547397613525,"123":-0.2708446681499481,"124":-1.0189095735549927,"125":-0.9502384066581726,"126":1.4498053789138794,"127":2.9923365116119385,"128":-0.6988683938980103,"129":-0.38766559958457947,"130":-0.35706356167793274,"131":-0.8119802474975586,"132":0.14601251482963562,"133":-0.870107889175415,"134":-0.008028745651245117}},"27":{"bias":-1.946842074394226,"weights":{"0":1.0035902261734009,"1":0.14298683404922485,"2":-0.0010313948150724173,"3":-0.3577900528907776,"4":1.448876976966858,"5":-1.4914034605026245,"6":1.0517771244049072,"7":-1.0229638814926147,"8":0.6521320343017578,"9":-1.542180061340332,"10":1.0455117225646973,"11":-2.173952579498291,"12":-1.1570996046066284,"13":-3.442762851715088,"14":-0.6479834318161011,"15":0.3148091733455658,"16":0.05697324126958847,"17":2.1161410808563232,"18":0.6056956648826599,"19":1.3589704036712646,"20":-1.820907711982727,"21":-0.8375411629676819,"22":0.057789914309978485,"23":-0.09617490321397781,"24":0.4681166112422943,"25":2.098937511444092,"26":0.2150944173336029,"27":0.2838994562625885,"28":-1.7158981561660767,"29":-1.5256049633026123,"30":-2.1358485221862793,"31":-1.287473440170288,"32":-1.7506916522979736,"33":-0.040694817900657654,"34":-0.34547895193099976,"35":0.8662014007568359,"36":2.3501768112182617,"37":3.0098958015441895,"38":0.1141233965754509,"39":-3.4880359172821045,"40":0.42468395829200745,"41":3.545316219329834,"42":0.561662495136261,"43":1.6559507846832275,"44":-2.112715005874634,"45":-0.9224539995193481,"46":-0.8102879524230957,"47":-0.6332895159721375,"48":0.7698718905448914,"49":1.130969762802124,"50":-1.127529263496399,"51":-0.4648987650871277,"52":-1.5006921291351318,"53":3.3622071743011475,"54":0.9431073665618896,"55":-0.8763055801391602,"56":-0.24226948618888855,"57":-2.390336275100708,"58":1.0431662797927856,"59":-1.4422242641448975,"60":0.5974655151367188,"61":-0.6386921405792236,"62":-2.350262403488159,"63":-1.0475059747695923,"64":2.1519482135772705,"65":-2.358754873275757,"66":1.2168816328048706,"67":-1.5176777839660645,"68":3.256375789642334,"69":-0.511103630065918,"70":1.6016629934310913,"71":-2.129812240600586,"72":-2.8907763957977295,"73":2.2960901260375977,"74":1.7271926403045654,"75":-0.26848530769348145,"76":-0.20238658785820007,"77":0.3494392931461334,"78":2.7424652576446533,"79":-0.3987979590892792,"80":-0.37995386123657227,"81":-1.1592400074005127,"82":1.4462913274765015,"83":3.090618371963501,"84":-0.9764776825904846,"85":-1.2941970825195312,"86":-2.2299156188964844,"87":-1.2521851062774658,"88":1.50982666015625,"89":1.8117798566818237,"90":-0.5138881802558899,"91":6.249176502227783,"92":-2.387768268585205,"93":-1.041987657546997,"94":-2.0171597003936768,"95":0.6618728041648865,"96":3.435657501220703,"97":-0.10594526678323746,"98":0.7428057193756104,"99":-0.5860635042190552,"100":-3.3126349449157715,"101":-1.7788869142532349,"102":-1.740906000137329,"103":-1.0717732906341553,"104":0.4007759988307953,"105":0.2252139151096344,"106":-0.4973660707473755,"107":-0.045303817838430405,"108":-1.599592924118042,"109":-0.42225882411003113,"110":-0.27291983366012573,"111":-0.9157174229621887,"112":-0.03559938073158264,"113":1.155954360961914,"114":0.7665420174598694,"115":1.003262996673584,"116":-0.6604794859886169,"117":0.005459627602249384,"118":-0.887048602104187,"119":1.184455156326294,"120":-1.172633171081543,"121":-1.3979109525680542,"122":-0.42907601594924927,"123":-0.04007260128855705,"124":-0.23420433700084686,"125":-0.8299846053123474,"126":1.9432952404022217,"127":1.1752619743347168,"128":0.4581136405467987,"129":-0.2820681035518646,"130":-0.40361449122428894,"131":-0.0486171618103981,"132":-1.1187852621078491,"133":0.8873924612998962,"134":0.1235843077301979}},"28":{"bias":-4.319551944732666,"weights":{"0":-1.7547796964645386,"1":-0.2788698673248291,"2":-1.076712965965271,"3":-0.9455809593200684,"4":3.0937294960021973,"5":-1.4164621829986572,"6":1.4384548664093018,"7":0.4804057478904724,"8":0.9389968514442444,"9":4.128074645996094,"10":-0.26692312955856323,"11":-1.4873709678649902,"12":-0.7142245769500732,"13":0.09029403328895569,"14":-2.2281148433685303,"15":0.12259409576654434,"16":0.6318247318267822,"17":-0.19576464593410492,"18":-0.2616279423236847,"19":-2.352761745452881,"20":-1.9945340156555176,"21":-0.02593274973332882,"22":-0.32531166076660156,"23":0.07300759106874466,"24":-1.4567147493362427,"25":0.8488593697547913,"26":0.9294136762619019,"27":-0.49524012207984924,"28":0.12796127796173096,"29":0.11944857984781265,"30":-0.050801172852516174,"31":-4.455211162567139,"32":-0.4158821702003479,"33":2.073246955871582,"34":1.750030279159546,"35":-0.24964867532253265,"36":0.5011494159698486,"37":2.4597268104553223,"38":-2.6624867916107178,"39":-2.4888079166412354,"40":0.25212863087654114,"41":-1.3383601903915405,"42":1.141599178314209,"43":-0.26948273181915283,"44":-3.0825231075286865,"45":1.965437889099121,"46":-1.3453248739242554,"47":-3.2434375286102295,"48":-3.108755111694336,"49":4.133546352386475,"50":-0.17749406397342682,"51":-0.18235370516777039,"52":1.9907498359680176,"53":2.085324287414551,"54":-0.2109408974647522,"55":-0.2806522846221924,"56":-2.7231686115264893,"57":1.0826983451843262,"58":1.7789191007614136,"59":-0.2997507154941559,"60":-2.360637664794922,"61":-0.7140741944313049,"62":-5.939098358154297,"63":-0.18189504742622375,"64":-0.16838982701301575,"65":-1.6019163131713867,"66":-1.2746055126190186,"67":-1.8001394271850586,"68":-0.16309754550457,"69":-0.29105082154273987,"70":1.9142537117004395,"71":-0.07544887065887451,"72":3.2794435024261475,"73":0.5076728463172913,"74":2.172902822494507,"75":-1.4684027433395386,"76":0.024366650730371475,"77":-0.4866895377635956,"78":0.32061296701431274,"79":3.578397035598755,"80":1.3054848909378052,"81":0.7059581875801086,"82":2.386810302734375,"83":0.22732460498809814,"84":0.26655974984169006,"85":-4.085449695587158,"86":0.1761302500963211,"87":-0.05828515812754631,"88":0.6844325661659241,"89":1.504728078842163,"90":-1.8771941661834717,"91":-2.8503329753875732,"92":-2.607461452484131,"93":-0.28719547390937805,"94":-0.4494372308254242,"95":0.5523515343666077,"96":0.02056470513343811,"97":0.13069337606430054,"98":-3.096618890762329,"99":0.5266600251197815,"100":3.373990058898926,"101":0.09521342068910599,"102":1.3780381679534912,"103":-1.741197943687439,"104":0.6017558574676514,"105":-0.05278453603386879,"106":0.5105966329574585,"107":0.15704233944416046,"108":2.6059842109680176,"109":-0.8671676516532898,"110":-0.5243034958839417,"111":4.327671051025391,"112":-1.2957059144973755,"113":-1.2191472053527832,"114":1.5961768627166748,"115":-0.9465773105621338,"116":-0.6798144578933716,"117":0.17441558837890625,"118":-1.4158457517623901,"119":-0.9508008360862732,"120":-1.852843165397644,"121":-3.063293695449829,"122":-2.0408995151519775,"123":0.03952039033174515,"124":-0.18689943850040436,"125":-2.5518884658813477,"126":0.3137200176715851,"127":1.094251275062561,"128":-0.3157902956008911,"129":1.2412363290786743,"130":-0.10440433770418167,"131":1.050998330116272,"132":-0.16634850203990936,"133":1.1032626628875732,"134":-0.1253170669078827}},"29":{"bias":-3.4630818367004395,"weights":{"0":-0.1653922200202942,"1":-1.3756217956542969,"2":1.4209129810333252,"3":-1.2041443586349487,"4":-0.5671199560165405,"5":-0.5105500221252441,"6":-0.8939021229743958,"7":0.4441819190979004,"8":0.5735514760017395,"9":2.5927698612213135,"10":-0.49569395184516907,"11":-3.3674890995025635,"12":-1.3973592519760132,"13":0.8985466957092285,"14":-0.0722535103559494,"15":0.3933604955673218,"16":0.0038996858056634665,"17":-0.11125898361206055,"18":0.9055654406547546,"19":1.4465019702911377,"20":-0.47286441922187805,"21":-1.9213494062423706,"22":0.5653966665267944,"23":-0.05893976241350174,"24":0.6413099765777588,"25":-1.0346864461898804,"26":0.27642321586608887,"27":-2.6547136306762695,"28":-1.9796621799468994,"29":0.8142651915550232,"30":-0.6167787909507751,"31":2.6738808155059814,"32":-1.2696038484573364,"33":0.3424355983734131,"34":-0.24608686566352844,"35":-0.6436840295791626,"36":-1.4095052480697632,"37":0.9864704012870789,"38":-1.9556710720062256,"39":1.7007858753204346,"40":0.5951434373855591,"41":-0.9262689352035522,"42":1.312502384185791,"43":-0.08987075835466385,"44":-1.1458030939102173,"45":2.556658983230591,"46":0.31927353143692017,"47":0.030940044671297073,